{"gen": [{"score": 4, "functions": ["board_score", "board_tower5", "board_tower4", "board_tower3", "board_tower2", "board_tower1", "board_tower5_negative", "board_tower4_negative", "board_tower3_negative", "board_tower2_negative", "board_tower1_negative", "board_isolated_tower5", "board_isolated_tower4", "board_isolated_tower3", "board_isolated_tower2", "board_isolated_tower1", "board_isolated_tower5_negative", "board_isolated_tower4_negative", "board_isolated_tower3_negative", "board_isolated_tower2_negative", "board_isolated_tower1_negative", "board_towers_links_1_1", "board_towers_links_1_2", "board_towers_links_1_3", "board_towers_links_1_4", "board_towers_links_2_2", "board_towers_links_2_3", "board_towers_links_1_1_negative", "board_towers_links_1_2_negative", "board_towers_links_1_3_negative", "board_towers_links_1_4_negative", "board_towers_links_2_2_negative", "board_towers_links_2_3_negative", "board_towers_links_1_1_different", "board_towers_links_1_2_different", "board_towers_links_1_3_different", "board_towers_links_1_4_different", "board_towers_links_2_2_different", "board_towers_links_2_3_different"], "core": {"name": "", "score": 0, "weights": [[[1.0624943857868945, -1.517690632398939, 0.4513820680129087, 0.37952433341358255, -0.025363667357440386, 0.18392382227419118, 0.9347318563032625, -0.7534289971022099, 1.1894389475148233, -1.786528922015189], [0.7772815706312899, -0.02972236973316596, 1.0874909551161305, -0.91746360221042, -1.21208930536896, 0.9901259321270385, 0.851680247781607, 0.6145940189671762, -0.47046555532228207, 1.3558295463641588], [-1.971399033998608, 0.5310781881791335, 1.5494328709259173, -1.2599980537780353, 0.11599655013751678, -0.1573715761513885, 0.6967014184117741, -1.0763650596615628, -0.0792831759666222, -1.2650322192239107], [2.0230531802504035, 0.8023033438897698, 0.7513568481571418, 3.068596739542039, -0.3239576971675319, -2.0829759905749374, -1.0429318730893598, 1.7142688854504102, -0.1846780093832308, 0.7407303437954945], [-1.3660522153456336, 0.593496651115556, -0.7167937592200508, 0.5681461587077611, 0.2754452507035384, 0.34822878412948904, -1.110661206271766, 0.3092550568401906, -0.9438188416760275, 0.9447371229436472], [1.2268296923010926, 0.3153823042514608, 0.18444473750942683, -0.06865309510989777, -1.2095772635517892, 1.2362048535961032, -1.0815048435097732, -0.8038021291289553, -0.6713822584946613, 0.7437663676560412], [-0.4257624664037498, 0.5654538437468222, 0.45672520439985176, -1.123032929530779, 0.05428174314203134, 0.959768944232683, -0.09944127357129405, 0.030542145820583188, -0.875250750312632, -1.8123021363549379], [-1.3913320251693457, -0.7007895381895201, -0.02442300689312202, 1.1114169083063772, -1.1432728562968448, -0.3335832596482428, -0.8326167550013196, 2.158251482562776, -0.8886551058717251, -0.04984756987999375], [-0.6963357873549026, 1.1627125568320111, -0.813292329689246, 0.22240941029899094, 0.09898746565048626, -0.5554741670779095, 0.2722922059186405, -1.0731907675363892, -1.5852584808437011, 0.07055933274430064], [-0.4031318252230237, 0.9513254172955928, 1.2623379535357264, 0.43282782673233716, -0.5983670795068212, 1.191708983699233, -0.1676588937668434, -0.37607377089123123, 0.39542187796571227, -0.12980100488406315], [-0.10373550067807619, 2.5865138181842213, -0.20740710729926393, -0.5611447630269953, -0.12338105501588269, -0.08354360601531956, 0.368518020510954, 2.1280204068854274, -0.10125360461814405, 0.15544182681816987], [-0.6122499566624224, 1.382173804148645, 1.2937913114503525, 0.3418788059035146, -1.2513014184566782, -0.7674129341476137, 1.3143999514746643, 0.798733041498179, 1.1519614670097054, -1.1119121908876124], [-0.031082159266044924, -0.16773817425564602, 1.693714928114666, -1.1088849490078703, -0.5046394640548268, 1.4331834178331733, 0.03256132569582365, -0.04069412631230672, -0.08715437413841029, -0.6989238004906964], [0.13650618113947668, 0.2980262398635525, 0.5326781684357657, 0.48272548237414603, 0.2177053019582792, -0.868691247695857, -0.7668846549149269, -1.4969630806372762, -0.05453805544713583, 1.3317361038374573], [0.18668051283216555, 0.3638295178189013, -0.0529652423678942, -0.9292928818716379, 0.28831443172882476, 0.14905349864108194, 0.9240819568841785, -1.4583921940889013, 0.02049965754772341, 0.4750556522303415], [-0.8221360449348875, -0.8407082939026989, 0.24633021266878338, 1.9393330281877639, 0.4150318071367211, 0.5561765055498139, -2.0398527584985966, -0.7580639945356171, -1.2657931498381325, 0.9117197088801235], [0.6357924685386298, 0.736878758363542, 0.805663954506271, -1.5304027857505182, 0.47831510741417965, 1.2914594180061583, -0.929581678753889, 0.4591295645695389, 0.36108781778139987, -0.6698280579609042], [0.7128700844682301, 0.5534690891670493, 0.9343360898313314, -0.2051685461384654, -1.7954612941996422, 0.8558266028977387, 1.8131297221222653, 0.8120983569805671, -0.8163517969774295, 0.7700653859976461], [-1.947984935898172, -0.6754633248480372, 1.3084018487790618, -0.15108506097384655, -0.23342233554092354, 0.026856401940935835, 0.6973919080088378, -0.8581296899935185, 0.9443130887653277, 0.6908063740473976], [-0.8125867888944074, 2.5177225990198053, 1.1049958019801494, 0.3826202973488224, 0.22936060494529012, 0.007291929224899122, 2.2758826440404616, -1.2388775876715465, 0.15489552509786855, -0.05868266970633865], [0.20989499068624143, -0.8676749055799704, -2.5552920522206994, -0.9460657233126138, -0.519261867792286, -0.15387235268566, -0.2309504619950571, -0.7272090106236963, -0.1802534485657673, -1.590051870001764], [0.5277455461350171, 0.2600294691633375, 0.3875028117220957, 0.2485245461429218, 2.1416969792926865, 0.9792448309805105, 0.5143864102047536, -0.6737708155504447, -0.9795974193384354, -1.1837563598659], [-0.6946550515114039, -0.16830291155056193, 0.062410961324042113, 0.35049853148010524, -0.8046402819341059, 0.3264253379176883, -0.23985117284253696, 0.28151404789395257, 1.6108344661103013, -0.017373904457586787], [-0.7395789885507695, -0.29029388603728296, -0.17674688778764602, -1.7593747291575492, -0.5319869172525789, 0.9360989162607047, 2.2667243028665256, -0.580826629676708, -0.5693833730426646, -0.025754660131856254], [-0.37092496808942566, 1.307379150240437, 0.03585289141802196, 0.4560158387823162, 0.37950475090763836, 0.44134638166345885, 1.2125576170022716, -0.5062467689130868, -0.28724494828688607, -0.8451272103226166], [0.48262803611745486, -0.033317962182362285, 1.4171105647326308, 0.89211284255992, -0.4099255512434042, -0.3792300268846857, -0.8937399151307662, 0.4135018164016876, 0.2985489311201533, 1.012547382910568], [1.0693550168725285, -1.342960518908509, 0.7229816841236605, 0.31846024276117935, -0.7790355727973053, 0.04779952764002244, -0.13803957740418232, -0.7574531311079072, 0.9745683719314242, -0.33356994133391027], [-1.1736774017427607, -0.3458178397436156, 0.5812598312663134, -0.9857661891847038, 1.7810417872870072, 0.40591218597169176, 1.4788467805438401, 0.2800561743162159, -0.7473157473908155, 1.7047532201556228], [-0.6263193348686314, -0.07407212715561265, -0.09542341054401078, 0.44245206441345186, 2.3048702601056483, 0.4236136807573378, -0.5256752663282195, 0.08692170164704527, 0.29541425015216205, -1.5225503890490193], [0.2019438690181736, 0.5805326664828834, 0.9476241091082119, -0.4327385325635315, -0.8291120287320977, 0.21350784166171635, 0.7130584778645637, 0.08700615165671838, 0.07924879963640709, 0.040971446995768865], [-1.6402168697756856, -0.4117812078842105, -0.603026757739949, 1.4146197777744975, 1.9781243883711748, -0.9951420483292448, -0.03450675263217826, -0.16385245742755356, 1.395289809928243, -1.825338291669607], [1.7848382649067138, 0.7698880148062142, 1.2087772077369814, -0.09860958380592372, 0.46848457691711365, 0.11092096444881215, 0.8563338844610915, -0.015649334036386915, -1.651522963049641, -0.0035405875443349994], [-0.1979913440403332, -0.4887388877331585, 0.007694201120182103, 1.9798735477020886, -0.4900072441674226, 0.27024532734359596, -0.8936576018730904, -0.3922764015021298, 1.4484804147186943, -0.31471074432280843], [0.687289296823374, -1.151757495411451, 1.9861552532495839, 0.5054548808393666, -2.1572137124166324, -1.52132794905354, -0.112470375792795, -0.16327049276458996, 0.5319166911850337, 0.3945494785253073], [0.7062610063803264, -0.24937328916628962, -1.5459036839345839, -2.513783526305578, 1.5342681696095302, -1.8078355384872138, -0.8337720752851002, 0.5636084686232574, 0.7642859889669419, -1.1881259397617283], [0.4157468547821317, 0.03493365893824741, -0.44903781746232924, 1.5745489446785577, -0.29469714577923894, 2.1839633248581145, 0.8014520152077141, 0.5808326935662427, 1.4217285435208467, -1.570429078844507], [-0.9963779643792925, -0.9640775714262545, 2.0326949541516046, -0.8583242908310027, 0.5525801445683464, -0.20726991407409595, 0.993336479989705, -0.023922111319261165, -0.26147629319509264, 0.8551938660646484], [-1.5065506572290894, -0.03152950432464629, 0.7795747000373191, 1.6750747761658045, 0.6928897975512858, 0.5564789575291741, -0.11832348646564853, 1.0461229315313612, 0.4404049979012421, 1.2906464298876372], [1.067080979226939, 1.660345037766879, -0.5462892330231736, 0.2011506298799878, 1.6858065821160693, -0.759342445217867, 0.226008551450101, 0.04609071929753378, 1.0413175948013493, -2.799226134131859]], [[-0.6394817482950896], [-0.046247078858361074], [0.22314928401798195], [0.5296562546764326], [-3.454163416436115], [1.2725175284094423], [1.5929416336545565], [0.33165045748501426], [0.47446802841577523], [0.9343867396031742]]], "biases": [[[-0.05660009167697545], [1.0788522068983009], [0.26095187694529015], [-1.1456421265570387], [-1.046464997673032], [-0.45004107662017806], [0.08167257901070725], [0.6877443199547151], [1.2143986726961467], [-0.04082320418464366]], [[-0.20386717236009871]]], "layers": [39, 10, 1]}}, {"score": 1, "functions": ["board_score", "board_tower5", "board_tower4", "board_tower3", "board_tower2", "board_tower1", "board_tower5_negative", "board_tower4_negative", "board_tower3_negative", "board_tower2_negative", "board_tower1_negative", "board_isolated_tower5", "board_isolated_tower4", "board_isolated_tower3", "board_isolated_tower2", "board_isolated_tower1", "board_isolated_tower5_negative", "board_isolated_tower4_negative", "board_isolated_tower3_negative", "board_isolated_tower2_negative", "board_isolated_tower1_negative", "board_towers_links_1_1", "board_towers_links_1_2", "board_towers_links_1_3", "board_towers_links_1_4", "board_towers_links_2_2", "board_towers_links_2_3", "board_towers_links_1_1_negative", "board_towers_links_1_2_negative", "board_towers_links_1_3_negative", "board_towers_links_1_4_negative", "board_towers_links_2_2_negative", "board_towers_links_2_3_negative", "board_towers_links_1_1_different", "board_towers_links_1_2_different", "board_towers_links_1_3_different", "board_towers_links_1_4_different", "board_towers_links_2_2_different", "board_towers_links_2_3_different"], "core": {"name": "", "score": 1, "weights": [[[1.0624943857868945, -1.517690632398939, 0.4513820680129087, 0.37952433341358255, -0.025363667357440386, 0.18392382227419118, 0.9347318563032625, -0.7534289971022099, 1.1894389475148233, -1.786528922015189], [0.7772815706312899, -0.02972236973316596, 1.0874909551161305, -0.91746360221042, -1.21208930536896, 0.9901259321270385, 0.851680247781607, 0.6145940189671762, -0.47046555532228207, 1.3558295463641588], [-1.971399033998608, 0.5310781881791335, 1.5494328709259173, -1.2599980537780353, 0.11599655013751678, -0.1573715761513885, 0.6967014184117741, -1.0763650596615628, -0.0792831759666222, -1.2650322192239107], [2.0230531802504035, 0.8023033438897698, 0.7513568481571418, 3.068596739542039, -0.3239576971675319, -2.0829759905749374, -1.0429318730893598, 1.7142688854504102, -0.1846780093832308, 0.7407303437954945], [-1.3660522153456336, 0.593496651115556, -0.7167937592200508, 0.5681461587077611, 0.2754452507035384, 0.34822878412948904, -1.110661206271766, 0.3092550568401906, -0.9438188416760275, 0.9447371229436472], [1.2268296923010926, 0.3153823042514608, 0.18444473750942683, -0.06865309510989777, -1.2095772635517892, 1.2362048535961032, -1.0815048435097732, -0.8038021291289553, -0.6713822584946613, 0.7437663676560412], [-0.4257624664037498, 0.5654538437468222, 0.45672520439985176, -1.123032929530779, 0.05428174314203134, 0.959768944232683, -0.09944127357129405, 0.030542145820583188, -0.875250750312632, -1.8123021363549379], [-1.3913320251693457, -0.7007895381895201, -0.02442300689312202, 1.1114169083063772, -1.1432728562968448, -0.3335832596482428, -0.8326167550013196, 2.158251482562776, -0.8886551058717251, -0.04984756987999375], [-0.6963357873549026, 1.1627125568320111, -0.813292329689246, 0.22240941029899094, 0.09898746565048626, -0.5554741670779095, 0.2722922059186405, -1.0731907675363892, -1.5852584808437011, 0.07055933274430064], [-0.4031318252230237, 0.9513254172955928, 1.2623379535357264, 0.43282782673233716, -0.5983670795068212, 1.191708983699233, -0.1676588937668434, -0.37607377089123123, 0.39542187796571227, -0.12980100488406315], [-0.10373550067807619, 2.5865138181842213, -0.20740710729926393, -0.5611447630269953, -0.12338105501588269, -0.08354360601531956, 0.368518020510954, 2.1280204068854274, -0.10125360461814405, 0.15544182681816987], [-0.6122499566624224, 1.382173804148645, 1.2937913114503525, 0.3418788059035146, -1.2513014184566782, -0.7674129341476137, 1.3143999514746643, 0.798733041498179, 1.1519614670097054, -1.1119121908876124], [-0.031082159266044924, -0.16773817425564602, 1.693714928114666, -1.1088849490078703, -0.5046394640548268, 1.4331834178331733, 0.03256132569582365, -0.04069412631230672, -0.08715437413841029, -0.6989238004906964], [0.13650618113947668, 0.2980262398635525, 0.5326781684357657, 0.48272548237414603, 0.2177053019582792, -0.868691247695857, -0.7668846549149269, -1.4969630806372762, -0.05453805544713583, 1.3317361038374573], [0.18668051283216555, 0.3638295178189013, -0.0529652423678942, -0.9292928818716379, 0.28831443172882476, 0.14905349864108194, 0.9240819568841785, -1.4583921940889013, 0.02049965754772341, 0.4750556522303415], [-0.8221360449348875, -0.8407082939026989, 0.24633021266878338, 1.9393330281877639, 0.4150318071367211, 0.5561765055498139, -2.0398527584985966, -0.7580639945356171, -1.2657931498381325, 0.9117197088801235], [0.6357924685386298, 0.736878758363542, 0.805663954506271, -1.5304027857505182, 0.47831510741417965, 1.2914594180061583, -0.929581678753889, 0.4591295645695389, 0.36108781778139987, -0.6698280579609042], [0.7128700844682301, 0.5534690891670493, 0.9343360898313314, -0.2051685461384654, -1.7954612941996422, 0.8558266028977387, 1.8131297221222653, 0.8120983569805671, -0.8163517969774295, 0.7700653859976461], [-1.947984935898172, -0.6754633248480372, 1.3084018487790618, -0.15108506097384655, -0.23342233554092354, 0.026856401940935835, 0.6973919080088378, -0.8581296899935185, 0.9443130887653277, 0.6908063740473976], [-0.8125867888944074, 2.5177225990198053, 1.1049958019801494, 0.3826202973488224, 0.22936060494529012, 0.007291929224899122, 2.2758826440404616, -1.2388775876715465, 0.15489552509786855, -0.05868266970633865], [0.20989499068624143, -0.8676749055799704, -2.5552920522206994, -0.9460657233126138, -0.519261867792286, -0.15387235268566, -0.2309504619950571, -0.7272090106236963, -0.1802534485657673, -1.590051870001764], [0.5277455461350171, 0.2600294691633375, 0.3875028117220957, 0.2485245461429218, 2.1416969792926865, 0.9792448309805105, 0.5143864102047536, -0.6737708155504447, -0.9795974193384354, -1.1837563598659], [-0.6946550515114039, -0.16830291155056193, 0.062410961324042113, 0.35049853148010524, -0.8046402819341059, 0.3264253379176883, -0.23985117284253696, 0.28151404789395257, 1.6108344661103013, -0.017373904457586787], [-0.7395789885507695, -0.29029388603728296, -0.17674688778764602, -1.7593747291575492, -0.5319869172525789, 0.9360989162607047, 2.2667243028665256, -0.580826629676708, -0.5693833730426646, -0.025754660131856254], [-0.37092496808942566, 1.307379150240437, 0.03585289141802196, 0.4560158387823162, 0.37950475090763836, 0.44134638166345885, 1.2125576170022716, -0.5062467689130868, -0.28724494828688607, -0.8451272103226166], [0.48262803611745486, -0.033317962182362285, 1.4171105647326308, 0.89211284255992, -0.4099255512434042, -0.3792300268846857, -0.8937399151307662, 0.4135018164016876, 0.2985489311201533, 1.012547382910568], [1.0693550168725285, -1.342960518908509, 0.7229816841236605, 0.31846024276117935, -0.7790355727973053, 0.04779952764002244, -0.13803957740418232, -0.7574531311079072, 0.9745683719314242, -0.33356994133391027], [-1.1736774017427607, -0.3458178397436156, 0.5812598312663134, -0.9857661891847038, 1.7810417872870072, 0.40591218597169176, 1.4788467805438401, 0.2800561743162159, -0.7473157473908155, 1.7047532201556228], [-0.6263193348686314, -0.07407212715561265, -0.09542341054401078, 0.44245206441345186, 2.3048702601056483, 0.4236136807573378, -0.5256752663282195, 0.08692170164704527, 0.29541425015216205, -1.5225503890490193], [0.2019438690181736, 0.5805326664828834, 0.9476241091082119, -0.4327385325635315, -0.8291120287320977, 0.21350784166171635, 0.7130584778645637, 0.08700615165671838, 0.07924879963640709, 0.040971446995768865], [-1.6402168697756856, -0.4117812078842105, -0.603026757739949, 1.4146197777744975, 1.9781243883711748, -0.9951420483292448, -0.03450675263217826, -0.16385245742755356, 1.395289809928243, -1.825338291669607], [1.7848382649067138, 0.7698880148062142, 1.2087772077369814, -0.09860958380592372, 0.46848457691711365, 0.11092096444881215, 0.8563338844610915, -0.015649334036386915, -1.651522963049641, -0.0035405875443349994], [-0.1979913440403332, -0.4887388877331585, 0.007694201120182103, 1.9798735477020886, -0.4900072441674226, 0.27024532734359596, -0.8936576018730904, -0.3922764015021298, 1.4484804147186943, -0.31471074432280843], [0.687289296823374, -1.151757495411451, 1.9861552532495839, 0.5054548808393666, -2.1572137124166324, -1.52132794905354, -0.112470375792795, -0.16327049276458996, 0.5319166911850337, 0.3945494785253073], [0.7062610063803264, -0.24937328916628962, -1.5459036839345839, -2.513783526305578, 1.5342681696095302, -1.8078355384872138, -0.8337720752851002, 0.5636084686232574, 0.7642859889669419, -1.1881259397617283], [0.4157468547821317, 0.03493365893824741, -0.44903781746232924, 1.5745489446785577, -0.29469714577923894, 2.1839633248581145, 0.8014520152077141, 0.5808326935662427, 1.4217285435208467, -1.570429078844507], [-0.9963779643792925, -0.9640775714262545, 2.0326949541516046, -0.8583242908310027, 0.5525801445683464, -0.20726991407409595, 0.993336479989705, -0.023922111319261165, -0.26147629319509264, 0.8551938660646484], [-1.5065506572290894, -0.03152950432464629, 0.7795747000373191, 1.6750747761658045, 0.6928897975512858, 0.5564789575291741, -0.11832348646564853, 1.0461229315313612, 0.4404049979012421, 1.2906464298876372], [1.067080979226939, 1.660345037766879, -0.5462892330231736, 0.2011506298799878, 1.6858065821160693, -0.759342445217867, 0.226008551450101, 0.04609071929753378, 1.0413175948013493, -2.799226134131859]], [[-0.6394817482950896], [-0.046247078858361074], [0.22314928401798195], [0.5296562546764326], [-3.454163416436115], [1.2725175284094423], [1.5929416336545565], [0.33165045748501426], [0.47446802841577523], [0.9343867396031742]]], "biases": [[[-0.05660009167697545], [1.0788522068983009], [0.26095187694529015], [-1.1456421265570387], [-1.046464997673032], [-0.45004107662017806], [0.08167257901070725], [0.6877443199547151], [1.2143986726961467], [-0.04082320418464366]], [[-0.20386717236009871]]], "layers": [39, 10, 1]}}, {"score": 0, "functions": ["board_score", "board_tower5", "board_tower4", "board_tower3", "board_tower2", "board_tower1", "board_tower5_negative", "board_tower4_negative", "board_tower3_negative", "board_tower2_negative", "board_tower1_negative", "board_isolated_tower5", "board_isolated_tower4", "board_isolated_tower3", "board_isolated_tower2", "board_isolated_tower1", "board_isolated_tower5_negative", "board_isolated_tower4_negative", "board_isolated_tower3_negative", "board_isolated_tower2_negative", "board_isolated_tower1_negative", "board_towers_links_1_1", "board_towers_links_1_2", "board_towers_links_1_3", "board_towers_links_1_4", "board_towers_links_2_2", "board_towers_links_2_3", "board_towers_links_1_1_negative", "board_towers_links_1_2_negative", "board_towers_links_1_3_negative", "board_towers_links_1_4_negative", "board_towers_links_2_2_negative", "board_towers_links_2_3_negative", "board_towers_links_1_1_different", "board_towers_links_1_2_different", "board_towers_links_1_3_different", "board_towers_links_1_4_different", "board_towers_links_2_2_different", "board_towers_links_2_3_different"], "core": {"name": "", "score": 2, "weights": [[[-0.4056866522773683, -1.2426505467828315, 0.14935974824929782, 2.4911379267641434, 0.1769242775629731, 0.6927326144907165, 0.5607833977763269, 0.490396995763252, -0.1755599595525599, 1.4084930794597583], [-0.4323443252214998, -1.2236485440633766, -1.0041059890886412, 0.39257354953938545, -1.0833737156924745, 0.5242984106387351, -0.012017326929549097, 0.2971334557700031, 0.10742116859889725, -1.8945792611095023], [1.7226068825741698, -1.6301700929128147, 1.4719316154056719, -0.8881023258978209, -1.3147711213833648, 0.19624940199737417, 0.830269010469584, 1.842838051332222, -0.07417221149293816, -1.1909708593579476], [-0.23677957997788124, 1.2435537504910472, -0.2853481903886864, 0.24385858290922627, 0.36335240495398696, -0.8847869557155693, 0.499673715396008, 0.17362111328605875, 1.4614265598814034, 0.07614390636760839], [0.9306871640104311, -1.4092434619363117, 0.3757146905454623, 1.0606655655226194, -0.8675019202481368, 0.060309258189414384, -0.23391289487192027, -0.7905554752804451, 0.7626165890698049, -0.009464348199565539], [0.4493320191359474, -1.2677880234152181, -1.5834855700769115, 0.42212651561313125, 0.4629028834713363, 1.388068651632117, 0.6433677219366727, -1.2520770475131304, 2.8076602150199275, 1.6055516783381336], [-0.45256605637565356, 0.3218550982792801, 0.1412165854448508, 1.2037765499616138, 0.9135859533438215, 0.022773764959330912, 0.7961478489759934, 0.3582329347835118, -2.0363288360163714, -0.7094906692224736], [-1.172194889829608, -1.102475190929037, -1.451419154457764, 0.07446119743197507, 1.4537811743355342, -0.2895983859242089, 0.625437673072146, 0.6736576288343548, 0.1461136211993213, 1.5185713412471644], [-0.7705363095320924, -0.6768676916558484, -0.44545848668550025, -1.0018847426221467, -0.030484329007785086, 2.7409079758892396, -1.0936547527683291, 0.19430645546439787, 0.014651877574476693, -1.3051869738522999], [-0.8013927843305391, 2.032358896734601, -1.4642617412617351, 1.7317575865260544, -0.11968668812026988, -1.5170185876453302, -0.23646569626600195, 0.8188913137121776, 0.916870860261816, -0.31737804529332553], [0.37246033377485027, 0.17870535261877996, -1.6693275492187467, -0.9190644304612259, 0.09362889526177223, 0.9522937193409068, 1.3215791860829347, -2.4101348192222574, 0.9734367601241759, 0.6776486141237157], [0.4710179519432989, 0.776929168868544, -1.508303643746351, 0.823932438008718, 1.011176733044114, 0.06854954313303016, 0.26758908185920677, 0.5087252354225307, -0.36193933326145944, -0.018186249791554324], [-0.5797453448961701, -1.7314501920971839, -0.5921216117606299, -1.038115213157728, 0.027331417182171965, -0.09755242941170922, 0.6460330719426477, -0.503170775527729, 0.09339865447764684, -0.6616668156376846], [-1.4884850890791197, 0.7411012558813332, 0.36327978717255216, 0.8761128695469025, 0.19332565336549062, -0.6280803749312576, 0.9684568877943275, -0.5465655457010983, -0.973049421908809, -0.8595499608532381], [1.1571162892554807, -0.8956792986263782, -0.5317639190233027, 0.5918426560855504, 1.1634994871234123, 1.7338025725644128, 0.16524419920527775, 0.4506706663504855, 0.8824137334098561, 0.28478234486836224], [-0.8829510831050302, 2.1784243239803343, 0.4755837956820225, -0.6805267443476699, -0.00189499697378113, -1.8557501056393921, -1.619645567563919, 0.8292857331166602, 0.06290765813026047, -1.014354356660501], [1.193927070647585, -1.6301230147040606, 1.101695028331352, -1.4442224213593762, 0.31264014372121796, 0.40598999451763434, -1.535674067958904, 2.8055053707138713, 1.626581502894179, 0.4604511702820396], [0.30480273913687767, -0.1444135601259835, 0.8461136427607324, -1.1630972494463383, 0.043712231356654384, -1.7100302289384546, 0.6248458626349105, -0.6888229178843011, 1.086729619808371, -0.3203647793788157], [1.1460863821139295, -0.47304742684458057, 0.4703393396178302, 0.29901170268707283, 0.8083381051980482, 0.06424571630869526, -0.27486497829318873, 0.37659233938916875, 0.8266802727122079, 0.6678676558867767], [0.7967394159773317, -0.770203649576726, -1.4064949022268087, -0.29184497996441583, -0.4650189397353972, 0.9913966595182697, -0.037051794723477506, -0.6173706764985049, 2.1474613658967967, -0.6301404492816169], [0.895155258584863, 0.25037684250770503, 1.3797594215072735, -0.7239910278699498, -2.1230939922369085, -0.2747473143670993, -0.14492219294433648, 0.42991182012341855, -1.6669662867281063, -0.7822162142235872], [0.11026800686646976, -0.23870487384399686, 0.07602246193341682, 0.37777275596682786, 0.09385648065650963, 0.25941275131497016, 0.9689323730596064, 0.4781438857462871, 0.029076478759685487, -0.08002032171337092], [-0.6773265338100817, -0.7664924223734572, 0.4709901523163116, -0.3107356159483248, -1.3055233332957117, 0.6387568598433688, 0.33772306107163474, 1.7709685890021816, -0.6560754516375249, -0.35171268623392876], [1.1236058082786347, -1.96954459946081, -0.2569308398608907, 0.37077335927622246, 1.521631959795717, 0.4549786939724238, -0.6241588383850181, -0.949215121580483, -1.5936754555291044, 0.5005466673022959], [0.36606101910686256, 1.7291670474932206, 0.8057552631927927, 0.9197394307162747, -2.264953523103029, 0.9089327463888108, 0.3095115915868392, -0.4625012054598786, 1.0772334175158766, 0.22994527089874037], [-0.05970566725629078, 0.6629186050519298, 0.6702018224495649, -2.0921481955902794, -0.4273903125812504, 0.0009921106790821664, 2.0012996135454424, -1.371403193833444, 0.6546915499724428, -0.5260236078878555], [1.09554675101503, -1.8506678579624352, -0.1651949008455154, 1.3185417180089278, -1.2052511481014967, 0.5103938273748722, 1.0410856684275653, 1.3199063936177706, -0.6555080889589795, -1.6309965257354353], [0.010355440892029555, 1.4257784278101497, 0.40644427234294, -1.1144964872064442, -0.45494748218550995, 0.23780704066055053, -0.5286660109457937, -1.0917321087662972, -0.9500498689271104, 0.9203410579833657], [0.7537255814663828, 0.6262047545242894, -0.015960714174658254, -0.017449807493624774, -1.0151076324209716, 0.37682802506526386, -0.03722395864233642, 0.28731584579427816, -0.41106116897099026, 0.581995730417516], [-2.499780905562007, -0.37330641834003453, 0.2461401139074059, -0.5602229315507247, 0.4348599252641997, -1.8081538545472051, 0.9244412981614152, -1.0581229464168906, 0.16692390222473355, 0.9986082370864441], [0.12344173548154434, -0.6826501359870774, -0.5726421764281361, 1.0500658609677442, -0.4517118042419781, -0.7540387299519743, -0.558077943200001, -0.5211369054078109, -0.31992306350187677, 0.7178580021934675], [-0.7685551792806091, -1.2149982205696241, 2.1334941787302406, -0.8447526665290288, 1.8773067701779753, -0.25244966157014603, 1.8098075776620417, 1.2450066913092483, -1.2286945846335442, -1.1178102919103923], [-1.8088603138012405, 1.538639621404086, -1.591184605043438, -0.8377481573286165, -1.5409327123464558, 0.027563937293861224, -0.2998239159973649, 1.2814793009433911, 2.039593221381815, 0.4054297372114778], [0.49798651562515195, 0.9439473631661262, -2.1268885283981662, -0.3918809922771686, -0.005161551134621406, 0.49576033997604924, -1.570914622728099, 1.5814281221307396, 0.32138031417271273, 2.3700323410445563], [-0.521855502301093, -0.19827868136943508, 0.8283466184149938, 0.05312211643893069, 0.2347257712433678, -1.4286265508885256, 1.3113530051101068, 0.3967009685580358, 0.9585473326022798, 1.7973082394769557], [-0.7000471456063269, 0.09513861904793693, 0.20432524699137894, -0.35546879283787275, 0.6765872086460044, -0.9849346733105002, 0.9947885960094763, 1.1735139668877002, 0.8348649917090439, -1.0051582298258424], [-1.6864213495010956, 0.6096386189577921, -0.25323198832176624, 0.5807350527043282, -0.1711955815993926, -1.0992027172855132, -0.16623513958245276, -1.0084465142075139, 0.6742532208798268, 0.5811367501260162], [0.19607862219067454, 0.09169332949328335, 0.4592457878046868, 2.956254384656547, 0.38690351171472304, 0.562875111186128, -0.3062167297214953, 1.901082590213105, -1.230805872653122, 0.794919575828586], [-2.1261228004733193, -1.4720263665900983, -0.9008352692021883, 0.3976603316435001, 0.14244841057716515, -0.9171562401935245, -0.8589627907816545, -1.3655428334271926, -0.7325857514491505, 0.6475226215447571]], [[0.5473208745334972], [-0.3738703500864033], [-0.03154465852933601], [0.9775159231460675], [0.3949671061702908], [-0.8582556054895911], [1.386164869711323], [1.3430169684176165], [-0.8165649104862905], [-1.0399100658491327]]], "biases": [[[1.0218960492386204], [-1.2738114693349898], [-0.12761274123196603], [-0.5260488232647487], [-0.30338911437005117], [-0.17358991824953213], [1.1760122402785758], [-1.5582299666550188], [-0.20781507421709977], [0.5320620327025227]], [[-1.0665110730928846]]], "layers": [39, 10, 1]}}, {"score": 0, "functions": ["board_score", "board_tower5", "board_tower4", "board_tower3", "board_tower2", "board_tower1", "board_tower5_negative", "board_tower4_negative", "board_tower3_negative", "board_tower2_negative", "board_tower1_negative", "board_isolated_tower5", "board_isolated_tower4", "board_isolated_tower3", "board_isolated_tower2", "board_isolated_tower1", "board_isolated_tower5_negative", "board_isolated_tower4_negative", "board_isolated_tower3_negative", "board_isolated_tower2_negative", "board_isolated_tower1_negative", "board_towers_links_1_1", "board_towers_links_1_2", "board_towers_links_1_3", "board_towers_links_1_4", "board_towers_links_2_2", "board_towers_links_2_3", "board_towers_links_1_1_negative", "board_towers_links_1_2_negative", "board_towers_links_1_3_negative", "board_towers_links_1_4_negative", "board_towers_links_2_2_negative", "board_towers_links_2_3_negative", "board_towers_links_1_1_different", "board_towers_links_1_2_different", "board_towers_links_1_3_different", "board_towers_links_1_4_different", "board_towers_links_2_2_different", "board_towers_links_2_3_different"], "core": {"name": "", "score": 3, "weights": [[[-0.4056866522773683, -1.2426505467828315, 0.14935974824929782, 2.4911379267641434, 0.1769242775629731, 0.6927326144907165, 0.5607833977763269, 0.490396995763252, -0.1755599595525599, 1.4084930794597583], [-0.4323443252214998, -1.2236485440633766, -1.0041059890886412, 0.39257354953938545, -1.0833737156924745, 0.5242984106387351, -0.012017326929549097, 0.2971334557700031, 0.10742116859889725, -1.8945792611095023], [1.7226068825741698, -1.6301700929128147, 1.4719316154056719, -0.8881023258978209, -1.3147711213833648, 0.19624940199737417, 0.830269010469584, 1.842838051332222, -0.07417221149293816, -1.1909708593579476], [-0.23677957997788124, 1.2435537504910472, -0.2853481903886864, 0.24385858290922627, 0.36335240495398696, -0.8847869557155693, 0.499673715396008, 0.17362111328605875, 1.4614265598814034, 0.07614390636760839], [0.9306871640104311, -1.4092434619363117, 0.3757146905454623, 1.0606655655226194, -0.8675019202481368, 0.060309258189414384, -0.23391289487192027, -0.7905554752804451, 0.7626165890698049, -0.009464348199565539], [0.4493320191359474, -1.2677880234152181, -1.5834855700769115, 0.42212651561313125, 0.4629028834713363, 1.388068651632117, 0.6433677219366727, -1.2520770475131304, 2.8076602150199275, 1.6055516783381336], [-0.45256605637565356, 0.3218550982792801, 0.1412165854448508, 1.2037765499616138, 0.9135859533438215, 0.022773764959330912, 0.7961478489759934, 0.3582329347835118, -2.0363288360163714, -0.7094906692224736], [-1.172194889829608, -1.102475190929037, -1.451419154457764, 0.07446119743197507, 1.4537811743355342, -0.2895983859242089, 0.625437673072146, 0.6736576288343548, 0.1461136211993213, 1.5185713412471644], [-0.7705363095320924, -0.6768676916558484, -0.44545848668550025, -1.0018847426221467, -0.030484329007785086, 2.7409079758892396, -1.0936547527683291, 0.19430645546439787, 0.014651877574476693, -1.3051869738522999], [-0.8013927843305391, 2.032358896734601, -1.4642617412617351, 1.7317575865260544, -0.11968668812026988, -1.5170185876453302, -0.23646569626600195, 0.8188913137121776, 0.916870860261816, -0.31737804529332553], [0.37246033377485027, 0.17870535261877996, -1.6693275492187467, -0.9190644304612259, 0.09362889526177223, 0.9522937193409068, 1.3215791860829347, -2.4101348192222574, 0.9734367601241759, 0.6776486141237157], [0.4710179519432989, 0.776929168868544, -1.508303643746351, 0.823932438008718, 1.011176733044114, 0.06854954313303016, 0.26758908185920677, 0.5087252354225307, -0.36193933326145944, -0.018186249791554324], [-0.5797453448961701, -1.7314501920971839, -0.5921216117606299, -1.038115213157728, 0.027331417182171965, -0.09755242941170922, 0.6460330719426477, -0.503170775527729, 0.09339865447764684, -0.6616668156376846], [-1.4884850890791197, 0.7411012558813332, 0.36327978717255216, 0.8761128695469025, 0.19332565336549062, -0.6280803749312576, 0.9684568877943275, -0.5465655457010983, -0.973049421908809, -0.8595499608532381], [1.1571162892554807, -0.8956792986263782, -0.5317639190233027, 0.5918426560855504, 1.1634994871234123, 1.7338025725644128, 0.16524419920527775, 0.4506706663504855, 0.8824137334098561, 0.28478234486836224], [-0.8829510831050302, 2.1784243239803343, 0.4755837956820225, -0.6805267443476699, -0.00189499697378113, -1.8557501056393921, -1.619645567563919, 0.8292857331166602, 0.06290765813026047, -1.014354356660501], [1.193927070647585, -1.6301230147040606, 1.101695028331352, -1.4442224213593762, 0.31264014372121796, 0.40598999451763434, -1.535674067958904, 2.8055053707138713, 1.626581502894179, 0.4604511702820396], [0.30480273913687767, -0.1444135601259835, 0.8461136427607324, -1.1630972494463383, 0.043712231356654384, -1.7100302289384546, 0.6248458626349105, -0.6888229178843011, 1.086729619808371, -0.3203647793788157], [1.1460863821139295, -0.47304742684458057, 0.4703393396178302, 0.29901170268707283, 0.8083381051980482, 0.06424571630869526, -0.27486497829318873, 0.37659233938916875, 0.8266802727122079, 0.6678676558867767], [0.7967394159773317, -0.770203649576726, -1.4064949022268087, -0.29184497996441583, -0.4650189397353972, 0.9913966595182697, -0.037051794723477506, -0.6173706764985049, 2.1474613658967967, -0.6301404492816169], [0.895155258584863, 0.25037684250770503, 1.3797594215072735, -0.7239910278699498, -2.1230939922369085, -0.2747473143670993, -0.14492219294433648, 0.42991182012341855, -1.6669662867281063, -0.7822162142235872], [0.11026800686646976, -0.23870487384399686, 0.07602246193341682, 0.37777275596682786, 0.09385648065650963, 0.25941275131497016, 0.9689323730596064, 0.4781438857462871, 0.029076478759685487, -0.08002032171337092], [-0.6773265338100817, -0.7664924223734572, 0.4709901523163116, -0.3107356159483248, -1.3055233332957117, 0.6387568598433688, 0.33772306107163474, 1.7709685890021816, -0.6560754516375249, -0.35171268623392876], [1.1236058082786347, -1.96954459946081, -0.2569308398608907, 0.37077335927622246, 1.521631959795717, 0.4549786939724238, -0.6241588383850181, -0.949215121580483, -1.5936754555291044, 0.5005466673022959], [0.36606101910686256, 1.7291670474932206, 0.8057552631927927, 0.9197394307162747, -2.264953523103029, 0.9089327463888108, 0.3095115915868392, -0.4625012054598786, 1.0772334175158766, 0.22994527089874037], [-0.05970566725629078, 0.6629186050519298, 0.6702018224495649, -2.0921481955902794, -0.4273903125812504, 0.0009921106790821664, 2.0012996135454424, -1.371403193833444, 0.6546915499724428, -0.5260236078878555], [1.09554675101503, -1.8506678579624352, -0.1651949008455154, 1.3185417180089278, -1.2052511481014967, 0.5103938273748722, 1.0410856684275653, 1.3199063936177706, -0.6555080889589795, -1.6309965257354353], [0.010355440892029555, 1.4257784278101497, 0.40644427234294, -1.1144964872064442, -0.45494748218550995, 0.23780704066055053, -0.5286660109457937, -1.0917321087662972, -0.9500498689271104, 0.9203410579833657], [0.7537255814663828, 0.6262047545242894, -0.015960714174658254, -0.017449807493624774, -1.0151076324209716, 0.37682802506526386, -0.03722395864233642, 0.28731584579427816, -0.41106116897099026, 0.581995730417516], [-2.499780905562007, -0.37330641834003453, 0.2461401139074059, -0.5602229315507247, 0.4348599252641997, -1.8081538545472051, 0.9244412981614152, -1.0581229464168906, 0.16692390222473355, 0.9986082370864441], [0.12344173548154434, -0.6826501359870774, -0.5726421764281361, 1.0500658609677442, -0.4517118042419781, -0.7540387299519743, -0.558077943200001, -0.5211369054078109, -0.31992306350187677, 0.7178580021934675], [-0.7685551792806091, -1.2149982205696241, 2.1334941787302406, -0.8447526665290288, 1.8773067701779753, -0.25244966157014603, 1.8098075776620417, 1.2450066913092483, -1.2286945846335442, -1.1178102919103923], [-1.8088603138012405, 1.538639621404086, -1.591184605043438, -0.8377481573286165, -1.5409327123464558, 0.027563937293861224, -0.2998239159973649, 1.2814793009433911, 2.039593221381815, 0.4054297372114778], [0.49798651562515195, 0.9439473631661262, -2.1268885283981662, -0.3918809922771686, -0.005161551134621406, 0.49576033997604924, -1.570914622728099, 1.5814281221307396, 0.32138031417271273, 2.3700323410445563], [-0.521855502301093, -0.19827868136943508, 0.8283466184149938, 0.05312211643893069, 0.2347257712433678, -1.4286265508885256, 1.3113530051101068, 0.3967009685580358, 0.9585473326022798, 1.7973082394769557], [-0.7000471456063269, 0.09513861904793693, 0.20432524699137894, -0.35546879283787275, 0.6765872086460044, -0.9849346733105002, 0.9947885960094763, 1.1735139668877002, 0.8348649917090439, -1.0051582298258424], [-1.6864213495010956, 0.6096386189577921, -0.25323198832176624, 0.5807350527043282, -0.1711955815993926, -1.0992027172855132, -0.16623513958245276, -1.0084465142075139, 0.6742532208798268, 0.5811367501260162], [0.19607862219067454, 0.09169332949328335, 0.4592457878046868, 2.956254384656547, 0.38690351171472304, 0.562875111186128, -0.3062167297214953, 1.901082590213105, -1.230805872653122, 0.794919575828586], [-2.1261228004733193, -1.4720263665900983, -0.9008352692021883, 0.3976603316435001, 0.14244841057716515, -0.9171562401935245, -0.8589627907816545, -1.3655428334271926, -0.7325857514491505, 0.6475226215447571]], [[0.5473208745334972], [-0.3738703500864033], [-0.03154465852933601], [0.9775159231460675], [0.3949671061702908], [-0.8582556054895911], [1.386164869711323], [1.3430169684176165], [-0.8165649104862905], [-1.0399100658491327]]], "biases": [[[1.0218960492386204], [-1.2738114693349898], [-0.12761274123196603], [-0.5260488232647487], [-0.30338911437005117], [-0.17358991824953213], [1.1760122402785758], [-1.5582299666550188], [-0.20781507421709977], [0.5320620327025227]], [[-1.0665110730928846]]], "layers": [39, 10, 1]}}, {"score": 1, "functions": ["board_score", "board_tower5", "board_tower4", "board_tower3", "board_tower2", "board_tower1", "board_tower5_negative", "board_tower4_negative", "board_tower3_negative", "board_tower2_negative", "board_tower1_negative", "board_isolated_tower5", "board_isolated_tower4", "board_isolated_tower3", "board_isolated_tower2", "board_isolated_tower1", "board_isolated_tower5_negative", "board_isolated_tower4_negative", "board_isolated_tower3_negative", "board_isolated_tower2_negative", "board_isolated_tower1_negative", "board_towers_links_1_1", "board_towers_links_1_2", "board_towers_links_1_3", "board_towers_links_1_4", "board_towers_links_2_2", "board_towers_links_2_3", "board_towers_links_1_1_negative", "board_towers_links_1_2_negative", "board_towers_links_1_3_negative", "board_towers_links_1_4_negative", "board_towers_links_2_2_negative", "board_towers_links_2_3_negative", "board_towers_links_1_1_different", "board_towers_links_1_2_different", "board_towers_links_1_3_different", "board_towers_links_1_4_different", "board_towers_links_2_2_different", "board_towers_links_2_3_different"], "core": {"name": "", "score": 4, "weights": [[[1.4959578195380436, 0.4951357729432165, -1.6499539162081744, -1.358751574496265, -0.2870923474540512, 0.5187119454030319, 0.5546991771528764, 1.1506835120193994, 0.07165965182580135, -0.4029018506626686], [0.26632254164431474, -2.5002752752972333, -0.6318663567915719, -0.9687034685234996, -0.4391929495102389, -1.8116464010681441, -0.24340110037387147, -1.2270653052809644, -2.379326677673003, 0.6269180873514879], [-0.1841024101844476, 1.0611158194379993, -0.12440988925525599, 0.8063180545413806, 0.12321089873019736, -0.2880113826882175, 0.7307434054178598, -1.3779982277291072, -1.0787543378722937, -0.03460184090666223], [-0.024365377779773965, -0.9026823388309226, 1.7243905692657773, 0.47949758014247135, -1.29926730992473, 0.28312811328373605, 1.719976623927791, -0.2593564069233037, -0.646442521137763, -1.3922676328800003], [1.532157741925026, 1.490303905403551, 0.688623110364086, -0.4165574150974555, -1.0711885299303185, -0.47041264828481394, -0.5667992096057864, -0.4393957276054812, 2.01936160020177, 1.5211686853077533], [0.3376027215487354, 1.4335606167052362, -0.8552850248238243, 0.668363538332504, -0.7732255796434785, -2.9693529620163908, -1.3004237204080649, 0.3461061983544344, 0.9058739605418257, 1.4828001827499804], [-0.8324062434107832, 0.8477353489521137, -1.1461053809285873, -0.4155468774496078, 1.1235726943062663, -0.34061884629468825, 0.2497892278879069, -0.20276660178215267, 0.20883346191596852, 0.3545229891003227], [0.6962662673982117, 1.2154975780674568, -1.2560518094355608, 0.8993331948613381, -0.25481666000779013, 0.5712334980828273, 1.3141034454424316, 1.4325564485154465, -1.1513461963549187, 0.33967639318945986], [0.7628855689592909, -0.7450221452716538, 0.14992828772804553, 1.247066905292223, -0.09523657371417735, 0.7155844584088282, 1.2837516852781325, 0.4107269185644062, 0.06834452434446506, 0.8473685536444147], [0.01699083125391615, 0.8167241774357652, -0.15886976396497712, 0.11768832802427741, -1.3844409384064043, 0.45799819237212025, 0.591878456007662, 0.6099214498595885, 2.040716036217293, -1.0696511229731576], [1.6135236032066753, -1.643892412008497, -1.1178356241960818, -1.0171688224032103, -0.5544227251421272, -0.23335067557307068, 1.8044382715706748, -1.1788863792487767, -1.2890674923397771, 0.1808286485257754], [-0.9494772695115489, 0.24719320700694714, -0.9201439320769321, 0.8173749935507788, 1.3836589018902503, 1.1873583054713956, -2.3875723757054486, -0.9747845236732924, 1.0220200654069393, -1.9603645040181583], [1.4586736345575049, -0.43609758580150965, -0.22278119932659293, -0.6834207353523569, 0.8112055220459805, 1.400845055108489, 0.6547858506358127, 0.7827063236501854, -0.9050360902338623, 1.4548096923611216], [-0.017708931153267934, 1.4515752357541556, -0.5156024615014783, 1.9765286418123056, 1.229945968297925, -0.5463871580881348, 1.2927136829442127, -2.175474024745253, 0.30449970077365796, -0.8310736279181272], [-0.4731539813382899, -0.7764030304329401, 0.34521400074151276, 0.9199812121764674, -1.6915030691049706, 0.40603082761336434, 1.4368148461736239, 0.10535092268775982, 1.4259143782981831, 0.5378317796955406], [1.0008725737752406, 0.43147630797305875, -0.06638438394635972, 1.738258354627697, 1.1052291058529207, -0.4158078212093802, 1.3171560149401498, 1.03316164477239, -2.1515324073629873, 1.054923669304686], [0.46335977568747516, 0.5929453734142979, -0.08626254193947996, 0.9311733408057522, -1.6830918837249462, -0.5138897851750134, -1.8550687156870806, 0.5946641033588655, 0.6944536967611264, 1.1107206154570974], [-1.915276529854666, -0.15547259238156416, -0.7849753608630087, 0.942334095980026, -0.22892614832342473, 0.6720194479457295, 0.5761815898632768, -0.34561125041608637, 0.9494614448464154, 0.6782207419351258], [0.32742981183571657, -0.3179792310484489, 0.31162339618950097, -0.22644452618686942, -1.3734976794814382, -0.4952497825614281, -0.3927746553894803, -0.6876759310135325, 0.5440328571344049, 0.025457486543648936], [1.4928844864095407, -0.774880942412252, -0.29796335329422907, 1.922415467397453, 1.109395975674389, 0.9561801427521155, 0.4363022092567822, -1.3820671292182232, -1.9607333266982654, -1.9248190968625896], [-0.3109645638163838, -2.585636319780418, 1.8629769422267297, -1.068340691212905, 0.4027512496688625, 0.2639085127686488, -0.020132311135941404, -0.09997418508704718, -0.925133929015536, -0.9801318501836886], [-0.30000654266786736, 0.5055377480462532, 0.36597227512072567, -0.512619214140982, -0.03793197145935718, 1.0213750077762855, -0.08365358637652937, 0.1358184118490595, -0.0391871225510487, 0.7698424966249279], [0.7003787626868345, -0.7178605987689354, -0.3461380802546548, -2.104369517054601, -1.756965160604568, 1.06976911920305, -0.6723000907334994, -0.8647220936898024, 0.18148137566468664, -0.6063187236332408], [-0.44665873671584294, 1.862410339983778, 0.617142136605411, -0.709736157290375, 0.33993617500169016, 0.8383236749467845, -0.04404488404406768, -1.6963910552462458, -0.08720182047259806, 0.19729481941426424], [-0.4787064067697527, 1.1285927565498237, 1.176153113496784, -0.181238667978225, -0.4447619004055751, -0.99170057181898, -0.8770984022866761, -1.4934866907088373, 0.6744114824883971, 0.04256714833060369], [-1.4627055280716499, -0.6753019455789224, 0.95819324015151, -0.4778197818393767, -0.6440352640019683, 0.3557096508732336, 0.39464867852663954, 0.24939729953451695, -0.2540326368879503, 0.7299466504162726], [0.6253878768190756, -0.44999594982830887, 2.9124066278994953, 0.20773965958830995, -1.156603859223112, -0.2316432832638213, -1.098387854322784, -0.4306230005672112, 0.9003487423804386, 0.8408856345127749], [-0.5505812062413796, -0.4467030742821425, 1.698903861788983, 0.3920660662775838, 1.4989011074239176, 0.8731300966093837, -0.190427170778732, 1.8882854958363995, -0.11738801276107001, 0.24272312625343417], [0.8561361655138121, -0.3244843810435573, 0.788872168577039, -1.1551178726380096, 0.05040042414434504, 0.10758535100871074, 0.33478211397715346, 0.41510498857681594, -0.7576842192471374, -0.15188542116431372], [0.5936900760981098, -0.05501885671114575, 0.6333666214263535, -1.148003201407365, -0.1159091833771337, 1.8713433781272415, -1.159133868525725, 0.3342301751727472, -1.1119464975998228, 0.37915275534803494], [0.673433675877592, 0.8955039457970532, -0.1444351737681874, 0.646367620231466, 0.5166793838253995, -1.1219591742326136, -0.4484020796531317, 0.26438718511703335, 1.0442950523375203, -0.835062653416657], [-0.45124224178350325, 0.00366549002735158, 1.3397896219497702, -1.4457868743388753, -0.429370787254856, 0.7181216859691449, 0.43771195949684705, -1.6055004521412217, 0.4630237806167936, 0.29807310346439514], [-0.14517090650717665, 1.3178383549093229, 0.3967247124486645, 0.2917919586682755, 0.2696421350325156, -0.7680268488798275, -1.1362782829821312, 0.3690836761695454, -2.62340085175649, 1.891673615909179], [-0.17472450307634207, 0.6681441320645317, 0.037366784387071465, -0.309178849340052, -0.08017896290453021, -1.2191280519416243, -0.07182299790731861, 2.24122907039069, 0.540052697625914, -2.540425083874149], [0.9062974558133561, -1.1683859539777086, -0.3272988398621862, 1.0583222726922716, -0.5293035407662284, 0.9880986297842175, 0.1368976897285271, 0.2694346049362331, -1.562171323426504, 0.2976538651770974], [-0.877174915899359, -0.15018500751728223, -0.684800688337966, 0.29199083956731064, -0.1812915278835517, -0.19130015498983113, 1.3208811188669896, -0.788877584116836, 1.102314839032834, 1.1101114149155213], [0.2618712423663138, 1.6114461054832645, -1.1652615970659705, 0.5428644260830627, 0.35069092561904713, 0.46993928357927045, -0.9360339660864787, -1.233691312672828, 0.31311662881795216, -0.3942255463180659], [-1.6323119454951065, -1.5399664206375614, -0.5297131563737212, -1.4779985296785365, 1.8056819280266827, 1.7197734885955045, -0.23997167009440573, 0.312134749578009, -0.38552994425612974, -1.006503234307211], [0.6707558084122951, -0.2722874782743993, -0.7171031194239975, 0.8544493073926143, 0.7150648252421696, 0.7357138451752054, -0.909698868346903, 1.0061231025027488, 1.1865735276310694, -1.5024758555155828]], [[-0.9502285832107015], [-1.0968279127906573], [1.2979444096016182], [-0.06987422129434812], [1.4983281912415316], [-0.4860793352469818], [-0.11327441455634975], [-0.3225031809426208], [1.781968236251655], [1.8715083046367202]]], "biases": [[[1.0218423514505355], [-0.8705582821148521], [1.5079469851178753], [-0.7030377332105048], [-0.23257245274031707], [0.383160069178187], [0.1638147843278858], [-1.1972697735124032], [-1.1410150000305364], [0.6799157447637593]], [[-0.006241009709171852]]], "layers": [39, 10, 1]}}, {"score": 1, "functions": ["board_score", "board_tower5", "board_tower4", "board_tower3", "board_tower2", "board_tower1", "board_tower5_negative", "board_tower4_negative", "board_tower3_negative", "board_tower2_negative", "board_tower1_negative", "board_isolated_tower5", "board_isolated_tower4", "board_isolated_tower3", "board_isolated_tower2", "board_isolated_tower1", "board_isolated_tower5_negative", "board_isolated_tower4_negative", "board_isolated_tower3_negative", "board_isolated_tower2_negative", "board_isolated_tower1_negative", "board_towers_links_1_1", "board_towers_links_1_2", "board_towers_links_1_3", "board_towers_links_1_4", "board_towers_links_2_2", "board_towers_links_2_3", "board_towers_links_1_1_negative", "board_towers_links_1_2_negative", "board_towers_links_1_3_negative", "board_towers_links_1_4_negative", "board_towers_links_2_2_negative", "board_towers_links_2_3_negative", "board_towers_links_1_1_different", "board_towers_links_1_2_different", "board_towers_links_1_3_different", "board_towers_links_1_4_different", "board_towers_links_2_2_different", "board_towers_links_2_3_different"], "core": {"name": "", "score": 5, "weights": [[[1.4959578195380436, 0.4951357729432165, -1.6499539162081744, -1.358751574496265, -0.2870923474540512, 0.5187119454030319, 0.5546991771528764, 1.1506835120193994, 0.07165965182580135, -0.4029018506626686], [0.26632254164431474, -2.5002752752972333, -0.6318663567915719, -0.9687034685234996, -0.4391929495102389, -1.8116464010681441, -0.24340110037387147, -1.2270653052809644, -2.379326677673003, 0.6269180873514879], [-0.1841024101844476, 1.0611158194379993, -0.12440988925525599, 0.8063180545413806, 0.12321089873019736, -0.2880113826882175, 0.7307434054178598, -1.3779982277291072, -1.0787543378722937, -0.03460184090666223], [-0.024365377779773965, -0.9026823388309226, 1.7243905692657773, 0.47949758014247135, -1.29926730992473, 0.28312811328373605, 1.719976623927791, -0.2593564069233037, -0.646442521137763, -1.3922676328800003], [1.532157741925026, 1.490303905403551, 0.688623110364086, -0.4165574150974555, -1.0711885299303185, -0.47041264828481394, -0.5667992096057864, -0.4393957276054812, 2.01936160020177, 1.5211686853077533], [0.3376027215487354, 1.4335606167052362, -0.8552850248238243, 0.668363538332504, -0.7732255796434785, -2.9693529620163908, -1.3004237204080649, 0.3461061983544344, 0.9058739605418257, 1.4828001827499804], [-0.8324062434107832, 0.8477353489521137, -1.1461053809285873, -0.4155468774496078, 1.1235726943062663, -0.34061884629468825, 0.2497892278879069, -0.20276660178215267, 0.20883346191596852, 0.3545229891003227], [0.6962662673982117, 1.2154975780674568, -1.2560518094355608, 0.8993331948613381, -0.25481666000779013, 0.5712334980828273, 1.3141034454424316, 1.4325564485154465, -1.1513461963549187, 0.33967639318945986], [0.7628855689592909, -0.7450221452716538, 0.14992828772804553, 1.247066905292223, -0.09523657371417735, 0.7155844584088282, 1.2837516852781325, 0.4107269185644062, 0.06834452434446506, 0.8473685536444147], [0.01699083125391615, 0.8167241774357652, -0.15886976396497712, 0.11768832802427741, -1.3844409384064043, 0.45799819237212025, 0.591878456007662, 0.6099214498595885, 2.040716036217293, -1.0696511229731576], [1.6135236032066753, -1.643892412008497, -1.1178356241960818, -1.0171688224032103, -0.5544227251421272, -0.23335067557307068, 1.8044382715706748, -1.1788863792487767, -1.2890674923397771, 0.1808286485257754], [-0.9494772695115489, 0.24719320700694714, -0.9201439320769321, 0.8173749935507788, 1.3836589018902503, 1.1873583054713956, -2.3875723757054486, -0.9747845236732924, 1.0220200654069393, -1.9603645040181583], [1.4586736345575049, -0.43609758580150965, -0.22278119932659293, -0.6834207353523569, 0.8112055220459805, 1.400845055108489, 0.6547858506358127, 0.7827063236501854, -0.9050360902338623, 1.4548096923611216], [-0.017708931153267934, 1.4515752357541556, -0.5156024615014783, 1.9765286418123056, 1.229945968297925, -0.5463871580881348, 1.2927136829442127, -2.175474024745253, 0.30449970077365796, -0.8310736279181272], [-0.4731539813382899, -0.7764030304329401, 0.34521400074151276, 0.9199812121764674, -1.6915030691049706, 0.40603082761336434, 1.4368148461736239, 0.10535092268775982, 1.4259143782981831, 0.5378317796955406], [1.0008725737752406, 0.43147630797305875, -0.06638438394635972, 1.738258354627697, 1.1052291058529207, -0.4158078212093802, 1.3171560149401498, 1.03316164477239, -2.1515324073629873, 1.054923669304686], [0.46335977568747516, 0.5929453734142979, -0.08626254193947996, 0.9311733408057522, -1.6830918837249462, -0.5138897851750134, -1.8550687156870806, 0.5946641033588655, 0.6944536967611264, 1.1107206154570974], [-1.915276529854666, -0.15547259238156416, -0.7849753608630087, 0.942334095980026, -0.22892614832342473, 0.6720194479457295, 0.5761815898632768, -0.34561125041608637, 0.9494614448464154, 0.6782207419351258], [0.32742981183571657, -0.3179792310484489, 0.31162339618950097, -0.22644452618686942, -1.3734976794814382, -0.4952497825614281, -0.3927746553894803, -0.6876759310135325, 0.5440328571344049, 0.025457486543648936], [1.4928844864095407, -0.774880942412252, -0.29796335329422907, 1.922415467397453, 1.109395975674389, 0.9561801427521155, 0.4363022092567822, -1.3820671292182232, -1.9607333266982654, -1.9248190968625896], [-0.3109645638163838, -2.585636319780418, 1.8629769422267297, -1.068340691212905, 0.4027512496688625, 0.2639085127686488, -0.020132311135941404, -0.09997418508704718, -0.925133929015536, -0.9801318501836886], [-0.30000654266786736, 0.5055377480462532, 0.36597227512072567, -0.512619214140982, -0.03793197145935718, 1.0213750077762855, -0.08365358637652937, 0.1358184118490595, -0.0391871225510487, 0.7698424966249279], [0.7003787626868345, -0.7178605987689354, -0.3461380802546548, -2.104369517054601, -1.756965160604568, 1.06976911920305, -0.6723000907334994, -0.8647220936898024, 0.18148137566468664, -0.6063187236332408], [-0.44665873671584294, 1.862410339983778, 0.617142136605411, -0.709736157290375, 0.33993617500169016, 0.8383236749467845, -0.04404488404406768, -1.6963910552462458, -0.08720182047259806, 0.19729481941426424], [-0.4787064067697527, 1.1285927565498237, 1.176153113496784, -0.181238667978225, -0.4447619004055751, -0.99170057181898, -0.8770984022866761, -1.4934866907088373, 0.6744114824883971, 0.04256714833060369], [-1.4627055280716499, -0.6753019455789224, 0.95819324015151, -0.4778197818393767, -0.6440352640019683, 0.3557096508732336, 0.39464867852663954, 0.24939729953451695, -0.2540326368879503, 0.7299466504162726], [0.6253878768190756, -0.44999594982830887, 2.9124066278994953, 0.20773965958830995, -1.156603859223112, -0.2316432832638213, -1.098387854322784, -0.4306230005672112, 0.9003487423804386, 0.8408856345127749], [-0.5505812062413796, -0.4467030742821425, 1.698903861788983, 0.3920660662775838, 1.4989011074239176, 0.8731300966093837, -0.190427170778732, 1.8882854958363995, -0.11738801276107001, 0.24272312625343417], [0.8561361655138121, -0.3244843810435573, 0.788872168577039, -1.1551178726380096, 0.05040042414434504, 0.10758535100871074, 0.33478211397715346, 0.41510498857681594, -0.7576842192471374, -0.15188542116431372], [0.5936900760981098, -0.05501885671114575, 0.6333666214263535, -1.148003201407365, -0.1159091833771337, 1.8713433781272415, -1.159133868525725, 0.3342301751727472, -1.1119464975998228, 0.37915275534803494], [0.673433675877592, 0.8955039457970532, -0.1444351737681874, 0.646367620231466, 0.5166793838253995, -1.1219591742326136, -0.4484020796531317, 0.26438718511703335, 1.0442950523375203, -0.835062653416657], [-0.45124224178350325, 0.00366549002735158, 1.3397896219497702, -1.4457868743388753, -0.429370787254856, 0.7181216859691449, 0.43771195949684705, -1.6055004521412217, 0.4630237806167936, 0.29807310346439514], [-0.14517090650717665, 1.3178383549093229, 0.3967247124486645, 0.2917919586682755, 0.2696421350325156, -0.7680268488798275, -1.1362782829821312, 0.3690836761695454, -2.62340085175649, 1.891673615909179], [-0.17472450307634207, 0.6681441320645317, 0.037366784387071465, -0.309178849340052, -0.08017896290453021, -1.2191280519416243, -0.07182299790731861, 2.24122907039069, 0.540052697625914, -2.540425083874149], [0.9062974558133561, -1.1683859539777086, -0.3272988398621862, 1.0583222726922716, -0.5293035407662284, 0.9880986297842175, 0.1368976897285271, 0.2694346049362331, -1.562171323426504, 0.2976538651770974], [-0.877174915899359, -0.15018500751728223, -0.684800688337966, 0.29199083956731064, -0.1812915278835517, -0.19130015498983113, 1.3208811188669896, -0.788877584116836, 1.102314839032834, 1.1101114149155213], [0.2618712423663138, 1.6114461054832645, -1.1652615970659705, 0.5428644260830627, 0.35069092561904713, 0.46993928357927045, -0.9360339660864787, -1.233691312672828, 0.31311662881795216, -0.3942255463180659], [-1.6323119454951065, -1.5399664206375614, -0.5297131563737212, -1.4779985296785365, 1.8056819280266827, 1.7197734885955045, -0.23997167009440573, 0.312134749578009, -0.38552994425612974, -1.006503234307211], [0.6707558084122951, -0.2722874782743993, -0.7171031194239975, 0.8544493073926143, 0.7150648252421696, 0.7357138451752054, -0.909698868346903, 1.0061231025027488, 1.1865735276310694, -1.5024758555155828]], [[-0.9502285832107015], [-1.0968279127906573], [1.2979444096016182], [-0.06987422129434812], [1.4983281912415316], [-0.4860793352469818], [-0.11327441455634975], [-0.3225031809426208], [1.781968236251655], [1.8715083046367202]]], "biases": [[[1.0218423514505355], [-0.8705582821148521], [1.5079469851178753], [-0.7030377332105048], [-0.23257245274031707], [0.383160069178187], [0.1638147843278858], [-1.1972697735124032], [-1.1410150000305364], [0.6799157447637593]], [[-0.006241009709171852]]], "layers": [39, 10, 1]}}, {"score": 0, "functions": ["board_score", "board_tower5", "board_tower4", "board_tower3", "board_tower2", "board_tower1", "board_tower5_negative", "board_tower4_negative", "board_tower3_negative", "board_tower2_negative", "board_tower1_negative", "board_isolated_tower5", "board_isolated_tower4", "board_isolated_tower3", "board_isolated_tower2", "board_isolated_tower1", "board_isolated_tower5_negative", "board_isolated_tower4_negative", "board_isolated_tower3_negative", "board_isolated_tower2_negative", "board_isolated_tower1_negative", "board_towers_links_1_1", "board_towers_links_1_2", "board_towers_links_1_3", "board_towers_links_1_4", "board_towers_links_2_2", "board_towers_links_2_3", "board_towers_links_1_1_negative", "board_towers_links_1_2_negative", "board_towers_links_1_3_negative", "board_towers_links_1_4_negative", "board_towers_links_2_2_negative", "board_towers_links_2_3_negative", "board_towers_links_1_1_different", "board_towers_links_1_2_different", "board_towers_links_1_3_different", "board_towers_links_1_4_different", "board_towers_links_2_2_different", "board_towers_links_2_3_different"], "core": {"name": "", "score": 6, "weights": [[[1.2169318742152502, -0.2723816403003436, 1.4020340759987993, -0.2996358181758648, -0.7012514531122903, 0.327828815630041, 1.0803038153167162, 1.0686321441930748, 0.587311071509605, 0.7209486950539937], [0.019725906974992984, 0.3777055224608014, 0.4822776977617281, 1.1690453774685183, -0.3196042419574107, 1.2116427788978557, -1.0658070392789953, 0.6776197681008763, 1.5226010009883597, 2.158061972788095], [-0.5674814181590296, 0.44734819883536886, -1.008061536797847, -0.2908971010860572, -0.03941188583789146, -1.205693715138602, 1.6149123122881217, -0.7847997829582735, -0.06441216298691486, 1.8776023022730008], [0.3333582472813941, -1.7440843854137837, 1.6821551095801548, 0.11229611199656202, 0.49948521403904483, 1.235991806422365, 0.650880696442504, 0.08072700737265712, -0.7260791436866447, 0.1158199564558896], [-1.0423397978885842, 0.2387760099197362, 0.4130207443532803, -1.1918857573879509, 2.471291403564843, -0.9064215598943853, 0.19575849479112598, 1.5206171752608957, -0.058146228213658696, 0.4823054148752071], [1.4269311021240232, 0.22693400588795917, 0.6361879273838504, -0.3937642431179878, 1.1566982871638753, -0.12943477477487783, -0.5517980831061361, -0.6954660065526291, -1.6023871202468636, -1.5985061557457907], [1.4295368154725747, -2.1368487873110977, -0.9329291164616085, -2.087372387759739, -1.1749579981446177, -0.7249177015601571, 1.5230315533873588, -0.4574243433038427, 0.9606318079271308, 0.04908189071000573], [-0.7241442864359916, 0.9742425230458821, 0.02328751532031042, -0.25293720039598444, 1.484508750260081, -0.2235919210643984, 0.6647013136928355, -1.0410086734179915, 1.1923624300860722, -1.1572057102273625], [-1.2231482135459137, -0.6256710330188716, -0.04474359835823371, 0.3044983578723095, -0.6891769016323642, -1.1113881374572125, 0.17193489884895927, -0.9176039237256649, 0.540745117879178, 0.7863111593741111], [-2.6896915859409884, -0.1475397314959306, 0.9547428371747695, 1.302894688475421, -0.48854849045592014, -0.42044997556717145, 1.42711198326671, -1.2642444483622044, -2.270172055536855, -1.2825306732083366], [-0.9094400126375708, 0.3997407973940855, 0.09576639263978706, 1.8435452604100722, 1.1580106200569344, 1.9906198053108024, -1.795610087007116, 0.38127613702902297, 0.6987912210956891, -1.4207728603195084], [0.6258338151600191, -0.16418861262491724, 0.8178760899368387, 1.521134574010437, 0.06593880141302916, -0.7606017112010854, 2.5036617726731314, 0.8370990585244831, 0.740529705760103, -1.5448558999833046], [0.948317857162223, -0.9968529019831371, 0.15087526393097617, 1.1617446981385091, -0.17522666026701883, -1.7831733437903863, -0.6437644497685615, 1.4125614029385425, 0.5649610465804774, -1.1529612780667329], [-0.2652196468605474, 2.0860368191287604, 0.33485129911309147, 0.8717944879255564, -0.1587416152831173, -0.424346181124845, -1.9144801690073838, 0.1939788057023524, -0.30024109362517104, -0.9607961886459203], [-0.7122098813491156, 0.800477484729301, 0.6014139908578916, 0.9907138572366372, 1.176009272511074, 1.1373984436752067, -0.999691931223893, -1.3074533342447898, -0.8233744878933487, -1.1522603892732468], [0.1345140370785352, -0.7324476767728498, -0.8189964899990855, -1.7584998678546289, -1.194210841488283, -1.0650505232612524, 2.201450349820616, -0.8180406024095198, 1.0873306765507973, 0.4261085062328274], [-0.0605748966712826, 0.37208560401006413, 0.4389178728318911, 2.4403003582666574, 0.1642295105645945, -0.5397512011032908, 0.32207256894354186, 1.9591419311373117, -0.6524514725320985, 1.133434569429513], [0.7385196982157952, 0.8294525874834524, 1.0733509619706338, -1.841476798703571, -0.3068443141288267, -0.23559458442556294, -0.13384914122845684, -0.19433420970019025, -0.8929470652828597, 0.8485561404310528], [0.7094525978377659, 0.16973323178117067, 0.429263280035953, 1.3485766465597313, 2.4395030395353525, 0.14214299426652344, -0.7396798925225431, -0.9580204321287153, 1.0553204064456492, 0.45574257650883393], [-0.8473652410536524, -0.09840094379003426, 0.6183789451684301, 1.114288040438657, -0.6215792212910357, -1.0584519650682778, -0.25653678405864605, 0.6223918872188738, -0.04828929810671748, -1.7424657656965814], [0.11610417205930698, -1.2644067384110402, -1.8820274228527847, 0.6568746388291923, -0.20803927782847564, 0.4855474571576746, -0.2428009459323861, 0.5969402781050783, 0.5748810187866412, -0.4777430198291914], [0.24488904660336394, -0.23956520557999905, -1.634941065251381, -0.3104267074488423, 0.36746093814859737, 0.21135154346646837, 2.2268226217289837, -0.4453248600786264, -1.1845986464307938, 2.0548331479902244], [-0.3743832021427534, -0.534503810103963, 0.30536776521316705, -0.8166126309183487, 1.2625773674592526, 0.24804015384351638, -0.0940333634566702, 0.680581614806156, 1.816771433318336, 1.2411429413813333], [-0.3150670640537022, -0.8378499954452676, -0.22901836253713084, -0.22845410129695273, -0.4628937379761196, -0.3698218811062147, -0.2774968163102883, -0.3585910057212739, -0.46852089652226214, -0.16885231085576086], [-0.3530868973074316, -0.7890957450983268, 1.3276373236666306, 0.5428147333781613, 0.5358305618599506, -0.716081797036865, 0.1877548213432275, -0.4455461997514535, 0.28163152820270393, -0.5908007773118331], [1.3781982610867114, 0.39977865162208626, 1.0436457426320243, -2.1304133447217426, -1.1243284285625246, -0.22741719807420124, 0.7320911662642303, -0.5356985475504732, 0.12127548729168183, 1.4853635486709462], [0.614603688152008, -0.901225486660756, 0.06655574854163115, 0.4484801622125107, -1.0806512269084063, 2.3366253099340453, 0.3244118098522514, 0.4994605846623593, -0.42217452024359775, -2.0070548388043075], [-0.43100311165904653, -0.7842527228447591, -0.5845720059487222, 1.154697520283538, 0.8359059850193947, 0.027081354778820507, 0.08723544973584013, 2.606811006985445, -0.21356492452241452, 0.15009636091882259], [0.9454419372874284, 0.037762858509600136, -0.34652452338275536, 0.6595785646670427, 1.976621219761901, 0.21537085705997633, 1.6269052298166657, -0.4228515821375195, 0.6494543939823766, -0.678682633764211], [0.502071508253924, -0.6738801059684233, 1.0662622521819294, 0.09604210888806983, -0.7638064381845917, -0.24517528120171933, 0.16454674657430976, -0.5937553186098908, 0.06279919661885883, 0.4056427035684151], [-0.39692526777799614, -1.3252516551750813, -0.7687532342400495, 0.8426643568916143, -1.3673447743514044, -1.5523131931384562, 0.24058107337833726, 0.602919322565173, -0.7754285388994314, -0.12307299758931763], [-0.31947398290022855, 0.041307490390251514, 1.10345717330012, -0.7652182003131298, -0.18681494425348452, -0.9181308988907411, -0.9401426989665049, -0.26940109232631626, -0.5662832428754587, -0.5029630906480116], [1.1406432459247804, -0.5657531314102888, -0.5591936877569889, -0.1556130893771324, -1.7054969781496367, -2.4038829297718296, -0.5461615680849348, -0.5248080012915377, -0.5214219481682865, 0.7375946267126587], [1.1319148473577467, -0.699806218710152, 0.24940814617600052, -0.5845684130533033, 1.2805209504725246, -0.616439128626877, -0.34482746120014446, -0.8511631796877622, 1.0129746940795967, -0.45446914014134004], [-0.11699581685602174, 0.3517254191468159, 0.5407243925058475, -1.3818572420144932, -2.6466038616080705, -0.509979682794785, 1.3043043258055995, -0.3316812114719037, -0.03286395258492177, 0.5137668361204955], [1.917184715697263, 0.764149599954645, -0.935963876670029, -0.9943152053787648, -1.9964233436368697, 0.7232460343292585, 0.9328322262532016, -0.6100673326692813, 0.6148668755119987, 0.49748171103303424], [-1.1268182633389934, 0.04948050437119241, -1.27983914418402, 0.6249294386222418, 0.5218145412068806, 0.23792319277758353, -1.5060854288253562, 1.5854561001097913, -0.9074224300623047, -0.4245752260463669], [-0.6768571580153034, -0.7477874361142837, 0.7900600785038859, -0.6396885512170498, 1.0492571860473203, 1.5756114472499823, 1.142158398666878, 0.4978131447577884, 0.5673655219681862, 0.14364830160782363], [-1.1902207185838238, -0.6586466244213385, -0.1272613484604496, -0.8904314031510031, -0.7666277810347294, 0.2828216278042528, -1.6628330013466999, 1.0369166231532567, -0.14583830391740227, -0.28391184428781546]], [[-1.242258587317465], [0.26502517587947566], [0.5555892715938537], [-0.5327405335294507], [-0.539738010750382], [-0.20072837755163658], [-0.46815092030466887], [-0.8812029884411996], [1.0149735338711505], [-0.030149089908875194]]], "biases": [[[1.3268460316129884], [-0.5153271483789071], [0.25254120280631076], [-1.7748431036645487], [-0.6874129437058331], [1.1834447604280687], [-0.313754168371129], [-0.05186833381759848], [-0.7507474612794718], [1.2548762431414653]], [[-1.0426061010335184]]], "layers": [39, 10, 1]}}, {"score": 1, "functions": ["board_score", "board_tower5", "board_tower4", "board_tower3", "board_tower2", "board_tower1", "board_tower5_negative", "board_tower4_negative", "board_tower3_negative", "board_tower2_negative", "board_tower1_negative", "board_isolated_tower5", "board_isolated_tower4", "board_isolated_tower3", "board_isolated_tower2", "board_isolated_tower1", "board_isolated_tower5_negative", "board_isolated_tower4_negative", "board_isolated_tower3_negative", "board_isolated_tower2_negative", "board_isolated_tower1_negative", "board_towers_links_1_1", "board_towers_links_1_2", "board_towers_links_1_3", "board_towers_links_1_4", "board_towers_links_2_2", "board_towers_links_2_3", "board_towers_links_1_1_negative", "board_towers_links_1_2_negative", "board_towers_links_1_3_negative", "board_towers_links_1_4_negative", "board_towers_links_2_2_negative", "board_towers_links_2_3_negative", "board_towers_links_1_1_different", "board_towers_links_1_2_different", "board_towers_links_1_3_different", "board_towers_links_1_4_different", "board_towers_links_2_2_different", "board_towers_links_2_3_different"], "core": {"name": "", "score": 7, "weights": [[[1.2169318742152502, -0.2723816403003436, 1.4020340759987993, -0.2996358181758648, -0.7012514531122903, 0.327828815630041, 1.0803038153167162, 1.0686321441930748, 0.587311071509605, 0.7209486950539937], [0.019725906974992984, 0.3777055224608014, 0.4822776977617281, 1.1690453774685183, -0.3196042419574107, 1.2116427788978557, -1.0658070392789953, 0.6776197681008763, 1.5226010009883597, 2.158061972788095], [-0.5674814181590296, 0.44734819883536886, -1.008061536797847, -0.2908971010860572, -0.03941188583789146, -1.205693715138602, 1.6149123122881217, -0.7847997829582735, -0.06441216298691486, 1.8776023022730008], [0.3333582472813941, -1.7440843854137837, 1.6821551095801548, 0.11229611199656202, 0.49948521403904483, 1.235991806422365, 0.650880696442504, 0.08072700737265712, -0.7260791436866447, 0.1158199564558896], [-1.0423397978885842, 0.2387760099197362, 0.4130207443532803, -1.1918857573879509, 2.471291403564843, -0.9064215598943853, 0.19575849479112598, 1.5206171752608957, -0.058146228213658696, 0.4823054148752071], [1.4269311021240232, 0.22693400588795917, 0.6361879273838504, -0.3937642431179878, 1.1566982871638753, -0.12943477477487783, -0.5517980831061361, -0.6954660065526291, -1.6023871202468636, -1.5985061557457907], [1.4295368154725747, -2.1368487873110977, -0.9329291164616085, -2.087372387759739, -1.1749579981446177, -0.7249177015601571, 1.5230315533873588, -0.4574243433038427, 0.9606318079271308, 0.04908189071000573], [-0.7241442864359916, 0.9742425230458821, 0.02328751532031042, -0.25293720039598444, 1.484508750260081, -0.2235919210643984, 0.6647013136928355, -1.0410086734179915, 1.1923624300860722, -1.1572057102273625], [-1.2231482135459137, -0.6256710330188716, -0.04474359835823371, 0.3044983578723095, -0.6891769016323642, -1.1113881374572125, 0.17193489884895927, -0.9176039237256649, 0.540745117879178, 0.7863111593741111], [-2.6896915859409884, -0.1475397314959306, 0.9547428371747695, 1.302894688475421, -0.48854849045592014, -0.42044997556717145, 1.42711198326671, -1.2642444483622044, -2.270172055536855, -1.2825306732083366], [-0.9094400126375708, 0.3997407973940855, 0.09576639263978706, 1.8435452604100722, 1.1580106200569344, 1.9906198053108024, -1.795610087007116, 0.38127613702902297, 0.6987912210956891, -1.4207728603195084], [0.6258338151600191, -0.16418861262491724, 0.8178760899368387, 1.521134574010437, 0.06593880141302916, -0.7606017112010854, 2.5036617726731314, 0.8370990585244831, 0.740529705760103, -1.5448558999833046], [0.948317857162223, -0.9968529019831371, 0.15087526393097617, 1.1617446981385091, -0.17522666026701883, -1.7831733437903863, -0.6437644497685615, 1.4125614029385425, 0.5649610465804774, -1.1529612780667329], [-0.2652196468605474, 2.0860368191287604, 0.33485129911309147, 0.8717944879255564, -0.1587416152831173, -0.424346181124845, -1.9144801690073838, 0.1939788057023524, -0.30024109362517104, -0.9607961886459203], [-0.7122098813491156, 0.800477484729301, 0.6014139908578916, 0.9907138572366372, 1.176009272511074, 1.1373984436752067, -0.999691931223893, -1.3074533342447898, -0.8233744878933487, -1.1522603892732468], [0.1345140370785352, -0.7324476767728498, -0.8189964899990855, -1.7584998678546289, -1.194210841488283, -1.0650505232612524, 2.201450349820616, -0.8180406024095198, 1.0873306765507973, 0.4261085062328274], [-0.0605748966712826, 0.37208560401006413, 0.4389178728318911, 2.4403003582666574, 0.1642295105645945, -0.5397512011032908, 0.32207256894354186, 1.9591419311373117, -0.6524514725320985, 1.133434569429513], [0.7385196982157952, 0.8294525874834524, 1.0733509619706338, -1.841476798703571, -0.3068443141288267, -0.23559458442556294, -0.13384914122845684, -0.19433420970019025, -0.8929470652828597, 0.8485561404310528], [0.7094525978377659, 0.16973323178117067, 0.429263280035953, 1.3485766465597313, 2.4395030395353525, 0.14214299426652344, -0.7396798925225431, -0.9580204321287153, 1.0553204064456492, 0.45574257650883393], [-0.8473652410536524, -0.09840094379003426, 0.6183789451684301, 1.114288040438657, -0.6215792212910357, -1.0584519650682778, -0.25653678405864605, 0.6223918872188738, -0.04828929810671748, -1.7424657656965814], [0.11610417205930698, -1.2644067384110402, -1.8820274228527847, 0.6568746388291923, -0.20803927782847564, 0.4855474571576746, -0.2428009459323861, 0.5969402781050783, 0.5748810187866412, -0.4777430198291914], [0.24488904660336394, -0.23956520557999905, -1.634941065251381, -0.3104267074488423, 0.36746093814859737, 0.21135154346646837, 2.2268226217289837, -0.4453248600786264, -1.1845986464307938, 2.0548331479902244], [-0.3743832021427534, -0.534503810103963, 0.30536776521316705, -0.8166126309183487, 1.2625773674592526, 0.24804015384351638, -0.0940333634566702, 0.680581614806156, 1.816771433318336, 1.2411429413813333], [-0.3150670640537022, -0.8378499954452676, -0.22901836253713084, -0.22845410129695273, -0.4628937379761196, -0.3698218811062147, -0.2774968163102883, -0.3585910057212739, -0.46852089652226214, -0.16885231085576086], [-0.3530868973074316, -0.7890957450983268, 1.3276373236666306, 0.5428147333781613, 0.5358305618599506, -0.716081797036865, 0.1877548213432275, -0.4455461997514535, 0.28163152820270393, -0.5908007773118331], [1.3781982610867114, 0.39977865162208626, 1.0436457426320243, -2.1304133447217426, -1.1243284285625246, -0.22741719807420124, 0.7320911662642303, -0.5356985475504732, 0.12127548729168183, 1.4853635486709462], [0.614603688152008, -0.901225486660756, 0.06655574854163115, 0.4484801622125107, -1.0806512269084063, 2.3366253099340453, 0.3244118098522514, 0.4994605846623593, -0.42217452024359775, -2.0070548388043075], [-0.43100311165904653, -0.7842527228447591, -0.5845720059487222, 1.154697520283538, 0.8359059850193947, 0.027081354778820507, 0.08723544973584013, 2.606811006985445, -0.21356492452241452, 0.15009636091882259], [0.9454419372874284, 0.037762858509600136, -0.34652452338275536, 0.6595785646670427, 1.976621219761901, 0.21537085705997633, 1.6269052298166657, -0.4228515821375195, 0.6494543939823766, -0.678682633764211], [0.502071508253924, -0.6738801059684233, 1.0662622521819294, 0.09604210888806983, -0.7638064381845917, -0.24517528120171933, 0.16454674657430976, -0.5937553186098908, 0.06279919661885883, 0.4056427035684151], [-0.39692526777799614, -1.3252516551750813, -0.7687532342400495, 0.8426643568916143, -1.3673447743514044, -1.5523131931384562, 0.24058107337833726, 0.602919322565173, -0.7754285388994314, -0.12307299758931763], [-0.31947398290022855, 0.041307490390251514, 1.10345717330012, -0.7652182003131298, -0.18681494425348452, -0.9181308988907411, -0.9401426989665049, -0.26940109232631626, -0.5662832428754587, -0.5029630906480116], [1.1406432459247804, -0.5657531314102888, -0.5591936877569889, -0.1556130893771324, -1.7054969781496367, -2.4038829297718296, -0.5461615680849348, -0.5248080012915377, -0.5214219481682865, 0.7375946267126587], [1.1319148473577467, -0.699806218710152, 0.24940814617600052, -0.5845684130533033, 1.2805209504725246, -0.616439128626877, -0.34482746120014446, -0.8511631796877622, 1.0129746940795967, -0.45446914014134004], [-0.11699581685602174, 0.3517254191468159, 0.5407243925058475, -1.3818572420144932, -2.6466038616080705, -0.509979682794785, 1.3043043258055995, -0.3316812114719037, -0.03286395258492177, 0.5137668361204955], [1.917184715697263, 0.764149599954645, -0.935963876670029, -0.9943152053787648, -1.9964233436368697, 0.7232460343292585, 0.9328322262532016, -0.6100673326692813, 0.6148668755119987, 0.49748171103303424], [-1.1268182633389934, 0.04948050437119241, -1.27983914418402, 0.6249294386222418, 0.5218145412068806, 0.23792319277758353, -1.5060854288253562, 1.5854561001097913, -0.9074224300623047, -0.4245752260463669], [-0.6768571580153034, -0.7477874361142837, 0.7900600785038859, -0.6396885512170498, 1.0492571860473203, 1.5756114472499823, 1.142158398666878, 0.4978131447577884, 0.5673655219681862, 0.14364830160782363], [-1.1902207185838238, -0.6586466244213385, -0.1272613484604496, -0.8904314031510031, -0.7666277810347294, 0.2828216278042528, -1.6628330013466999, 1.0369166231532567, -0.14583830391740227, -0.28391184428781546]], [[-1.242258587317465], [0.26502517587947566], [0.5555892715938537], [-0.5327405335294507], [-0.539738010750382], [-0.20072837755163658], [-0.46815092030466887], [-0.8812029884411996], [1.0149735338711505], [-0.030149089908875194]]], "biases": [[[1.3268460316129884], [-0.5153271483789071], [0.25254120280631076], [-1.7748431036645487], [-0.6874129437058331], [1.1834447604280687], [-0.313754168371129], [-0.05186833381759848], [-0.7507474612794718], [1.2548762431414653]], [[-1.0426061010335184]]], "layers": [39, 10, 1]}}, {"score": 1, "functions": ["board_score", "board_tower5", "board_tower4", "board_tower3", "board_tower2", "board_tower1", "board_tower5_negative", "board_tower4_negative", "board_tower3_negative", "board_tower2_negative", "board_tower1_negative", "board_isolated_tower5", "board_isolated_tower4", "board_isolated_tower3", "board_isolated_tower2", "board_isolated_tower1", "board_isolated_tower5_negative", "board_isolated_tower4_negative", "board_isolated_tower3_negative", "board_isolated_tower2_negative", "board_isolated_tower1_negative", "board_towers_links_1_1", "board_towers_links_1_2", "board_towers_links_1_3", "board_towers_links_1_4", "board_towers_links_2_2", "board_towers_links_2_3", "board_towers_links_1_1_negative", "board_towers_links_1_2_negative", "board_towers_links_1_3_negative", "board_towers_links_1_4_negative", "board_towers_links_2_2_negative", "board_towers_links_2_3_negative", "board_towers_links_1_1_different", "board_towers_links_1_2_different", "board_towers_links_1_3_different", "board_towers_links_1_4_different", "board_towers_links_2_2_different", "board_towers_links_2_3_different"], "core": {"name": "", "score": 8, "weights": [[[-1.2755002711612968, -0.2734915910697271, -0.317994127743247, 1.1597567631426977, 0.30072031015052125, -1.6332719491253995, -0.23224090855395257, -0.6445976238583531, 0.050118823384355304, -0.7429560422932163], [-2.367072866900348, 0.23851962792609147, 0.9248601240394855, -0.3879496672009773, -0.41715173371026826, 0.5941661513965982, -0.4427103831769135, -0.28870316323431333, -2.874571109683528, 0.9615232729699025], [0.9624028196309491, 0.9742749492977502, -1.1566559750604652, 0.46082429655270113, -1.0624565866669562, 0.5209109800454991, 0.2390942954734244, -0.5579864069207241, 0.026861192221768283, 1.1546441463971222], [0.41928323661141187, -1.2104529819278118, -0.9553166519347983, -0.7983761240528929, 0.7323812636386324, 0.20909416905367517, -0.09970718289779391, -1.3651612725324263, 0.9689788776247572, -1.8002558959915904], [-1.9344525920107751, 0.7380654604958026, 0.3533957836677452, 0.7971016498419359, 1.1098130698722606, 1.1094643026882656, -1.0704501856075335, -2.716566232175853, -0.07113178255963142, 0.9475146860195538], [0.6787180414422924, -1.0645732070548561, -0.170656415388813, -0.9361550144610649, 0.17101663573516987, -1.048347940161127, 0.047455607510602446, -0.17289281101556397, -1.3039694349695075, -0.01603171570200189], [-0.6153965873950267, 1.1235979179155726, 1.2672406092360824, 0.25666566265086765, -0.530110300946445, 0.5197255723150402, 0.2665823490711074, -1.0743528872579824, 0.7073890594927963, -0.8469372688936612], [1.7264523212250131, -1.054307357663639, -0.11283191934034262, 1.1668034111769459, 1.6231869552227636, 0.36090817042859286, -2.3561287159540285, 1.640081359448172, 0.29605257431429255, 0.31044208385634847], [-0.7622962212254701, -0.2881897871249733, -1.212723802122402, -0.3885463513014267, -0.7847765600672043, -0.7995075144436189, -0.8891915282205198, 0.08141431909705883, 0.34412845801292974, -0.302919004529895], [0.637029420774537, 0.5213660761680257, -0.7058128188044592, 1.4682993675270117, -1.6789918736374432, 0.2882077433227491, 0.13331880638804433, 0.5188023627013268, -0.7846418012327103, -0.4286748379560045], [-0.541327292745907, 0.90692841428101, 0.48147630541200426, -0.8909543260974256, 0.5319432149702785, 0.7205141464248547, 0.017626217031561874, -0.4593885074646141, -0.36820794456418277, 0.697362650010226], [0.6572763901778134, 1.0404650616079174, -0.10032436326834017, 0.18839597069675285, 1.3303681670114444, 1.6471833009556276, -1.4946940387737662, 0.04040542366228266, -0.5769135100974104, -0.2583507009226447], [-0.11514458976887638, -0.19300823306664977, 0.49869791237623884, 0.012683214022984937, -1.069979570186912, 1.169404086220527, -1.326145154107466, -0.3325648395205489, 1.7061601103853348, -0.5974980644323068], [1.22354148882868, 1.737786069975814, 0.8710223938147599, -0.1787481383050801, -0.3683962763031925, -1.3813795915368088, 1.3949243926507962, -1.4111620827644722, 1.0918647638712118, 0.09507708582926502], [1.6835415394689812, -0.2604040649221215, 1.4190373290711247, -0.3755087096137671, -0.19926650842842233, 1.2141426531883572, 0.6264036697926709, 0.9064733701571938, -0.5839797384484526, -0.7685163084818063], [1.4534839969435134, 1.4215425077673083, 0.20312919115473183, -0.4659166911800085, 0.024407387670535366, 1.1611081456856873, 0.11052537426669067, 0.7758325864097713, 0.9442354478985594, -0.0976352802726443], [0.07102477891658307, 0.2842413402716577, 1.6614372884547177, -0.5013085809278917, -1.3529013677718162, -1.6597093253250537, -0.28929814393142467, -1.5018382306795808, -0.05014749855550875, -0.5078382572458955], [0.7391149325072377, 1.257285101357625, -0.25591778367315027, 0.9532956955876877, 2.861438014540689, 1.7489114739928548, -0.08274054689855018, 1.538792079436771, 0.6224076058509552, 1.3487869104953645], [0.5240900841348817, -0.39718823628541294, -0.27283633318633693, -0.7940506724517443, 0.19736373760531406, 0.2747346453915437, -0.6841973876308232, 0.7150581588249241, -0.634570667181456, -0.32447365471811535], [-1.0234541485083568, 0.7973392272246249, -1.44636923466584, -1.481623228644028, -0.5385560345691456, -1.6454943639986424, -2.0860296514025976, 0.08232586009021452, 0.03617283517773405, 0.7593112179012061], [0.570754753620617, -0.06546926184518491, -0.6360030165071049, 0.3947895563990694, 0.7624967738746541, -0.7571592344216412, 0.6629398506614161, -0.058426816226782086, -0.0011197764981077296, 1.228531203946972], [0.3682778261830475, 2.5760126431941446, -1.3041659907053893, 0.3899543671263475, 1.8095317725438858, -0.07036582323549852, -1.0382485686209104, 0.1897957675897443, 1.145005445707779, 0.5418188767564124], [-0.9858715670407885, 0.4656107003361127, -1.1316650483722692, -0.10035970807898632, -0.7576550149963753, -0.4571371761858997, -0.5158012785423028, 0.43281085769336636, 0.2869621487051782, 0.9423703055109903], [1.3783369384104158, -1.106676149579914, 2.3134934113882824, 1.0521451751554827, 0.9090903266263962, 1.0774178637204488, -2.1195020895305943, 0.3072380931800451, -0.20686389979878514, 0.5171875025473218], [-0.8295741949606028, 1.160674976103408, -0.7881177843046636, -1.0174358422057403, 0.03932236811472194, -0.3346328425498706, 1.0196927386428207, 0.21713938836108054, 0.37187306472832027, 0.19008939179980894], [1.2545576258757243, -1.0315169061166478, 0.9293250814809767, -1.8742083038845239, 0.667046638818456, -0.6567856657436615, -1.5373915333769927, -0.6726869604173397, 0.8732401381507817, -2.056440696940795], [0.7126068475270368, 0.9102354081852406, -0.4670420960425001, -1.0127436145797541, -0.46588440504283, -0.8582207854170602, 0.04860022578816575, -0.8719205494530169, -1.3683914523656446, -1.5123990471453137], [0.4032617139739105, 2.3162876976256856, 1.5909732814555106, 0.7572714834422964, 1.2649461264088049, 0.34099748294210913, -0.4162063126912117, 0.7038785129339443, -0.11710402441238679, 0.20143013946950566], [0.674588225971603, -0.02318188372974498, 1.56377984379402, 0.0576868370249235, -0.5345862130077079, -0.23612778311946897, 1.8500485670790912, 0.5378700844974258, -0.5849070565868861, 0.7092762885001603], [1.3695489126776046, 0.8192723379410323, -0.4662307543692938, -1.0492266937860888, 1.0512350302049243, 0.15944191846919686, 0.619154469701389, -0.1503574400784014, 1.8064016145520738, -1.1843706568318617], [0.4464115704966414, 1.0693371401853564, -0.8103813085936418, 0.013257183917036926, -2.1450891447227627, -2.0035881023317303, -0.191093910775161, -1.074179434432851, 0.5475041868173186, -0.11424295872948197], [0.876311906686195, -0.6501402531607281, 0.3074300756052526, 0.02658238111670319, 0.4955667550820711, 1.036113128976219, 1.0419085992210528, -0.4699025073531141, 0.018648503015665917, 1.2748751350238452], [-0.237677902989606, -0.9542821781950391, 1.1995918114066286, -0.36383299209909986, -0.5955691527748572, 0.33832553309843105, 2.03602157205932, 0.3626759201991598, -0.6656930767677153, 0.7679384342824556], [0.1265565657414336, 1.3848023161997005, 0.8578354050528744, 0.05985164927238163, 0.003410641670901655, 0.560539036823303, 0.48825449618709904, -1.3253388198124414, -0.9914984281694303, 2.6306225439155146], [1.6497031170663257, 1.1170847790450678, -0.431564364489337, -0.4362755214646973, -0.5189214824176963, -0.6113019197275757, 0.08033736574989922, 1.6926980914872964, -0.30250896704252944, -1.587105170929266], [-0.11099802468549023, -1.353249681415989, 1.4463119435012863, -0.09483217881883375, -0.8653588250422884, 0.053622153603369783, -0.8809831346206198, -0.4859775231023453, 0.21354520163836588, 1.3015817832734622], [-0.9380797675901766, -0.5629537804896212, -1.3045405777695191, 0.7571571327029712, -1.391768365178306, 0.9806548978074195, -1.726689341142066, -1.360139653915495, 1.995791839651208, 0.19706769335808516], [0.8408405934426828, 0.6301613583446003, 0.8579771509665883, 0.8643840583385964, -1.1530215974477793, -0.8026838503769281, 0.3371786319243011, 0.0264699644124249, -0.29157017581640027, -0.05027275906030709], [1.4537459723069825, -0.7193755197151784, 0.47389728841679424, -0.6239356299113983, 1.311475859955027, -0.2580384190192695, 0.43564047445654314, -0.7239157668837373, -0.0001861587442112111, 0.12278982346972138]], [[0.273654991360707], [-1.1125548594208463], [0.7667069657505846], [-0.6538749282998843], [-1.576997000802697], [-0.6810421708618531], [-0.24408179343012743], [-0.841478162421834], [1.020581092247185], [-0.564946814690194]]], "biases": [[[0.5368509011880902], [-1.0670458125837339], [-0.10591836469186189], [0.2300434020667647], [-0.08899769189171808], [0.15406605462835993], [-1.029799657184746], [-0.3962644732965483], [-2.140099087979514], [0.17437831213481023]], [[1.0604045967890308]]], "layers": [39, 10, 1]}}, {"score": 0, "functions": ["board_score", "board_tower5", "board_tower4", "board_tower3", "board_tower2", "board_tower1", "board_tower5_negative", "board_tower4_negative", "board_tower3_negative", "board_tower2_negative", "board_tower1_negative", "board_isolated_tower5", "board_isolated_tower4", "board_isolated_tower3", "board_isolated_tower2", "board_isolated_tower1", "board_isolated_tower5_negative", "board_isolated_tower4_negative", "board_isolated_tower3_negative", "board_isolated_tower2_negative", "board_isolated_tower1_negative", "board_towers_links_1_1", "board_towers_links_1_2", "board_towers_links_1_3", "board_towers_links_1_4", "board_towers_links_2_2", "board_towers_links_2_3", "board_towers_links_1_1_negative", "board_towers_links_1_2_negative", "board_towers_links_1_3_negative", "board_towers_links_1_4_negative", "board_towers_links_2_2_negative", "board_towers_links_2_3_negative", "board_towers_links_1_1_different", "board_towers_links_1_2_different", "board_towers_links_1_3_different", "board_towers_links_1_4_different", "board_towers_links_2_2_different", "board_towers_links_2_3_different"], "core": {"name": "", "score": 9, "weights": [[[-1.2755002711612968, -0.2734915910697271, -0.317994127743247, 1.1597567631426977, 0.30072031015052125, -1.6332719491253995, -0.23224090855395257, -0.6445976238583531, 0.050118823384355304, -0.7429560422932163], [-2.367072866900348, 0.23851962792609147, 0.9248601240394855, -0.3879496672009773, -0.41715173371026826, 0.5941661513965982, -0.4427103831769135, -0.28870316323431333, -2.874571109683528, 0.9615232729699025], [0.9624028196309491, 0.9742749492977502, -1.1566559750604652, 0.46082429655270113, -1.0624565866669562, 0.5209109800454991, 0.2390942954734244, -0.5579864069207241, 0.026861192221768283, 1.1546441463971222], [0.41928323661141187, -1.2104529819278118, -0.9553166519347983, -0.7983761240528929, 0.7323812636386324, 0.20909416905367517, -0.09970718289779391, -1.3651612725324263, 0.9689788776247572, -1.8002558959915904], [-1.9344525920107751, 0.7380654604958026, 0.3533957836677452, 0.7971016498419359, 1.1098130698722606, 1.1094643026882656, -1.0704501856075335, -2.716566232175853, -0.07113178255963142, 0.9475146860195538], [0.6787180414422924, -1.0645732070548561, -0.170656415388813, -0.9361550144610649, 0.17101663573516987, -1.048347940161127, 0.047455607510602446, -0.17289281101556397, -1.3039694349695075, -0.01603171570200189], [-0.6153965873950267, 1.1235979179155726, 1.2672406092360824, 0.25666566265086765, -0.530110300946445, 0.5197255723150402, 0.2665823490711074, -1.0743528872579824, 0.7073890594927963, -0.8469372688936612], [1.7264523212250131, -1.054307357663639, -0.11283191934034262, 1.1668034111769459, 1.6231869552227636, 0.36090817042859286, -2.3561287159540285, 1.640081359448172, 0.29605257431429255, 0.31044208385634847], [-0.7622962212254701, -0.2881897871249733, -1.212723802122402, -0.3885463513014267, -0.7847765600672043, -0.7995075144436189, -0.8891915282205198, 0.08141431909705883, 0.34412845801292974, -0.302919004529895], [0.637029420774537, 0.5213660761680257, -0.7058128188044592, 1.4682993675270117, -1.6789918736374432, 0.2882077433227491, 0.13331880638804433, 0.5188023627013268, -0.7846418012327103, -0.4286748379560045], [-0.541327292745907, 0.90692841428101, 0.48147630541200426, -0.8909543260974256, 0.5319432149702785, 0.7205141464248547, 0.017626217031561874, -0.4593885074646141, -0.36820794456418277, 0.697362650010226], [0.6572763901778134, 1.0404650616079174, -0.10032436326834017, 0.18839597069675285, 1.3303681670114444, 1.6471833009556276, -1.4946940387737662, 0.04040542366228266, -0.5769135100974104, -0.2583507009226447], [-0.11514458976887638, -0.19300823306664977, 0.49869791237623884, 0.012683214022984937, -1.069979570186912, 1.169404086220527, -1.326145154107466, -0.3325648395205489, 1.7061601103853348, -0.5974980644323068], [1.22354148882868, 1.737786069975814, 0.8710223938147599, -0.1787481383050801, -0.3683962763031925, -1.3813795915368088, 1.3949243926507962, -1.4111620827644722, 1.0918647638712118, 0.09507708582926502], [1.6835415394689812, -0.2604040649221215, 1.4190373290711247, -0.3755087096137671, -0.19926650842842233, 1.2141426531883572, 0.6264036697926709, 0.9064733701571938, -0.5839797384484526, -0.7685163084818063], [1.4534839969435134, 1.4215425077673083, 0.20312919115473183, -0.4659166911800085, 0.024407387670535366, 1.1611081456856873, 0.11052537426669067, 0.7758325864097713, 0.9442354478985594, -0.0976352802726443], [0.07102477891658307, 0.2842413402716577, 1.6614372884547177, -0.5013085809278917, -1.3529013677718162, -1.6597093253250537, -0.28929814393142467, -1.5018382306795808, -0.05014749855550875, -0.5078382572458955], [0.7391149325072377, 1.257285101357625, -0.25591778367315027, 0.9532956955876877, 2.861438014540689, 1.7489114739928548, -0.08274054689855018, 1.538792079436771, 0.6224076058509552, 1.3487869104953645], [0.5240900841348817, -0.39718823628541294, -0.27283633318633693, -0.7940506724517443, 0.19736373760531406, 0.2747346453915437, -0.6841973876308232, 0.7150581588249241, -0.634570667181456, -0.32447365471811535], [-1.0234541485083568, 0.7973392272246249, -1.44636923466584, -1.481623228644028, -0.5385560345691456, -1.6454943639986424, -2.0860296514025976, 0.08232586009021452, 0.03617283517773405, 0.7593112179012061], [0.570754753620617, -0.06546926184518491, -0.6360030165071049, 0.3947895563990694, 0.7624967738746541, -0.7571592344216412, 0.6629398506614161, -0.058426816226782086, -0.0011197764981077296, 1.228531203946972], [0.3682778261830475, 2.5760126431941446, -1.3041659907053893, 0.3899543671263475, 1.8095317725438858, -0.07036582323549852, -1.0382485686209104, 0.1897957675897443, 1.145005445707779, 0.5418188767564124], [-0.9858715670407885, 0.4656107003361127, -1.1316650483722692, -0.10035970807898632, -0.7576550149963753, -0.4571371761858997, -0.5158012785423028, 0.43281085769336636, 0.2869621487051782, 0.9423703055109903], [1.3783369384104158, -1.106676149579914, 2.3134934113882824, 1.0521451751554827, 0.9090903266263962, 1.0774178637204488, -2.1195020895305943, 0.3072380931800451, -0.20686389979878514, 0.5171875025473218], [-0.8295741949606028, 1.160674976103408, -0.7881177843046636, -1.0174358422057403, 0.03932236811472194, -0.3346328425498706, 1.0196927386428207, 0.21713938836108054, 0.37187306472832027, 0.19008939179980894], [1.2545576258757243, -1.0315169061166478, 0.9293250814809767, -1.8742083038845239, 0.667046638818456, -0.6567856657436615, -1.5373915333769927, -0.6726869604173397, 0.8732401381507817, -2.056440696940795], [0.7126068475270368, 0.9102354081852406, -0.4670420960425001, -1.0127436145797541, -0.46588440504283, -0.8582207854170602, 0.04860022578816575, -0.8719205494530169, -1.3683914523656446, -1.5123990471453137], [0.4032617139739105, 2.3162876976256856, 1.5909732814555106, 0.7572714834422964, 1.2649461264088049, 0.34099748294210913, -0.4162063126912117, 0.7038785129339443, -0.11710402441238679, 0.20143013946950566], [0.674588225971603, -0.02318188372974498, 1.56377984379402, 0.0576868370249235, -0.5345862130077079, -0.23612778311946897, 1.8500485670790912, 0.5378700844974258, -0.5849070565868861, 0.7092762885001603], [1.3695489126776046, 0.8192723379410323, -0.4662307543692938, -1.0492266937860888, 1.0512350302049243, 0.15944191846919686, 0.619154469701389, -0.1503574400784014, 1.8064016145520738, -1.1843706568318617], [0.4464115704966414, 1.0693371401853564, -0.8103813085936418, 0.013257183917036926, -2.1450891447227627, -2.0035881023317303, -0.191093910775161, -1.074179434432851, 0.5475041868173186, -0.11424295872948197], [0.876311906686195, -0.6501402531607281, 0.3074300756052526, 0.02658238111670319, 0.4955667550820711, 1.036113128976219, 1.0419085992210528, -0.4699025073531141, 0.018648503015665917, 1.2748751350238452], [-0.237677902989606, -0.9542821781950391, 1.1995918114066286, -0.36383299209909986, -0.5955691527748572, 0.33832553309843105, 2.03602157205932, 0.3626759201991598, -0.6656930767677153, 0.7679384342824556], [0.1265565657414336, 1.3848023161997005, 0.8578354050528744, 0.05985164927238163, 0.003410641670901655, 0.560539036823303, 0.48825449618709904, -1.3253388198124414, -0.9914984281694303, 2.6306225439155146], [1.6497031170663257, 1.1170847790450678, -0.431564364489337, -0.4362755214646973, -0.5189214824176963, -0.6113019197275757, 0.08033736574989922, 1.6926980914872964, -0.30250896704252944, -1.587105170929266], [-0.11099802468549023, -1.353249681415989, 1.4463119435012863, -0.09483217881883375, -0.8653588250422884, 0.053622153603369783, -0.8809831346206198, -0.4859775231023453, 0.21354520163836588, 1.3015817832734622], [-0.9380797675901766, -0.5629537804896212, -1.3045405777695191, 0.7571571327029712, -1.391768365178306, 0.9806548978074195, -1.726689341142066, -1.360139653915495, 1.995791839651208, 0.19706769335808516], [0.8408405934426828, 0.6301613583446003, 0.8579771509665883, 0.8643840583385964, -1.1530215974477793, -0.8026838503769281, 0.3371786319243011, 0.0264699644124249, -0.29157017581640027, -0.05027275906030709], [1.4537459723069825, -0.7193755197151784, 0.47389728841679424, -0.6239356299113983, 1.311475859955027, -0.2580384190192695, 0.43564047445654314, -0.7239157668837373, -0.0001861587442112111, 0.12278982346972138]], [[0.273654991360707], [-1.1125548594208463], [0.7667069657505846], [-0.6538749282998843], [-1.576997000802697], [-0.6810421708618531], [-0.24408179343012743], [-0.841478162421834], [1.020581092247185], [-0.564946814690194]]], "biases": [[[0.5368509011880902], [-1.0670458125837339], [-0.10591836469186189], [0.2300434020667647], [-0.08899769189171808], [0.15406605462835993], [-1.029799657184746], [-0.3962644732965483], [-2.140099087979514], [0.17437831213481023]], [[1.0604045967890308]]], "layers": [39, 10, 1]}}, {"score": 1, "functions": ["board_score", "board_tower5", "board_tower4", "board_tower3", "board_tower2", "board_tower1", "board_tower5_negative", "board_tower4_negative", "board_tower3_negative", "board_tower2_negative", "board_tower1_negative", "board_isolated_tower5", "board_isolated_tower4", "board_isolated_tower3", "board_isolated_tower2", "board_isolated_tower1", "board_isolated_tower5_negative", "board_isolated_tower4_negative", "board_isolated_tower3_negative", "board_isolated_tower2_negative", "board_isolated_tower1_negative", "board_towers_links_1_1", "board_towers_links_1_2", "board_towers_links_1_3", "board_towers_links_1_4", "board_towers_links_2_2", "board_towers_links_2_3", "board_towers_links_1_1_negative", "board_towers_links_1_2_negative", "board_towers_links_1_3_negative", "board_towers_links_1_4_negative", "board_towers_links_2_2_negative", "board_towers_links_2_3_negative", "board_towers_links_1_1_different", "board_towers_links_1_2_different", "board_towers_links_1_3_different", "board_towers_links_1_4_different", "board_towers_links_2_2_different", "board_towers_links_2_3_different"], "core": {"name": "", "score": 10, "weights": [[[1.7554538448784598, 0.07048219440584788, 0.9414251450277363, 0.5083612900217698, -0.6146101534483945, 2.2591402180795948, 0.3877289287159046, -0.2691929526805567, 0.3754338775093952, -1.6870901014855932], [0.3103693597862288, -0.1793555190194991, -1.0840707824931033, 0.5295028749526741, 0.3831601682719582, -0.699725245745915, -1.0449418304409233, 0.8844722165898359, -0.24690118218669982, -0.5058607530991598], [0.6277354716225688, -0.6974329099723076, 0.28921110779267206, 0.9027807105582062, -0.09279751034007175, -0.4405372568555536, -0.65898694006345, 0.21356073787041827, -0.25854734856511985, -0.5713133083249413], [-0.9704496382262815, 0.6414895473735569, 2.287930185034589, 1.087714215542383, 1.5888610325697534, 0.21960370535590454, -1.322046085561869, 