{"gen": [{"name": "", "score": 0, "weights": [[[1.0994126565815958, -1.487829808731376, 0.5089530258673762, -0.5356204193948759, -0.8959783307563636, -1.4993340040973235], [1.296596183955127, 0.25815163693717336, 0.8394247197690231, 1.1306048268145465, 0.7902396359475089, -0.6536749169023894], [2.617911420707892, -0.9758075188373257, -1.8645224663336188, 0.03330985687599711, -0.16655034045614348, -0.6094771678161105], [-0.05325319675938486, -0.16100934868059238, 0.43692850884991596, 0.6450124532559536, 0.3228926715882452, -0.35356975247415107], [-1.287170693289553, 1.1074756187239243, -0.21483065754709818, 1.7570891147336463, 1.1003136049713542, -1.293836544743142], [0.2546676909431892, 1.0830145252072558, -0.8380159236599871, 1.1654192473852856, 1.429088322951126, -1.2151968391352892]], [[1.3672894062308891], [-0.8947774080967817], [-0.7750933481638753], [0.9176774745965764], [1.3829478643468318], [-0.6524288203812054]]], "biases": [[[-1.1662701684599737], [-1.1475275925813126], [0.0683410527096958], [-0.582500475872031], [0.4179903980662855], [1.317081685005215]], [[1.0925148758850487]]], "layers": [6, 6, 1]}, {"name": "", "score": 1, "weights": [[[0.3003117141817219, 1.312879095000573, -0.0036362730615220437, -1.0512281479417882, 0.3321409636945114, 1.0759075107956289], [-0.27815783622193097, -0.07200742661644476, 0.5410341622395157, 0.2308870127641928, 0.23061712800289577, 0.6792712404656194], [0.7213849947026968, -1.198359268637437, -0.6231729143513516, -0.23343830382480665, 0.6988504687937174, -0.9267775288852985], [1.3886615003031413, 0.5385633903973083, 0.1881004531533411, -1.3641571301434026, 1.2273732680017027, 0.2346480309408225], [0.7523633868191736, -0.7098382431556853, -0.2735107518864868, 0.8702465151242513, 0.6209396659861575, 0.39668788998948046], [0.19543427664614627, 0.43570374870174344, -0.1265834952615737, -0.8147983576606067, 0.8662088606861378, 1.0031004610220255]], [[-1.382325249550832], [0.726884167014872], [-0.8148293372105633], [0.44821225909943835], [-0.7342354860717233], [1.2457184629809401]]], "biases": [[[0.6731076857835838], [0.22759235241065898], [-0.554076931325253], [-0.5453634633921852], [1.4873255782112351], [-0.4496326403838219]], [[0.161308903591737]]], "layers": [6, 6, 1]}, {"name": "", "score": 2, "weights": [[[1.746432917101267, -0.6258688023788898, 0.6853101805449345, 0.5094842312054313, 2.077044216172612, -0.9262475233072789], [-0.01359847226437705, -1.7186429368293574, 1.6315037291826378, 0.08984041823414808, 0.2510809506561282, 0.41974727097898634], [1.9900987143186766, -0.8029998168859476, 0.7611270550738313, -1.2648266041155383, -0.13628526666218335, -0.0018649707411864766], [1.5303467180773616, -0.05504023453933965, 1.5785127324946784, -0.8014478079247837, 0.331330166874428, 0.3141968085695989], [1.0217960643313064, -0.5625906392765825, 0.39790634032129973, -0.3309696650974095, -1.8812296623873002, 0.09806187942022873], [-1.5937255764274643, 0.09566777668158828, -0.4551462479968577, -0.38663402328567464, -0.6843928819592793, 0.6520116633379234]], [[0.47700116801681774], [1.0873711373384638], [-0.4157818146675463], [-0.5814965385197582], [0.5244646082534767], [0.3937058043168986]]], "biases": [[[0.12309446730237074], [0.817014556091168], [-1.3765995314452804], [-0.5891779806069511], [0.3288183000311381], [-0.51865077810099]], [[-0.8177685926964889]]], "layers": [6, 6, 1]}, {"name": "", "score": 3, "weights": [[[-1.129226518598781, -1.5473422482734203, -0.056429507535692924, 0.3443068064112696, 1.6131216238417347, 0.026563993381564982], [-0.2689629005961362, 1.9553516927775962, -0.5148371602279413, -0.676695937541097, 2.4513795030555428, 1.122363466768173], [1.7522008073515463, -0.4484246123925364, 0.00727941976284838, -0.20254922068662615, -0.2769550007456162, -0.4241900123870097], [1.2618289647256449, -0.31363667220335223, 0.6882102645137744, 0.49965841455048887, -1.6093732586273133, -0.1702218326471745], [0.6256463670317894, -1.2442072781499507, 1.566317835842285, -0.24260000039890262, 1.0744787576477322, 0.7475146621090425], [0.5196889737532614, 0.5784305325155635, 0.4151956279074557, 0.9286641214202959, -0.02558683971191834, -0.7627492719345305]], [[-0.07884508655934716], [1.8656388004165365], [0.15157211041017127], [0.43414077419571895], [0.7451192053074054], [-1.448940146652939]]], "biases": [[[-0.07411374344406396], [0.6323171270956135], [1.2340594652286312], [0.8448205543473023], [0.8099469399203221], [0.9921758382694386]], [[0.6240990748782053]]], "layers": [6, 6, 1]}, {"name": "", "score": 4, "weights": [[[2.1027468689838744, 1.9056472121311667, -0.8028815656842837, -3.1920918347851233, 1.7988188721997274, -0.8746907611098478], [0.9461545512088088, -0.03670296218058734, -1.0334347745399965, 0.46499546502730255, -1.5925776045879376, -1.5247074082017624], [-0.8372573071531615, -1.098830541955766, 0.18250454967813232, -0.5197398818230596, -0.5532236636856805, 0.08157331592294888], [0.7361351851166049, 0.8968116260985365, -1.275289587294656, -0.1654375887121532, 1.3237940521165381, -0.8293709131666922], [-1.1895779758283658, 0.2313897410872702, 0.7906054785577316, -0.5729837686218485, 1.6296358831085325, -0.42359360180645006], [-0.22574964377305282, -0.8474119834559084, 0.3113448285687203, -0.2538331770486673, 0.4278901807124782, -0.38758475299103984]], [[1.0713300484366985], [1.4831111210975043], [-0.3163576296911333], [0.8444945258491052], [-0.023359345744493186], [-0.2743958542028617]]], "biases": [[[-0.12079089195419292], [1.1828198023640046], [0.27650906140146164], [-0.8932389167450959], [-0.16366858838919218], [-0.5524328122221344]], [[-0.5164763054343894]]], "layers": [6, 6, 1]}, {"name": "", "score": 5, "weights": [[[-0.12846010583544876, 0.24785806899755541, 0.17743873071197952, 0.6292114905935944, 1.041308808569458, 0.7793216571968101], [-0.8662401365581708, 1.4224743640678856, -1.613062625744366, 0.26755998381320734, 0.20976045824965406, -1.368875017432449], [0.19949380289737093, 0.3643434234504622, -0.4286189386768185, 0.589346747324308, -0.727202538757554, -1.3555186968150745], [0.5292346326906101, 0.8219522500369774, 0.007907331416250914, -2.6747281011238244, 0.02437979689535234, 0.991237506110371], [-0.3040281354932934, -0.3705694545273895, -0.050174555642524106, -0.5182326079623867, 0.8422213251324263, -0.5681319010310822], [-1.431400731633578, -1.0884336351800616, 1.5085883797086608, 0.6295200405826175, 0.09257385282984171, 0.8970931309380926]], [[-0.148986751087195], [-0.6491134523261577], [1.0130798126803706], [0.3212928752751895], [-1.3939573572340693], [1.6367876791141007]]], "biases": [[[0.0030156395162471935], [-1.1782718309396552], [-0.6865247566893946], [1.4742200533285785], [0.7977726813277047], [-0.5201477040069545]], [[0.49603015177525156]]], "layers": [6, 6, 1]}, {"name": "", "score": 6, "weights": [[[0.8387912359237674, -0.861840163887748, -2.1622512192131293, -0.32353584266605456, 0.9267022952743491, -0.1887678889883719], [-0.8918411465800818, -0.7849104704759756, 1.2853074717129378, 0.8084323210625975, 1.2993247169940088, 0.01879916479922233], [1.180758304334597, 1.27200070664979, 0.31403238791527044, -0.20064260800467873, -0.11702218173750646, -1.4242208523009527], [-1.7219682687614157, 2.608543513441848, -0.8682955930571581, -0.5164011727510229, 0.8598359827451154, 0.0160068662442635], [-1.0107325592739151, 0.8137110739275046, 2.217792337927468, 1.678638807146764, -1.6458203168908547, -0.5832373649316106], [0.9246107321597056, -1.3110799801280328, -1.5053595842958114, -0.3888349558345066, -0.9585062151816275, 1.301587627923244]], [[-0.8200652901811241], [-2.0282144957720196], [-0.608603981895745], [0.637350168568237], [-0.2519308078334664], [-0.8070440393263362]]], "biases": [[[-1.2857427931794376], [0.7507447369448721], [1.4382859192300639], [-0.9398378101273318], [0.4859888013423268], [0.2836478551421255]], [[-0.44184414512985126]]], "layers": [6, 6, 1]}, {"name": "", "score": 7, "weights": [[[0.15013741106546927, 1.0554870478068792, -0.472837813750256, 1.1818929422919657, 0.6128711300503701, 0.6779763742822509], [-0.1533334300203297, -0.924026170562648, -1.9219926123795468, -1.4711008704530297, -0.40245649364653224, -1.3635536794414933], [-0.27635582376043777, -0.5414678378125836, 0.45134748045915996, 1.372329571512923, -0.21881006832993152, -0.892396888172139], [-0.0629123922883723, -0.6478043693784832, 0.036431557691447514, 1.236443128267175, -0.07990568883252422, 0.8763799566712949], [1.0838235316521827, 1.4157426339327872, -0.05028735678242855, 2.3130364422853797, 1.1984864922378946, 0.5405801829343241], [0.5936151338931549, 0.2004338341648263, -1.5463977954029093, -0.7830083015754922, -0.009223289146850382, 0.3689066589746584]], [[-0.46811370211873243], [-0.9633279136785172], [-1.0116234067470151], [0.05954768451604528], [1.3981386664835913], [-0.8791935584772477]]], "biases": [[[-1.381648718885396], [-0.078773456996056], [-0.18738727486502207], [-0.38906404874692285], [-0.9263553018596008], [0.6839497338555679]], [[0.2742884458598942]]], "layers": [6, 6, 1]}, {"name": "", "score": 8, "weights": [[[-0.5218893099682588, -0.5185743340495805, 0.6339764709181112, -0.6201025286960444, 1.4261631567341895, -0.0828428315785916], [0.24814166206588617, 0.4884393171816846, -0.11740319472656703, -0.08651840256314952, 0.31513835926488803, -0.23204044088121414], [-1.8787905250464156, -1.0224454748091203, -1.3630042260384636, 0.21923109244294303, 0.06597684007113748, 0.28881718265622586], [-0.2811408462490232, -0.10277575558676039, -0.1372190390162217, 0.1816207879779683, 1.142267642108424, 0.7953940179881576], [-1.4818095508030602, -0.8213186395667715, -0.351929611560014, -0.04467687664030341, -0.5778656687286567, -0.34570893071179926], [0.6974656469926935, -0.8959257303704747, -0.6354147031632545, 0.9367715287753016, -0.9306365377453839, -1.4341812446111228]], [[0.591223868714801], [0.6405724110151105], [-1.6005941279110663], [0.5892707519438215], [-0.046983189902189346], [0.6886006113288536]]], "biases": [[[-0.02937193416721133], [-1.497962074591217], [-0.22154796870403487], [-0.09780871828972308], [0.4042212932922823], [0.6925630981516249]], [[0.22704119439490283]]], "layers": [6, 6, 1]}, {"name": "", "score": 9, "weights": [[[-0.7220709777793403, 1.1204421700242087, 0.9106808467739396, 0.5160597034219188, 0.9356997634346772, 0.4761639421638646], [0.4386229670154385, 0.09248761987321856, -0.28042768301645843, -1.7404688646251711, -0.5461976746116751, -0.9455366452960522], [0.6867923657014012, -0.7116458912046951, -1.6065698668887252, 0.4630266004433756, -0.8857806380792332, -0.8440723015246585], [0.14574889949563322, -1.823831567954416, 1.5982073716871998, 0.5192283261144403, 0.5964270858952793, -0.9275534461223662], [-2.728084385134059, 1.4262916050498406, -0.11216228363639845, 0.927938679593352, 0.22683412633504396, -0.8534983798778873], [0.21569966439682325, -1.3522830337638714, -0.957020580168484, -0.028575885633271954, -1.7562629493584578, -1.112425920281804]], [[-0.14186934859945516], [1.651720918136263], [-0.16782173849767754], [-0.6312485714357707], [-0.2781831021459765], [0.8107804567779578]]], "biases": [[[1.1436388114266653], [-0.938637764839144], [-1.2558188008422326], [-0.9266481841711487], [0.5515431041832938], [-1.6880883296993854]], [[1.534840576046567]]], "layers": [6, 6, 1]}, {"name": "", "score": 10, "weights": [[[-0.35607886705202474, 1.1390088118271582, 0.017032298395170502, 0.6011088374537928, 0.39392777394414397, 0.34492873377002237], [0.9025029656887525, 0.025082536413313136, -0.7215064915885041, -0.9486714632827804, -0.8000311813569699, -1.6299297477801196], [3.11976273627436, -0.29697246859627857, -0.9315193870224281, -3.089046888479891, -1.447888640700734, 0.49545125478440055], [0.9203176633107703, 0.5963794731540547, 0.6710632469251034, -0.0024469977446351997, -0.9705397453834088, 0.3573879220881147], [0.19450622172174056, 0.13439094354699857, -0.2787373580338494, 2.738389585230942, 0.6509058980122455, -1.0263731891040015], [0.6225355055246625, 0.36016087546315523, 0.3710051312845611, -0.08532231157213199, -0.0008109248153675917, -1.3051709914815117]], [[-2.198280085164681], [-2.048824955204215], [0.7912861169244767], [-1.690401957197587], [-0.2336482894940727], [-0.6560230269731623]]], "biases": [[[0.10619911276568385], [0.3355387789811371], [0.04061599875753206], [-0.37718659812939576], [0.26743842206795165], [0.8778822628406279]], [[-0.06638296073377338]]], "layers": [6, 6, 1]}, {"name": "", "score": 11, "weights": [[[-0.4340753109931026, -0.725655500168158, -0.5481032800934418, 0.65901209627764, 1.0442407609749955, -1.2926418711951209], [-0.6636270965955201, 0.1545952822516954, -1.3928265302638938, -1.0327505802471662, 0.05144846928505866, 2.005610051448896], [-1.1117907709631316, -1.5103678287388664, 1.6585011149359825, -0.3350610608220097, 0.569012186935969, 0.016018677642852835], [0.09260222191946535, -0.32921773464439347, -1.009916360026094, 0.9142110640588527, -0.1827593894289579, -0.7349210953827839], [-0.8832333099518905, 2.078067004996487, 0.735462346624592, -0.05739265895728543, -1.100544353493024, 0.27495805475102686], [1.1119317350396056, 0.9301419541140449, 1.4030875305110007, -0.22145090435631676, 0.24604278386466483, 0.48907567394420465]], [[-0.17064699476533682], [0.15571450026124278], [0.44881353995372436], [0.23198925625898373], [1.7336509080769937], [-1.8335425046989131]]], "biases": [[[-0.11704872387986956], [-0.33077101092137584], [0.17541509360480467], [-0.8834930388659027], [-2.5878280465375205], [-0.2534127001014147]], [[0.4539584029880049]]], "layers": [6, 6, 1]}, {"name": "", "score": 12, "weights": [[[0.032251140002397205, -0.4595556460338292, -1.354985486782643, -0.40458596531336205, 0.9482448046291981, 0.5892057383573217], [-0.6951859406716749, -1.083064800476417, 1.085428454670797, 2.116203285365369, 0.678853534311883, 0.12466499439205385], [-1.8580723399973702, -1.14464812355117, -0.15155508442974777, -0.799543347689915, -0.20507163282485602, 1.561815692686696], [0.16713235328034928, -0.36410765654282673, -1.0110077584343862, -2.300551443772669, 2.302614951643324, 0.08604842365826204], [1.2409481573815253, 0.1111718450133413, 2.3752693820350474, -0.4330842370274481, 1.5464016942172158, 1.749753518595445], [0.8059910379167111, -0.4656939837947205, -1.116813961373713, -0.3979214201455351, 1.8229425365974952, -1.3661828877980182]], [[-0.1429125962750342], [0.3139622691867358], [-1.8492772826675605], [1.0792494612136925], [0.7223751227130539], [-0.5649793816375502]]], "biases": [[[1.6071916271920346], [-0.5267772703530239], [-0.2574974684942891], [-1.1589429517752863], [0.7586927123955831], [-1.792310814603845]], [[0.8409655916397267]]], "layers": [6, 6, 1]}, {"name": "", "score": 13, "weights": [[[-0.1193673638036854, -0.19506364522580788, -0.12023583661815343, -0.9214180237081455, -0.5302575738606621, -0.5373677090450556], [0.7295469664236303, -1.1952112031120605, -0.7226768605196894, -2.0256923920934935, -0.9578587386599262, 1.2961110946102536], [-0.15260968377086803, -0.7058922326761625, -0.8172129680453977, -0.7652941538759394, -0.066794886766785, 0.38028087985822534], [2.1911746775232483, -0.2657122963239829, -0.730652413010528, 1.241600006739018, 1.1842210058188367, -0.0073209977798398065], [1.6770285580508477, 0.7494307171955786, -1.6804164353175204, -1.109922960540761, 0.14215583038241839, -1.056331688122284], [0.4403162706036007, -0.5369665432321175, 0.986493094946288, 0.7366664677089473, 1.8506002395640644, 1.9373701475830385]], [[-0.7581305653327916], [-0.43733381722719933], [0.6798929431682306], [0.23611392817915428], [-0.520926469276663], [-1.4586352855781974]]], "biases": [[[-1.5148340302782626], [0.27756361871037316], [0.11761225880528713], [0.7406824319701275], [0.21814108673967533], [-0.3797211264844356]], [[1.9698824076839478]]], "layers": [6, 6, 1]}, {"name": "", "score": 14, "weights": [[[0.7959450223151504, 0.12542590209193927, -0.477289014973408, -0.3265950154276705, -1.2039064469049408, -1.1815988567597195], [-1.7135134801022607, 0.6285215672468167, -2.8426716851813154, 1.6217609957228702, 0.8305731022032653, 0.1751677710830372], [1.0096793868672047, -0.667140259625955, 0.027380780697129608, 0.015074587089863142, 0.9232268394472339, -1.1102279654174807], [0.28437409974054506, 1.4430772355548336, 0.0770242473046108, -0.6717356511218672, 0.008613636675883735, 0.1597991601829452], [0.4029114424130255, 0.039540772782046055, 1.765168777809718, -0.7603885429825383, 0.26834462016434024, -1.100942009311397], [-1.4395852914767966, 0.4463738994081929, 0.27772695513593815, 0.02965804404463583, 1.3912841293911198, 0.4796761379178417]], [[-0.7044420441892268], [-0.2851008594340358], [1.7363995616178065], [-0.30313470905871254], [-1.0136983487785007], [1.7858726048143456]]], "biases": [[[1.5387176567506864], [1.001554751116258], [-0.22047104037284704], [-0.30890706511776606], [-0.5075215663130542], [0.9453650491717376]], [[0.7787170351811924]]], "layers": [6, 6, 1]}, {"name": "", "score": 15, "weights": [[[1.4182658266204875, -0.6324215263870415, 0.0015735991060616022, 0.503670669473503, 2.1075875896041842, -1.852192614106093], [-1.0813400473280448, 1.131121992386502, 1.051260446327912, 0.08672067396878519, 1.7158359989451946, 1.3399750563209603], [0.21953169630590608, -2.1468865005427546, -0.7297279107896391, -0.9949766345214986, 1.0259780119788948, 0.032619246286881204], [-1.5085400130646835, 0.7493384545533239, -1.294303302337518, 1.1530247613440772, 1.2732709064953056, 1.2541485795280816], [1.0303734507555486, -0.4999630825234257, 1.4959960499424088, 0.03187426798294658, 0.13832523577928582, 0.937797892322805], [1.2442123413140944, -0.9796648475121211, 0.31429936593388724, -0.9438283030724387, -0.5942685268565122, -1.5834777465557646]], [[2.1319262585117613], [-0.3233182429154816], [-0.4444767463065963], [-1.2277519848287088], [-2.4945642307282534], [0.1662641622750757]]], "biases": [[[0.0008895574734799026], [-0.33626187080545444], [1.988688015020867], [-0.8155247820037103], [-0.9719321451330859], [-1.229300539041215]], [[-0.5793610780004997]]], "layers": [6, 6, 1]}, {"name": "", "score": 16, "weights": [[[-0.5763875994972227, 0.6224068750951319, 0.10420796910702644, 0.019538908563257056, -0.6634640431668242, 0.27107364770202147], [-0.8779482049441847, 0.5486834548997965, 0.5742393013143119, -1.705401725554107, 0.4997294526506407, -1.4377995336872178], [-0.35678738725341785, 1.9076133482235915, 0.12742464521142777, -0.298182111074925, 0.15579505296405066, -0.32719712355499236], [0.3572086522924272, 0.17992949419918203, 1.2827484553026787, -0.14445692567234555, -1.1697767808472277, 0.4368743939427058], [0.4577898451354378, 0.5773476720019464, 0.9407601324159696, -1.5317502813654715, 0.05199830876251597, 0.9110186626887133], [-1.3698129039001847, -0.49095437266861813, 1.5686764503840147, 0.17738366795184363, -0.2885290315401402, -1.0794329251654922]], [[-0.008647023654488483], [-1.1102284542756653], [-1.6041388799906502], [-1.4166308193359232], [-0.73412922536634], [0.9039624010415082]]], "biases": [[[0.02710333070234699], [-0.392130281026401], [-0.333784177301824], [-1.2789406939467283], [-0.34436429811675967], [-0.5821573020654702]], [[-0.8963909289508277]]], "layers": [6, 6, 1]}, {"name": "", "score": 17, "weights": [[[-0.6395212383826446, -1.2152098808072551, 1.4566959763625076, 0.6491244633301414, -0.565500696891183, -0.8779523789647418], [0.38762415874885325, 1.3374083438896165, -0.02612415712995288, -0.6363208142357698, 1.2498332531577194, 0.2890620631484521], [-0.5213765240151026, 0.41620304029997196, 0.21883913829126805, -0.6384305856699964, 0.09295295547562489, 0.9742217011673053], [2.1313400047336373, -1.578864641201688, -1.4552864207578489, -0.522827155960061, -0.628432192084966, 0.17235718557860447], [-0.3793599646110392, 0.626395931924757, 2.072169815710196, -0.469491117199999, 0.8205867769463324, 0.8146779038219217], [-0.4450114875453845, 0.4049477634783443, 1.1206674909057561, -0.5543284597924609, 0.5458514903680728, -0.07311314893505773]], [[-0.5136940500502746], [-0.01437197891854631], [-0.41929966258121903], [0.15223345856453985], [-1.0503847634351173], [-1.0598515852927637]]], "biases": [[[-0.8381019167350202], [-1.584612799168755], [1.1023970191537902], [0.5383277338522863], [0.8503408856890188], [-1.9954676244550653]], [[2.0283488477314506]]], "layers": [6, 6, 1]}, {"name": "", "score": 18, "weights": [[[0.752674689606283, -1.0180632800058382, 0.9494164732778595, -0.3624904190344455, -1.5161704326717906, -0.09162313342599117], [0.5098881133527611, 1.4198532903560694, 1.4171006076728505, -0.17578155741207255, -1.9460287692632572, 0.34005708783390665], [0.4873978526582834, -0.08535171010629476, 1.2726961066636522, 1.7894594607392065, -0.8082589704546375, 0.34215984250211345], [1.240260457853369, -0.26847171952171167, -0.07843444912975724, 0.17471452144912367, 2.274113851600706, 0.10128530232224556], [-1.0991064831700321, -0.06551942805475228, 0.552169854434703, -0.7444176906570767, 0.006323787630683483, -0.2826883931893112], [-0.3785850570212861, 0.11364543789370016, -0.62453407908061, 0.28080738803211786, 0.5492322840544737, 0.3188976923869016]], [[-0.6105732969666879], [0.5708811581824518], [1.183061340132308], [1.654986864459799], [0.7668338722444283], [-0.11442287359655531]]], "biases": [[[0.0610580344812219], [0.3553437347737108], [-0.4869558586136902], [0.25427871671140345], [-0.008854536059830513], [0.030614315473747714]], [[1.5629809770605092]]], "layers": [6, 6, 1]}, {"name": "", "score": 19, "weights": [[[-0.614074564277239, 0.16888055200704852, 2.1086034347525455, 0.1392478194937204, -1.7797329489636984, 1.4302964663454996], [-0.33129218014147915, 1.2623600657497123, -0.2531718944661895, -0.2770036888477228, 0.39891431276934425, -0.09623634273173806], [-0.9977340721476643, 0.927140912757609, -1.6559724030696865, 0.9677734324448284, -1.26147750366611, -0.41821854009427945], [-1.542370708017401, -1.572957514956503, -0.0223176944473594, 0.520644603833175, 0.4706470006294277, -1.0847272865041637], [-1.5022417881644423, 0.11535926767376273, -0.9249378366131401, 1.5885749209460758, -1.3613887109222718, 0.3974595378448738], [-1.464839095899422, 1.0877087367384481, -0.7039380644632315, 1.7496677394700908, -0.7466192497404278, -0.8302847222788514]], [[0.2736461291395761], [-0.9623029734143131], [1.636145934199513], [-1.11405128802482], [0.7847247111900777], [1.0832984397835743]]], "biases": [[[-1.7807785817412747], [-1.27540304438679], [-1.1003846739620842], [-0.669500804845287], [-0.8575888905045159], [-0.03598597446594058]], [[-1.0026157928484731]]], "layers": [6, 6, 1]}]}