{"gen": [{"name": "", "score": 2, "weights": [[[-0.5148820908034091, -0.4656608075335685, 0.7106780377110434, 0.31871532626124827, -0.4119084192126717, -0.4941371960193586], [0.191443220665038, 2.183918023983856, 0.2945459280341643, -0.108786827292437, -0.8036066558858584, 1.065409927949724], [-0.3686755665494649, 1.4062109530353526, -1.9690731889541293, -0.12767138172027215, 0.9504009825574353, -1.098918696456686], [0.008945569126411514, 1.3746836512841987, 0.6714851536648876, 0.41705147384659685, -0.09772111791858643, -1.3517826800128447], [-1.2078432696076322, -0.6228983594102563, 1.1200650969709833, -2.731935177403569, 0.27452070617204866, -1.33185670341194], [-1.2364199060323107, -0.787217254862861, 0.7569290834617565, -0.00613482083526524, 0.1348681815081091, 0.9799465153545143]], [[0.34752315488400487], [-0.7353295335800233], [-0.8813180445694578], [0.1925506689459367], [-1.9084411366990939], [0.17664032931079476]]], "biases": [[[0.7313475625883974], [1.697895936702709], [-1.7128435757789302], [-0.6443037173177885], [-1.8574625552315835], [-0.11806445403728186]], [[1.579465290648385]]], "layers": [6, 6, 1]}, {"name": "", "score": 1, "weights": [[[-1.7646713879304727, -0.4656608075335685, 0.7106780377110434, -0.32462064274015684, -0.4119084192126717, -0.42749936082165607], [0.191443220665038, 2.183918023983856, 0.2945459280341643, 2.0305429498098864, -0.8036066558858584, 0.8181811907342658], [-0.3686755665494649, 1.4062109530353526, -1.9690731889541293, -0.12767138172027215, 0.9504009825574353, -1.098918696456686], [0.008945569126411514, 1.3746836512841987, 0.6714851536648876, 0.41705147384659685, -0.12811303233252874, 0.34898350587402066], [-1.2078432696076322, -0.6228983594102563, 1.1200650969709833, -2.731935177403569, 0.27452070617204866, -1.33185670341194], [-1.2364199060323107, -0.787217254862861, 0.7569290834617565, -0.00613482083526524, 0.1348681815081091, -0.6667571795423141]], [[0.34752315488400487], [-0.7353295335800233], [-0.8813180445694578], [0.1925506689459367], [-1.9084411366990939], [-0.43078386874078406]]], "biases": [[[0.7313475625883974], [-0.6337851138833666], [-1.7128435757789302], [-0.6443037173177885], [1.1659631976871672], [-0.11806445403728186]], [[1.579465290648385]]], "layers": [6, 6, 1]}, {"name": "", "score": 23, "weights": [[[-0.5148820908034091, -0.4656608075335685, 0.7106780377110434, -0.32462064274015684, -0.4119084192126717, -0.4941371960193586], [0.191443220665038, 2.183918023983856, 0.2945459280341643, 2.0305429498098864, -0.8036066558858584, 1.065409927949724], [-0.3686755665494649, 1.4062109530353526, -1.9690731889541293, -0.12767138172027215, 0.9504009825574353, 1.0104318473868374], [0.008945569126411514, 1.3746836512841987, 0.6714851536648876, 0.41705147384659685, -0.09772111791858643, 0.34898350587402066], [-1.2078432696076322, -0.6228983594102563, 1.1200650969709833, -2.731935177403569, 0.27452070617204866, -1.33185670341194], [-1.2364199060323107, -0.787217254862861, 0.7569290834617565, 1.0045587748871458, 0.1348681815081091, 0.9799465153545143]], [[0.34752315488400487], [-0.7353295335800233], [-0.6795278109225023], [0.1925506689459367], [-1.9084411366990939], [-0.43078386874078406]]], "biases": [[[0.7313475625883974], [1.697895936702709], [-1.7128435757789302], [-0.6443037173177885], [1.1659631976871672], [-0.11806445403728186]], [[1.579465290648385]]], "layers": [6, 6, 1]}, {"name": "", "score": 14, "weights": [[[-0.5148820908034091, -0.4656608075335685, 0.7106780377110434, -0.32462064274015684, -0.4119084192126717, -0.42749936082165607], [0.191443220665038, -1.8369858910690942, -0.3482101527918683, 2.0305429498098864, -0.8036066558858584, 0.8181811907342658], [-0.7256898069073658, 1.4062109530353526, 0.1695887495135554, -0.12767138172027215, 0.9504009825574353, -1.098918696456686], [0.008945569126411514, 1.3746836512841987, 0.6714851536648876, 0.41705147384659685, -0.12811303233252874, 0.34898350587402066], [-1.2078432696076322, -0.6228983594102563, 1.1200650969709833, -2.731935177403569, 0.27452070617204866, -1.33185670341194], [-1.2364199060323107, -0.787217254862861, 0.7569290834617565, -0.00613482083526524, 0.1348681815081091, 0.9799465153545143]], [[0.34752315488400487], [-0.7353295335800233], [-0.8813180445694578], [0.1925506689459367], [-1.9084411366990939], [-0.43078386874078406]]], "biases": [[[0.7313475625883974], [1.697895936702709], [-1.7128435757789302], [-0.6443037173177885], [1.1659631976871672], [-0.11806445403728186]], [[1.579465290648385]]], "layers": [6, 6, 1]}, {"name": "", "score": 4, "weights": [[[-1.7646713879304727, -0.4656608075335685, 0.7106780377110434, 0.11432482883723571, -0.4119084192126717, -0.42749936082165607], [0.191443220665038, 2.183918023983856, 0.2945459280341643, 2.0305429498098864, -0.8036066558858584, 0.8181811907342658], [-0.3686755665494649, 1.4062109530353526, -1.9690731889541293, -0.12767138172027215, 0.9504009825574353, -1.098918696456686], [0.008945569126411514, 1.3746836512841987, 0.6714851536648876, 0.41705147384659685, -0.09772111791858643, 0.34898350587402066], [-1.2078432696076322, -0.6228983594102563, 1.1200650969709833, -2.731935177403569, 0.27452070617204866, -1.33185670341194], [-1.2364199060323107, -0.787217254862861, 0.7569290834617565, -0.00613482083526524, 0.1348681815081091, -0.24100384274180248]], [[0.34752315488400487], [-0.7353295335800233], [-0.8813180445694578], [0.1925506689459367], [-1.9084411366990939], [-0.43078386874078406]]], "biases": [[[0.7313475625883974], [-0.6337851138833666], [-1.7128435757789302], [-0.6443037173177885], [-1.8574625552315835], [-0.11806445403728186]], [[1.579465290648385]]], "layers": [6, 6, 1]}, {"name": "", "score": 9, "weights": [[[-0.5148820908034091, -0.4656608075335685, 0.7106780377110434, 0.2754634339542027, -0.4119084192126717, -0.42749936082165607], [0.191443220665038, 2.183918023983856, 0.2945459280341643, 2.0305429498098864, -0.8036066558858584, 0.8181811907342658], [-0.3686755665494649, 1.4062109530353526, -1.9690731889541293, -0.12767138172027215, 0.9504009825574353, -0.1491697006095553], [0.008945569126411514, 1.3746836512841987, 0.6714851536648876, 0.41705147384659685, -0.12811303233252874, -1.3517826800128447], [-1.2078432696076322, -0.6228983594102563, 1.1200650969709833, -2.731935177403569, 0.27452070617204866, -1.33185670341194], [-1.2364199060323107, -0.787217254862861, 1.840629534147039, -0.00613482083526524, 0.1348681815081091, -0.6667571795423141]], [[0.34752315488400487], [-0.3591629022390578], [-1.5287357646111284], [0.1925506689459367], [-1.9084411366990939], [0.17664032931079476]]], "biases": [[[0.7313475625883974], [1.697895936702709], [-1.7128435757789302], [-0.6443037173177885], [-1.8574625552315835], [-0.11806445403728186]], [[1.579465290648385]]], "layers": [6, 6, 1]}, {"name": "", "score": 12, "weights": [[[-0.5148820908034091, -0.4656608075335685, 0.7106780377110434, 0.2754634339542027, -0.4119084192126717, -0.42749936082165607], [0.191443220665038, 2.183918023983856, 0.2945459280341643, 2.0305429498098864, -0.8036066558858584, 0.8181811907342658], [-0.3686755665494649, 1.4062109530353526, -1.9690731889541293, -0.12767138172027215, 0.9504009825574353, 1.0104318473868374], [0.008945569126411514, 1.3746836512841987, 0.6714851536648876, 0.41705147384659685, -0.12811303233252874, 0.34898350587402066], [-1.2078432696076322, -0.6228983594102563, 1.1200650969709833, -2.731935177403569, 0.27452070617204866, -1.33185670341194], [-1.2364199060323107, -1.222236678374151, 0.7569290834617565, -0.00613482083526524, 0.1348681815081091, 0.6239267494928056]], [[0.34752315488400487], [-0.7353295335800233], [-0.8813180445694578], [0.1925506689459367], [-1.9084411366990939], [-0.43078386874078406]]], "biases": [[[0.7313475625883974], [1.697895936702709], [1.4683651842891525], [-0.6443037173177885], [-1.8574625552315835], [-0.11806445403728186]], [[-0.07674085681234936]]], "layers": [6, 6, 1]}, {"name": "", "score": 4, "weights": [[[-0.5148820908034091, -0.4656608075335685, 0.7106780377110434, -0.32462064274015684, -0.22865204030432784, -0.42749936082165607], [-2.307432017946726, 2.183918023983856, 0.2945459280341643, -0.108786827292437, -0.8036066558858584, 0.5443517809555087], [-0.3686755665494649, 1.4062109530353526, -1.9690731889541293, -0.12767138172027215, 0.9504009825574353, 1.0104318473868374], [0.008945569126411514, 1.3746836512841987, 0.6714851536648876, 0.41705147384659685, -0.12811303233252874, 0.34898350587402066], [-1.2078432696076322, -0.6228983594102563, 1.1200650969709833, -2.731935177403569, 0.27452070617204866, -1.33185670341194], [-1.2364199060323107, -0.787217254862861, 0.7569290834617565, -0.00613482083526524, 0.1348681815081091, -0.6667571795423141]], [[0.34752315488400487], [-0.7353295335800233], [-1.5287357646111284], [0.1925506689459367], [-1.9084411366990939], [-0.43078386874078406]]], "biases": [[[0.7313475625883974], [-0.6337851138833666], [1.4683651842891525], [-0.6443037173177885], [-1.8574625552315835], [-0.11806445403728186]], [[1.579465290648385]]], "layers": [6, 6, 1]}, {"name": "", "score": 5, "weights": [[[-0.5148820908034091, -0.4656608075335685, 0.7106780377110434, -0.32462064274015684, -0.4119084192126717, -0.4941371960193586], [0.191443220665038, 2.183918023983856, 0.2945459280341643, 2.0305429498098864, -0.8036066558858584, 1.065409927949724], [-0.3686755665494649, 1.4062109530353526, -1.9690731889541293, -0.12767138172027215, 0.9504009825574353, 1.0104318473868374], [0.008945569126411514, 1.3746836512841987, 0.6714851536648876, 0.41705147384659685, -0.09772111791858643, -1.3517826800128447], [-1.2078432696076322, -0.6228983594102563, 1.1200650969709833, -0.5017720113116921, 0.27452070617204866, -1.33185670341194], [-1.2364199060323107, -0.787217254862861, 0.7569290834617565, -0.00613482083526524, 0.1348681815081091, 0.9799465153545143]], [[0.34752315488400487], [-0.7353295335800233], [-0.8813180445694578], [0.1925506689459367], [-1.9084411366990939], [0.17664032931079476]]], "biases": [[[0.7313475625883974], [1.697895936702709], [-1.7128435757789302], [-0.6443037173177885], [-1.8574625552315835], [-0.11806445403728186]], [[1.579465290648385]]], "layers": [6, 6, 1]}, {"name": "", "score": 4, "weights": [[[-0.5148820908034091, -0.4656608075335685, 0.7106780377110434, 0.2754634339542027, -0.4119084192126717, -0.42749936082165607], [0.191443220665038, 2.183918023983856, 0.2945459280341643, 2.0305429498098864, -0.8036066558858584, 0.8181811907342658], [-0.3686755665494649, 1.4062109530353526, -1.9690731889541293, -0.12767138172027215, 0.9504009825574353, -1.098918696456686], [0.008945569126411514, 1.3746836512841987, 0.6714851536648876, 0.41705147384659685, -0.12811303233252874, 0.34898350587402066], [-1.2078432696076322, -0.6228983594102563, 1.1200650969709833, -0.5017720113116921, 0.27452070617204866, -1.33185670341194], [-1.2364199060323107, -0.787217254862861, 0.7569290834617565, -0.00613482083526524, 0.1348681815081091, -0.6667571795423141]], [[0.34752315488400487], [-0.7353295335800233], [-0.8813180445694578], [0.1925506689459367], [-1.9084411366990939], [-0.43078386874078406]]], "biases": [[[0.7313475625883974], [-0.6337851138833666], [-1.7128435757789302], [-0.6443037173177885], [-1.8574625552315835], [-0.11806445403728186]], [[-0.07674085681234936]]], "layers": [6, 6, 1]}, {"name": "", "score": -136, "weights": [[[-1.4451654490685348, -0.4656608075335685, 0.7106780377110434, -0.32462064274015684, -0.4119084192126717, -0.42749936082165607], [0.191443220665038, 2.183918023983856, 0.2945459280341643, 2.0305429498098864, -0.8036066558858584, 0.8181811907342658], [-0.3686755665494649, 1.4062109530353526, -1.9690731889541293, -0.12767138172027215, 0.9504009825574353, 1.0104318473868374], [1.232521656726427, 1.3746836512841987, 0.6714851536648876, 0.41705147384659685, -0.12811303233252874, 0.34898350587402066], [-1.2078432696076322, -0.6228983594102563, 1.1200650969709833, -2.731935177403569, 0.27452070617204866, -1.33185670341194], [-1.2364199060323107, -0.787217254862861, 0.7569290834617565, -2.378079166660826, 0.1348681815081091, -0.24100384274180248]], [[0.34752315488400487], [-0.7353295335800233], [-1.5287357646111284], [0.1925506689459367], [-1.9084411366990939], [-0.43078386874078406]]], "biases": [[[0.7313475625883974], [-0.6337851138833666], [1.4683651842891525], [-0.6443037173177885], [1.1659631976871672], [-0.11806445403728186]], [[1.579465290648385]]], "layers": [6, 6, 1]}, {"name": "", "score": -4, "weights": [[[-0.5148820908034091, -0.4656608075335685, 0.7106780377110434, -0.32462064274015684, -0.4119084192126717, -0.42749936082165607], [0.191443220665038, 2.183918023983856, 0.2945459280341643, -0.108786827292437, -0.8036066558858584, 0.8181811907342658], [-0.3686755665494649, 1.4062109530353526, -1.9690731889541293, -0.12767138172027215, 0.9504009825574353, 1.0104318473868374], [1.232521656726427, 1.3746836512841987, 0.6714851536648876, 0.41705147384659685, -0.12811303233252874, -1.3517826800128447], [-1.2078432696076322, -0.6228983594102563, 1.1200650969709833, -2.731935177403569, 0.27452070617204866, -1.33185670341194], [-1.2364199060323107, -0.787217254862861, 0.7569290834617565, -0.00613482083526524, 0.1348681815081091, -0.24100384274180248]], [[0.34752315488400487], [-0.7353295335800233], [-1.5287357646111284], [0.1925506689459367], [-1.9084411366990939], [0.17664032931079476]]], "biases": [[[0.7313475625883974], [-0.6337851138833666], [-1.7128435757789302], [-0.6443037173177885], [-1.8574625552315835], [-0.11806445403728186]], [[1.579465290648385]]], "layers": [6, 6, 1]}, {"name": "", "score": -3, "weights": [[[-1.7646713879304727, -0.4656608075335685, 0.7106780377110434, -0.32462064274015684, -0.4119084192126717, -0.42749936082165607], [0.191443220665038, 2.183918023983856, 0.2945459280341643, -0.108786827292437, -0.8036066558858584, 1.065409927949724], [-0.3686755665494649, 1.4062109530353526, -1.9690731889541293, -0.12767138172027215, 0.9504009825574353, -1.098918696456686], [0.008945569126411514, 1.3746836512841987, 0.6714851536648876, 1.5924629107370665, -0.09772111791858643, -1.3517826800128447], [-1.2078432696076322, -0.6228983594102563, 1.1200650969709833, -2.731935177403569, 0.27452070617204866, -1.33185670341194], [-1.2364199060323107, -0.787217254862861, 0.7569290834617565, -0.00613482083526524, 0.1348681815081091, -0.6667571795423141]], [[0.34752315488400487], [-0.7353295335800233], [-0.8813180445694578], [0.1925506689459367], [-1.9084411366990939], [-0.43078386874078406]]], "biases": [[[0.7313475625883974], [-0.6337851138833666], [-1.7128435757789302], [-0.6443037173177885], [-1.8574625552315835], [-0.11806445403728186]], [[1.579465290648385]]], "layers": [6, 6, 1]}, {"name": "", "score": 5, "weights": [[[-0.5148820908034091, -0.4656608075335685, 0.7106780377110434, 0.11432482883723571, -0.4119084192126717, -0.42749936082165607], [0.191443220665038, 2.183918023983856, 0.2945459280341643, 2.0305429498098864, -0.8036066558858584, 0.06362113222034363], [-0.3686755665494649, 1.4062109530353526, -1.9690731889541293, -0.12767138172027215, 0.9504009825574353, 1.0104318473868374], [0.008945569126411514, 1.3746836512841987, 0.6714851536648876, 0.41705147384659685, -0.12811303233252874, 0.34898350587402066], [-1.2078432696076322, -0.6228983594102563, 1.1200650969709833, -2.731935177403569, 0.27452070617204866, -1.33185670341194], [-1.2364199060323107, -0.787217254862861, 0.7569290834617565, -0.00613482083526524, 0.1348681815081091, -0.6667571795423141]], [[0.34752315488400487], [-0.7353295335800233], [-1.5287357646111284], [0.1925506689459367], [-1.9084411366990939], [-0.43078386874078406]]], "biases": [[[0.7313475625883974], [1.697895936702709], [1.4683651842891525], [-0.6443037173177885], [-1.8574625552315835], [-0.11806445403728186]], [[1.579465290648385]]], "layers": [6, 6, 1]}, {"name": "", "score": 11, "weights": [[[-0.5148820908034091, -0.4656608075335685, 0.7106780377110434, -0.32462064274015684, -0.4119084192126717, -0.42749936082165607], [0.191443220665038, 2.183918023983856, 0.2945459280341643, -0.108786827292437, -0.8036066558858584, 0.8181811907342658], [-0.3686755665494649, 1.4062109530353526, -1.9690731889541293, -0.12767138172027215, 0.9504009825574353, -1.098918696456686], [0.008945569126411514, 1.3746836512841987, 0.6714851536648876, 0.41705147384659685, -0.09772111791858643, -1.3517826800128447], [-1.2078432696076322, -0.6228983594102563, 1.1200650969709833, -2.731935177403569, 0.27452070617204866, -1.33185670341194], [-1.2364199060323107, -0.787217254862861, 0.7569290834617565, -0.00613482083526524, 0.1348681815081091, -0.6667571795423141]], [[0.34752315488400487], [-0.7353295335800233], [-0.8813180445694578], [0.1925506689459367], [-1.9084411366990939], [0.17664032931079476]]], "biases": [[[-1.089741762015433], [1.697895936702709], [-1.7128435757789302], [-0.6443037173177885], [1.1659631976871672], [-0.11806445403728186]], [[1.579465290648385]]], "layers": [6, 6, 1]}, {"name": "", "score": 17, "weights": [[[-0.5148820908034091, -0.4656608075335685, 0.7106780377110434, -0.32462064274015684, -0.4042152251567084, -0.4941371960193586], [0.191443220665038, 2.183918023983856, 0.2945459280341643, -0.108786827292437, -0.8036066558858584, 0.8181811907342658], [-0.3686755665494649, 1.4062109530353526, -1.9690731889541293, -0.12767138172027215, 0.9504009825574353, 1.0104318473868374], [0.008945569126411514, 1.3746836512841987, 0.6714851536648876, 0.41705147384659685, -0.12811303233252874, 0.34898350587402066], [-1.2078432696076322, -0.6228983594102563, 1.1200650969709833, -2.731935177403569, 0.27452070617204866, -1.33185670341194], [-1.2364199060323107, -0.787217254862861, 0.7569290834617565, -0.00613482083526524, 0.1348681815081091, -0.24100384274180248]], [[0.34752315488400487], [-0.7353295335800233], [-0.8813180445694578], [0.1925506689459367], [-1.9084411366990939], [-0.43078386874078406]]], "biases": [[[0.7313475625883974], [1.697895936702709], [-1.7128435757789302], [-0.6443037173177885], [-1.8574625552315835], [-0.11806445403728186]], [[1.579465290648385]]], "layers": [6, 6, 1]}, {"name": "", "score": 17, "weights": [[[-0.5148820908034091, -0.4656608075335685, 0.7106780377110434, -0.32462064274015684, -0.4119084192126717, -0.42749936082165607], [0.191443220665038, 2.183918023983856, 0.2945459280341643, 2.0305429498098864, -0.8036066558858584, 0.8181811907342658], [-0.3686755665494649, 1.4062109530353526, -1.9690731889541293, -0.12767138172027215, 0.9504009825574353, 1.0104318473868374], [0.008945569126411514, 1.3746836512841987, 0.6714851536648876, 0.41705147384659685, -0.12811303233252874, -1.3517826800128447], [-1.2078432696076322, -0.6228983594102563, 1.1200650969709833, -0.5017720113116921, 0.27452070617204866, -1.33185670341194], [-1.2364199060323107, -0.787217254862861, 0.7569290834617565, -0.00613482083526524, 0.1348681815081091, -0.6667571795423141]], [[0.34752315488400487], [-0.7353295335800233], [-0.8813180445694578], [0.1925506689459367], [-1.9084411366990939], [0.17664032931079476]]], "biases": [[[0.7313475625883974], [1.697895936702709], [-1.7128435757789302], [-0.6443037173177885], [1.1659631976871672], [-0.11806445403728186]], [[1.579465290648385]]], "layers": [6, 6, 1]}, {"name": "", "score": -3, "weights": [[[-1.7646713879304727, -0.4656608075335685, 0.7106780377110434, 0.11432482883723571, -0.4119084192126717, -0.42749936082165607], [0.191443220665038, 2.183918023983856, 0.2945459280341643, -0.108786827292437, -0.8036066558858584, 0.8181811907342658], [-0.3686755665494649, 1.4062109530353526, -1.9690731889541293, -0.12767138172027215, 1.8219732278663603, 1.0104318473868374], [1.232521656726427, 1.3746836512841987, 0.6714851536648876, 0.41705147384659685, -0.12811303233252874, 0.34898350587402066], [-1.2078432696076322, -0.6228983594102563, 1.1200650969709833, -2.731935177403569, 0.27452070617204866, -1.33185670341194], [-1.2364199060323107, -0.787217254862861, 0.7569290834617565, -0.00613482083526524, 0.1348681815081091, -0.24100384274180248]], [[0.34752315488400487], [-0.7353295335800233], [-1.5287357646111284], [0.1925506689459367], [-1.9084411366990939], [-0.43078386874078406]]], "biases": [[[0.7313475625883974], [-0.6337851138833666], [-1.7128435757789302], [-0.6443037173177885], [-0.5489668808674588], [-0.11806445403728186]], [[1.579465290648385]]], "layers": [6, 6, 1]}, {"name": "", "score": 10, "weights": [[[-1.7646713879304727, -0.4656608075335685, 0.7106780377110434, -0.32462064274015684, -0.4119084192126717, -0.42749936082165607], [0.191443220665038, 2.183918023983856, 0.2945459280341643, 2.0305429498098864, -0.8036066558858584, 0.8181811907342658], [-0.3686755665494649, 1.4062109530353526, -1.9690731889541293, -0.12767138172027215, 0.9504009825574353, 1.0104318473868374], [1.232521656726427, 1.3746836512841987, 0.6714851536648876, 0.41705147384659685, -0.12811303233252874, -1.5282073700360683], [-1.2078432696076322, -0.6228983594102563, 1.1200650969709833, -2.731935177403569, 0.27452070617204866, -1.33185670341194], [-1.2364199060323107, -0.787217254862861, 0.7569290834617565, -0.00613482083526524, 0.1348681815081091, -0.5248519081506077]], [[0.34752315488400487], [-0.7353295335800233], [-1.5287357646111284], [0.1925506689459367], [-1.9084411366990939], [-0.43078386874078406]]], "biases": [[[0.7313475625883974], [-0.6337851138833666], [-1.7128435757789302], [-0.6443037173177885], [1.1659631976871672], [-0.11806445403728186]], [[0.9234634346467893]]], "layers": [6, 6, 1]}, {"name": "", "score": 8, "weights": [[[-0.5148820908034091, -0.4656608075335685, 0.7106780377110434, -0.32462064274015684, -0.4119084192126717, -0.42749936082165607], [0.191443220665038, 2.183918023983856, 0.2945459280341643, 2.0305429498098864, -0.8036066558858584, 0.8181811907342658], [-0.3686755665494649, 1.4062109530353526, -1.9690731889541293, -0.12767138172027215, 0.9504009825574353, 1.0104318473868374], [0.008945569126411514, 1.3746836512841987, 0.6714851536648876, 0.41705147384659685, -0.12811303233252874, 0.34898350587402066], [-1.2078432696076322, -0.6228983594102563, -0.04425106581740873, -2.731935177403569, 0.27452070617204866, -1.33185670341194], [-1.2364199060323107, -0.787217254862861, 0.7569290834617565, -0.00613482083526524, 0.1348681815081091, -0.6667571795423141]], [[0.34752315488400487], [-0.7353295335800233], [-1.5287357646111284], [0.1925506689459367], [-1.9084411366990939], [0.17664032931079476]]], "biases": [[[0.7313475625883974], [-0.6337851138833666], [-1.7128435757789302], [-0.6443037173177885], [1.1659631976871672], [-0.11806445403728186]], [[-0.07674085681234936]]], "layers": [6, 6, 1]}]}