{"gen": [{"name": "", "score": 13, "weights": [[[-0.5148820908034091, -0.4656608075335685, 0.7106780377110434, -0.32462064274015684, -0.4042152251567084, -0.4941371960193586], [0.191443220665038, 2.183918023983856, -0.3482101527918683, -0.108786827292437, -0.8036066558858584, 0.8181811907342658], [-0.3686755665494649, 1.4062109530353526, -1.9690731889541293, -0.12767138172027215, 0.9504009825574353, -1.098918696456686], [0.008945569126411514, 1.3746836512841987, 0.6714851536648876, 0.41705147384659685, -0.12811303233252874, 0.34898350587402066], [-1.2078432696076322, -0.6228983594102563, 1.1200650969709833, -2.731935177403569, 0.27452070617204866, -1.33185670341194], [-1.2364199060323107, -0.787217254862861, 0.7569290834617565, -0.00613482083526524, 0.1348681815081091, -0.24100384274180248]], [[0.34752315488400487], [-0.7353295335800233], [-0.8813180445694578], [0.1925506689459367], [-1.9084411366990939], [-0.43078386874078406]]], "biases": [[[0.7313475625883974], [1.697895936702709], [-1.7128435757789302], [-1.2139870316242671], [-1.1554531852178533], [-0.11806445403728186]], [[1.579465290648385]]], "layers": [6, 6, 1]}, {"name": "", "score": 5, "weights": [[[-0.5148820908034091, -0.4656608075335685, 0.7106780377110434, -0.32462064274015684, -0.4119084192126717, 0.16723704405617176], [0.191443220665038, 2.183918023983856, 0.2945459280341643, 2.0305429498098864, -0.8036066558858584, 0.8181811907342658], [-0.3686755665494649, 1.4062109530353526, -1.9690731889541293, -0.12767138172027215, 0.9504009825574353, 1.0104318473868374], [0.008945569126411514, 1.3746836512841987, 0.6714851536648876, 0.41705147384659685, -0.12811303233252874, -1.3517826800128447], [-1.2078432696076322, -0.6228983594102563, 1.1200650969709833, -2.731935177403569, 0.27452070617204866, -1.33185670341194], [-1.2364199060323107, -0.787217254862861, 0.7569290834617565, 1.0045587748871458, 0.1348681815081091, 0.5623326554757003]], [[0.34752315488400487], [-0.7353295335800233], [-0.8813180445694578], [0.1925506689459367], [-1.9084411366990939], [-0.43078386874078406]]], "biases": [[[0.7313475625883974], [1.697895936702709], [-1.7128435757789302], [-0.6443037173177885], [1.1659631976871672], [-0.11806445403728186]], [[1.579465290648385]]], "layers": [6, 6, 1]}, {"name": "", "score": 11, "weights": [[[-0.5148820908034091, -0.4656608075335685, 0.7106780377110434, 0.2754634339542027, -0.4119084192126717, -0.42749936082165607], [0.191443220665038, 0.3090946368866749, 0.2945459280341643, 2.0305429498098864, -0.8036066558858584, 0.8181811907342658], [-0.3686755665494649, 1.4062109530353526, -1.9690731889541293, -0.12767138172027215, 0.9504009825574353, 1.0104318473868374], [0.008945569126411514, 1.3746836512841987, 0.6714851536648876, 0.41705147384659685, -0.12811303233252874, 0.34898350587402066], [-1.2078432696076322, -0.6228983594102563, 1.1200650969709833, -2.731935177403569, 0.27452070617204866, -1.33185670341194], [-1.2364199060323107, -1.222236678374151, 0.7569290834617565, -0.00613482083526524, 0.1348681815081091, 0.6239267494928056]], [[0.34752315488400487], [-0.7353295335800233], [-0.8813180445694578], [0.1925506689459367], [-1.9084411366990939], [-0.43078386874078406]]], "biases": [[[0.7313475625883974], [1.697895936702709], [1.4683651842891525], [-0.6443037173177885], [-1.8574625552315835], [-0.11806445403728186]], [[-0.07674085681234936]]], "layers": [6, 6, 1]}, {"name": "", "score": 14, "weights": [[[-0.5148820908034091, -0.4656608075335685, 0.7106780377110434, -0.32462064274015684, -0.4119084192126717, -0.42749936082165607], [0.191443220665038, 2.183918023983856, -0.3482101527918683, 2.0305429498098864, -0.8036066558858584, 0.8181811907342658], [-0.7256898069073658, 1.4062109530353526, 0.1695887495135554, -0.12767138172027215, 0.9504009825574353, 1.0104318473868374], [0.008945569126411514, 1.3746836512841987, 0.6714851536648876, 0.41705147384659685, -0.12811303233252874, 0.34898350587402066], [-1.2078432696076322, -0.6228983594102563, 1.1200650969709833, -2.731935177403569, 0.27452070617204866, -1.33185670341194], [-1.2364199060323107, -0.787217254862861, 0.7569290834617565, 1.0045587748871458, 0.1348681815081091, 0.9799465153545143]], [[0.34752315488400487], [-0.7353295335800233], [-0.8813180445694578], [0.1925506689459367], [-1.9084411366990939], [-0.43078386874078406]]], "biases": [[[0.7313475625883974], [1.697895936702709], [-1.7128435757789302], [-0.6443037173177885], [1.1659631976871672], [-0.11806445403728186]], [[1.579465290648385]]], "layers": [6, 6, 1]}, {"name": "", "score": 20, "weights": [[[-0.5148820908034091, -0.4656608075335685, 0.7106780377110434, 0.2754634339542027, -0.4119084192126717, -0.42749936082165607], [0.191443220665038, 1.0603857967185049, 0.2945459280341643, 2.0305429498098864, -0.8036066558858584, 1.065409927949724], [-0.3686755665494649, 1.4062109530353526, -1.9690731889541293, -0.12767138172027215, 0.9504009825574353, 1.0104318473868374], [0.008945569126411514, 1.3746836512841987, 0.6714851536648876, 0.41705147384659685, -0.12811303233252874, 0.34898350587402066], [-1.2078432696076322, -0.6228983594102563, 1.1200650969709833, -2.731935177403569, 0.27452070617204866, -1.33185670341194], [-1.2364199060323107, -1.222236678374151, 0.7569290834617565, -0.00613482083526524, 0.1348681815081091, 0.6239267494928056]], [[0.34752315488400487], [-0.7353295335800233], [-0.6795278109225023], [0.1925506689459367], [-1.9084411366990939], [-0.43078386874078406]]], "biases": [[[0.7313475625883974], [1.697895936702709], [-1.7128435757789302], [-0.6443037173177885], [1.1659631976871672], [-0.11806445403728186]], [[-0.07674085681234936]]], "layers": [6, 6, 1]}, {"name": "", "score": 9, "weights": [[[-0.5148820908034091, -0.4656608075335685, 0.7106780377110434, -0.32462064274015684, -0.4119084192126717, -0.42749936082165607], [0.191443220665038, 2.183918023983856, 0.2945459280341643, 2.0305429498098864, -0.8036066558858584, 0.8181811907342658], [-0.3686755665494649, 1.4062109530353526, -1.9690731889541293, -0.12767138172027215, 0.9504009825574353, 1.0104318473868374], [0.5788710648220515, 1.3746836512841987, 0.6714851536648876, 0.41705147384659685, 0.25254952204500775, -1.3517826800128447], [-1.2078432696076322, -0.6228983594102563, 1.1200650969709833, -0.5017720113116921, 0.27452070617204866, -1.33185670341194], [-1.2364199060323107, -0.787217254862861, 0.7569290834617565, -0.00613482083526524, 0.1348681815081091, -0.6667571795423141]], [[0.34752315488400487], [-0.7353295335800233], [-0.8813180445694578], [0.1925506689459367], [-1.9084411366990939], [0.17664032931079476]]], "biases": [[[0.7313475625883974], [1.697895936702709], [-1.7128435757789302], [-0.6443037173177885], [1.1659631976871672], [-0.11806445403728186]], [[1.579465290648385]]], "layers": [6, 6, 1]}, {"name": "", "score": 11, "weights": [[[-0.5148820908034091, -0.4656608075335685, 0.7106780377110434, 0.2754634339542027, -0.4119084192126717, -0.42749936082165607], [0.191443220665038, 2.183918023983856, 0.2945459280341643, 2.0305429498098864, -0.8036066558858584, 0.8181811907342658], [-0.3686755665494649, 1.4062109530353526, 0.1695887495135554, -0.12767138172027215, 0.9504009825574353, -1.098918696456686], [0.008945569126411514, 1.3746836512841987, 0.6714851536648876, 0.41705147384659685, -0.12811303233252874, -0.18478289518922755], [-1.2078432696076322, -0.6228983594102563, 1.1200650969709833, -2.731935177403569, 0.27452070617204866, -1.33185670341194], [-1.2364199060323107, -1.222236678374151, 0.7569290834617565, -0.00613482083526524, 0.1348681815081091, 0.6239267494928056]], [[0.34752315488400487], [-0.7353295335800233], [-0.8813180445694578], [0.1925506689459367], [-1.9084411366990939], [-0.43078386874078406]]], "biases": [[[0.7313475625883974], [1.697895936702709], [-1.7128435757789302], [-0.6443037173177885], [1.1659631976871672], [-0.11806445403728186]], [[-0.07674085681234936]]], "layers": [6, 6, 1]}, {"name": "", "score": 26, "weights": [[[-0.5148820908034091, -0.4656608075335685, 0.7106780377110434, -0.32462064274015684, -0.4119084192126717, -0.4941371960193586], [0.191443220665038, 2.183918023983856, 0.2945459280341643, 2.0305429498098864, -0.8036066558858584, 1.065409927949724], [-0.3686755665494649, 1.4062109530353526, -1.9690731889541293, -0.12767138172027215, 0.9504009825574353, 1.0104318473868374], [0.008945569126411514, 1.3746836512841987, 0.6714851536648876, 0.41705147384659685, -0.09772111791858643, 0.34898350587402066], [-1.2078432696076322, -0.6228983594102563, 1.1200650969709833, -2.731935177403569, 0.27452070617204866, -1.33185670341194], [-1.2364199060323107, -0.787217254862861, 0.7569290834617565, 1.0045587748871458, 0.1348681815081091, 0.9799465153545143]], [[0.34752315488400487], [-0.7353295335800233], [-0.6795278109225023], [0.1925506689459367], [-1.9084411366990939], [-0.43078386874078406]]], "biases": [[[0.7313475625883974], [1.697895936702709], [-1.7128435757789302], [-0.6443037173177885], [1.1659631976871672], [-0.11806445403728186]], [[1.579465290648385]]], "layers": [6, 6, 1]}, {"name": "", "score": 26, "weights": [[[-0.5148820908034091, -0.4656608075335685, 0.7106780377110434, -0.32462064274015684, -0.4119084192126717, -0.42749936082165607], [0.191443220665038, 2.183918023983856, -0.3482101527918683, 2.0305429498098864, -0.8036066558858584, 0.8181811907342658], [-0.7256898069073658, 1.4062109530353526, -1.9690731889541293, -0.12767138172027215, 0.9504009825574353, -1.098918696456686], [0.008945569126411514, 1.3746836512841987, 0.6714851536648876, 0.41705147384659685, -0.12811303233252874, 0.34898350587402066], [-1.2078432696076322, -0.6228983594102563, 1.1200650969709833, -2.731935177403569, 0.27452070617204866, -1.33185670341194], [-1.2364199060323107, -0.787217254862861, 0.7569290834617565, -0.00613482083526524, 0.1348681815081091, 0.9799465153545143]], [[0.34752315488400487], [-0.7353295335800233], [-0.8813180445694578], [0.1925506689459367], [-1.9084411366990939], [-0.43078386874078406]]], "biases": [[[0.7313475625883974], [1.697895936702709], [-1.7128435757789302], [-0.6443037173177885], [1.1659631976871672], [-0.11806445403728186]], [[1.579465290648385]]], "layers": [6, 6, 1]}, {"name": "", "score": 14, "weights": [[[-0.5148820908034091, -0.4656608075335685, 0.7106780377110434, -0.32462064274015684, -0.4119084192126717, -0.42749936082165607], [0.191443220665038, 2.183918023983856, 0.2945459280341643, 2.0305429498098864, -0.8036066558858584, 0.8181811907342658], [-0.3686755665494649, 1.4062109530353526, -1.9690731889541293, -0.12767138172027215, 0.9504009825574353, 1.0104318473868374], [0.008945569126411514, 1.3746836512841987, 0.6714851536648876, 0.41705147384659685, -0.12811303233252874, 0.34898350587402066], [-1.2078432696076322, -0.6228983594102563, 1.1200650969709833, -2.731935177403569, 0.27452070617204866, -1.33185670341194], [-1.2364199060323107, -1.222236678374151, 0.7569290834617565, -0.00613482083526524, 0.1348681815081091, 0.6239267494928056]], [[0.34752315488400487], [-0.7353295335800233], [-0.8813180445694578], [0.1925506689459367], [-1.9084411366990939], [0.17664032931079476]]], "biases": [[[0.7313475625883974], [1.697895936702709], [-1.7128435757789302], [-0.6443037173177885], [1.1659631976871672], [-0.11806445403728186]], [[1.579465290648385]]], "layers": [6, 6, 1]}, {"name": "", "score": 21, "weights": [[[-0.5148820908034091, -0.4656608075335685, 0.7106780377110434, -0.32462064274015684, -0.4042152251567084, -0.42749936082165607], [0.191443220665038, 2.183918023983856, 0.2945459280341643, 2.0305429498098864, -0.8036066558858584, 0.8181811907342658], [-0.3686755665494649, 1.4062109530353526, -1.9690731889541293, -0.12767138172027215, 0.9504009825574353, 1.0104318473868374], [0.008945569126411514, 1.3746836512841987, 0.6714851536648876, 0.41705147384659685, -0.12811303233252874, 0.34898350587402066], [-1.2078432696076322, -0.6228983594102563, 1.1200650969709833, -0.5017720113116921, 0.27452070617204866, -1.33185670341194], [-1.2364199060323107, -0.787217254862861, 0.7569290834617565, -0.00613482083526524, 0.1348681815081091, -0.6667571795423141]], [[0.34752315488400487], [-0.7353295335800233], [-0.8813180445694578], [0.1925506689459367], [-1.9084411366990939], [-0.43078386874078406]]], "biases": [[[0.7313475625883974], [1.697895936702709], [-1.7128435757789302], [-0.6443037173177885], [1.1659631976871672], [-0.11806445403728186]], [[1.579465290648385]]], "layers": [6, 6, 1]}, {"name": "", "score": -15, "weights": [[[-0.5148820908034091, -0.4656608075335685, 0.7106780377110434, 0.2754634339542027, -0.4119084192126717, -0.4941371960193586], [0.191443220665038, 2.183918023983856, 0.2945459280341643, 2.0305429498098864, -0.8036066558858584, 0.8181811907342658], [-0.3686755665494649, 1.4062109530353526, -1.9690731889541293, -0.12767138172027215, 0.9504009825574353, 1.0104318473868374], [0.008945569126411514, 1.3746836512841987, 0.6714851536648876, 0.41705147384659685, -0.12811303233252874, 0.34898350587402066], [-1.2078432696076322, -0.6228983594102563, 1.1200650969709833, -2.731935177403569, 0.27452070617204866, -1.33185670341194], [-1.2364199060323107, -1.222236678374151, 0.7569290834617565, 1.0045587748871458, 0.1348681815081091, 0.9799465153545143]], [[0.34752315488400487], [-0.7353295335800233], [-0.8813180445694578], [0.1925506689459367], [-1.9084411366990939], [-0.43078386874078406]]], "biases": [[[0.7313475625883974], [1.697895936702709], [-1.7128435757789302], [-0.6443037173177885], [1.1659631976871672], [-0.11806445403728186]], [[-0.07674085681234936]]], "layers": [6, 6, 1]}, {"name": "", "score": 31, "weights": [[[-0.5148820908034091, -0.4656608075335685, 0.7106780377110434, -0.32462064274015684, -0.4119084192126717, -0.4941371960193586], [0.191443220665038, 2.183918023983856, 0.2945459280341643, 2.0305429498098864, -0.8036066558858584, 1.065409927949724], [-0.3686755665494649, 1.4062109530353526, -1.9690731889541293, -0.12767138172027215, 0.9504009825574353, 1.0104318473868374], [0.008945569126411514, 1.3746836512841987, 0.6714851536648876, 0.41705147384659685, -0.09772111791858643, 0.34898350587402066], [-1.2078432696076322, -0.6228983594102563, 1.1200650969709833, -2.731935177403569, 1.7889970328623577, -1.33185670341194], [-1.2364199060323107, -0.787217254862861, 0.7569290834617565, 1.0045587748871458, 0.1348681815081091, 0.9799465153545143]], [[0.34752315488400487], [-0.7353295335800233], [-0.6795278109225023], [0.1925506689459367], [-1.9084411366990939], [-0.43078386874078406]]], "biases": [[[0.7313475625883974], [1.697895936702709], [-1.7128435757789302], [-0.6443037173177885], [1.1659631976871672], [-0.11806445403728186]], [[1.579465290648385]]], "layers": [6, 6, 1]}, {"name": "", "score": -102, "weights": [[[-0.5148820908034091, -0.4656608075335685, 0.7106780377110434, -0.32462064274015684, -0.4119084192126717, -0.42749936082165607], [0.191443220665038, 2.183918023983856, 0.2945459280341643, 2.0305429498098864, -0.8036066558858584, 0.8181811907342658], [-0.3686755665494649, 1.4062109530353526, -1.9690731889541293, -0.12767138172027215, 0.9504009825574353, 1.0104318473868374], [0.008945569126411514, 1.3746836512841987, 0.6714851536648876, 0.41705147384659685, -0.12811303233252874, -1.3517826800128447], [-1.2078432696076322, -0.6228983594102563, 1.1200650969709833, -0.5017720113116921, 0.27452070617204866, -1.33185670341194], [-1.2364199060323107, -1.222236678374151, 0.7569290834617565, -0.00613482083526524, 0.1348681815081091, -0.6667571795423141]], [[0.34752315488400487], [-0.7353295335800233], [-0.8813180445694578], [0.1925506689459367], [0.2059572701950251], [0.17664032931079476]]], "biases": [[[0.7313475625883974], [1.697895936702709], [-1.7128435757789302], [-0.6443037173177885], [-1.8574625552315835], [-0.11806445403728186]], [[1.579465290648385]]], "layers": [6, 6, 1]}, {"name": "", "score": 6, "weights": [[[-0.5148820908034091, -0.4656608075335685, 0.7106780377110434, -0.32462064274015684, -0.4042152251567084, -0.4941371960193586], [0.191443220665038, 2.183918023983856, -0.3482101527918683, 2.0305429498098864, -0.8036066558858584, 0.8181811907342658], [-0.3686755665494649, 1.4062109530353526, 0.1695887495135554, 1.0768171654199212, 0.9504009825574353, -1.098918696456686], [0.008945569126411514, 1.3746836512841987, 0.6714851536648876, 0.41705147384659685, -0.12811303233252874, 0.34898350587402066], [-1.2078432696076322, -0.6228983594102563, 1.1200650969709833, -2.731935177403569, 0.27452070617204866, -1.33185670341194], [-1.2364199060323107, -0.787217254862861, 0.7569290834617565, -0.00613482083526524, 0.1348681815081091, -0.24100384274180248]], [[0.34752315488400487], [-0.7353295335800233], [-0.8813180445694578], [0.1925506689459367], [-1.9084411366990939], [-0.43078386874078406]]], "biases": [[[0.7313475625883974], [1.697895936702709], [-0.7692366960801494], [-0.6443037173177885], [1.1659631976871672], [-0.11806445403728186]], [[1.579465290648385]]], "layers": [6, 6, 1]}, {"name": "", "score": 10, "weights": [[[-0.5148820908034091, -0.4656608075335685, 0.7106780377110434, -0.32462064274015684, -0.4042152251567084, -0.42749936082165607], [-0.7175474196374976, -1.8369858910690942, -0.3482101527918683, -0.108786827292437, -0.8036066558858584, 0.8181811907342658], [-0.3686755665494649, 1.4062109530353526, -1.9690731889541293, -0.12767138172027215, 0.9504009825574353, 1.0104318473868374], [0.008945569126411514, 1.3746836512841987, 0.6714851536648876, 0.41705147384659685, -0.12811303233252874, 0.34898350587402066], [-1.2078432696076322, -0.6228983594102563, 1.1200650969709833, -2.731935177403569, 0.27452070617204866, -1.33185670341194], [-1.2364199060323107, -0.787217254862861, 0.7569290834617565, -0.00613482083526524, 0.1348681815081091, -0.24100384274180248]], [[0.34752315488400487], [-0.7353295335800233], [-0.8813180445694578], [0.1925506689459367], [-1.9084411366990939], [-0.43078386874078406]]], "biases": [[[0.7313475625883974], [1.697895936702709], [-1.7128435757789302], [-0.6443037173177885], [1.1659631976871672], [-0.11806445403728186]], [[-0.7869609913770044]]], "layers": [6, 6, 1]}, {"name": "", "score": 27, "weights": [[[-0.5148820908034091, -0.4656608075335685, 0.7106780377110434, -0.32462064274015684, -0.4119084192126717, -0.42749936082165607], [0.191443220665038, 2.183918023983856, 0.2945459280341643, 2.0305429498098864, -0.8036066558858584, 0.036563641743151284], [-0.3686755665494649, 1.4062109530353526, -1.9690731889541293, -0.12767138172027215, 0.9504009825574353, 1.0104318473868374], [0.008945569126411514, 1.3746836512841987, 0.6714851536648876, 0.41705147384659685, -0.12811303233252874, 0.34898350587402066], [-1.2078432696076322, -0.6228983594102563, 1.1200650969709833, -2.731935177403569, 0.27452070617204866, -1.33185670341194], [-1.2364199060323107, -0.787217254862861, 0.7569290834617565, -0.00613482083526524, 0.1348681815081091, -0.24100384274180248]], [[0.34752315488400487], [-0.7353295335800233], [-0.8813180445694578], [0.1925506689459367], [-1.9084411366990939], [-0.43078386874078406]]], "biases": [[[0.7313475625883974], [1.697895936702709], [-1.7128435757789302], [-0.6443037173177885], [-1.8574625552315835], [-0.11806445403728186]], [[1.579465290648385]]], "layers": [6, 6, 1]}, {"name": "", "score": -113, "weights": [[[-0.5148820908034091, -0.4656608075335685, 0.7106780377110434, -0.32462064274015684, -0.4042152251567084, -0.4941371960193586], [0.191443220665038, 2.183918023983856, 0.2945459280341643, -0.108786827292437, -0.8036066558858584, 0.8181811907342658], [-0.3686755665494649, 1.4062109530353526, -1.9690731889541293, -0.12767138172027215, 0.9504009825574353, 1.0104318473868374], [0.008945569126411514, 1.3746836512841987, 0.6714851536648876, 0.41705147384659685, -0.12811303233252874, 0.34898350587402066], [-1.2078432696076322, -0.6228983594102563, 1.1200650969709833, -2.731935177403569, 0.27452070617204866, -1.33185670341194], [-1.2364199060323107, -0.787217254862861, 0.7569290834617565, -0.00613482083526524, 0.1348681815081091, -0.24100384274180248]], [[0.34752315488400487], [-0.7353295335800233], [-0.8813180445694578], [0.1925506689459367], [-1.9084411366990939], [-2.283292331944654]]], "biases": [[[0.7313475625883974], [1.697895936702709], [-1.7128435757789302], [-0.6443037173177885], [-1.8574625552315835], [-0.11806445403728186]], [[1.579465290648385]]], "layers": [6, 6, 1]}, {"name": "", "score": 33, "weights": [[[-0.7760098509421294, -0.4656608075335685, 0.7106780377110434, -0.32462064274015684, -0.4119084192126717, -0.42749936082165607], [0.191443220665038, 2.183918023983856, 0.2945459280341643, 2.0305429498098864, -0.8036066558858584, 0.8181811907342658], [-0.7256898069073658, 1.4062109530353526, -1.9690731889541293, -0.12767138172027215, 0.9504009825574353, -0.39086109708232636], [0.008945569126411514, 1.3746836512841987, 0.6714851536648876, 0.41705147384659685, -0.12811303233252874, -1.3517826800128447], [-1.2078432696076322, -0.6228983594102563, 1.1200650969709833, -2.731935177403569, 0.27452070617204866, -1.33185670341194], [-1.2364199060323107, -0.787217254862861, 0.7569290834617565, -0.12139594574541462, 0.1348681815081091, 0.9799465153545143]], [[0.34752315488400487], [-0.7353295335800233], [-0.8813180445694578], [0.1925506689459367], [-1.9084411366990939], [0.17664032931079476]]], "biases": [[[0.7313475625883974], [1.5688951843667025], [-1.7128435757789302], [-0.6443037173177885], [1.1659631976871672], [-0.11806445403728186]], [[1.579465290648385]]], "layers": [6, 6, 1]}, {"name": "", "score": -47, "weights": [[[-0.5148820908034091, -0.4656608075335685, 0.7106780377110434, -0.32462064274015684, -0.4042152251567084, -0.4941371960193586], [0.191443220665038, 2.183918023983856, 0.2945459280341643, -0.108786827292437, -0.8036066558858584, 0.8181811907342658], [-0.3686755665494649, 1.4062109530353526, -1.9690731889541293, -0.12767138172027215, 0.9504009825574353, 1.0104318473868374], [0.008945569126411514, 1.3746836512841987, 0.4549145927308342, 0.41705147384659685, -0.12811303233252874, 0.34898350587402066], [-1.2078432696076322, -0.6228983594102563, -0.7544706520616146, -2.731935177403569, 0.27452070617204866, -1.33185670341194], [-1.2364199060323107, -0.787217254862861, 0.7569290834617565, -0.00613482083526524, 0.1348681815081091, -0.24100384274180248]], [[0.34752315488400487], [-0.7353295335800233], [-0.8813180445694578], [0.1925506689459367], [-1.9084411366990939], [-0.43078386874078406]]], "biases": [[[0.7313475625883974], [1.697895936702709], [-1.7128435757789302], [-0.6443037173177885], [-1.8574625552315835], [-0.11806445403728186]], [[1.579465290648385]]], "layers": [6, 6, 1]}]}