{"gen": [{"name": "", "score": -16, "weights": [[[-0.5148820908034091, -0.4656608075335685, 0.7106780377110434, -0.32462064274015684, -0.4119084192126717, -0.4941371960193586], [0.191443220665038, 2.183918023983856, 0.2945459280341643, 2.0305429498098864, -2.709060937052151, 1.065409927949724], [-0.3686755665494649, 1.4062109530353526, -1.9690731889541293, -0.32134576476885107, 0.9504009825574353, 1.0104318473868374], [0.008945569126411514, 1.3746836512841987, 0.6714851536648876, 0.41705147384659685, -0.09772111791858643, 0.34898350587402066], [-1.2078432696076322, -0.6228983594102563, 1.1200650969709833, -2.731935177403569, 0.27452070617204866, -1.33185670341194], [-1.2364199060323107, -0.787217254862861, 0.7569290834617565, 1.0045587748871458, 0.1348681815081091, 0.9799465153545143]], [[0.34752315488400487], [-0.7353295335800233], [-0.8813180445694578], [0.1925506689459367], [-1.9084411366990939], [-0.43078386874078406]]], "biases": [[[0.7313475625883974], [1.5688951843667025], [-1.7128435757789302], [-0.6443037173177885], [1.1659631976871672], [-0.11806445403728186]], [[1.579465290648385]]], "layers": [6, 6, 1]}, {"name": "", "score": -14, "weights": [[[-0.5148820908034091, -0.4656608075335685, 0.7106780377110434, -0.32462064274015684, -0.4119084192126717, -0.4941371960193586], [0.191443220665038, 2.183918023983856, 0.2945459280341643, 2.0305429498098864, -2.709060937052151, 1.065409927949724], [-0.3686755665494649, 1.4062109530353526, -1.9690731889541293, -0.12767138172027215, 0.9504009825574353, 1.0104318473868374], [0.008945569126411514, 1.3746836512841987, 0.6714851536648876, 0.41705147384659685, -0.09772111791858643, -1.3517826800128447], [-1.2078432696076322, -0.6228983594102563, 1.1200650969709833, -2.731935177403569, 0.27452070617204866, -1.33185670341194], [-1.2364199060323107, -0.787217254862861, 0.7569290834617565, 1.0045587748871458, 0.1348681815081091, 0.9799465153545143]], [[0.34752315488400487], [-0.7353295335800233], [-0.8813180445694578], [0.1925506689459367], [-1.9084411366990939], [0.17664032931079476]]], "biases": [[[0.7313475625883974], [1.697895936702709], [-1.7128435757789302], [-0.6443037173177885], [1.1659631976871672], [-0.11806445403728186]], [[1.579465290648385]]], "layers": [6, 6, 1]}, {"name": "", "score": -38, "weights": [[[-0.5148820908034091, -0.4656608075335685, 0.7106780377110434, -0.32462064274015684, -0.4119084192126717, -0.4941371960193586], [0.191443220665038, 2.183918023983856, 0.2945459280341643, 2.0305429498098864, -2.709060937052151, 1.065409927949724], [-0.3686755665494649, 1.4062109530353526, -1.9690731889541293, -0.12767138172027215, 0.9504009825574353, 1.0104318473868374], [0.008945569126411514, 1.3746836512841987, 0.6714851536648876, 0.41705147384659685, 1.3193063012362805, 0.34898350587402066], [-1.2078432696076322, -0.6228983594102563, 1.1200650969709833, 0.34274495521447623, 0.27452070617204866, -0.030081165049973338], [-1.2364199060323107, -0.787217254862861, 0.7569290834617565, 1.0045587748871458, 0.1348681815081091, 0.9799465153545143]], [[0.34752315488400487], [-0.7353295335800233], [-0.8813180445694578], [0.1925506689459367], [-1.9084411366990939], [-0.43078386874078406]]], "biases": [[[0.7313475625883974], [1.5688951843667025], [-1.7128435757789302], [-0.6443037173177885], [1.1659631976871672], [-0.11806445403728186]], [[1.579465290648385]]], "layers": [6, 6, 1]}, {"name": "", "score": -12, "weights": [[[-0.5148820908034091, -0.4656608075335685, 0.7106780377110434, -0.32462064274015684, -0.4119084192126717, -0.4941371960193586], [1.2099435276968395, 2.183918023983856, 0.2945459280341643, 2.0305429498098864, -2.709060937052151, 1.065409927949724], [-0.3686755665494649, 1.4062109530353526, -1.9690731889541293, 0.052554071451017835, 0.9504009825574353, 1.0104318473868374], [0.008945569126411514, 1.3746836512841987, 0.6714851536648876, 0.41705147384659685, -0.09772111791858643, -0.711795418506469], [-1.2078432696076322, -0.6228983594102563, 1.1200650969709833, 0.040190777278246416, 0.27452070617204866, -0.030081165049973338], [-1.2364199060323107, -0.787217254862861, 0.7569290834617565, 1.0045587748871458, 0.1348681815081091, 0.9799465153545143]], [[0.34752315488400487], [-0.7353295335800233], [-0.8813180445694578], [0.1925506689459367], [-1.9084411366990939], [-0.43078386874078406]]], "biases": [[[0.7313475625883974], [-0.09462044357733017], [-1.7128435757789302], [-0.6443037173177885], [1.1659631976871672], [-0.11806445403728186]], [[1.579465290648385]]], "layers": [6, 6, 1]}, {"name": "", "score": -10, "weights": [[[-0.5148820908034091, -0.4656608075335685, 0.7106780377110434, -0.32462064274015684, -0.4119084192126717, -0.4941371960193586], [1.2099435276968395, 2.183918023983856, 0.2945459280341643, 2.0305429498098864, -2.709060937052151, 1.065409927949724], [-0.3686755665494649, 1.4062109530353526, -1.9690731889541293, 0.052554071451017835, 0.9504009825574353, 1.0104318473868374], [0.008945569126411514, 1.3746836512841987, 0.6714851536648876, 0.41705147384659685, -0.09772111791858643, -1.3517826800128447], [-1.2078432696076322, -0.6228983594102563, 1.1200650969709833, 0.34274495521447623, 0.27452070617204866, -0.09861013013434035], [-1.2364199060323107, -1.9508296663011317, 0.7569290834617565, 1.0045587748871458, 0.1348681815081091, 0.9799465153545143]], [[0.34752315488400487], [-0.7353295335800233], [-0.8813180445694578], [0.1925506689459367], [-1.9084411366990939], [-0.43078386874078406]]], "biases": [[[0.7313475625883974], [1.697895936702709], [-1.7128435757789302], [-0.6443037173177885], [1.1659631976871672], [-0.11806445403728186]], [[1.579465290648385]]], "layers": [6, 6, 1]}, {"name": "", "score": -8, "weights": [[[-0.5148820908034091, -0.4656608075335685, 0.7106780377110434, -0.32462064274015684, -0.4119084192126717, -0.4941371960193586], [0.191443220665038, 2.183918023983856, 0.2945459280341643, 2.0305429498098864, -2.709060937052151, 1.065409927949724], [-0.3686755665494649, 1.4062109530353526, -1.9690731889541293, 0.4563145136928023, 0.9504009825574353, 1.0104318473868374], [0.008945569126411514, 1.3746836512841987, -0.294330797514675, 0.41705147384659685, -0.09772111791858643, 0.34898350587402066], [-1.2078432696076322, -0.6228983594102563, 1.1200650969709833, -2.731935177403569, 0.27452070617204866, -1.33185670341194], [-1.2364199060323107, -0.787217254862861, 0.7569290834617565, 1.0045587748871458, 0.1348681815081091, 0.9799465153545143]], [[0.34752315488400487], [-0.7353295335800233], [-0.8813180445694578], [0.1925506689459367], [-1.9084411366990939], [0.17664032931079476]]], "biases": [[[0.7313475625883974], [1.697895936702709], [-1.7128435757789302], [-0.6443037173177885], [1.1659631976871672], [-0.11806445403728186]], [[1.579465290648385]]], "layers": [6, 6, 1]}, {"name": "", "score": -6, "weights": [[[-0.5148820908034091, -0.4656608075335685, 0.7106780377110434, -0.32462064274015684, -0.4119084192126717, -0.4941371960193586], [1.2099435276968395, 2.183918023983856, 0.2945459280341643, 2.0305429498098864, -2.709060937052151, 1.065409927949724], [-0.3686755665494649, 1.4062109530353526, -1.9690731889541293, -0.12767138172027215, 0.9504009825574353, 1.0104318473868374], [0.008945569126411514, 1.3746836512841987, 0.6714851536648876, 0.41705147384659685, -0.09772111791858643, 0.34898350587402066], [-1.2078432696076322, -0.6228983594102563, 1.1200650969709833, -2.731935177403569, 0.27452070617204866, -1.33185670341194], [-1.2364199060323107, -0.787217254862861, 0.7569290834617565, 1.0045587748871458, 0.1348681815081091, 0.9799465153545143]], [[0.34752315488400487], [-0.7353295335800233], [-0.8813180445694578], [0.1925506689459367], [-1.9084411366990939], [0.17664032931079476]]], "biases": [[[0.7313475625883974], [1.697895936702709], [0.9416933648416188], [-0.6443037173177885], [1.1659631976871672], [-0.11806445403728186]], [[1.579465290648385]]], "layers": [6, 6, 1]}, {"name": "", "score": -4, "weights": [[[-0.5148820908034091, -0.4656608075335685, 0.7106780377110434, -0.32462064274015684, -0.4119084192126717, -0.4941371960193586], [1.2099435276968395, 2.183918023983856, 0.2945459280341643, 2.0305429498098864, -2.709060937052151, 1.065409927949724], [-0.3686755665494649, 1.4062109530353526, -1.9690731889541293, 0.052554071451017835, 0.9504009825574353, 1.0104318473868374], [0.008945569126411514, 1.3746836512841987, 0.6714851536648876, 0.41705147384659685, -0.09772111791858643, 0.8433410050967888], [-1.2078432696076322, -0.6228983594102563, 1.1200650969709833, 0.34274495521447623, 0.27452070617204866, -1.33185670341194], [-1.2364199060323107, -0.787217254862861, 0.7569290834617565, 1.0045587748871458, 0.1348681815081091, 0.9799465153545143]], [[0.34752315488400487], [-0.7353295335800233], [-0.8813180445694578], [0.1925506689459367], [-1.9084411366990939], [-0.43078386874078406]]], "biases": [[[0.7313475625883974], [1.5688951843667025], [-1.7128435757789302], [-0.6443037173177885], [1.1659631976871672], [-0.11806445403728186]], [[1.579465290648385]]], "layers": [6, 6, 1]}, {"name": "", "score": -2, "weights": [[[-0.5148820908034091, -0.4656608075335685, 0.7106780377110434, -0.8202880928518381, -0.4119084192126717, -0.4941371960193586], [0.191443220665038, 2.183918023983856, 0.2945459280341643, 2.0305429498098864, -2.709060937052151, 1.065409927949724], [-0.3686755665494649, 1.4062109530353526, 1.3319020296737722, -0.12767138172027215, 0.9504009825574353, 1.0104318473868374], [0.008945569126411514, 1.3746836512841987, 0.6714851536648876, 0.41705147384659685, -0.09772111791858643, 0.34898350587402066], [-1.2078432696076322, -0.6228983594102563, 1.1200650969709833, -2.731935177403569, 0.27452070617204866, -1.33185670341194], [-1.2364199060323107, -0.787217254862861, 0.7569290834617565, 1.0045587748871458, 0.1348681815081091, 0.9799465153545143]], [[0.34752315488400487], [-0.7353295335800233], [-0.8813180445694578], [0.1925506689459367], [-1.9084411366990939], [0.17664032931079476]]], "biases": [[[0.7313475625883974], [1.697895936702709], [-1.7128435757789302], [-0.6443037173177885], [1.1659631976871672], [-0.11806445403728186]], [[1.579465290648385]]], "layers": [6, 6, 1]}, {"name": "", "score": 0, "weights": [[[-0.5148820908034091, -0.4656608075335685, 0.7106780377110434, -0.32462064274015684, -0.4119084192126717, -0.4941371960193586], [0.191443220665038, 2.183918023983856, -0.3845723362671981, 2.0305429498098864, -2.709060937052151, 1.065409927949724], [-0.3686755665494649, 1.4062109530353526, -1.9690731889541293, -0.12767138172027215, 0.9504009825574353, 1.0104318473868374], [0.008945569126411514, 1.3746836512841987, 0.6714851536648876, 0.41705147384659685, -0.09772111791858643, -0.711795418506469], [-1.2078432696076322, -0.6228983594102563, 1.1200650969709833, 0.34274495521447623, 0.27452070617204866, -0.030081165049973338], [-1.2364199060323107, -0.787217254862861, 0.7569290834617565, 1.0045587748871458, 0.1348681815081091, 0.9799465153545143]], [[0.34752315488400487], [-0.7353295335800233], [-0.8813180445694578], [0.1925506689459367], [-1.9084411366990939], [-0.43078386874078406]]], "biases": [[[0.7313475625883974], [1.697895936702709], [-1.7128435757789302], [-0.6443037173177885], [1.1659631976871672], [-0.7642664863676396]], [[1.579465290648385]]], "layers": [6, 6, 1]}, {"name": "", "score": 2, "weights": [[[-0.5148820908034091, -0.4656608075335685, 0.7106780377110434, -0.32462064274015684, -0.4119084192126717, -0.4941371960193586], [0.6403132238425514, 2.183918023983856, 0.2945459280341643, 2.0305429498098864, -2.709060937052151, 1.065409927949724], [-0.3686755665494649, 1.4062109530353526, -1.9690731889541293, 0.052554071451017835, 0.9504009825574353, 1.0104318473868374], [0.008945569126411514, 1.3746836512841987, 0.6714851536648876, 0.41705147384659685, -0.09772111791858643, 0.34898350587402066], [-1.2078432696076322, -0.6228983594102563, 1.1200650969709833, 0.34274495521447623, 0.27452070617204866, -1.33185670341194], [-1.2364199060323107, -0.787217254862861, 0.7569290834617565, 1.0045587748871458, 0.1348681815081091, 0.9799465153545143]], [[0.34752315488400487], [-0.7353295335800233], [-0.8813180445694578], [0.1925506689459367], [-1.9084411366990939], [-0.43078386874078406]]], "biases": [[[0.7313475625883974], [1.5688951843667025], [-1.7128435757789302], [-0.6443037173177885], [1.1659631976871672], [-0.11806445403728186]], [[1.579465290648385]]], "layers": [6, 6, 1]}, {"name": "", "score": 4, "weights": [[[-0.9430811657383416, -0.4656608075335685, 0.7106780377110434, -0.32462064274015684, -0.4119084192126717, -0.4941371960193586], [0.191443220665038, 2.183918023983856, 0.2945459280341643, 2.0305429498098864, -2.709060937052151, 1.065409927949724], [-0.3686755665494649, 1.4062109530353526, -1.9690731889541293, -0.12767138172027215, 0.9504009825574353, 1.0104318473868374], [0.008945569126411514, 1.3746836512841987, 0.6714851536648876, 0.41705147384659685, -0.09772111791858643, 0.34898350587402066], [-1.2078432696076322, -0.6228983594102563, 1.1200650969709833, 0.34274495521447623, 0.27452070617204866, -1.33185670341194], [-1.2364199060323107, -0.787217254862861, 0.7569290834617565, 1.0045587748871458, 0.1348681815081091, 0.9799465153545143]], [[0.34752315488400487], [-0.7353295335800233], [-0.8813180445694578], [0.1925506689459367], [-1.9084411366990939], [0.17664032931079476]]], "biases": [[[0.7313475625883974], [1.697895936702709], [-1.7128435757789302], [-0.6443037173177885], [1.1659631976871672], [-0.11806445403728186]], [[-1.0941558980524422]]], "layers": [6, 6, 1]}, {"name": "", "score": 6, "weights": [[[-0.5148820908034091, -0.4656608075335685, 0.7106780377110434, -0.32462064274015684, -0.7990032723648844, -0.4941371960193586], [0.191443220665038, 2.183918023983856, 0.2945459280341643, 2.0305429498098864, -2.709060937052151, 1.065409927949724], [-0.3686755665494649, 1.4062109530353526, -1.9690731889541293, -0.12767138172027215, 0.9504009825574353, 1.0104318473868374], [0.008945569126411514, 1.3746836512841987, 0.6714851536648876, 0.41705147384659685, -0.09772111791858643, 0.34898350587402066], [-1.2078432696076322, -0.6228983594102563, 0.4449607597568233, -2.731935177403569, 0.27452070617204866, -0.030081165049973338], [-0.6086541502582637, -0.787217254862861, 0.7569290834617565, 1.0045587748871458, 0.1348681815081091, 0.9799465153545143]], [[0.34752315488400487], [-0.7353295335800233], [-0.8813180445694578], [0.1925506689459367], [-1.9084411366990939], [-0.43078386874078406]]], "biases": [[[0.7313475625883974], [1.697895936702709], [-1.7128435757789302], [-0.6443037173177885], [1.1659631976871672], [-0.11806445403728186]], [[1.579465290648385]]], "layers": [6, 6, 1]}, {"name": "", "score": 8, "weights": [[[-0.5148820908034091, -0.4656608075335685, 0.7106780377110434, -0.32462064274015684, -0.4119084192126717, -0.4941371960193586], [0.6403132238425514, 2.183918023983856, 0.2945459280341643, 2.0305429498098864, -2.709060937052151, 1.065409927949724], [-0.3686755665494649, 1.4062109530353526, 0.17515522673831843, -0.12767138172027215, 0.9504009825574353, 1.0104318473868374], [0.008945569126411514, 1.3746836512841987, 0.6714851536648876, 0.41705147384659685, -0.09772111791858643, -0.711795418506469], [-1.2078432696076322, -0.6228983594102563, 1.1200650969709833, -2.731935177403569, 0.27452070617204866, -0.030081165049973338], [-1.2364199060323107, -0.787217254862861, 0.7569290834617565, 1.0045587748871458, 0.1348681815081091, 0.9799465153545143]], [[0.34752315488400487], [-0.7353295335800233], [-0.8813180445694578], [0.1925506689459367], [-1.9084411366990939], [0.17664032931079476]]], "biases": [[[0.7313475625883974], [1.697895936702709], [-1.7128435757789302], [-0.6443037173177885], [1.1659631976871672], [-0.11806445403728186]], [[1.579465290648385]]], "layers": [6, 6, 1]}, {"name": "", "score": 10, "weights": [[[-0.5148820908034091, -0.4656608075335685, 0.7106780377110434, -0.32462064274015684, -0.4119084192126717, -0.4941371960193586], [0.6403132238425514, 2.183918023983856, 0.2945459280341643, 2.0305429498098864, -2.709060937052151, 1.065409927949724], [-0.3686755665494649, 1.4062109530353526, -1.9690731889541293, -0.12767138172027215, 0.9504009825574353, 1.0104318473868374], [0.008945569126411514, 1.3746836512841987, 0.6714851536648876, 0.41705147384659685, -0.09772111791858643, -1.3517826800128447], [-1.2078432696076322, -0.6228983594102563, 1.1200650969709833, -2.731935177403569, 0.27452070617204866, -0.09861013013434035], [-1.2364199060323107, -0.787217254862861, 0.7569290834617565, 0.08462587364136673, 0.1348681815081091, 0.9799465153545143]], [[0.34752315488400487], [-0.7353295335800233], [-0.8813180445694578], [0.1925506689459367], [-1.9084411366990939], [0.17664032931079476]]], "biases": [[[0.7313475625883974], [1.5688951843667025], [-1.7128435757789302], [-0.6443037173177885], [1.1659631976871672], [-0.11806445403728186]], [[1.579465290648385]]], "layers": [6, 6, 1]}, {"name": "", "score": 12, "weights": [[[-0.5148820908034091, -0.4656608075335685, 0.7106780377110434, -0.32462064274015684, -0.4119084192126717, -0.4941371960193586], [1.2099435276968395, 2.183918023983856, 0.2945459280341643, 2.0305429498098864, -2.709060937052151, 1.065409927949724], [-0.3686755665494649, 1.4062109530353526, -1.9690731889541293, -0.12767138172027215, 0.9504009825574353, 1.0104318473868374], [0.008945569126411514, 1.3746836512841987, 0.6714851536648876, 0.41705147384659685, -0.09772111791858643, 0.34898350587402066], [-1.2078432696076322, -0.6228983594102563, 1.1200650969709833, -2.731935177403569, 0.27452070617204866, -0.09861013013434035], [-1.2364199060323107, -0.787217254862861, 0.7569290834617565, 1.0045587748871458, 0.1348681815081091, 0.9799465153545143]], [[0.34752315488400487], [-0.7353295335800233], [-0.8813180445694578], [0.1925506689459367], [-1.9084411366990939], [0.17664032931079476]]], "biases": [[[0.7313475625883974], [1.697895936702709], [-1.7128435757789302], [-0.6443037173177885], [1.1659631976871672], [-0.11806445403728186]], [[1.579465290648385]]], "layers": [6, 6, 1]}, {"name": "", "score": 14, "weights": [[[-0.5148820908034091, -0.4656608075335685, 0.7106780377110434, -0.32462064274015684, -0.4119084192126717, -0.4941371960193586], [1.2099435276968395, 2.183918023983856, 0.2945459280341643, 2.0305429498098864, -2.709060937052151, 1.065409927949724], [-0.3686755665494649, 1.4062109530353526, -0.6824747957226382, -0.12767138172027215, 0.9504009825574353, 1.0104318473868374], [0.008945569126411514, 1.3746836512841987, 0.6714851536648876, 0.41705147384659685, -0.09772111791858643, -1.3517826800128447], [-1.2078432696076322, -0.6228983594102563, 1.1200650969709833, 0.34274495521447623, 0.27452070617204866, -0.09861013013434035], [-1.2364199060323107, -0.787217254862861, 0.7569290834617565, 1.0045587748871458, 0.1348681815081091, 0.9799465153545143]], [[0.34752315488400487], [-0.7353295335800233], [-0.8813180445694578], [0.1925506689459367], [-1.9084411366990939], [0.17664032931079476]]], "biases": [[[0.7313475625883974], [1.697895936702709], [-1.7128435757789302], [-0.6443037173177885], [1.1659631976871672], [-0.11806445403728186]], [[1.579465290648385]]], "layers": [6, 6, 1]}, {"name": "", "score": 16, "weights": [[[-0.5148820908034091, -0.4656608075335685, 0.7106780377110434, -0.32462064274015684, -0.4119084192126717, -0.4941371960193586], [0.191443220665038, 2.183918023983856, 1.4624397651007137, 2.0305429498098864, -2.709060937052151, 1.065409927949724], [-0.3686755665494649, 1.4062109530353526, -1.9690731889541293, -0.12767138172027215, 0.9504009825574353, 1.0104318473868374], [0.008945569126411514, 1.3746836512841987, 0.6714851536648876, 0.41705147384659685, -0.09772111791858643, 0.34898350587402066], [-1.2078432696076322, -0.6228983594102563, 1.1200650969709833, 0.34274495521447623, 0.27452070617204866, -1.33185670341194], [-1.2364199060323107, -0.787217254862861, 0.7569290834617565, 1.0045587748871458, 0.1348681815081091, 0.9799465153545143]], [[0.34752315488400487], [-0.7353295335800233], [-0.8813180445694578], [0.009212340293497651], [-1.9084411366990939], [0.17664032931079476]]], "biases": [[[0.7313475625883974], [1.5688951843667025], [-1.7128435757789302], [-0.6443037173177885], [1.1659631976871672], [-0.11806445403728186]], [[1.579465290648385]]], "layers": [6, 6, 1]}, {"name": "", "score": 18, "weights": [[[-0.5148820908034091, -0.4656608075335685, 0.0622248585825766, -0.32462064274015684, -0.4119084192126717, -0.4941371960193586], [0.6403132238425514, 2.183918023983856, 0.2945459280341643, 2.0305429498098864, -2.709060937052151, 1.065409927949724], [-0.3686755665494649, 1.4062109530353526, -1.9690731889541293, -0.12767138172027215, 0.9504009825574353, 1.0104318473868374], [0.008945569126411514, 1.3746836512841987, 0.6714851536648876, 0.41705147384659685, -0.09772111791858643, 0.34898350587402066], [-1.2078432696076322, -0.6228983594102563, 1.1200650969709833, -2.731935177403569, 0.27452070617204866, -0.09861013013434035], [-1.2364199060323107, -0.787217254862861, 0.7569290834617565, 1.0045587748871458, 0.1348681815081091, 0.9799465153545143]], [[0.34752315488400487], [-0.7353295335800233], [-0.8813180445694578], [0.1925506689459367], [-1.9084411366990939], [0.17664032931079476]]], "biases": [[[0.7313475625883974], [1.697895936702709], [-1.7128435757789302], [-0.6443037173177885], [1.1659631976871672], [-0.11806445403728186]], [[1.579465290648385]]], "layers": [6, 6, 1]}, {"name": "", "score": 20, "weights": [[[-0.5148820908034091, -0.4656608075335685, 0.0622248585825766, -0.32462064274015684, -0.4119084192126717, -0.4941371960193586], [0.6403132238425514, 2.183918023983856, 0.2945459280341643, 2.0305429498098864, -2.709060937052151, 1.065409927949724], [-0.3686755665494649, 1.4062109530353526, -1.9690731889541293, 0.052554071451017835, 0.9504009825574353, 1.0104318473868374], [0.008945569126411514, 1.3746836512841987, 0.6714851536648876, 0.41705147384659685, -0.09772111791858643, 0.34898350587402066], [-1.2078432696076322, -1.458484723608164, 1.1200650969709833, -2.731935177403569, 0.27452070617204866, -1.33185670341194], [-1.2364199060323107, -0.787217254862861, 0.7569290834617565, 0.08462587364136673, 0.1348681815081091, 0.9799465153545143]], [[0.34752315488400487], [-0.7353295335800233], [-0.8813180445694578], [0.1925506689459367], [-1.9084411366990939], [0.17664032931079476]]], "biases": [[[0.7313475625883974], [1.697895936702709], [-1.7128435757789302], [-0.6443037173177885], [1.1659631976871672], [-0.11806445403728186]], [[1.579465290648385]]], "layers": [6, 6, 1]}]}