{"gen": [{"name": "", "score": -60, "weights": [[[-0.5148820908034091, -0.4656608075335685, 0.7106780377110434, -0.32462064274015684, -0.4119084192126717, -0.4941371960193586], [0.6403132238425514, 2.183918023983856, 0.2945459280341643, 2.0305429498098864, -2.709060937052151, 1.065409927949724], [-0.3686755665494649, 1.4062109530353526, -1.9690731889541293, -0.12767138172027215, 0.9504009825574353, 1.0104318473868374], [0.008945569126411514, 1.3746836512841987, 0.6714851536648876, 0.41705147384659685, 2.0827453511832865, -1.3517826800128447], [0.20654912519392238, -0.6228983594102563, 1.1200650969709833, -2.731935177403569, 0.27452070617204866, -0.09861013013434035], [-1.2364199060323107, -0.787217254862861, 0.7569290834617565, 1.0045587748871458, 0.1348681815081091, 0.9799465153545143]], [[0.34752315488400487], [-0.7353295335800233], [-0.8813180445694578], [0.1925506689459367], [-1.9084411366990939], [0.17664032931079476]]], "biases": [[[0.7313475625883974], [1.697895936702709], [-1.7128435757789302], [-0.6443037173177885], [1.1659631976871672], [-0.11806445403728186]], [[1.579465290648385]]], "layers": [6, 6, 1]}, {"name": "", "score": 21, "weights": [[[-0.5148820908034091, -0.4656608075335685, 0.7106780377110434, -0.32462064274015684, -0.4119084192126717, -0.4941371960193586], [0.191443220665038, 2.183918023983856, 0.2945459280341643, 2.0305429498098864, -2.709060937052151, 1.065409927949724], [-0.3686755665494649, 1.4062109530353526, 0.7139773389038311, -0.12767138172027215, 0.9504009825574353, 1.0104318473868374], [0.008945569126411514, 1.3746836512841987, 0.6714851536648876, 0.41705147384659685, -0.09772111791858643, 0.34898350587402066], [-1.2078432696076322, -0.6228983594102563, 1.1200650969709833, -2.731935177403569, 0.27452070617204866, -1.33185670341194], [-1.2364199060323107, -0.787217254862861, 0.7569290834617565, 1.0045587748871458, 0.1348681815081091, 0.9799465153545143]], [[0.34752315488400487], [-0.7353295335800233], [-0.8813180445694578], [0.009212340293497651], [-1.9084411366990939], [0.17664032931079476]]], "biases": [[[0.7313475625883974], [1.5688951843667025], [-1.7128435757789302], [-0.6443037173177885], [1.1659631976871672], [-0.11806445403728186]], [[1.579465290648385]]], "layers": [6, 6, 1]}, {"name": "", "score": -46, "weights": [[[-0.5148820908034091, -0.4656608075335685, 0.0622248585825766, -0.32462064274015684, -0.4119084192126717, -0.4941371960193586], [0.6403132238425514, 0.8258075343866575, 0.2945459280341643, 2.0305429498098864, -2.709060937052151, 1.065409927949724], [-0.3686755665494649, 1.4062109530353526, -1.9690731889541293, -0.12767138172027215, 0.9504009825574353, 1.0104318473868374], [0.008945569126411514, 1.3746836512841987, 0.6714851536648876, 0.41705147384659685, -0.09772111791858643, -1.3517826800128447], [-1.2078432696076322, -0.6228983594102563, 1.1200650969709833, 0.34274495521447623, 0.27452070617204866, -1.33185670341194], [-1.2364199060323107, -0.787217254862861, 0.7569290834617565, 0.08462587364136673, 0.1348681815081091, 0.9799465153545143]], [[0.34752315488400487], [-0.7353295335800233], [-0.8813180445694578], [0.1925506689459367], [-1.9084411366990939], [0.17664032931079476]]], "biases": [[[0.7313475625883974], [1.697895936702709], [-1.7128435757789302], [-0.6443037173177885], [1.1659631976871672], [-0.11806445403728186]], [[1.579465290648385]]], "layers": [6, 6, 1]}, {"name": "", "score": 12, "weights": [[[-0.5148820908034091, -0.4656608075335685, 0.0622248585825766, -0.32462064274015684, -0.4119084192126717, -0.4941371960193586], [0.6403132238425514, 2.183918023983856, 0.2945459280341643, 2.0305429498098864, -2.709060937052151, 1.065409927949724], [-0.3686755665494649, 1.4062109530353526, -1.9690731889541293, 0.052554071451017835, 0.9504009825574353, 1.0104318473868374], [0.008945569126411514, 1.3746836512841987, 0.6714851536648876, 0.41705147384659685, -0.09772111791858643, 0.34898350587402066], [-1.2078432696076322, -1.458484723608164, 1.1200650969709833, -2.731935177403569, 0.27452070617204866, -1.33185670341194], [-1.2364199060323107, -0.787217254862861, 0.7569290834617565, 1.0045587748871458, 0.1348681815081091, 0.9799465153545143]], [[0.34752315488400487], [-0.7353295335800233], [-0.8813180445694578], [0.1925506689459367], [-1.9084411366990939], [0.17664032931079476]]], "biases": [[[0.7313475625883974], [1.697895936702709], [-1.7128435757789302], [-0.6443037173177885], [1.1659631976871672], [-0.11806445403728186]], [[1.579465290648385]]], "layers": [6, 6, 1]}, {"name": "", "score": 26, "weights": [[[-0.5148820908034091, -0.4656608075335685, 0.0622248585825766, -0.32462064274015684, -0.4119084192126717, -0.4941371960193586], [0.191443220665038, 2.183918023983856, 1.4624397651007137, 2.0305429498098864, -2.709060937052151, 1.065409927949724], [-0.3686755665494649, 1.4062109530353526, -1.9690731889541293, -0.12767138172027215, 0.9504009825574353, 1.0104318473868374], [0.008945569126411514, 1.3746836512841987, 0.6714851536648876, 0.41705147384659685, -0.09772111791858643, 0.34898350587402066], [-1.2078432696076322, -0.6228983594102563, 1.1200650969709833, -2.731935177403569, 0.27452070617204866, -1.33185670341194], [-1.2364199060323107, -0.787217254862861, 0.7569290834617565, 1.0045587748871458, 0.1348681815081091, 0.9799465153545143]], [[0.34752315488400487], [-0.7353295335800233], [-0.8813180445694578], [0.1925506689459367], [-1.9084411366990939], [0.17664032931079476]]], "biases": [[[0.7313475625883974], [1.697895936702709], [-1.7128435757789302], [-0.6443037173177885], [1.1659631976871672], [-0.11806445403728186]], [[1.579465290648385]]], "layers": [6, 6, 1]}, {"name": "", "score": 28, "weights": [[[-0.5148820908034091, -0.4656608075335685, 0.0622248585825766, -0.32462064274015684, -0.4119084192126717, -0.4941371960193586], [0.191443220665038, 2.183918023983856, 1.4624397651007137, 2.0305429498098864, -2.709060937052151, 1.065409927949724], [-0.3686755665494649, 1.4062109530353526, -1.9690731889541293, -0.12767138172027215, 0.9504009825574353, 1.0104318473868374], [0.008945569126411514, 1.3746836512841987, 0.6714851536648876, 0.41705147384659685, -0.09772111791858643, 0.34898350587402066], [-1.2078432696076322, -0.6228983594102563, 1.1200650969709833, -2.731935177403569, 0.27452070617204866, -1.33185670341194], [-1.2364199060323107, -0.787217254862861, 0.7569290834617565, 1.0045587748871458, 0.1348681815081091, 0.9799465153545143]], [[0.34752315488400487], [-0.7353295335800233], [-0.8813180445694578], [0.1925506689459367], [-1.9084411366990939], [0.17664032931079476]]], "biases": [[[0.7313475625883974], [1.697895936702709], [-1.7128435757789302], [-0.6443037173177885], [1.1659631976871672], [-0.11806445403728186]], [[1.579465290648385]]], "layers": [6, 6, 1]}, {"name": "", "score": 30, "weights": [[[-0.5148820908034091, -0.4656608075335685, 0.0622248585825766, -0.32462064274015684, -0.4119084192126717, -0.4941371960193586], [0.6403132238425514, 2.183918023983856, 0.2945459280341643, 2.0305429498098864, -2.709060937052151, 1.065409927949724], [-0.3686755665494649, 1.4062109530353526, -1.9690731889541293, 0.052554071451017835, 0.9504009825574353, 1.0104318473868374], [0.008945569126411514, 1.3746836512841987, 0.6714851536648876, 0.41705147384659685, -0.09772111791858643, 0.34898350587402066], [-1.2078432696076322, -0.6228983594102563, 1.1200650969709833, -2.731935177403569, 0.27452070617204866, -1.33185670341194], [-1.2364199060323107, -0.787217254862861, 0.7569290834617565, 1.0045587748871458, 0.1348681815081091, 0.9799465153545143]], [[0.34752315488400487], [-0.7353295335800233], [-0.8813180445694578], [0.1925506689459367], [-1.9084411366990939], [0.17664032931079476]]], "biases": [[[0.7313475625883974], [1.697895936702709], [-1.7128435757789302], [-0.6443037173177885], [1.1659631976871672], [-0.11806445403728186]], [[1.579465290648385]]], "layers": [6, 6, 1]}, {"name": "", "score": 32, "weights": [[[-0.5148820908034091, -0.4656608075335685, 0.7106780377110434, -0.32462064274015684, -0.4119084192126717, -0.4941371960193586], [0.191443220665038, 2.183918023983856, 1.4624397651007137, 2.0305429498098864, -2.709060937052151, 1.065409927949724], [-0.3686755665494649, 1.4062109530353526, -1.9690731889541293, -0.12767138172027215, 0.9504009825574353, 1.0104318473868374], [0.008945569126411514, 1.3746836512841987, 0.6714851536648876, 0.41705147384659685, -0.09772111791858643, 0.34898350587402066], [-1.2078432696076322, -0.6228983594102563, 1.1200650969709833, -2.731935177403569, 0.27452070617204866, -0.09861013013434035], [-1.2364199060323107, -0.787217254862861, 0.7569290834617565, 1.0045587748871458, 0.1348681815081091, -0.42131253329085055]], [[0.34752315488400487], [-0.7353295335800233], [-0.8813180445694578], [0.009212340293497651], [-1.9084411366990939], [0.17664032931079476]]], "biases": [[[0.7313475625883974], [1.697895936702709], [-1.7128435757789302], [-0.6443037173177885], [1.1659631976871672], [-0.11806445403728186]], [[1.579465290648385]]], "layers": [6, 6, 1]}, {"name": "", "score": 34, "weights": [[[-0.5148820908034091, -0.4656608075335685, 0.7106780377110434, -0.32462064274015684, -0.4119084192126717, -0.4941371960193586], [1.2099435276968395, 2.183918023983856, 0.2945459280341643, 2.0305429498098864, -2.709060937052151, 1.065409927949724], [-0.3686755665494649, 1.4062109530353526, 0.3601048290293035, -0.12767138172027215, 0.9504009825574353, 1.0104318473868374], [0.008945569126411514, 1.3746836512841987, 0.6714851536648876, 0.41705147384659685, -0.09772111791858643, 0.34898350587402066], [-1.2078432696076322, -0.6228983594102563, 1.1200650969709833, -2.731935177403569, 0.27452070617204866, -0.09861013013434035], [-1.2364199060323107, -0.787217254862861, 0.7569290834617565, 1.0045587748871458, 0.1348681815081091, 0.9799465153545143]], [[0.34752315488400487], [-0.7353295335800233], [-0.8813180445694578], [0.1925506689459367], [-1.9084411366990939], [0.17664032931079476]]], "biases": [[[0.7313475625883974], [1.697895936702709], [-1.7128435757789302], [-0.6443037173177885], [1.1659631976871672], [-0.11806445403728186]], [[1.579465290648385]]], "layers": [6, 6, 1]}, {"name": "", "score": -67, "weights": [[[-0.5148820908034091, -0.4656608075335685, 0.7106780377110434, -0.32462064274015684, -0.4119084192126717, -0.4941371960193586], [1.2099435276968395, 2.183918023983856, 0.2945459280341643, 2.0305429498098864, 2.753257535044385, 1.4006441183549003], [-0.3686755665494649, 1.4062109530353526, -0.6824747957226382, -0.12767138172027215, 0.9504009825574353, 1.0104318473868374], [0.008945569126411514, 1.3746836512841987, 0.6714851536648876, 0.41705147384659685, -0.09772111791858643, -1.3517826800128447], [-1.2078432696076322, -0.6228983594102563, 1.1200650969709833, 0.34274495521447623, 0.27452070617204866, -0.09861013013434035], [-1.2364199060323107, -0.787217254862861, 0.7569290834617565, 1.0045587748871458, 0.1348681815081091, 0.9799465153545143]], [[0.34752315488400487], [-0.7353295335800233], [-0.8813180445694578], [0.1925506689459367], [-1.9084411366990939], [0.17664032931079476]]], "biases": [[[0.7313475625883974], [1.697895936702709], [-1.7128435757789302], [-0.6443037173177885], [1.1659631976871672], [-0.11806445403728186]], [[1.579465290648385]]], "layers": [6, 6, 1]}, {"name": "", "score": 34, "weights": [[[-0.5148820908034091, -0.4656608075335685, 0.7106780377110434, -0.32462064274015684, -0.4119084192126717, -0.4941371960193586], [1.2099435276968395, 2.183918023983856, 0.2945459280341643, 2.0305429498098864, -2.709060937052151, 1.065409927949724], [-0.3686755665494649, 1.4062109530353526, -1.9690731889541293, -0.12767138172027215, 0.9504009825574353, 1.0104318473868374], [0.008945569126411514, 1.3746836512841987, 0.6714851536648876, 0.41705147384659685, -0.09772111791858643, 0.34898350587402066], [-1.2078432696076322, -0.6228983594102563, 1.1200650969709833, -2.731935177403569, 0.27452070617204866, -0.09861013013434035], [-1.2364199060323107, -0.787217254862861, 0.7569290834617565, 1.0045587748871458, 0.1348681815081091, 0.9799465153545143]], [[0.34752315488400487], [-0.7353295335800233], [-0.8813180445694578], [0.1925506689459367], [-1.9084411366990939], [0.17664032931079476]]], "biases": [[[0.7313475625883974], [1.697895936702709], [-1.7128435757789302], [-0.6443037173177885], [1.1659631976871672], [-0.11806445403728186]], [[1.579465290648385]]], "layers": [6, 6, 1]}, {"name": "", "score": 34, "weights": [[[-0.5148820908034091, -0.4656608075335685, 0.7106780377110434, -0.32462064274015684, -0.4119084192126717, -0.4941371960193586], [1.2099435276968395, 2.183918023983856, 0.2945459280341643, 2.0305429498098864, -2.709060937052151, 1.065409927949724], [-0.3686755665494649, 1.4062109530353526, -0.6824747957226382, -0.12767138172027215, 0.9504009825574353, 1.0104318473868374], [0.008945569126411514, 1.3746836512841987, 0.6714851536648876, 0.41705147384659685, -0.09772111791858643, 0.34898350587402066], [-1.2078432696076322, -0.009914769508048106, 1.1200650969709833, 0.34274495521447623, 0.27452070617204866, -1.33185670341194], [-1.2364199060323107, -0.787217254862861, 0.7569290834617565, 1.0045587748871458, 0.1348681815081091, 0.9799465153545143]], [[0.507986846436778], [-0.7353295335800233], [-0.8813180445694578], [0.1925506689459367], [-1.9084411366990939], [0.17664032931079476]]], "biases": [[[0.7313475625883974], [1.697895936702709], [-1.7128435757789302], [-0.6443037173177885], [1.1659631976871672], [-0.11806445403728186]], [[1.579465290648385]]], "layers": [6, 6, 1]}, {"name": "", "score": -187, "weights": [[[-0.5148820908034091, -0.4656608075335685, 0.7106780377110434, -1.055807158342805, -0.4119084192126717, -0.4941371960193586], [-0.08126902752089268, 2.183918023983856, 0.2945459280341643, 2.0305429498098864, -2.709060937052151, 1.065409927949724], [-0.3686755665494649, 1.4062109530353526, -1.9690731889541293, -0.12767138172027215, 0.9504009825574353, 1.0104318473868374], [0.008945569126411514, 1.3746836512841987, 0.6714851536648876, 0.41705147384659685, -0.09772111791858643, -1.3517826800128447], [-1.2078432696076322, -1.458484723608164, 1.1200650969709833, 0.34274495521447623, -0.33942468537680076, -1.33185670341194], [-1.2364199060323107, -0.787217254862861, 0.7569290834617565, 0.08462587364136673, 0.1348681815081091, 0.9799465153545143]], [[0.34752315488400487], [-0.7353295335800233], [-0.8813180445694578], [0.1925506689459367], [-1.9084411366990939], [0.17664032931079476]]], "biases": [[[0.7313475625883974], [1.697895936702709], [-1.7128435757789302], [-0.6443037173177885], [1.1659631976871672], [-0.11806445403728186]], [[1.579465290648385]]], "layers": [6, 6, 1]}, {"name": "", "score": -5, "weights": [[[-0.5148820908034091, -0.4656608075335685, 0.7106780377110434, -0.32462064274015684, -0.4119084192126717, -0.4941371960193586], [0.6403132238425514, 2.183918023983856, -1.3911099920277583, 2.0305429498098864, -2.709060937052151, 1.065409927949724], [-0.3686755665494649, 1.4062109530353526, -1.9690731889541293, -0.12767138172027215, -1.7641475646529945, 1.0104318473868374], [0.008945569126411514, 1.3746836512841987, 0.6714851536648876, 0.41705147384659685, -0.09772111791858643, 0.34898350587402066], [-1.2078432696076322, -0.6228983594102563, 1.1200650969709833, 0.34274495521447623, 0.27452070617204866, -0.09861013013434035], [-1.2364199060323107, -0.787217254862861, 0.7569290834617565, 1.0045587748871458, 0.1348681815081091, 0.9799465153545143]], [[0.34752315488400487], [-0.7353295335800233], [-0.8813180445694578], [0.1925506689459367], [-1.9084411366990939], [0.17664032931079476]]], "biases": [[[0.7313475625883974], [1.697895936702709], [-1.7128435757789302], [-0.6443037173177885], [1.1659631976871672], [-0.11806445403728186]], [[1.579465290648385]]], "layers": [6, 6, 1]}, {"name": "", "score": -101, "weights": [[[-0.5148820908034091, -0.4656608075335685, 0.7106780377110434, -0.32462064274015684, -0.4119084192126717, -0.4941371960193586], [1.2099435276968395, 2.183918023983856, 0.2945459280341643, 2.0305429498098864, -2.709060937052151, 1.065409927949724], [-0.3686755665494649, 1.4062109530353526, -1.9690731889541293, -0.12767138172027215, 0.9504009825574353, 1.0104318473868374], [0.008945569126411514, 1.3746836512841987, 0.6714851536648876, 0.41705147384659685, -0.09772111791858643, -1.3517826800128447], [-1.2078432696076322, -0.6228983594102563, 1.1200650969709833, 0.34274495521447623, 0.27452070617204866, -0.09861013013434035], [-1.2364199060323107, -0.787217254862861, 0.7569290834617565, 1.0045587748871458, -0.7765624004507923, 0.9799465153545143]], [[0.34752315488400487], [-0.7353295335800233], [-0.8813180445694578], [0.1925506689459367], [-1.9084411366990939], [0.17664032931079476]]], "biases": [[[0.7313475625883974], [1.697895936702709], [-1.7128435757789302], [-0.6443037173177885], [1.1659631976871672], [-0.11806445403728186]], [[1.579465290648385]]], "layers": [6, 6, 1]}, {"name": "", "score": 39, "weights": [[[-0.3318093590998156, -0.4656608075335685, 0.7106780377110434, -0.32462064274015684, -0.4119084192126717, -0.4941371960193586], [1.2099435276968395, 2.183918023983856, 0.2945459280341643, 2.0305429498098864, -2.709060937052151, 1.065409927949724], [-0.3686755665494649, 1.4062109530353526, -0.6824747957226382, -0.12767138172027215, 0.9504009825574353, 1.0104318473868374], [0.008945569126411514, 1.3746836512841987, 0.6714851536648876, 0.41705147384659685, -0.09772111791858643, 0.34898350587402066], [-1.2078432696076322, -0.6228983594102563, 1.1200650969709833, 0.34274495521447623, 0.27452070617204866, -0.09861013013434035], [-1.2364199060323107, -0.787217254862861, 0.7569290834617565, 1.0045587748871458, 0.1348681815081091, 0.9799465153545143]], [[0.34752315488400487], [-0.7353295335800233], [-0.8813180445694578], [0.1925506689459367], [-1.9084411366990939], [0.17664032931079476]]], "biases": [[[0.7313475625883974], [1.697895936702709], [-1.7128435757789302], [-0.6443037173177885], [1.1659631976871672], [-0.11806445403728186]], [[1.579465290648385]]], "layers": [6, 6, 1]}, {"name": "", "score": 41, "weights": [[[-0.5148820908034091, -0.4656608075335685, 0.7106780377110434, -0.32462064274015684, -0.4119084192126717, -0.4941371960193586], [1.2099435276968395, 2.183918023983856, 0.2945459280341643, 2.0305429498098864, -2.709060937052151, 1.065409927949724], [-0.3686755665494649, 1.4062109530353526, -1.9690731889541293, -0.12767138172027215, 0.9504009825574353, 1.0104318473868374], [0.008945569126411514, 1.3746836512841987, 0.6714851536648876, 0.41705147384659685, -0.09772111791858643, -1.3517826800128447], [-1.2078432696076322, -0.6228983594102563, 1.1200650969709833, -2.731935177403569, 0.27452070617204866, -0.09861013013434035], [-1.2364199060323107, -0.787217254862861, 0.7569290834617565, 1.0045587748871458, 0.1348681815081091, 0.9799465153545143]], [[0.34752315488400487], [-0.7353295335800233], [-0.8813180445694578], [0.1925506689459367], [-1.9084411366990939], [0.17664032931079476]]], "biases": [[[0.7313475625883974], [1.697895936702709], [-1.7128435757789302], [-0.6443037173177885], [1.1659631976871672], [-0.11806445403728186]], [[1.579465290648385]]], "layers": [6, 6, 1]}, {"name": "", "score": 43, "weights": [[[-0.5148820908034091, -0.4656608075335685, 0.0622248585825766, -0.32462064274015684, -0.4119084192126717, -0.4941371960193586], [0.6403132238425514, 2.183918023983856, 0.2945459280341643, 2.0305429498098864, -2.709060937052151, 1.065409927949724], [-0.3686755665494649, 1.4062109530353526, -1.9690731889541293, -0.12767138172027215, 0.9504009825574353, 1.0104318473868374], [0.008945569126411514, 1.3746836512841987, 0.6714851536648876, 0.41705147384659685, -0.09772111791858643, 0.34898350587402066], [-1.2078432696076322, -0.6228983594102563, 1.1200650969709833, 0.34274495521447623, 0.27452070617204866, -1.33185670341194], [-1.2364199060323107, -0.787217254862861, 0.7569290834617565, 1.0045587748871458, 0.1348681815081091, 0.9799465153545143]], [[0.34752315488400487], [-0.7353295335800233], [-0.8813180445694578], [0.1925506689459367], [-1.9084411366990939], [0.17664032931079476]]], "biases": [[[0.7313475625883974], [1.697895936702709], [-1.7128435757789302], [-0.6443037173177885], [1.1659631976871672], [1.418365233101416]], [[1.579465290648385]]], "layers": [6, 6, 1]}, {"name": "", "score": 45, "weights": [[[-0.5148820908034091, -0.4656608075335685, 0.0622248585825766, -0.32462064274015684, -0.4119084192126717, -0.4941371960193586], [0.191443220665038, 2.183918023983856, 1.4624397651007137, 2.0305429498098864, -2.709060937052151, 1.065409927949724], [-0.3686755665494649, 1.4062109530353526, -1.9690731889541293, 0.052554071451017835, 0.9504009825574353, 1.0104318473868374], [0.008945569126411514, 1.3746836512841987, 0.6714851536648876, 0.41705147384659685, -0.09772111791858643, 0.34898350587402066], [-1.2078432696076322, -0.6228983594102563, 1.1200650969709833, 0.34274495521447623, 0.27452070617204866, -1.33185670341194], [-1.2364199060323107, -0.787217254862861, 0.7569290834617565, 1.0045587748871458, 0.1348681815081091, 0.9799465153545143]], [[0.34752315488400487], [-0.7353295335800233], [-0.8813180445694578], [0.009212340293497651], [-1.9084411366990939], [0.17664032931079476]]], "biases": [[[0.7313475625883974], [1.5688951843667025], [-1.7128435757789302], [-0.6443037173177885], [1.1659631976871672], [-0.11806445403728186]], [[1.579465290648385]]], "layers": [6, 6, 1]}, {"name": "", "score": 47, "weights": [[[-0.5148820908034091, -0.4656608075335685, 0.0622248585825766, -0.32462064274015684, -0.4119084192126717, -0.4941371960193586], [0.6403132238425514, 1.6524144627741684, 1.4624397651007137, 2.0305429498098864, -2.709060937052151, 1.065409927949724], [-0.3686755665494649, 1.4062109530353526, -1.9690731889541293, 0.052554071451017835, 0.9504009825574353, -0.4896218797134473], [0.008945569126411514, 1.3746836512841987, 0.6714851536648876, 0.41705147384659685, -0.09772111791858643, 0.34898350587402066], [-1.2078432696076322, -0.6228983594102563, 1.1200650969709833, 0.34274495521447623, 0.27452070617204866, -1.33185670341194], [-1.2364199060323107, -0.787217254862861, 0.7569290834617565, 0.08462587364136673, 0.1348681815081091, 0.9799465153545143]], [[0.34752315488400487], [-0.7353295335800233], [-0.8813180445694578], [0.009212340293497651], [-1.9084411366990939], [0.17664032931079476]]], "biases": [[[0.7313475625883974], [1.5688951843667025], [-1.7128435757789302], [-0.6443037173177885], [1.1659631976871672], [-0.11806445403728186]], [[1.579465290648385]]], "layers": [6, 6, 1]}]}