{"gen": [{"name": "", "score": 88, "weights": [[[-1.222558147729294, -0.4656608075335685, -1.0799703447502842, 0.5023396899159698, -0.4119084192126717, -0.42749936082165607], [0.47995577542757195, 0.48197365790073693, 0.6449264753473027, -0.108786827292437, -0.5882019510906467, -0.27828366269258037], [1.1445027918065434, 1.4062109530353526, -0.20250079086000322, 0.1228404134528714, -0.19754872060520481, 1.0104318473868374], [0.008945569126411514, 0.1908978659526642, -0.35149835228693943, 1.525866149191851, 0.3104697289532708, -0.5446739629371513], [-1.2078432696076322, 0.22480104820017466, 1.1200650969709833, 0.842380369371927, -2.082216516524011, -0.9053487337802208], [-0.6237205053012285, 0.36511358975025865, 0.1897603821565689, -0.39592800090867203, 0.1348681815081091, -0.704851431077489]], [[0.6470184890354317], [2.5341669697327167], [-1.5287357646111284], [-0.4055411575852484], [0.4070863854322587], [2.6028919193483504]]], "biases": [[[0.7313475625883974], [-1.0940825658544415], [-1.7128435757789302], [0.21970186170538086], [-0.5806804915159349], [0.5688629663421085]], [[0.7917200890942794]]], "layers": [6, 6, 1]}, {"name": "", "score": -59, "weights": [[[-1.222558147729294, 0.29799307147464366, -1.0799703447502842, 1.5979902818840948, -1.5945503583788627, -0.49094194566979954], [0.47995577542757195, 0.48197365790073693, 0.18265321650959296, 0.20992441363675954, -0.8036066558858584, 1.065409927949724], [1.1445027918065434, -0.554060971601117, -0.20250079086000322, 0.1228404134528714, 0.9504009825574353, 1.0104318473868374], [0.008945569126411514, 1.3746836512841987, -0.35149835228693943, 1.525866149191851, -0.09772111791858643, -0.9142447523092662], [-1.2078432696076322, 0.22480104820017466, 1.1200650969709833, 0.842380369371927, 0.6158873422947865, -0.9053487337802208], [-0.18175984315011104, 0.36511358975025865, 0.1897603821565689, -0.00613482083526524, 0.1348681815081091, 0.07365662159475261]], [[-1.5599203100422072], [0.036376108241492656], [-1.5287357646111284], [0.6185106715877218], [-1.9084411366990939], [-1.3441618237481512]]], "biases": [[[0.7313475625883974], [-1.0940825658544415], [-1.7128435757789302], [0.21970186170538086], [-1.8574625552315835], [-0.11806445403728186]], [[1.579465290648385]]], "layers": [6, 6, 1]}, {"name": "", "score": -226, "weights": [[[-1.222558147729294, 0.29799307147464366, 1.2492245602352332, 0.5023396899159698, -1.5945503583788627, -0.42749936082165607], [-0.7291976950438405, 0.9215507026521812, 0.18265321650959296, -0.108786827292437, -0.8036066558858584, 1.065409927949724], [1.1445027918065434, -0.554060971601117, -1.9690731889541293, 0.1228404134528714, 0.9504009825574353, 0.3486271626416447], [0.008945569126411514, -0.05667280389624424, -0.15685588979403717, 1.525866149191851, -0.09772111791858643, -0.5446739629371513], [-1.2078432696076322, 0.22480104820017466, -0.7762416857307921, -0.7084594777084584, -2.082216516524011, -1.33185670341194], [-1.2364199060323107, -0.787217254862861, 0.1897603821565689, -0.39592800090867203, -0.35413856443620045, -0.704851431077489]], [[0.6470184890354317], [2.5341669697327167], [-1.5287357646111284], [0.6185106715877218], [-1.9084411366990939], [-1.3441618237481512]]], "biases": [[[0.3188166765289412], [-0.03552256518694826], [1.5141370518085944], [0.21970186170538086], [-0.5806804915159349], [-0.11806445403728186]], [[1.579465290648385]]], "layers": [6, 6, 1]}, {"name": "", "score": 68, "weights": [[[-1.222558147729294, 0.29799307147464366, -1.0799703447502842, 1.5979902818840948, -1.5945503583788627, -0.49094194566979954], [0.47995577542757195, 0.48197365790073693, 0.18265321650959296, 0.20992441363675954, -0.8036066558858584, 1.065409927949724], [1.1445027918065434, -0.554060971601117, -0.20250079086000322, 0.1228404134528714, 0.9504009825574353, 1.0104318473868374], [0.008945569126411514, 1.3746836512841987, -0.35149835228693943, 1.525866149191851, -0.09772111791858643, -0.9142447523092662], [-1.2078432696076322, 0.22480104820017466, 1.1200650969709833, 0.842380369371927, 0.6158873422947865, -0.9053487337802208], [-1.2364199060323107, 0.36511358975025865, 0.1897603821565689, -0.00613482083526524, 0.1348681815081091, 0.07365662159475261]], [[-1.5599203100422072], [0.036376108241492656], [-1.5287357646111284], [0.6185106715877218], [-1.9084411366990939], [-1.3441618237481512]]], "biases": [[[0.7313475625883974], [-1.0940825658544415], [-1.7128435757789302], [0.21970186170538086], [-1.8574625552315835], [-0.11806445403728186]], [[1.579465290648385]]], "layers": [6, 6, 1]}, {"name": "", "score": 25, "weights": [[[-0.12253903449418205, -0.08792538790995175, -1.0799703447502842, 1.5979902818840948, -1.5945503583788627, 0.8280359532140884], [0.47995577542757195, 0.48197365790073693, -1.186521292796004, 1.2307525581928944, 0.8563694191415805, -0.007413103145318874], [1.1445027918065434, -1.606315765996873, -0.31672968221410014, -0.7217697505418893, -0.2182691848259387, 0.18358590541581024], [0.8533106191393959, -0.8421909570313856, -0.35149835228693943, -0.4696145253430754, 0.5958562287078382, -0.9142447523092662], [0.5079955077176312, -0.47780183038536667, -0.9572722998274454, 0.842380369371927, -0.8527822401530278, 2.0642329146206997], [0.21074241428476487, 0.7328762004037904, 0.1897603821565689, -1.3987656820593832, -0.9154074548292785, -0.6208514512374843]], [[-1.5599203100422072], [0.036376108241492656], [-0.31930235005626445], [1.5876983369577042], [-3.079008389367113], [-1.3441618237481512]]], "biases": [[[-0.3086426497596299], [-1.0940825658544415], [0.1135487788471794], [-0.4170333637453505], [0.7908230432178321], [-0.7760620011597014]], [[-0.805142235976004]]], "layers": [6, 6, 1]}, {"name": "", "score": 29, "weights": [[[-0.12253903449418205, -0.08792538790995175, -1.0799703447502842, 1.5979902818840948, -1.5945503583788627, 0.8280359532140884], [0.47995577542757195, 0.48197365790073693, -1.186521292796004, 1.2307525581928944, 0.8563694191415805, -0.007413103145318874], [1.1445027918065434, -1.606315765996873, -0.31672968221410014, -0.7217697505418893, -0.2182691848259387, 0.18358590541581024], [0.8533106191393959, -0.8421909570313856, -0.35149835228693943, -0.4696145253430754, 0.5958562287078382, -0.9142447523092662], [0.5079955077176312, -0.47780183038536667, -0.9572722998274454, 0.842380369371927, -0.8527822401530278, 2.0642329146206997], [0.21074241428476487, 0.7328762004037904, 0.1897603821565689, -1.3987656820593832, -0.9154074548292785, -0.6208514512374843]], [[-1.5599203100422072], [0.036376108241492656], [-0.31930235005626445], [1.5876983369577042], [-3.079008389367113], [-1.3441618237481512]]], "biases": [[[-0.3086426497596299], [-1.0940825658544415], [0.1135487788471794], [-0.4170333637453505], [0.7908230432178321], [-0.7760620011597014]], [[-0.805142235976004]]], "layers": [6, 6, 1]}, {"name": "", "score": 135, "weights": [[[0.8975779419349657, -0.4656608075335685, -1.0799703447502842, 1.5979902818840948, -0.4119084192126717, -0.49094194566979954], [-0.7291976950438405, 0.48197365790073693, 0.6449264753473027, 0.20992441363675954, -0.8036066558858584, 1.065409927949724], [-0.3686755665494649, 1.4062109530353526, -1.9690731889541293, 0.1228404134528714, -0.19754872060520481, 1.0104318473868374], [0.008945569126411514, 1.3746836512841987, -0.15685588979403717, 1.525866149191851, -0.09772111791858643, -0.5446739629371513], [0.5088654533712559, 0.22480104820017466, -0.7762416857307921, 0.842380369371927, 0.6158873422947865, -1.33185670341194], [-0.6237205053012285, 0.36511358975025865, 0.1897603821565689, -0.39592800090867203, 0.1348681815081091, -0.704851431077489]], [[-1.5599203100422072], [2.5341669697327167], [-0.4035048174450745], [0.6185106715877218], [-1.9084411366990939], [2.6028919193483504]]], "biases": [[[0.3188166765289412], [-1.0940825658544415], [1.5141370518085944], [0.21970186170538086], [-0.5806804915159349], [-0.11806445403728186]], [[1.579465290648385]]], "layers": [6, 6, 1]}, {"name": "", "score": -102, "weights": [[[0.8975779419349657, -0.4656608075335685, 1.2492245602352332, 0.5023396899159698, -0.4119084192126717, -0.42749936082165607], [-0.7451986497507551, 0.9215507026521812, -0.398152523503121, -0.108786827292437, -0.5882019510906467, -0.27828366269258037], [-0.19465472535943146, 1.4062109530353526, -1.4050565721011161, 0.6145003525574125, -0.19754872060520481, 1.331860358386865], [0.5947724966342771, 2.10431886384336, -0.15685588979403717, 0.41705147384659685, 0.3104697289532708, -0.4126733180336193], [2.0228281991748376, 0.38417108446852966, -0.7762416857307921, -0.7084594777084584, 0.02885641546244232, -1.33185670341194], [-0.6237205053012285, -0.787217254862861, 0.7569290834617565, 0.629462586634344, 1.8596914779785594, -0.704851431077489]], [[0.6470184890354317], [-0.6716065935640338], [-0.4035048174450745], [-0.4055411575852484], [0.4070863854322587], [2.6028919193483504]]], "biases": [[[0.3188166765289412], [-0.03552256518694826], [1.5141370518085944], [-0.6875426939528331], [-0.5806804915159349], [0.5688629663421085]], [[1.7517530185897683]]], "layers": [6, 6, 1]}, {"name": "", "score": 112, "weights": [[[-1.7646713879304727, 0.29799307147464366, 0.7106780377110434, 0.11432482883723571, -0.4323355863629072, -1.2788253318412035], [0.47995577542757195, 2.183918023983856, -1.186521292796004, 1.2307525581928944, 0.8563694191415805, -0.007413103145318874], [0.4760815516716673, -1.606315765996873, -0.20250079086000322, 0.1228404134528714, 0.9504009825574353, 0.18358590541581024], [0.008945569126411514, -0.8421909570313856, -0.35149835228693943, 1.525866149191851, -0.12811303233252874, -1.3517826800128447], [0.5079955077176312, 0.22480104820017466, 1.1200650969709833, -2.731935177403569, -0.8527822401530278, -0.9053487337802208], [0.21074241428476487, 0.36511358975025865, 0.1897603821565689, -1.3987656820593832, -0.9154074548292785, -0.6208514512374843]], [[0.34752315488400487], [0.036376108241492656], [-1.5287357646111284], [1.5876983369577042], [-1.9084411366990939], [-0.4416367992046048]]], "biases": [[[-0.3086426497596299], [-0.6337851138833666], [-1.0734009621536922], [-0.4170333637453505], [1.1659631976871672], [-0.11806445403728186]], [[1.579465290648385]]], "layers": [6, 6, 1]}, {"name": "", "score": 8, "weights": [[[0.8975779419349657, -0.4656608075335685, 1.2492245602352332, 0.5023396899159698, -0.4119084192126717, -0.42749936082165607], [-0.7291976950438405, 0.9215507026521812, 0.6449264753473027, -0.108786827292437, -0.5882019510906467, -0.27828366269258037], [-0.3686755665494649, 1.4062109530353526, -1.4050565721011161, 0.6145003525574125, -0.19754872060520481, 1.331860358386865], [0.5947724966342771, 0.1908978659526642, -0.15685588979403717, 0.41705147384659685, -1.909508418780193, -0.5446739629371513], [0.5088654533712559, -0.6228983594102563, -0.7762416857307921, -0.7084594777084584, 0.02885641546244232, -1.33185670341194], [-0.6237205053012285, -0.787217254862861, 0.7569290834617565, -0.39592800090867203, 1.8596914779785594, 0.06574280952069514]], [[0.6470184890354317], [2.5341669697327167], [-0.4035048174450745], [-0.4055411575852484], [0.4070863854322587], [2.6028919193483504]]], "biases": [[[-0.4189965738581369], [-0.03552256518694826], [1.5141370518085944], [-0.6875426939528331], [-0.5806804915159349], [0.5688629663421085]], [[1.7517530185897683]]], "layers": [6, 6, 1]}, {"name": "", "score": 91, "weights": [[[-1.7646713879304727, 0.29799307147464366, 0.7106780377110434, 1.5979902818840948, -0.4323355863629072, -1.2788253318412035], [0.47995577542757195, 0.48197365790073693, 0.2945459280341643, 0.20992441363675954, -0.8036066558858584, 0.8181811907342658], [0.2642475467974962, -0.554060971601117, -0.20250079086000322, 0.1228404134528714, 0.9504009825574353, 1.0104318473868374], [0.008945569126411514, 1.3746836512841987, 0.6714851536648876, 1.525866149191851, -0.09772111791858643, -1.3517826800128447], [-1.2078432696076322, 0.22480104820017466, 1.1200650969709833, -2.731935177403569, 0.27452070617204866, -0.9053487337802208], [-1.2364199060323107, 0.36511358975025865, 0.1897603821565689, -0.00613482083526524, 0.1348681815081091, 0.07365662159475261]], [[0.5113738126205829], [1.14275052468176], [-1.5287357646111284], [0.1925506689459367], [-1.9084411366990939], [-1.3441618237481512]]], "biases": [[[0.7313475625883974], [-0.6337851138833666], [-1.7128435757789302], [-0.6443037173177885], [-1.8574625552315835], [-0.11806445403728186]], [[1.579465290648385]]], "layers": [6, 6, 1]}, {"name": "", "score": 127, "weights": [[[-1.222558147729294, 0.29799307147464366, 0.7106780377110434, 1.5979902818840948, -0.4323355863629072, -1.2788253318412035], [0.47995577542757195, 2.183918023983856, 0.18265321650959296, 0.20992441363675954, -0.8036066558858584, 1.065409927949724], [1.1445027918065434, -0.554060971601117, -0.20250079086000322, 0.1228404134528714, 0.9504009825574353, 1.0104318473868374], [0.008945569126411514, 0.15683942230891668, -0.35149835228693943, 1.525866149191851, -0.12811303233252874, -0.9142447523092662], [-1.2078432696076322, 0.22480104820017466, 1.1200650969709833, -2.731935177403569, 0.27452070617204866, -0.9053487337802208], [-1.2364199060323107, 0.36511358975025865, 0.1897603821565689, -0.00613482083526524, 0.1348681815081091, -0.6667571795423141]], [[-1.5599203100422072], [0.036376108241492656], [-1.5287357646111284], [0.1925506689459367], [-1.9084411366990939], [-0.4416367992046048]]], "biases": [[[0.7313475625883974], [-0.6337851138833666], [-1.7128435757789302], [0.21970186170538086], [-1.8574625552315835], [-0.11806445403728186]], [[1.579465290648385]]], "layers": [6, 6, 1]}, {"name": "", "score": -63, "weights": [[[-1.222558147729294, 0.29799307147464366, -1.0799703447502842, 1.5979902818840948, -1.5945503583788627, -0.49094194566979954], [0.47995577542757195, 0.48197365790073693, 0.18265321650959296, 0.20992441363675954, -0.8036066558858584, 1.065409927949724], [1.1445027918065434, -0.554060971601117, -0.20250079086000322, 0.1228404134528714, 0.9504009825574353, 1.0104318473868374], [0.008945569126411514, 1.3746836512841987, -0.35149835228693943, 1.525866149191851, -0.09772111791858643, -0.9142447523092662], [-1.2078432696076322, 0.22480104820017466, 1.1200650969709833, 0.842380369371927, 0.6158873422947865, -0.9053487337802208], [-1.2364199060323107, 0.36511358975025865, -0.8773172927356819, -0.00613482083526524, 0.1348681815081091, 0.07365662159475261]], [[-1.5599203100422072], [0.036376108241492656], [-1.5287357646111284], [0.6185106715877218], [-1.9084411366990939], [-1.3441618237481512]]], "biases": [[[0.7313475625883974], [-1.0940825658544415], [-1.7128435757789302], [0.21970186170538086], [-1.8574625552315835], [-0.11806445403728186]], [[1.579465290648385]]], "layers": [6, 6, 1]}, {"name": "", "score": 67, "weights": [[[-1.222558147729294, 0.29799307147464366, -1.0799703447502842, 1.5979902818840948, -1.5945503583788627, -0.49094194566979954], [0.47995577542757195, 0.48197365790073693, 0.18265321650959296, 0.20992441363675954, -0.8036066558858584, 1.065409927949724], [1.1445027918065434, -0.554060971601117, -0.20250079086000322, 0.1228404134528714, 0.9504009825574353, 1.0104318473868374], [0.008945569126411514, 1.3746836512841987, -0.35149835228693943, 1.525866149191851, -0.09772111791858643, -0.9142447523092662], [-1.2078432696076322, 0.22480104820017466, 1.1200650969709833, 0.842380369371927, 0.6158873422947865, -0.9053487337802208], [-1.2364199060323107, 0.36511358975025865, 0.1897603821565689, -0.00613482083526524, 0.1348681815081091, 0.07365662159475261]], [[-1.5599203100422072], [0.036376108241492656], [-1.5287357646111284], [0.6185106715877218], [-1.9084411366990939], [-1.3441618237481512]]], "biases": [[[0.7313475625883974], [-1.0940825658544415], [-1.7128435757789302], [0.21970186170538086], [-1.8574625552315835], [-0.11806445403728186]], [[1.579465290648385]]], "layers": [6, 6, 1]}, {"name": "", "score": -230, "weights": [[[-0.26962838199810996, -0.4656608075335685, -0.10426078823642054, 0.5023396899159698, -1.527461717116021, -0.42749936082165607], [-0.7451986497507551, 0.9215507026521812, -0.398152523503121, -0.108786827292437, -0.5882019510906467, -0.27828366269258037], [-0.19465472535943146, 1.4062109530353526, -1.9690731889541293, 1.5286504841545916, -0.19754872060520481, 0.3486271626416447], [0.5947724966342771, 0.1908978659526642, 0.3627430757012945, 0.41705147384659685, -1.909508418780193, -0.5446739629371513], [0.5088654533712559, 0.38417108446852966, -0.7762416857307921, -0.7084594777084584, -2.082216516524011, 1.6285408863441448], [-0.6237205053012285, -0.787217254862861, 0.7569290834617565, 0.629462586634344, -0.36629383543223704, 0.06574280952069514]], [[0.6470184890354317], [-0.6716065935640338], [-0.4035048174450745], [-0.4055411575852484], [0.4070863854322587], [2.6028919193483504]]], "biases": [[[-0.4189965738581369], [-0.03552256518694826], [-1.8870347857406695], [-0.6875426939528331], [-0.5806804915159349], [0.3404239521350974]], [[0.7917200890942794]]], "layers": [6, 6, 1]}, {"name": "", "score": 90, "weights": [[[-0.12253903449418205, -0.08792538790995175, 1.2492245602352332, 1.5979902818840948, -1.5945503583788627, 0.8280359532140884], [0.47995577542757195, 0.9215507026521812, 0.6449264753473027, 1.2307525581928944, 0.8563694191415805, -0.007413103145318874], [-0.3686755665494649, 1.4062109530353526, -0.31672968221410014, -0.7217697505418893, -0.19754872060520481, 0.3486271626416447], [0.8533106191393959, 0.1908978659526642, -0.35149835228693943, -0.11424657861539145, 0.3104697289532708, -0.5446739629371513], [0.5079955077176312, -0.47780183038536667, -0.7762416857307921, -0.7084594777084584, -2.082216516524011, -1.33185670341194], [-0.6237205053012285, -0.787217254862861, 0.7569290834617565, -1.3987656820593832, -0.35413856443620045, -0.704851431077489]], [[-1.5599203100422072], [2.5341669697327167], [-0.31930235005626445], [-0.4055411575852484], [1.2751419915863138], [2.6028919193483504]]], "biases": [[[0.3188166765289412], [-1.0940825658544415], [1.5141370518085944], [-0.6875426939528331], [0.7908230432178321], [-0.7760620011597014]], [[0.7917200890942794]]], "layers": [6, 6, 1]}, {"name": "", "score": 154, "weights": [[[0.8975779419349657, -0.4656608075335685, 0.7106780377110434, 0.11432482883723571, -0.4119084192126717, -0.42749936082165607], [0.191443220665038, 2.183918023983856, 0.2945459280341643, -0.108786827292437, -0.5882019510906467, 0.8181811907342658], [-0.3686755665494649, 1.4062109530353526, -1.9690731889541293, -0.12767138172027215, 0.9504009825574353, 0.3486271626416447], [0.008945569126411514, 0.1908978659526642, 0.6714851536648876, 0.41705147384659685, -0.12811303233252874, -1.3517826800128447], [0.5088654533712559, -0.6228983594102563, 1.1200650969709833, 0.8462021079709586, 0.27452070617204866, -1.33185670341194], [-1.2364199060323107, -0.787217254862861, 0.7569290834617565, -0.39592800090867203, 0.1348681815081091, -0.6667571795423141]], [[0.34752315488400487], [1.14275052468176], [-1.5287357646111284], [0.1925506689459367], [-1.9084411366990939], [-0.4416367992046048]]], "biases": [[[0.7313475625883974], [-0.03552256518694826], [-1.7128435757789302], [-0.6443037173177885], [1.1659631976871672], [-0.11806445403728186]], [[1.579465290648385]]], "layers": [6, 6, 1]}, {"name": "", "score": -9, "weights": [[[-1.7646713879304727, -0.4656608075335685, -0.10426078823642054, 0.11432482883723571, -0.4323355863629072, -0.42749936082165607], [-0.7451986497507551, 2.183918023983856, -0.398152523503121, -0.108786827292437, -0.8036066558858584, 0.8181811907342658], [0.4760815516716673, 1.4062109530353526, -0.20250079086000322, 1.5286504841545916, 0.9504009825574353, 1.331860358386865], [0.5947724966342771, 1.3746836512841987, 0.6714851536648876, 0.41705147384659685, -1.909508418780193, -1.3517826800128447], [-1.2078432696076322, 0.38417108446852966, 1.1200650969709833, -0.7084594777084584, 0.27452070617204866, 1.6285408863441448], [-0.6237205053012285, 0.36511358975025865, 0.7569290834617565, 0.629462586634344, 1.8596914779785594, -0.6667571795423141]], [[0.6470184890354317], [1.14275052468176], [-0.4035048174450745], [-0.4055411575852484], [0.4070863854322587], [-0.4416367992046048]]], "biases": [[[0.7313475625883974], [-0.6337851138833666], [-1.7128435757789302], [-0.6443037173177885], [1.1659631976871672], [0.3404239521350974]], [[1.579465290648385]]], "layers": [6, 6, 1]}, {"name": "", "score": -144, "weights": [[[-0.12253903449418205, -0.08792538790995175, -1.0799703447502842, 1.5979902818840948, -1.5945503583788627, -0.49094194566979954], [0.47995577542757195, 0.48197365790073693, 0.18265321650959296, 1.2307525581928944, 0.8563694191415805, 1.065409927949724], [1.1445027918065434, -1.606315765996873, -0.31672968221410014, 0.1228404134528714, -0.2182691848259387, 0.18358590541581024], [0.008945569126411514, 1.3746836512841987, -0.35149835228693943, -0.4696145253430754, -0.09772111791858643, -0.9142447523092662], [0.5079955077176312, -0.47780183038536667, -0.9572722998274454, 0.842380369371927, 0.6158873422947865, -0.9053487337802208], [0.21074241428476487, 0.36511358975025865, 0.1897603821565689, -0.00613482083526524, -0.9154074548292785, -0.6208514512374843]], [[-1.5599203100422072], [0.036376108241492656], [-1.5287357646111284], [1.5876983369577042], [-3.079008389367113], [-1.3441618237481512]]], "biases": [[[-0.3086426497596299], [-1.0940825658544415], [-1.7128435757789302], [0.21970186170538086], [0.7908230432178321], [-0.11806445403728186]], [[1.579465290648385]]], "layers": [6, 6, 1]}, {"name": "", "score": -161, "weights": [[[-0.12253903449418205, -0.08792538790995175, -1.0799703447502842, 1.5979902818840948, -1.5945503583788627, 0.8280359532140884], [0.47995577542757195, 0.48197365790073693, -1.186521292796004, 1.2307525581928944, 0.8563694191415805, -0.007413103145318874], [1.1445027918065434, -0.554060971601117, -0.31672968221410014, -0.7217697505418893, -0.2182691848259387, 0.18358590541581024], [0.8533106191393959, -0.8421909570313856, -0.35149835228693943, -0.4696145253430754, 0.5958562287078382, -0.9142447523092662], [-1.2078432696076322, 0.22480104820017466, -0.9572722998274454, 0.842380369371927, 0.6158873422947865, -0.9053487337802208], [-1.2364199060323107, 0.7328762004037904, 0.1897603821565689, -1.3987656820593832, -0.9154074548292785, 0.07365662159475261]], [[-1.5599203100422072], [-0.20259033532064846], [-0.31930235005626445], [0.6185106715877218], [-3.079008389367113], [-1.3441618237481512]]], "biases": [[[-0.3086426497596299], [-1.0940825658544415], [0.1135487788471794], [-0.4170333637453505], [-1.8574625552315835], [-0.11806445403728186]], [[-0.805142235976004]]], "layers": [6, 6, 1]}]}