{"gen": [{"name": "", "score": 48, "weights": [[[-1.222558147729294, 0.29799307147464366, 0.7106780377110434, 1.5979902818840948, -0.4323355863629072, -1.2788253318412035], [0.47995577542757195, 2.183918023983856, 0.18265321650959296, 0.20992441363675954, -0.8036066558858584, 1.065409927949724], [1.1445027918065434, -0.554060971601117, -0.20250079086000322, 0.1228404134528714, 0.9504009825574353, 1.0104318473868374], [0.008945569126411514, -1.9056711406859779, -0.35149835228693943, 1.525866149191851, -0.12811303233252874, -0.9142447523092662], [-1.2078432696076322, 0.22480104820017466, 1.1200650969709833, -2.731935177403569, 0.27452070617204866, -0.9053487337802208], [-1.2364199060323107, 0.36511358975025865, 0.1897603821565689, -0.00613482083526524, 0.1348681815081091, -0.6667571795423141]], [[-1.5599203100422072], [0.036376108241492656], [-1.5287357646111284], [0.1925506689459367], [-1.9084411366990939], [-0.4416367992046048]]], "biases": [[[0.7313475625883974], [-0.6337851138833666], [-1.7128435757789302], [0.21970186170538086], [-1.8574625552315835], [-0.11806445403728186]], [[1.579465290648385]]], "layers": [6, 6, 1]}, {"name": "", "score": 27, "weights": [[[-1.7646713879304727, 0.29799307147464366, 0.7106780377110434, 0.11432482883723571, -0.4323355863629072, -1.2788253318412035], [0.47995577542757195, 0.48197365790073693, 0.2945459280341643, 1.2307525581928944, -0.8036066558858584, 0.8181811907342658], [0.2642475467974962, -0.554060971601117, -0.20250079086000322, 0.1228404134528714, 0.9504009825574353, 0.18358590541581024], [0.008945569126411514, -0.8421909570313856, -0.35149835228693943, 1.525866149191851, -0.12811303233252874, -1.3517826800128447], [-1.2078432696076322, 0.22480104820017466, 1.1200650969709833, -2.731935177403569, 0.27452070617204866, -0.9053487337802208], [-1.2364199060323107, 0.36511358975025865, 0.1897603821565689, -0.00613482083526524, -0.9154074548292785, 0.07365662159475261]], [[-2.1467631713447206], [0.036376108241492656], [-1.5287357646111284], [1.5876983369577042], [-1.9084411366990939], [-0.4416367992046048]]], "biases": [[[-0.3086426497596299], [-0.6337851138833666], [-1.0734009621536922], [-0.6443037173177885], [-1.8574625552315835], [-0.11806445403728186]], [[1.579465290648385]]], "layers": [6, 6, 1]}, {"name": "", "score": 61, "weights": [[[0.8975779419349657, -0.4656608075335685, 0.7106780377110434, 0.11432482883723571, -0.4119084192126717, -0.42749936082165607], [0.191443220665038, 2.183918023983856, 0.2945459280341643, -0.108786827292437, -0.5882019510906467, 0.8181811907342658], [-0.3686755665494649, 1.4062109530353526, -1.9690731889541293, -0.12767138172027215, 0.9504009825574353, 0.3486271626416447], [0.008945569126411514, 0.1908978659526642, 0.6714851536648876, 0.41705147384659685, -0.12811303233252874, -1.3517826800128447], [0.5088654533712559, -0.6228983594102563, 1.1200650969709833, 0.8462021079709586, 0.27452070617204866, -1.33185670341194], [-1.2364199060323107, -0.787217254862861, 0.7569290834617565, -0.39592800090867203, 0.1348681815081091, -0.6667571795423141]], [[0.34752315488400487], [1.14275052468176], [-1.5287357646111284], [0.1925506689459367], [-1.9084411366990939], [-0.4416367992046048]]], "biases": [[[0.7313475625883974], [-0.03552256518694826], [-1.7128435757789302], [-0.6443037173177885], [1.1659631976871672], [-0.11806445403728186]], [[1.579465290648385]]], "layers": [6, 6, 1]}, {"name": "", "score": 75, "weights": [[[-1.222558147729294, -0.4656608075335685, 0.7106780377110434, 0.11432482883723571, -0.4119084192126717, -0.42749936082165607], [0.191443220665038, 2.183918023983856, 0.2945459280341643, -0.108786827292437, -0.8036066558858584, 1.065409927949724], [-0.3686755665494649, 1.4062109530353526, -1.9690731889541293, 0.1228404134528714, 0.9504009825574353, 1.0104318473868374], [0.008945569126411514, 0.1908978659526642, 0.6714851536648876, 0.41705147384659685, -0.12811303233252874, -1.3517826800128447], [-1.2078432696076322, -0.6228983594102563, 1.1200650969709833, -2.731935177403569, 0.27452070617204866, 1.5161815566525139], [-1.2364199060323107, -0.787217254862861, 0.7569290834617565, -0.00613482083526524, 0.1348681815081091, -0.6667571795423141]], [[0.34752315488400487], [0.036376108241492656], [-1.5287357646111284], [0.1925506689459367], [-1.9084411366990939], [-0.4416367992046048]]], "biases": [[[0.7313475625883974], [-0.6337851138833666], [-1.7128435757789302], [0.21970186170538086], [1.1659631976871672], [-0.11806445403728186]], [[1.579465290648385]]], "layers": [6, 6, 1]}, {"name": "", "score": -188, "weights": [[[-1.7646713879304727, 0.29799307147464366, 0.7106780377110434, 1.5979902818840948, -0.4323355863629072, -1.2788253318412035], [0.47995577542757195, 0.48197365790073693, -1.186521292796004, 0.20992441363675954, 0.8563694191415805, -0.007413103145318874], [0.2642475467974962, -0.554060971601117, -0.20250079086000322, 0.1228404134528714, 0.9504009825574353, 1.0104318473868374], [0.008945569126411514, 1.3746836512841987, 0.6714851536648876, 1.525866149191851, -0.09772111791858643, -1.3517826800128447], [0.5079955077176312, 0.22480104820017466, 1.1200650969709833, -2.731935177403569, -0.8527822401530278, -0.9053487337802208], [-1.2364199060323107, 0.36511358975025865, 0.1897603821565689, -1.3987656820593832, 0.1348681815081091, 0.07365662159475261]], [[0.34752315488400487], [1.14275052468176], [-1.5287357646111284], [0.1925506689459367], [-1.9084411366990939], [-1.3441618237481512]]], "biases": [[[-0.328921021148394], [-0.6337851138833666], [-1.0734009621536922], [-0.6443037173177885], [1.1659631976871672], [-0.11806445403728186]], [[1.579465290648385]]], "layers": [6, 6, 1]}, {"name": "", "score": 2, "weights": [[[-1.7646713879304727, 0.29799307147464366, 0.7106780377110434, 0.11432482883723571, -0.4323355863629072, -1.2788253318412035], [0.47995577542757195, 2.183918023983856, -1.186521292796004, 1.2307525581928944, -0.8036066558858584, 1.065409927949724], [0.4760815516716673, -1.606315765996873, -0.20250079086000322, 0.1228404134528714, 0.9504009825574353, 1.0104318473868374], [0.008945569126411514, 0.15683942230891668, 0.21327451498270056, 1.525866149191851, -0.12811303233252874, -1.3517826800128447], [-1.2078432696076322, 0.22480104820017466, 1.1200650969709833, -2.731935177403569, -0.8527822401530278, -0.9053487337802208], [-1.2364199060323107, 0.36511358975025865, 0.1897603821565689, -1.3987656820593832, 0.1348681815081091, -0.6208514512374843]], [[-1.5599203100422072], [0.036376108241492656], [-1.5287357646111284], [0.1925506689459367], [-1.9084411366990939], [-0.4416367992046048]]], "biases": [[[0.4799833824095088], [-0.6337851138833666], [-1.7128435757789302], [0.21970186170538086], [0.9495394042002492], [-0.11806445403728186]], [[1.579465290648385]]], "layers": [6, 6, 1]}, {"name": "", "score": -246, "weights": [[[-1.7646713879304727, -0.4656608075335685, 0.7106780377110434, 0.11432482883723571, -0.4119084192126717, -0.49094194566979954], [0.47995577542757195, 2.183918023983856, 0.6449264753473027, 1.2307525581928944, 0.8563694191415805, -0.007413103145318874], [-0.3686755665494649, 1.4062109530353526, -0.20250079086000322, 0.1228404134528714, 0.9504009825574353, 1.0104318473868374], [0.008945569126411514, 1.3746836512841987, -0.35149835228693943, 1.525866149191851, -0.12811303233252874, -1.3517826800128447], [0.5088654533712559, 0.22480104820017466, -0.6712747097164434, 0.842380369371927, 0.6158873422947865, -0.9053487337802208], [-0.6237205053012285, 0.36511358975025865, 0.1897603821565689, -1.3987656820593832, -0.9154074548292785, -0.704851431077489]], [[-1.5599203100422072], [2.5341669697327167], [-1.5287357646111284], [0.6185106715877218], [-1.9084411366990939], [-0.4416367992046048]]], "biases": [[[-0.3086426497596299], [-0.6337851138833666], [-1.0734009621536922], [-0.4170333637453505], [1.1659631976871672], [-0.11806445403728186]], [[1.579465290648385]]], "layers": [6, 6, 1]}, {"name": "", "score": -111, "weights": [[[-1.222558147729294, -0.4656608075335685, 0.7106780377110434, 1.5979902818840948, -0.4323355863629072, -1.2788253318412035], [0.47995577542757195, 0.48197365790073693, 0.6449264753473027, 0.20992441363675954, -0.8036066558858584, 1.065409927949724], [-0.3686755665494649, 1.4062109530353526, -1.9690731889541293, 0.1228404134528714, 0.9504009825574353, 1.0104318473868374], [0.008945569126411514, 1.3746836512841987, -0.35149835228693943, 1.525866149191851, -0.12811303233252874, 2.1289234072671124], [-1.2078432696076322, 0.22480104820017466, -0.7762416857307921, 0.842380369371927, 0.6158873422947865, -1.33185670341194], [-0.6237205053012285, 0.36511358975025865, 0.1897603821565689, -0.39592800090867203, 0.1348681815081091, -0.704851431077489]], [[-1.5599203100422072], [0.036376108241492656], [-1.5287357646111284], [0.1925506689459367], [-1.9084411366990939], [-0.4416367992046048]]], "biases": [[[0.7313475625883974], [-1.0940825658544415], [-1.7128435757789302], [0.21970186170538086], [-1.8574625552315835], [-0.11806445403728186]], [[1.579465290648385]]], "layers": [6, 6, 1]}, {"name": "", "score": 73, "weights": [[[0.8975779419349657, -0.4656608075335685, -1.0799703447502842, 1.5979902818840948, -0.4119084192126717, -0.49094194566979954], [-0.7291976950438405, 0.48197365790073693, 0.6449264753473027, 0.20992441363675954, -0.8036066558858584, 1.065409927949724], [-0.3686755665494649, 1.4062109530353526, -1.9690731889541293, 0.1228404134528714, -0.19754872060520481, 1.0104318473868374], [0.008945569126411514, 1.3746836512841987, -0.15685588979403717, 1.525866149191851, -0.09772111791858643, -0.5446739629371513], [0.5088654533712559, 0.22480104820017466, -0.7762416857307921, 0.842380369371927, 0.6158873422947865, -1.33185670341194], [-0.6237205053012285, 0.36511358975025865, 0.1897603821565689, -0.39592800090867203, 0.1348681815081091, -0.704851431077489]], [[-1.5599203100422072], [2.5341669697327167], [-0.4035048174450745], [0.6185106715877218], [-1.9084411366990939], [2.6028919193483504]]], "biases": [[[0.3188166765289412], [-1.0940825658544415], [1.5141370518085944], [0.21970186170538086], [-0.5806804915159349], [-0.11806445403728186]], [[1.579465290648385]]], "layers": [6, 6, 1]}, {"name": "", "score": 63, "weights": [[[-1.7646713879304727, -0.4656608075335685, 0.7106780377110434, 0.11432482883723571, -0.4119084192126717, -0.42749936082165607], [0.191443220665038, 0.48197365790073693, 0.2945459280341643, -0.108786827292437, -0.8036066558858584, 0.8181811907342658], [-0.3686755665494649, -0.554060971601117, -0.20250079086000322, -0.12767138172027215, 0.9504009825574353, 1.0104318473868374], [0.008945569126411514, 1.3746836512841987, 0.6714851536648876, 0.41705147384659685, -0.09772111791858643, -1.3517826800128447], [-1.2078432696076322, -0.6228983594102563, 1.1200650969709833, 0.8462021079709586, 0.27452070617204866, -1.33185670341194], [-1.2364199060323107, -0.787217254862861, 0.1897603821565689, -0.00613482083526524, 0.1348681815081091, 0.07365662159475261]], [[0.5113738126205829], [1.14275052468176], [0.13740548280337367], [0.1925506689459367], [-1.9084411366990939], [0.17664032931079476]]], "biases": [[[0.7313475625883974], [-0.03552256518694826], [-1.7128435757789302], [-0.6443037173177885], [-1.8574625552315835], [-0.11806445403728186]], [[1.579465290648385]]], "layers": [6, 6, 1]}, {"name": "", "score": 36, "weights": [[[-1.7646713879304727, 0.29799307147464366, 0.7106780377110434, 0.11432482883723571, -0.4323355863629072, -1.2788253318412035], [0.47995577542757195, 0.48197365790073693, -1.186521292796004, 0.20992441363675954, 0.8563694191415805, -0.007413103145318874], [0.2642475467974962, -0.554060971601117, -0.20250079086000322, 0.1228404134528714, 0.9504009825574353, 1.0104318473868374], [0.008945569126411514, -0.8421909570313856, -0.35149835228693943, 1.525866149191851, -0.09772111791858643, -1.3517826800128447], [-1.2078432696076322, 0.22480104820017466, 1.1200650969709833, -2.731935177403569, 0.27452070617204866, -0.9053487337802208], [0.21074241428476487, 0.36511358975025865, 0.1897603821565689, -1.3987656820593832, 0.1348681815081091, -0.6208514512374843]], [[0.5113738126205829], [1.14275052468176], [-1.5287357646111284], [0.1925506689459367], [-1.9084411366990939], [-1.3441618237481512]]], "biases": [[[0.7313475625883974], [-0.6337851138833666], [-1.7128435757789302], [-0.4170333637453505], [-1.8574625552315835], [-0.11806445403728186]], [[1.579465290648385]]], "layers": [6, 6, 1]}, {"name": "", "score": 54, "weights": [[[-1.7646713879304727, 0.29799307147464366, 0.7106780377110434, 0.11432482883723571, -0.4323355863629072, -1.2788253318412035], [0.47995577542757195, 2.183918023983856, -1.186521292796004, 1.2307525581928944, 0.8563694191415805, -0.007413103145318874], [0.4760815516716673, -1.606315765996873, -0.20250079086000322, 0.1228404134528714, 0.9504009825574353, 0.18358590541581024], [0.008945569126411514, 0.36219023410798484, -0.35149835228693943, 1.525866149191851, -0.12811303233252874, -1.3517826800128447], [0.5079955077176312, 0.22480104820017466, 1.1200650969709833, -2.731935177403569, -0.8527822401530278, -0.9053487337802208], [0.21074241428476487, 0.36511358975025865, 0.1897603821565689, -1.3987656820593832, -0.9154074548292785, -0.6208514512374843]], [[0.34752315488400487], [0.036376108241492656], [-1.5287357646111284], [1.5876983369577042], [-1.9084411366990939], [-0.4416367992046048]]], "biases": [[[-0.3086426497596299], [-0.6337851138833666], [-1.0734009621536922], [-0.4170333637453505], [1.1659631976871672], [-0.11806445403728186]], [[1.579465290648385]]], "layers": [6, 6, 1]}, {"name": "", "score": -63, "weights": [[[-1.7646713879304727, 0.29799307147464366, 0.7106780377110434, 1.5979902818840948, -0.4119084192126717, -0.42749936082165607], [0.8483760520860681, 0.48197365790073693, 0.2945459280341643, -0.108786827292437, -0.8036066558858584, 0.8181811907342658], [-0.3686755665494649, 1.4062109530353526, -0.20250079086000322, 0.1228404134528714, 1.9324514507267856, 0.3486271626416447], [0.008945569126411514, 0.1908978659526642, 0.6714851536648876, 0.41705147384659685, -0.09772111791858643, -1.3517826800128447], [0.5088654533712559, -0.6228983594102563, -0.09443459589095803, -2.731935177403569, 0.27452070617204866, -0.9053487337802208], [-1.2364199060323107, -0.787217254862861, 0.1897603821565689, -0.00613482083526524, 0.1348681815081091, 0.07365662159475261]], [[0.34752315488400487], [1.14275052468176], [-1.5287357646111284], [0.1925506689459367], [-1.9084411366990939], [-0.4416367992046048]]], "biases": [[[0.7313475625883974], [-0.03552256518694826], [-1.7128435757789302], [-0.6443037173177885], [1.1659631976871672], [-0.11806445403728186]], [[1.579465290648385]]], "layers": [6, 6, 1]}, {"name": "", "score": -1, "weights": [[[-1.7646713879304727, 0.29799307147464366, 0.7106780377110434, 0.11432482883723571, -0.4323355863629072, -1.2788253318412035], [0.47995577542757195, 0.48197365790073693, 0.2945459280341643, 0.20992441363675954, 0.8563694191415805, 0.8181811907342658], [0.4760815516716673, -1.606315765996873, -0.20250079086000322, 0.1228404134528714, 0.9504009825574353, 1.0104318473868374], [0.008945569126411514, 1.3746836512841987, -0.35149835228693943, 1.525866149191851, -0.12811303233252874, -1.3517826800128447], [0.5079955077176312, 0.22480104820017466, 1.1200650969709833, -2.731935177403569, 0.27452070617204866, -0.9053487337802208], [-1.2364199060323107, 0.36511358975025865, 0.1897603821565689, -1.3987656820593832, -0.9154074548292785, -0.6208514512374843]], [[0.5113738126205829], [1.14275052468176], [-1.5287357646111284], [0.1925506689459367], [-1.9084411366990939], [-0.4416367992046048]]], "biases": [[[-0.3086426497596299], [-0.6337851138833666], [-1.7128435757789302], [-0.6443037173177885], [1.1659631976871672], [-0.11806445403728186]], [[1.579465290648385]]], "layers": [6, 6, 1]}, {"name": "", "score": 55, "weights": [[[-1.7646713879304727, 0.29799307147464366, 0.7106780377110434, 0.11432482883723571, -0.4323355863629072, -1.2788253318412035], [0.47995577542757195, 2.183918023983856, -1.186521292796004, 1.2307525581928944, 0.8563694191415805, -0.007413103145318874], [0.4760815516716673, -1.606315765996873, -0.20250079086000322, 0.1228404134528714, 0.9504009825574353, 0.18358590541581024], [0.008945569126411514, -0.8421909570313856, -0.35149835228693943, 1.525866149191851, -0.12811303233252874, -1.3517826800128447], [0.5079955077176312, 0.22480104820017466, 1.1200650969709833, -2.731935177403569, -0.8527822401530278, -0.9053487337802208], [0.21074241428476487, 0.36511358975025865, 0.1897603821565689, -1.3987656820593832, -0.9154074548292785, -0.6208514512374843]], [[0.34752315488400487], [0.036376108241492656], [-1.5287357646111284], [1.5876983369577042], [-1.9084411366990939], [-0.4416367992046048]]], "biases": [[[-0.3086426497596299], [-0.6337851138833666], [-1.0734009621536922], [-0.4170333637453505], [1.1659631976871672], [-0.11806445403728186]], [[1.579465290648385]]], "layers": [6, 6, 1]}, {"name": "", "score": 14, "weights": [[[-1.7646713879304727, 0.29799307147464366, 0.7106780377110434, 0.11432482883723571, -0.4323355863629072, -1.2788253318412035], [0.47995577542757195, 2.183918023983856, 0.18265321650959296, 0.20992441363675954, 0.8563694191415805, -0.007413103145318874], [0.4760815516716673, -0.554060971601117, -0.20250079086000322, 0.1228404134528714, 0.9504009825574353, 1.0104318473868374], [0.008945569126411514, -0.8421909570313856, -0.35149835228693943, 1.525866149191851, -0.12811303233252874, -0.9142447523092662], [-1.2078432696076322, 0.22480104820017466, 1.1200650969709833, -2.731935177403569, -0.8527822401530278, -0.9053487337802208], [-1.2364199060323107, 0.36511358975025865, 0.1897603821565689, -0.00613482083526524, -0.9154074548292785, -0.6208514512374843]], [[0.34752315488400487], [0.036376108241492656], [-1.5287357646111284], [1.5876983369577042], [-1.9084411366990939], [-0.4416367992046048]]], "biases": [[[-1.0863940557798653], [-0.6337851138833666], [-1.7128435757789302], [0.21970186170538086], [-1.8574625552315835], [-0.11806445403728186]], [[1.579465290648385]]], "layers": [6, 6, 1]}, {"name": "", "score": 65, "weights": [[[-1.7646713879304727, 0.29799307147464366, -0.494792529016469, 1.5979902818840948, -0.4119084192126717, -1.2788253318412035], [0.47995577542757195, 2.183918023983856, -1.186521292796004, 1.2307525581928944, -0.8036066558858584, 1.065409927949724], [-0.3686755665494649, 1.4062109530353526, -1.9690731889541293, 0.1228404134528714, -0.19754872060520481, 1.0104318473868374], [0.008945569126411514, -0.8421909570313856, -0.35149835228693943, 1.525866149191851, -0.12811303233252874, -1.3517826800128447], [-1.240410794503873, 0.22480104820017466, 1.1200650969709833, 0.842380369371927, -0.8527822401530278, -0.9053487337802208], [-0.6237205053012285, 0.36511358975025865, 0.1897603821565689, -1.3987656820593832, -0.9154074548292785, -0.6208514512374843]], [[0.34752315488400487], [0.036376108241492656], [-1.5287357646111284], [0.6185106715877218], [-1.9084411366990939], [2.6028919193483504]]], "biases": [[[0.3188166765289412], [-1.0940825658544415], [-1.0734009621536922], [-0.4170333637453505], [-0.5806804915159349], [-0.11806445403728186]], [[1.579465290648385]]], "layers": [6, 6, 1]}, {"name": "", "score": 47, "weights": [[[0.8975779419349657, 0.29799307147464366, -1.0799703447502842, 1.5979902818840948, -0.4119084192126717, -0.49094194566979954], [0.47995577542757195, 0.48197365790073693, 0.2945459280341643, 0.20992441363675954, -0.8036066558858584, 1.065409927949724], [0.2642475467974962, 1.4062109530353526, -0.20250079086000322, 0.1228404134528714, -0.19754872060520481, 1.0104318473868374], [0.008945569126411514, 1.3746836512841987, 0.6714851536648876, 1.525866149191851, -0.09772111791858643, -0.5446739629371513], [-1.2078432696076322, 0.22480104820017466, -0.7762416857307921, 0.842380369371927, 0.27452070617204866, -1.33185670341194], [-0.6237205053012285, 0.36511358975025865, 0.1897603821565689, -0.39592800090867203, 0.1348681815081091, -0.704851431077489]], [[0.5113738126205829], [2.5341669697327167], [-0.4035048174450745], [0.6185106715877218], [-1.9084411366990939], [2.6028919193483504]]], "biases": [[[0.3188166765289412], [-1.0940825658544415], [1.5141370518085944], [0.21970186170538086], [-0.5806804915159349], [-0.11806445403728186]], [[1.579465290648385]]], "layers": [6, 6, 1]}, {"name": "", "score": 19, "weights": [[[-1.222558147729294, 0.29799307147464366, 0.7106780377110434, 1.5979902818840948, -0.4323355863629072, -1.2788253318412035], [0.47995577542757195, 0.48197365790073693, 0.18265321650959296, 0.20992441363675954, -0.8036066558858584, 1.065409927949724], [-0.3686755665494649, -0.554060971601117, -1.9690731889541293, 0.1228404134528714, 0.9504009825574353, 1.0104318473868374], [0.008945569126411514, 0.15683942230891668, -0.35149835228693943, 1.525866149191851, -0.09772111791858643, -0.9142447523092662], [-1.2078432696076322, 0.22480104820017466, -0.7762416857307921, -2.731935177403569, 0.27452070617204866, -1.33185670341194], [-0.6237205053012285, 0.36511358975025865, 0.1897603821565689, -0.39592800090867203, 0.1348681815081091, -0.704851431077489]], [[-1.5599203100422072], [2.5341669697327167], [-0.4035048174450745], [0.1925506689459367], [-1.9084411366990939], [-0.4416367992046048]]], "biases": [[[0.3188166765289412], [-1.0940825658544415], [-1.7128435757789302], [0.21970186170538086], [-1.8574625552315835], [-0.11806445403728186]], [[1.579465290648385]]], "layers": [6, 6, 1]}, {"name": "", "score": -30, "weights": [[[-1.7646713879304727, 0.29799307147464366, 0.7106780377110434, 1.5979902818840948, -0.4119084192126717, -1.2788253318412035], [0.191443220665038, 0.48197365790073693, 0.2945459280341643, -0.108786827292437, -0.5882019510906467, 0.8181811907342658], [-0.3686755665494649, -0.554060971601117, -0.20250079086000322, 0.1228404134528714, 0.9504009825574353, -0.7525399579545969], [0.008945569126411514, 0.1908978659526642, 0.6714851536648876, 1.525866149191851, -0.09772111791858643, -1.3517826800128447], [-1.2078432696076322, -0.6228983594102563, 1.1200650969709833, -2.731935177403569, 0.27452070617204866, -0.9053487337802208], [-1.2364199060323107, 0.36511358975025865, 0.1897603821565689, -0.00613482083526524, 0.1348681815081091, 0.07365662159475261]], [[0.34752315488400487], [1.14275052468176], [-1.5287357646111284], [0.1925506689459367], [-1.9084411366990939], [-1.3441618237481512]]], "biases": [[[0.7313475625883974], [-0.6337851138833666], [-1.7128435757789302], [-0.6443037173177885], [-1.8574625552315835], [-0.11806445403728186]], [[1.579465290648385]]], "layers": [6, 6, 1]}]}