{"gen": [{"name": "", "score": 74, "weights": [[[-1.7646713879304727, -0.4656608075335685, 0.7106780377110434, 0.11432482883723571, -0.4119084192126717, -0.42749936082165607], [0.191443220665038, 0.48197365790073693, 0.2945459280341643, -0.108786827292437, -0.8036066558858584, 1.065409927949724], [-0.3686755665494649, 1.4062109530353526, -0.20250079086000322, 0.1228404134528714, 0.9504009825574353, 1.0104318473868374], [0.008945569126411514, 1.3746836512841987, 0.6714851536648876, 0.41705147384659685, -0.09772111791858643, -1.3517826800128447], [-1.2078432696076322, -0.6228983594102563, 1.1200650969709833, -2.731935177403569, 0.27452070617204866, -1.33185670341194], [-1.2364199060323107, -0.787217254862861, 0.1897603821565689, -0.00613482083526524, 0.1348681815081091, 0.07365662159475261]], [[0.5113738126205829], [1.14275052468176], [-1.5287357646111284], [0.1925506689459367], [-1.9084411366990939], [-0.4416367992046048]]], "biases": [[[0.7313475625883974], [-0.03552256518694826], [-1.7128435757789302], [-0.6443037173177885], [-1.8574625552315835], [-0.11806445403728186]], [[1.579465290648385]]], "layers": [6, 6, 1]}, {"name": "", "score": 70, "weights": [[[-1.7646713879304727, -0.4656608075335685, 0.7106780377110434, 0.11432482883723571, -0.4119084192126717, -0.42749936082165607], [0.191443220665038, 0.48197365790073693, 0.2945459280341643, -0.108786827292437, -0.8036066558858584, 0.8181811907342658], [-0.3686755665494649, -0.554060971601117, -1.9690731889541293, -0.12767138172027215, 0.9504009825574353, 1.0104318473868374], [0.008945569126411514, 0.1908978659526642, 0.6714851536648876, 0.41705147384659685, -0.12811303233252874, -1.3517826800128447], [0.5088654533712559, -0.6228983594102563, 1.1200650969709833, 0.8462021079709586, 0.27452070617204866, -1.33185670341194], [-0.1581196122223387, -0.787217254862861, 0.1897603821565689, -0.39592800090867203, 0.1348681815081091, -0.6667571795423141]], [[0.34752315488400487], [1.14275052468176], [-1.5287357646111284], [0.1925506689459367], [-1.9084411366990939], [-0.4416367992046048]]], "biases": [[[0.7313475625883974], [-0.03552256518694826], [-1.7128435757789302], [-0.6443037173177885], [-1.8574625552315835], [-0.11806445403728186]], [[1.579465290648385]]], "layers": [6, 6, 1]}, {"name": "", "score": 73, "weights": [[[0.8975779419349657, -0.4656608075335685, -0.494792529016469, 1.5979902818840948, -0.4119084192126717, -0.42749936082165607], [0.191443220665038, 2.183918023983856, 0.2945459280341643, -0.108786827292437, -0.5882019510906467, 1.065409927949724], [-0.3686755665494649, 1.4062109530353526, -1.9690731889541293, -0.12767138172027215, -0.19754872060520481, 1.0104318473868374], [0.008945569126411514, 0.1908978659526642, 0.6714851536648876, 1.525866149191851, -0.12811303233252874, -1.3517826800128447], [0.5088654533712559, -0.6228983594102563, 1.1200650969709833, 0.8462021079709586, -0.8527822401530278, -1.33185670341194], [-0.6237205053012285, 0.36511358975025865, 0.7569290834617565, -1.3987656820593832, -0.9154074548292785, -0.6667571795423141]], [[0.34752315488400487], [1.14275052468176], [-1.5287357646111284], [0.6185106715877218], [-1.9084411366990939], [2.6028919193483504]]], "biases": [[[0.3188166765289412], [-1.0940825658544415], [-1.7128435757789302], [-0.6443037173177885], [-0.5806804915159349], [-0.11806445403728186]], [[1.579465290648385]]], "layers": [6, 6, 1]}, {"name": "", "score": 59, "weights": [[[0.8975779419349657, -0.4656608075335685, -1.0799703447502842, 1.5979902818840948, 1.0562941444953975, -0.49094194566979954], [-0.7291976950438405, 0.48197365790073693, 0.2945459280341643, 0.20992441363675954, -0.8036066558858584, 0.8181811907342658], [-0.3686755665494649, 1.4062109530353526, -1.9690731889541293, 0.1228404134528714, 0.9504009825574353, 1.0104318473868374], [0.008945569126411514, 1.3746836512841987, -0.15685588979403717, 1.525866149191851, -0.09772111791858643, -1.3517826800128447], [0.5088654533712559, 0.22480104820017466, 1.1200650969709833, 0.8462021079709586, 0.27452070617204866, -1.33185670341194], [-0.6237205053012285, 0.36511358975025865, 0.1897603821565689, -0.39592800090867203, 0.1348681815081091, -0.704851431077489]], [[-1.5599203100422072], [1.14275052468176], [0.13740548280337367], [0.6185106715877218], [-1.9084411366990939], [0.17664032931079476]]], "biases": [[[0.7313475625883974], [-1.0940825658544415], [-0.6624718067615671], [0.21970186170538086], [-0.5806804915159349], [-0.11806445403728186]], [[1.579465290648385]]], "layers": [6, 6, 1]}, {"name": "", "score": 72, "weights": [[[-1.7646713879304727, 0.29799307147464366, -0.494792529016469, 1.5979902818840948, -0.4119084192126717, -1.2788253318412035], [0.47995577542757195, 2.183918023983856, -1.186521292796004, 1.2307525581928944, -0.8036066558858584, 1.065409927949724], [-0.3686755665494649, 1.4062109530353526, -1.9690731889541293, 0.1228404134528714, -0.19754872060520481, 1.0104318473868374], [0.008945569126411514, -0.8421909570313856, -0.35149835228693943, 1.525866149191851, -0.12811303233252874, -1.3517826800128447], [-1.240410794503873, 0.22480104820017466, 1.1200650969709833, 0.842380369371927, -0.8527822401530278, -0.9053487337802208], [-0.6237205053012285, 0.36511358975025865, 0.1897603821565689, -1.3987656820593832, -0.9154074548292785, -0.6208514512374843]], [[0.34752315488400487], [0.036376108241492656], [-1.5287357646111284], [0.6185106715877218], [-1.9084411366990939], [2.6028919193483504]]], "biases": [[[0.3188166765289412], [-1.0940825658544415], [-1.0734009621536922], [-0.4170333637453505], [-0.5806804915159349], [-0.11806445403728186]], [[1.579465290648385]]], "layers": [6, 6, 1]}, {"name": "", "score": 79, "weights": [[[-1.7646713879304727, -0.4656608075335685, 0.7106780377110434, 0.11432482883723571, -0.4119084192126717, -0.42749936082165607], [0.191443220665038, 2.183918023983856, 0.2945459280341643, -0.108786827292437, -0.8036066558858584, 1.065409927949724], [-0.3686755665494649, 1.4062109530353526, -1.9690731889541293, -0.12767138172027215, 0.9504009825574353, 1.0104318473868374], [0.008945569126411514, 1.3746836512841987, 0.6714851536648876, 0.41705147384659685, -0.12811303233252874, -1.3517826800128447], [-1.2078432696076322, -0.6228983594102563, 1.1200650969709833, -2.731935177403569, 0.27452070617204866, -1.33185670341194], [-1.2364199060323107, -0.787217254862861, 0.7569290834617565, -0.00613482083526524, 0.1348681815081091, 0.07365662159475261]], [[0.34752315488400487], [-0.7353295335800233], [-1.5287357646111284], [0.1925506689459367], [-1.9084411366990939], [0.17664032931079476]]], "biases": [[[0.7313475625883974], [-0.03552256518694826], [-1.7128435757789302], [-0.6443037173177885], [-1.8574625552315835], [-0.11806445403728186]], [[1.579465290648385]]], "layers": [6, 6, 1]}, {"name": "", "score": -238, "weights": [[[0.8975779419349657, 0.29799307147464366, -1.0799703447502842, 1.5979902818840948, -0.4119084192126717, -0.49094194566979954], [-0.7291976950438405, 0.48197365790073693, 0.6449264753473027, 0.20992441363675954, -0.8036066558858584, 1.065409927949724], [-0.3686755665494649, 1.4062109530353526, -1.9690731889541293, 0.1228404134528714, -0.19754872060520481, 1.0104318473868374], [0.008945569126411514, -0.8421909570313856, -0.35149835228693943, 1.525866149191851, -0.12811303233252874, -0.5446739629371513], [-1.240410794503873, 0.22480104820017466, -0.7762416857307921, 0.842380369371927, 0.6158873422947865, -1.33185670341194], [-0.6237205053012285, 0.36511358975025865, 0.1897603821565689, -1.3987656820593832, -0.9154074548292785, -0.6208514512374843]], [[-1.5599203100422072], [2.5341669697327167], [-1.5287357646111284], [0.6185106715877218], [-1.9084411366990939], [2.6028919193483504]]], "biases": [[[0.3188166765289412], [-1.0940825658544415], [-1.0734009621536922], [-0.4170333637453505], [-0.5806804915159349], [-0.11806445403728186]], [[1.579465290648385]]], "layers": [6, 6, 1]}, {"name": "", "score": -7, "weights": [[[0.8975779419349657, -0.4656608075335685, -1.0799703447502842, -1.9569115853959955, -0.4119084192126717, -0.42749936082165607], [-0.7291976950438405, 2.183918023983856, 0.6449264753473027, -0.108786827292437, -0.8036066558858584, 1.065409927949724], [-0.3686755665494649, 1.4062109530353526, -1.9690731889541293, 0.1228404134528714, -0.19754872060520481, 1.0104318473868374], [0.008945569126411514, 1.3746836512841987, -0.15685588979403717, 0.41705147384659685, -0.12811303233252874, -0.5446739629371513], [-1.2078432696076322, 1.0642999120904266, -0.7762416857307921, 0.842380369371927, 0.27452070617204866, -1.33185670341194], [-1.2364199060323107, -0.787217254862861, 0.7569290834617565, -0.00613482083526524, 0.1348681815081091, -0.704851431077489]], [[-1.5599203100422072], [0.036376108241492656], [-0.4035048174450745], [0.1925506689459367], [-1.9084411366990939], [-0.4416367992046048]]], "biases": [[[0.3188166765289412], [-1.0940825658544415], [-1.7128435757789302], [0.21970186170538086], [-0.5806804915159349], [-0.11806445403728186]], [[1.579465290648385]]], "layers": [6, 6, 1]}, {"name": "", "score": -239, "weights": [[[0.8975779419349657, 0.29799307147464366, -0.494792529016469, 1.5979902818840948, -0.4119084192126717, -1.2788253318412035], [0.47995577542757195, 0.48197365790073693, 0.6449264753473027, 1.2307525581928944, -0.8036066558858584, 0.7468526901776323], [-0.3686755665494649, 1.4062109530353526, -1.9690731889541293, 0.1228404134528714, -0.19754872060520481, 1.0104318473868374], [0.008945569126411514, 1.3746836512841987, -0.15685588979403717, 1.525866149191851, -0.12811303233252874, -0.3356222382360137], [0.5088654533712559, 0.788503321100833, -0.7762416857307921, 0.842380369371927, 0.6158873422947865, -0.9053487337802208], [-0.6237205053012285, -0.23670390618633466, 0.1897603821565689, -1.3987656820593832, -0.9154074548292785, -0.704851431077489]], [[0.34752315488400487], [0.036376108241492656], [-0.4035048174450745], [0.6185106715877218], [-1.9084411366990939], [2.6028919193483504]]], "biases": [[[0.3188166765289412], [-1.0940825658544415], [-1.0734009621536922], [0.21970186170538086], [-0.5806804915159349], [-0.11806445403728186]], [[1.579465290648385]]], "layers": [6, 6, 1]}, {"name": "", "score": 74, "weights": [[[0.8975779419349657, -0.4656608075335685, 0.7106780377110434, 0.11432482883723571, -0.4119084192126717, -0.42749936082165607], [0.191443220665038, 2.183918023983856, 0.2945459280341643, -0.108786827292437, -0.5882019510906467, 0.8181811907342658], [-0.3686755665494649, 1.4062109530353526, -1.9690731889541293, -0.12767138172027215, 0.9504009825574353, 0.3486271626416447], [0.008945569126411514, 0.1908978659526642, 0.6714851536648876, 0.41705147384659685, -0.12811303233252874, -1.3517826800128447], [0.5088654533712559, -0.6228983594102563, 1.1200650969709833, 0.8462021079709586, 0.27452070617204866, -1.33185670341194], [-1.2364199060323107, -0.787217254862861, 0.7569290834617565, -0.39592800090867203, 0.1348681815081091, -0.6667571795423141]], [[0.34752315488400487], [1.14275052468176], [-1.5287357646111284], [0.1925506689459367], [-1.9084411366990939], [-0.4416367992046048]]], "biases": [[[0.7313475625883974], [-0.03552256518694826], [-1.7128435757789302], [-0.6443037173177885], [1.1659631976871672], [-0.11806445403728186]], [[1.579465290648385]]], "layers": [6, 6, 1]}, {"name": "", "score": -81, "weights": [[[-1.222558147729294, -0.4656608075335685, 0.7106780377110434, 0.11432482883723571, -0.4119084192126717, -0.42749936082165607], [0.191443220665038, 0.48197365790073693, 0.2945459280341643, -0.108786827292437, -0.8036066558858584, 0.8181811907342658], [-0.3686755665494649, 1.4062109530353526, -1.9690731889541293, -0.12767138172027215, 0.9504009825574353, 1.0104318473868374], [0.008945569126411514, 1.3746836512841987, 0.6714851536648876, 0.41705147384659685, -0.12811303233252874, -1.3517826800128447], [-1.2078432696076322, -0.6228983594102563, 1.1200650969709833, 0.8462021079709586, 0.27452070617204866, -1.33185670341194], [-1.2364199060323107, -0.787217254862861, 0.7569290834617565, -0.00613482083526524, 0.1348681815081091, -0.6667571795423141]], [[0.5113738126205829], [1.14275052468176], [-1.5287357646111284], [0.1925506689459367], [-1.9084411366990939], [-0.4416367992046048]]], "biases": [[[0.7313475625883974], [-0.03552256518694826], [-1.7128435757789302], [-0.6443037173177885], [1.1659631976871672], [-0.11806445403728186]], [[1.579465290648385]]], "layers": [6, 6, 1]}, {"name": "", "score": 79, "weights": [[[-0.5148820908034091, -0.4656608075335685, 0.7106780377110434, 0.11432482883723571, -0.4119084192126717, -0.42749936082165607], [0.191443220665038, 2.183918023983856, 0.2945459280341643, -0.108786827292437, -0.5882019510906467, 0.8181811907342658], [-0.3686755665494649, 1.4062109530353526, -1.9690731889541293, 0.1228404134528714, 0.9504009825574353, 0.3486271626416447], [0.008945569126411514, 0.1908978659526642, 0.6714851536648876, 0.41705147384659685, -0.12811303233252874, -1.3517826800128447], [-1.2078432696076322, -0.6228983594102563, 1.1200650969709833, -2.731935177403569, 0.27452070617204866, 1.5161815566525139], [-1.2364199060323107, -0.787217254862861, 0.7569290834617565, -0.00613482083526524, 0.1348681815081091, -0.6667571795423141]], [[0.34752315488400487], [1.14275052468176], [-1.5287357646111284], [0.1925506689459367], [-1.9084411366990939], [-0.4416367992046048]]], "biases": [[[0.7313475625883974], [-0.6337851138833666], [-1.7128435757789302], [-0.6443037173177885], [1.1659631976871672], [-0.11806445403728186]], [[1.579465290648385]]], "layers": [6, 6, 1]}, {"name": "", "score": 63, "weights": [[[0.8975779419349657, 0.29799307147464366, -0.494792529016469, 1.5979902818840948, -0.4119084192126717, -1.2788253318412035], [-0.7291976950438405, 2.183918023983856, 0.6449264753473027, 1.2307525581928944, -0.8036066558858584, 1.065409927949724], [-0.3686755665494649, 1.4062109530353526, -1.9690731889541293, 0.1228404134528714, -0.19754872060520481, 1.0104318473868374], [0.008945569126411514, 1.3746836512841987, -0.35149835228693943, 1.525866149191851, -0.09772111791858643, -1.3517826800128447], [0.5088654533712559, 0.22480104820017466, 1.1200650969709833, 0.842380369371927, 0.6158873422947865, -1.33185670341194], [-0.6237205053012285, 0.36511358975025865, 0.1897603821565689, -0.39592800090867203, 0.1348681815081091, -0.704851431077489]], [[0.34752315488400487], [0.036376108241492656], [-1.5287357646111284], [0.6185106715877218], [-1.9084411366990939], [2.6028919193483504]]], "biases": [[[0.3188166765289412], [-1.0940825658544415], [-1.0734009621536922], [-0.4170333637453505], [-0.5806804915159349], [-0.11806445403728186]], [[1.579465290648385]]], "layers": [6, 6, 1]}, {"name": "", "score": 28, "weights": [[[-1.7646713879304727, -0.4656608075335685, 0.7106780377110434, 0.11432482883723571, -0.4119084192126717, -0.42749936082165607], [0.191443220665038, 0.48197365790073693, 0.2945459280341643, -0.108786827292437, -0.8036066558858584, 0.8181811907342658], [-0.3686755665494649, 1.4062109530353526, -0.20250079086000322, -0.12767138172027215, 0.9504009825574353, 0.3486271626416447], [0.008945569126411514, 0.1908978659526642, 0.6714851536648876, 0.41705147384659685, -0.09772111791858643, -1.3517826800128447], [-1.2078432696076322, -0.6228983594102563, 1.1200650969709833, 0.8462021079709586, 0.27452070617204866, -1.33185670341194], [-1.2364199060323107, -0.787217254862861, 0.1897603821565689, -0.00613482083526524, 0.1348681815081091, -0.6667571795423141]], [[0.5113738126205829], [1.14275052468176], [-1.5287357646111284], [0.1925506689459367], [-1.9084411366990939], [0.17664032931079476]]], "biases": [[[0.7313475625883974], [-0.03552256518694826], [-1.7128435757789302], [-0.6443037173177885], [0.28064398123895623], [-0.11806445403728186]], [[1.579465290648385]]], "layers": [6, 6, 1]}, {"name": "", "score": 64, "weights": [[[-1.7646713879304727, -0.4656608075335685, 0.7106780377110434, 0.11432482883723571, -0.4119084192126717, -0.42749936082165607], [0.191443220665038, 0.48197365790073693, 0.2945459280341643, -0.108786827292437, -0.8036066558858584, 0.8181811907342658], [-0.3686755665494649, -0.554060971601117, -0.20250079086000322, -0.12767138172027215, 0.9504009825574353, 1.0104318473868374], [0.008945569126411514, 1.3746836512841987, 0.6714851536648876, 0.41705147384659685, -0.12811303233252874, -1.3517826800128447], [-1.2078432696076322, -0.6228983594102563, 1.1200650969709833, -2.731935177403569, 0.27452070617204866, 1.5161815566525139], [-1.2364199060323107, -0.787217254862861, 0.7569290834617565, -0.00613482083526524, 0.1348681815081091, -0.6667571795423141]], [[0.5113738126205829], [1.14275052468176], [0.13740548280337367], [0.1925506689459367], [-1.9084411366990939], [-0.4416367992046048]]], "biases": [[[0.7313475625883974], [-0.6337851138833666], [-1.7128435757789302], [-0.6443037173177885], [-1.8574625552315835], [-0.11806445403728186]], [[1.3108831115563642]]], "layers": [6, 6, 1]}, {"name": "", "score": -6, "weights": [[[-1.7646713879304727, -0.4656608075335685, 0.7106780377110434, 0.11432482883723571, -0.4119084192126717, -0.42749936082165607], [0.47995577542757195, 2.183918023983856, -1.186521292796004, 1.2307525581928944, -0.8036066558858584, 1.065409927949724], [-0.3686755665494649, 1.4062109530353526, -1.9690731889541293, 0.1228404134528714, 0.9504009825574353, 1.0104318473868374], [0.008945569126411514, -0.8421909570313856, 0.6714851536648876, 0.41705147384659685, -0.12811303233252874, -1.3517826800128447], [-1.2078432696076322, -1.8663223615079945, 1.1200650969709833, 0.842380369371927, 0.27452070617204866, 1.5161815566525139], [-0.6237205053012285, 0.36511358975025865, 0.7569290834617565, -1.3987656820593832, 0.1348681815081091, -0.6667571795423141]], [[0.34752315488400487], [0.9365654570498554], [-1.5287357646111284], [0.6185106715877218], [-1.9084411366990939], [2.6028919193483504]]], "biases": [[[0.3188166765289412], [-0.6337851138833666], [-1.0734009621536922], [0.21970186170538086], [1.1659631976871672], [-0.11806445403728186]], [[1.579465290648385]]], "layers": [6, 6, 1]}, {"name": "", "score": -92, "weights": [[[0.8975779419349657, -0.4656608075335685, 0.7106780377110434, 0.11432482883723571, -0.4119084192126717, -0.42749936082165607], [0.191443220665038, 2.183918023983856, 0.2945459280341643, -0.108786827292437, -0.5882019510906467, 1.065409927949724], [-0.3686755665494649, 1.4062109530353526, -1.9690731889541293, 0.1228404134528714, 0.9504009825574353, 1.0104318473868374], [0.008945569126411514, 0.1908978659526642, 0.6714851536648876, 0.41705147384659685, -0.12811303233252874, -1.3517826800128447], [0.5088654533712559, -0.6228983594102563, 1.1200650969709833, 0.8462021079709586, 0.27452070617204866, 1.5161815566525139], [-1.2364199060323107, -0.787217254862861, 0.7569290834617565, -0.00613482083526524, 0.1348681815081091, -0.6667571795423141]], [[0.34752315488400487], [0.036376108241492656], [-1.5287357646111284], [0.1925506689459367], [-1.9084411366990939], [-0.4416367992046048]]], "biases": [[[0.7313475625883974], [-0.03552256518694826], [-1.7128435757789302], [-0.6443037173177885], [1.1659631976871672], [-0.11806445403728186]], [[1.579465290648385]]], "layers": [6, 6, 1]}, {"name": "", "score": -68, "weights": [[[-1.222558147729294, 0.29799307147464366, 0.7106780377110434, 0.11432482883723571, -0.4119084192126717, -1.2788253318412035], [0.191443220665038, 2.183918023983856, 0.2945459280341643, 1.2307525581928944, -0.8036066558858584, 1.065409927949724], [-0.3686755665494649, 1.4062109530353526, -1.9690731889541293, 0.1228404134528714, 0.9504009825574353, 1.0104318473868374], [0.008945569126411514, -0.8421909570313856, -0.35149835228693943, 1.525866149191851, -0.12811303233252874, -1.3517826800128447], [-1.2078432696076322, -0.6228983594102563, 1.1200650969709833, -2.731935177403569, -0.8527822401530278, 1.5161815566525139], [-0.6237205053012285, -0.787217254862861, 0.1897603821565689, -0.00613482083526524, -0.9154074548292785, -0.6208514512374843]], [[-1.1223418164486598], [0.036376108241492656], [-1.5287357646111284], [0.6185106715877218], [-1.9084411366990939], [2.6028919193483504]]], "biases": [[[0.3188166765289412], [-1.0940825658544415], [-1.0734009621536922], [-0.4170333637453505], [1.1659631976871672], [-0.11806445403728186]], [[1.579465290648385]]], "layers": [6, 6, 1]}, {"name": "", "score": 54, "weights": [[[-1.7646713879304727, -0.4656608075335685, 0.7106780377110434, 0.11432482883723571, -0.4119084192126717, -0.42749936082165607], [0.191443220665038, 0.48197365790073693, 0.2945459280341643, 1.990261298242202, -0.8036066558858584, 0.8181811907342658], [-0.3686755665494649, -0.554060971601117, -0.20250079086000322, -0.12767138172027215, 0.9504009825574353, 1.0104318473868374], [0.008945569126411514, 1.3746836512841987, 0.6714851536648876, 0.41705147384659685, -0.09772111791858643, -1.3517826800128447], [-1.2078432696076322, -0.6228983594102563, 1.1200650969709833, 0.8462021079709586, 0.27452070617204866, -1.33185670341194], [-1.2364199060323107, -0.787217254862861, 0.1897603821565689, -0.00613482083526524, 0.1348681815081091, 0.07365662159475261]], [[0.5113738126205829], [1.14275052468176], [0.13740548280337367], [0.1925506689459367], [-1.9084411366990939], [0.17664032931079476]]], "biases": [[[0.7313475625883974], [-0.03552256518694826], [-1.7128435757789302], [-0.6443037173177885], [-1.8574625552315835], [-0.11806445403728186]], [[1.579465290648385]]], "layers": [6, 6, 1]}, {"name": "", "score": -58, "weights": [[[-1.7646713879304727, 0.29799307147464366, 0.7106780377110434, 1.5979902818840948, -0.4119084192126717, -0.42749936082165607], [0.191443220665038, 2.183918023983856, 0.2945459280341643, -0.108786827292437, -0.5882019510906467, 1.065409927949724], [-0.3686755665494649, 1.4062109530353526, -1.9690731889541293, 0.1228404134528714, -0.19754872060520481, 1.0104318473868374], [0.008945569126411514, -0.8421909570313856, 0.6714851536648876, 0.41705147384659685, -0.12811303233252874, -1.3517826800128447], [0.5088654533712559, 0.22480104820017466, 1.1200650969709833, 0.842380369371927, 0.27452070617204866, -1.33185670341194], [-0.6237205053012285, 0.36511358975025865, 0.1897603821565689, -1.3987656820593832, 0.1348681815081091, -0.6667571795423141]], [[0.34752315488400487], [1.14275052468176], [-1.5287357646111284], [0.1925506689459367], [-1.9084411366990939], [-0.4416367992046048]]], "biases": [[[0.7313475625883974], [-1.0940825658544415], [-1.0734009621536922], [-0.6443037173177885], [1.1659631976871672], [-0.11806445403728186]], [[1.579465290648385]]], "layers": [6, 6, 1]}]}