{"gen": [{"name": "", "score": 38, "weights": [[[0.8975779419349657, -0.4656608075335685, 0.7106780377110434, 0.11432482883723571, -0.4119084192126717, -0.42749936082165607], [0.191443220665038, 2.183918023983856, 0.2945459280341643, -0.108786827292437, -0.5882019510906467, 0.8181811907342658], [-0.3686755665494649, 1.4062109530353526, -0.20250079086000322, 0.1228404134528714, 0.9504009825574353, 0.3486271626416447], [0.008945569126411514, 1.3746836512841987, 0.6714851536648876, -0.9131557706831843, -0.12811303233252874, -1.3517826800128447], [-1.2078432696076322, -0.6228983594102563, 1.1200650969709833, -2.731935177403569, 0.27452070617204866, -1.33185670341194], [-1.2364199060323107, -0.787217254862861, 0.1897603821565689, -0.39592800090867203, 0.1348681815081091, -0.6667571795423141]], [[0.5113738126205829], [1.14275052468176], [-1.5287357646111284], [0.1925506689459367], [-1.9084411366990939], [-0.4416367992046048]]], "biases": [[[0.7313475625883974], [-0.03552256518694826], [-1.7128435757789302], [-0.6443037173177885], [-1.8574625552315835], [-0.11806445403728186]], [[1.579465290648385]]], "layers": [6, 6, 1]}, {"name": "", "score": 33, "weights": [[[-0.5148820908034091, -0.4656608075335685, 0.7106780377110434, 0.11432482883723571, -0.4119084192126717, -0.42749936082165607], [0.191443220665038, 0.48197365790073693, 0.2945459280341643, -0.108786827292437, -0.8036066558858584, 0.8181811907342658], [-0.3686755665494649, 1.4062109530353526, -0.20250079086000322, 0.1228404134528714, 0.9504009825574353, 1.0104318473868374], [0.008945569126411514, 1.3746836512841987, 0.6714851536648876, 0.41705147384659685, -0.09772111791858643, -1.3517826800128447], [-1.2078432696076322, -0.6228983594102563, 1.1200650969709833, -2.731935177403569, 0.27452070617204866, -1.33185670341194], [-1.2364199060323107, -0.787217254862861, 0.1897603821565689, -0.00613482083526524, 0.1348681815081091, -0.6667571795423141]], [[0.34752315488400487], [1.14275052468176], [-1.5287357646111284], [0.1925506689459367], [-1.9084411366990939], [-0.4416367992046048]]], "biases": [[[0.7313475625883974], [-0.6337851138833666], [-1.7128435757789302], [-0.6443037173177885], [-1.8574625552315835], [-0.11806445403728186]], [[1.579465290648385]]], "layers": [6, 6, 1]}, {"name": "", "score": 49, "weights": [[[-0.5148820908034091, -0.4656608075335685, 0.7106780377110434, 0.11432482883723571, -0.4119084192126717, -0.42749936082165607], [0.191443220665038, 2.183918023983856, 0.2945459280341643, -0.108786827292437, -0.5882019510906467, 0.8181811907342658], [-0.3686755665494649, 1.4062109530353526, -1.9690731889541293, -0.12767138172027215, 0.9504009825574353, 0.3486271626416447], [0.008945569126411514, 0.1908978659526642, 0.6714851536648876, 0.41705147384659685, -0.12811303233252874, -1.3517826800128447], [-1.2078432696076322, -0.6228983594102563, 1.1200650969709833, -2.731935177403569, 0.27452070617204866, 1.5161815566525139], [-1.2364199060323107, -0.787217254862861, 0.7569290834617565, -0.39592800090867203, 0.1348681815081091, -0.6667571795423141]], [[0.34752315488400487], [1.14275052468176], [-1.5287357646111284], [0.1925506689459367], [-1.9084411366990939], [-0.4416367992046048]]], "biases": [[[0.7313475625883974], [-0.6337851138833666], [-1.7128435757789302], [-0.6443037173177885], [1.1659631976871672], [-0.11806445403728186]], [[1.579465290648385]]], "layers": [6, 6, 1]}, {"name": "", "score": -129, "weights": [[[-1.7646713879304727, -0.4656608075335685, 0.7106780377110434, 0.11432482883723571, -0.4119084192126717, -0.42749936082165607], [0.191443220665038, 0.48197365790073693, 0.2945459280341643, -0.108786827292437, -0.5882019510906467, 1.065409927949724], [-0.3686755665494649, 1.4062109530353526, -1.9690731889541293, 0.1228404134528714, 0.9504009825574353, 0.3486271626416447], [-0.7671513256463799, 1.3746836512841987, 0.6714851536648876, 0.41705147384659685, -0.09772111791858643, -1.3517826800128447], [0.9444144673465062, -0.6228983594102563, 1.1200650969709833, -2.731935177403569, 0.06052178384045817, -1.33185670341194], [-1.2364199060323107, -0.787217254862861, 0.7569290834617565, -0.00613482083526524, 0.1348681815081091, 0.07365662159475261]], [[0.5113738126205829], [1.14275052468176], [-1.5287357646111284], [0.1925506689459367], [-1.9084411366990939], [-0.4416367992046048]]], "biases": [[[0.7313475625883974], [-0.03552256518694826], [-1.7128435757789302], [-0.6443037173177885], [1.1659631976871672], [-0.11806445403728186]], [[1.579465290648385]]], "layers": [6, 6, 1]}, {"name": "", "score": 23, "weights": [[[0.8975779419349657, -0.4656608075335685, 2.448899948855501, 1.5979902818840948, -0.4119084192126717, -0.42749936082165607], [0.191443220665038, 2.183918023983856, 0.2945459280341643, -0.108786827292437, -0.8036066558858584, 1.065409927949724], [-0.3686755665494649, 1.4062109530353526, -1.9690731889541293, -0.12767138172027215, 0.9504009825574353, 1.0104318473868374], [0.008945569126411514, 0.1908978659526642, 0.6714851536648876, 1.525866149191851, -0.12811303233252874, -1.3517826800128447], [-1.2078432696076322, -0.6228983594102563, 1.1200650969709833, -2.731935177403569, -0.8527822401530278, -1.33185670341194], [-1.2364199060323107, -0.787217254862861, 0.7569290834617565, -0.00613482083526524, -0.9154074548292785, 0.07365662159475261]], [[0.34752315488400487], [1.14275052468176], [-1.5287357646111284], [0.6185106715877218], [-1.9084411366990939], [2.6028919193483504]]], "biases": [[[0.3188166765289412], [-0.03552256518694826], [-1.7128435757789302], [-0.6443037173177885], [-0.5806804915159349], [-0.11806445403728186]], [[1.579465290648385]]], "layers": [6, 6, 1]}, {"name": "", "score": -48, "weights": [[[-1.7646713879304727, -0.4656608075335685, 0.7106780377110434, 0.11432482883723571, -0.4119084192126717, -0.42749936082165607], [0.191443220665038, 2.183918023983856, 0.2945459280341643, -0.108786827292437, -0.8036066558858584, 1.065409927949724], [-0.3686755665494649, 1.4062109530353526, -0.20250079086000322, 0.1228404134528714, 0.9504009825574353, 1.0104318473868374], [0.008945569126411514, 1.3746836512841987, 0.6714851536648876, 0.41705147384659685, -0.09772111791858643, -1.3517826800128447], [0.5088654533712559, -0.6228983594102563, 1.1200650969709833, -2.731935177403569, 0.27452070617204866, -1.33185670341194], [-1.2364199060323107, -0.787217254862861, 0.1897603821565689, -1.3987656820593832, 0.1348681815081091, 0.07365662159475261]], [[0.5113738126205829], [1.14275052468176], [-1.5287357646111284], [0.1925506689459367], [-1.9084411366990939], [-0.4416367992046048]]], "biases": [[[0.7313475625883974], [-1.0940825658544415], [-1.7128435757789302], [-0.6443037173177885], [-0.5806804915159349], [-0.11806445403728186]], [[1.579465290648385]]], "layers": [6, 6, 1]}, {"name": "", "score": -94, "weights": [[[-1.7646713879304727, -0.4656608075335685, 0.7106780377110434, 0.11432482883723571, -0.4119084192126717, -0.42749936082165607], [0.191443220665038, 2.183918023983856, 0.2945459280341643, -0.108786827292437, -0.5882019510906467, 1.065409927949724], [-0.3686755665494649, 1.4062109530353526, -1.9690731889541293, -0.12767138172027215, 0.9504009825574353, 1.0104318473868374], [0.008945569126411514, 0.1908978659526642, 0.6714851536648876, 0.41705147384659685, -0.12811303233252874, -1.3517826800128447], [0.5088654533712559, -0.6228983594102563, 1.1200650969709833, 0.8462021079709586, 0.27452070617204866, -1.33185670341194], [-1.2364199060323107, -0.787217254862861, 0.7569290834617565, -0.00613482083526524, 0.1348681815081091, -0.6667571795423141]], [[0.34752315488400487], [1.14275052468176], [-1.5287357646111284], [0.1925506689459367], [-1.9084411366990939], [0.17664032931079476]]], "biases": [[[0.7313475625883974], [-0.03552256518694826], [-1.7128435757789302], [-0.6443037173177885], [1.1659631976871672], [-0.11806445403728186]], [[1.579465290648385]]], "layers": [6, 6, 1]}, {"name": "", "score": -19, "weights": [[[0.8975779419349657, -0.4656608075335685, 0.7106780377110434, 0.11432482883723571, -0.4119084192126717, -0.42749936082165607], [0.191443220665038, 2.183918023983856, -1.1092861240961898, -0.108786827292437, -0.8036066558858584, 1.065409927949724], [-0.3686755665494649, 0.583208119073737, -0.20250079086000322, 0.1228404134528714, 0.9504009825574353, 1.0104318473868374], [0.008945569126411514, 1.3746836512841987, 0.6714851536648876, 0.41705147384659685, -0.12811303233252874, -1.3517826800128447], [0.5088654533712559, -0.6228983594102563, 1.1200650969709833, 0.8462021079709586, -0.8527822401530278, -1.33185670341194], [-1.2364199060323107, 0.3148468442491031, 0.7569290834617565, -1.3987656820593832, -0.9154074548292785, 0.07365662159475261]], [[0.34752315488400487], [1.14275052468176], [-1.5287357646111284], [0.1925506689459367], [-1.9084411366990939], [2.6028919193483504]]], "biases": [[[0.3188166765289412], [-1.5776866225066342], [-1.7128435757789302], [-0.6443037173177885], [-0.5806804915159349], [-0.11806445403728186]], [[1.579465290648385]]], "layers": [6, 6, 1]}, {"name": "", "score": 63, "weights": [[[-0.5148820908034091, -0.4656608075335685, 0.7106780377110434, 0.11432482883723571, -0.4119084192126717, -0.42749936082165607], [0.191443220665038, 2.183918023983856, 0.2945459280341643, -0.108786827292437, -0.8036066558858584, 0.8181811907342658], [-0.3686755665494649, 1.4062109530353526, -1.9690731889541293, 0.1228404134528714, 0.9504009825574353, 1.0104318473868374], [0.008945569126411514, 1.3746836512841987, 0.6714851536648876, 0.41705147384659685, -0.09772111791858643, -1.3517826800128447], [-1.2078432696076322, -0.6228983594102563, 1.1200650969709833, -2.731935177403569, 0.27452070617204866, -1.33185670341194], [-1.2364199060323107, -0.787217254862861, 0.7569290834617565, -0.00613482083526524, 0.1348681815081091, -0.6667571795423141]], [[0.34752315488400487], [0.8610711501259903], [-0.8813180445694578], [0.1925506689459367], [-1.9084411366990939], [-0.4416367992046048]]], "biases": [[[0.7313475625883974], [-0.6337851138833666], [-1.7128435757789302], [-0.6443037173177885], [1.1659631976871672], [-0.11806445403728186]], [[1.579465290648385]]], "layers": [6, 6, 1]}, {"name": "", "score": 71, "weights": [[[-0.5148820908034091, -0.4656608075335685, 0.7106780377110434, 0.11432482883723571, -0.4119084192126717, -0.42749936082165607], [0.191443220665038, 2.183918023983856, 0.2945459280341643, -0.108786827292437, -0.8036066558858584, 0.8181811907342658], [-0.3686755665494649, 1.4062109530353526, -1.9690731889541293, -0.12767138172027215, 0.9504009825574353, -1.098918696456686], [0.008945569126411514, 0.1908978659526642, 0.6714851536648876, 0.41705147384659685, -0.12811303233252874, -1.3517826800128447], [-1.2078432696076322, -0.6228983594102563, 1.1200650969709833, -2.731935177403569, 0.27452070617204866, -1.33185670341194], [-1.2364199060323107, -0.787217254862861, 0.7569290834617565, -0.00613482083526524, 0.1348681815081091, 0.07365662159475261]], [[0.34752315488400487], [-0.7353295335800233], [-1.5287357646111284], [0.1925506689459367], [-1.9084411366990939], [0.17664032931079476]]], "biases": [[[0.7313475625883974], [-0.03552256518694826], [-1.7128435757789302], [-0.6443037173177885], [-1.8574625552315835], [-0.11806445403728186]], [[1.579465290648385]]], "layers": [6, 6, 1]}, {"name": "", "score": 55, "weights": [[[0.8991276738728295, -0.4656608075335685, 0.7106780377110434, 0.11432482883723571, -0.4119084192126717, -0.42749936082165607], [0.191443220665038, 2.183918023983856, 0.2945459280341643, -0.108786827292437, -0.5882019510906467, 0.8181811907342658], [-0.3686755665494649, 1.4062109530353526, -1.9690731889541293, -0.12767138172027215, 0.9504009825574353, 0.3486271626416447], [0.008945569126411514, 0.1908978659526642, 0.6714851536648876, 0.41705147384659685, -0.12811303233252874, -1.3517826800128447], [0.5088654533712559, -0.6228983594102563, 1.1200650969709833, 0.8462021079709586, 0.27452070617204866, -1.33185670341194], [-1.2364199060323107, -0.787217254862861, 0.7569290834617565, -0.39592800090867203, 0.1348681815081091, -0.6667571795423141]], [[0.34752315488400487], [1.14275052468176], [-1.5287357646111284], [0.1925506689459367], [-1.9084411366990939], [-0.4416367992046048]]], "biases": [[[0.7313475625883974], [-1.3376678348945379], [-1.7128435757789302], [-0.6443037173177885], [1.1659631976871672], [-0.11806445403728186]], [[1.2746053711979097]]], "layers": [6, 6, 1]}, {"name": "", "score": -207, "weights": [[[0.8975779419349657, -0.4656608075335685, -0.494792529016469, 0.11432482883723571, -0.4119084192126717, -0.42749936082165607], [0.191443220665038, 2.183918023983856, 0.2945459280341643, -0.108786827292437, -0.5882019510906467, 1.065409927949724], [-0.3686755665494649, 1.4062109530353526, -1.9690731889541293, -0.12767138172027215, 0.9504009825574353, 0.3486271626416447], [0.008945569126411514, 0.1908978659526642, 0.6714851536648876, 0.41705147384659685, -0.12811303233252874, -1.3517826800128447], [-1.2078432696076322, 1.900386544324376, 1.1200650969709833, 0.8462021079709586, -0.8527822401530278, -1.33185670341194], [-1.2364199060323107, 0.36511358975025865, 0.7569290834617565, -0.00613482083526524, 0.1348681815081091, 0.6724034405815987]], [[0.34752315488400487], [1.14275052468176], [-1.5287357646111284], [0.1925506689459367], [-1.9084411366990939], [2.6028919193483504]]], "biases": [[[0.7313475625883974], [-1.0940825658544415], [-1.7128435757789302], [-0.6443037173177885], [1.1659631976871672], [-0.11806445403728186]], [[1.579465290648385]]], "layers": [6, 6, 1]}, {"name": "", "score": -41, "weights": [[[-1.7646713879304727, -0.4656608075335685, -0.494792529016469, 1.5979902818840948, -0.4119084192126717, -0.42749936082165607], [0.191443220665038, 2.183918023983856, 0.2945459280341643, -0.108786827292437, -0.5882019510906467, 1.065409927949724], [-0.3686755665494649, 1.4062109530353526, -1.9690731889541293, -0.12767138172027215, -0.19754872060520481, 1.0104318473868374], [0.008945569126411514, 1.3746836512841987, 0.6714851536648876, 1.525866149191851, -0.12811303233252874, -1.3517826800128447], [-1.2078432696076322, -0.094015908059483, 1.1200650969709833, 0.8462021079709586, -0.8527822401530278, -1.33185670341194], [-0.8276005657983136, -0.787217254862861, 0.7569290834617565, -1.3987656820593832, -0.9154074548292785, 0.07365662159475261]], [[0.34752315488400487], [1.14275052468176], [-1.5287357646111284], [0.6185106715877218], [-1.9084411366990939], [2.6028919193483504]]], "biases": [[[0.7313475625883974], [-0.03552256518694826], [-1.7128435757789302], [-0.6443037173177885], [-1.8574625552315835], [-0.11806445403728186]], [[1.579465290648385]]], "layers": [6, 6, 1]}, {"name": "", "score": 53, "weights": [[[-0.5148820908034091, -0.4656608075335685, 0.7106780377110434, 0.11432482883723571, -0.4119084192126717, -0.42749936082165607], [0.191443220665038, 2.183918023983856, 0.2945459280341643, -0.108786827292437, -0.5882019510906467, 0.8181811907342658], [-0.3686755665494649, 1.4062109530353526, -1.9690731889541293, 0.1228404134528714, 0.9504009825574353, 0.3486271626416447], [0.008945569126411514, 0.1908978659526642, 0.6714851536648876, -0.6908606975531086, -0.12811303233252874, -1.3517826800128447], [-1.2078432696076322, -0.6228983594102563, 1.1200650969709833, -2.731935177403569, 0.27452070617204866, 1.5161815566525139], [-1.2364199060323107, -0.787217254862861, 0.7569290834617565, -0.00613482083526524, 0.1348681815081091, -0.6667571795423141]], [[0.34752315488400487], [1.14275052468176], [-1.5287357646111284], [0.1925506689459367], [-1.9084411366990939], [-0.4416367992046048]]], "biases": [[[0.7313475625883974], [-0.6337851138833666], [-1.7128435757789302], [-0.6443037173177885], [1.1659631976871672], [-0.11806445403728186]], [[1.579465290648385]]], "layers": [6, 6, 1]}, {"name": "", "score": 62, "weights": [[[0.8975779419349657, -0.4656608075335685, 0.7106780377110434, 0.11432482883723571, -0.4119084192126717, -0.42749936082165607], [0.191443220665038, 2.183918023983856, 0.2945459280341643, -0.108786827292437, -0.5882019510906467, 0.8181811907342658], [-0.3686755665494649, 1.4062109530353526, -1.9690731889541293, -0.12767138172027215, 0.9504009825574353, 0.3486271626416447], [0.008945569126411514, 0.1908978659526642, 0.6714851536648876, 0.5926198545018572, -0.12811303233252874, -1.3517826800128447], [-1.2078432696076322, -0.6228983594102563, 1.1200650969709833, -2.731935177403569, 0.27452070617204866, -1.33185670341194], [-1.2364199060323107, -0.787217254862861, 0.7569290834617565, -0.00613482083526524, 0.1348681815081091, -0.6667571795423141]], [[0.34752315488400487], [1.14275052468176], [-1.5287357646111284], [0.1925506689459367], [-1.9084411366990939], [-0.4416367992046048]]], "biases": [[[0.7313475625883974], [-0.03552256518694826], [-1.7128435757789302], [-0.6443037173177885], [1.1659631976871672], [-0.11806445403728186]], [[1.579465290648385]]], "layers": [6, 6, 1]}, {"name": "", "score": 41, "weights": [[[-0.5148820908034091, -0.4656608075335685, 0.7106780377110434, 1.5979902818840948, -0.4119084192126717, -0.42749936082165607], [0.191443220665038, 2.183918023983856, 0.2945459280341643, -0.108786827292437, -0.5882019510906467, 1.065409927949724], [0.3486022456529641, 1.4062109530353526, -1.9690731889541293, 0.1228404134528714, 0.9504009825574353, 1.0104318473868374], [0.008945569126411514, 0.1908978659526642, 0.6714851536648876, 1.525866149191851, -0.12811303233252874, -1.3517826800128447], [0.5088654533712559, -0.6228983594102563, 1.1200650969709833, -2.731935177403569, 0.27452070617204866, -1.33185670341194], [-1.2364199060323107, 0.36511358975025865, 0.7569290834617565, -0.00613482083526524, -0.9154074548292785, -0.6667571795423141]], [[0.34752315488400487], [1.14275052468176], [-1.5287357646111284], [0.6185106715877218], [-1.9084411366990939], [2.6028919193483504]]], "biases": [[[0.7313475625883974], [-0.6337851138833666], [-1.7128435757789302], [-0.6443037173177885], [-0.5806804915159349], [-0.11806445403728186]], [[1.579465290648385]]], "layers": [6, 6, 1]}, {"name": "", "score": 56, "weights": [[[-1.7646713879304727, -0.4656608075335685, 0.7106780377110434, 0.11432482883723571, -0.4119084192126717, -0.42749936082165607], [0.191443220665038, 2.183918023983856, 0.2945459280341643, -0.108786827292437, -0.8036066558858584, 1.065409927949724], [-0.3686755665494649, 1.4062109530353526, -1.9690731889541293, -0.12767138172027215, 0.9504009825574353, 1.0104318473868374], [0.008945569126411514, 1.3746836512841987, 0.6714851536648876, 0.41705147384659685, -0.12811303233252874, -1.3517826800128447], [-1.2078432696076322, -0.6228983594102563, 1.1200650969709833, -2.731935177403569, 0.27452070617204866, -1.33185670341194], [-1.2364199060323107, -0.787217254862861, 0.7569290834617565, -0.00613482083526524, 0.1348681815081091, 0.07365662159475261]], [[0.34752315488400487], [-0.7353295335800233], [-1.5287357646111284], [0.1925506689459367], [-1.9084411366990939], [0.17664032931079476]]], "biases": [[[0.7313475625883974], [-0.03552256518694826], [-1.7128435757789302], [-0.6443037173177885], [-1.8574625552315835], [-0.11806445403728186]], [[1.579465290648385]]], "layers": [6, 6, 1]}, {"name": "", "score": 58, "weights": [[[-0.5148820908034091, -0.4656608075335685, -0.494792529016469, 0.11432482883723571, -0.4119084192126717, -0.42749936082165607], [0.191443220665038, 2.183918023983856, 0.2945459280341643, -0.108786827292437, -0.34140376062672884, 0.8181811907342658], [-0.3686755665494649, 1.4062109530353526, -1.9690731889541293, 0.1228404134528714, 0.9504009825574353, 1.0104318473868374], [0.008945569126411514, 0.1908978659526642, 0.6714851536648876, 0.41705147384659685, -0.12811303233252874, -1.3517826800128447], [0.5088654533712559, -0.6228983594102563, 1.1200650969709833, -2.731935177403569, 0.27452070617204866, -1.33185670341194], [-0.6237205053012285, -0.787217254862861, 0.7569290834617565, -0.00613482083526524, 0.1348681815081091, -0.6667571795423141]], [[0.34752315488400487], [1.14275052468176], [-1.5287357646111284], [0.1925506689459367], [-1.9084411366990939], [-0.4416367992046048]]], "biases": [[[0.3188166765289412], [-0.6337851138833666], [-1.7128435757789302], [-0.3601870450141868], [-0.5806804915159349], [-0.11806445403728186]], [[1.579465290648385]]], "layers": [6, 6, 1]}, {"name": "", "score": 40, "weights": [[[0.8975779419349657, -0.4656608075335685, 0.7106780377110434, 0.11432482883723571, -0.4119084192126717, -0.42749936082165607], [0.191443220665038, 2.183918023983856, 0.2945459280341643, -0.108786827292437, -0.5882019510906467, 0.8181811907342658], [-0.3686755665494649, 1.4062109530353526, -1.9690731889541293, -0.12767138172027215, 0.9504009825574353, 0.3486271626416447], [0.008945569126411514, 0.1908978659526642, 0.6714851536648876, 0.41705147384659685, -0.12811303233252874, -1.3517826800128447], [0.5088654533712559, -0.6228983594102563, 1.1200650969709833, 0.8462021079709586, 0.27452070617204866, -1.33185670341194], [-1.2364199060323107, -0.787217254862861, 0.7569290834617565, -0.39592800090867203, 0.1348681815081091, 1.8483647507450742]], [[0.34752315488400487], [1.14275052468176], [-1.5287357646111284], [0.1925506689459367], [-1.9084411366990939], [-0.4416367992046048]]], "biases": [[[0.7313475625883974], [-0.03552256518694826], [-1.7128435757789302], [-0.6443037173177885], [1.1659631976871672], [-0.11806445403728186]], [[1.579465290648385]]], "layers": [6, 6, 1]}, {"name": "", "score": -104, "weights": [[[0.8975779419349657, -0.4656608075335685, -0.494792529016469, 0.11432482883723571, -0.4119084192126717, -0.42749936082165607], [0.191443220665038, 2.183918023983856, 0.2945459280341643, -0.108786827292437, -0.5882019510906467, 1.065409927949724], [-0.3686755665494649, 1.4062109530353526, -0.20250079086000322, 0.1228404134528714, 0.9504009825574353, 1.0104318473868374], [0.008945569126411514, 0.1908978659526642, 0.6714851536648876, 0.41705147384659685, -0.09772111791858643, -1.3517826800128447], [0.5088654533712559, -0.6228983594102563, 1.1200650969709833, 0.8462021079709586, 0.27452070617204866, -1.33185670341194], [-0.6237205053012285, -0.787217254862861, 0.7569290834617565, -0.00613482083526524, 0.1348681815081091, 0.07365662159475261]], [[0.5113738126205829], [1.14275052468176], [-1.5287357646111284], [0.6185106715877218], [-1.9084411366990939], [-0.4416367992046048]]], "biases": [[[0.3188166765289412], [-1.0940825658544415], [-1.7128435757789302], [-0.6443037173177885], [-1.8574625552315835], [-0.11806445403728186]], [[1.579465290648385]]], "layers": [6, 6, 1]}]}