{"gen": [{"name": "", "score": 31, "weights": [[[-1.7646713879304727, 2.2610325541747796, 0.7106780377110434, 0.11432482883723571, -0.4119084192126717, -0.42749936082165607], [0.191443220665038, 2.183918023983856, 0.2945459280341643, -0.108786827292437, -0.8036066558858584, 0.8181811907342658], [-0.3686755665494649, 1.4062109530353526, -1.9690731889541293, 0.1228404134528714, 0.9504009825574353, 1.0104318473868374], [0.008945569126411514, 0.1908978659526642, 0.6714851536648876, 0.41705147384659685, -0.12811303233252874, -1.3517826800128447], [-1.2078432696076322, -0.6228983594102563, 1.1200650969709833, -2.731935177403569, 0.27452070617204866, -1.33185670341194], [-1.2364199060323107, -0.787217254862861, 0.7569290834617565, -0.00613482083526524, 0.1348681815081091, -0.6667571795423141]], [[0.34752315488400487], [0.8610711501259903], [-1.5287357646111284], [0.3418701782478213], [-1.9084411366990939], [0.17664032931079476]]], "biases": [[[0.7313475625883974], [-0.6337851138833666], [-1.7128435757789302], [-0.6443037173177885], [-1.8574625552315835], [-0.9655630540814882]], [[1.579465290648385]]], "layers": [6, 6, 1]}, {"name": "", "score": 16, "weights": [[[-1.7646713879304727, -0.4656608075335685, 0.7106780377110434, 0.11432482883723571, -0.4119084192126717, -0.42749936082165607], [0.191443220665038, 2.183918023983856, 0.2945459280341643, 2.0305429498098864, -0.8036066558858584, 1.065409927949724], [-0.3686755665494649, 1.4062109530353526, -1.9690731889541293, -0.12767138172027215, 0.9504009825574353, 1.0104318473868374], [0.008945569126411514, 1.3746836512841987, 0.6714851536648876, 0.41705147384659685, -0.09772111791858643, -1.3517826800128447], [-1.2078432696076322, -0.6228983594102563, 1.1200650969709833, -2.731935177403569, 0.27452070617204866, -1.33185670341194], [-1.2364199060323107, -0.787217254862861, 0.7569290834617565, -0.00613482083526524, 0.1348681815081091, -0.6667571795423141]], [[0.34752315488400487], [-0.7353295335800233], [-0.8813180445694578], [0.1925506689459367], [-1.9084411366990939], [-0.4416367992046048]]], "biases": [[[0.7313475625883974], [-0.6337851138833666], [-1.7128435757789302], [-0.6443037173177885], [1.1659631976871672], [-0.11806445403728186]], [[1.579465290648385]]], "layers": [6, 6, 1]}, {"name": "", "score": -5, "weights": [[[0.5052993788529357, -0.4656608075335685, 0.7106780377110434, 0.11432482883723571, -0.4119084192126717, -0.42749936082165607], [0.191443220665038, 2.183918023983856, 0.2945459280341643, -0.108786827292437, -0.8036066558858584, 0.8181811907342658], [-0.3686755665494649, 1.4062109530353526, -1.9690731889541293, -0.12767138172027215, 0.9504009825574353, -1.098918696456686], [0.008945569126411514, 0.1908978659526642, -0.5270600055132024, 0.41705147384659685, -0.12811303233252874, -1.3517826800128447], [-1.2078432696076322, -0.6228983594102563, 1.1200650969709833, -2.731935177403569, 0.27452070617204866, -1.33185670341194], [0.040104079154906755, -0.787217254862861, 0.7569290834617565, -0.00613482083526524, 0.1348681815081091, -0.6667571795423141]], [[0.34752315488400487], [-0.7353295335800233], [-1.5287357646111284], [0.1925506689459367], [-1.9084411366990939], [0.17664032931079476]]], "biases": [[[0.7313475625883974], [-0.03552256518694826], [-1.7128435757789302], [-0.6443037173177885], [-1.8574625552315835], [-0.11806445403728186]], [[1.579465290648385]]], "layers": [6, 6, 1]}, {"name": "", "score": 6, "weights": [[[-1.7646713879304727, -0.4656608075335685, 0.7106780377110434, 0.11432482883723571, -0.4119084192126717, -0.42749936082165607], [0.191443220665038, 2.183918023983856, 0.2945459280341643, -0.108786827292437, -0.8036066558858584, 1.065409927949724], [-0.3686755665494649, 1.4062109530353526, -1.9690731889541293, 0.1228404134528714, 0.9504009825574353, 1.0104318473868374], [0.008945569126411514, -0.9683844789494062, 0.6714851536648876, 0.41705147384659685, -0.12811303233252874, -1.3517826800128447], [-1.2078432696076322, -0.6228983594102563, 1.1200650969709833, -2.731935177403569, 0.27452070617204866, -1.33185670341194], [-1.2364199060323107, -0.787217254862861, 0.7569290834617565, -0.5711282816906408, 0.1348681815081091, -0.6667571795423141]], [[0.34752315488400487], [-0.7353295335800233], [-1.5287357646111284], [0.1925506689459367], [-1.9084411366990939], [0.17664032931079476]]], "biases": [[[0.7313475625883974], [-0.6337851138833666], [-1.7128435757789302], [-0.3601870450141868], [-1.8574625552315835], [-0.11806445403728186]], [[1.579465290648385]]], "layers": [6, 6, 1]}, {"name": "", "score": 28, "weights": [[[-1.7646713879304727, -0.4656608075335685, 0.7106780377110434, -0.32462064274015684, -0.4119084192126717, -0.42749936082165607], [0.191443220665038, 2.183918023983856, 0.2945459280341643, -0.108786827292437, -0.8036066558858584, 1.065409927949724], [-0.3686755665494649, 1.4062109530353526, -1.9690731889541293, -0.12767138172027215, 0.9504009825574353, 1.0104318473868374], [0.008945569126411514, 0.338327798142347, 0.6714851536648876, 0.41705147384659685, -0.12811303233252874, -1.3517826800128447], [-1.2078432696076322, -0.6228983594102563, 1.1200650969709833, -2.731935177403569, 0.27452070617204866, -1.33185670341194], [-1.2364199060323107, -0.787217254862861, 0.7569290834617565, -0.00613482083526524, 0.1348681815081091, -0.6667571795423141]], [[0.34752315488400487], [0.8610711501259903], [-1.5287357646111284], [0.1925506689459367], [-1.9084411366990939], [0.17664032931079476]]], "biases": [[[0.7313475625883974], [-0.6337851138833666], [-1.7128435757789302], [-0.3601870450141868], [-1.8574625552315835], [-0.11806445403728186]], [[1.579465290648385]]], "layers": [6, 6, 1]}, {"name": "", "score": 15, "weights": [[[0.5052993788529357, -0.10660523844956732, 0.7106780377110434, 0.11432482883723571, -0.4119084192126717, -0.42749936082165607], [0.191443220665038, 2.183918023983856, 0.2945459280341643, -0.108786827292437, -0.8036066558858584, 0.8181811907342658], [-0.3686755665494649, 1.4062109530353526, -1.9690731889541293, -0.12767138172027215, 0.9504009825574353, -1.098918696456686], [0.008945569126411514, 0.1908978659526642, 0.6714851536648876, 0.41705147384659685, -0.12811303233252874, -1.3517826800128447], [-1.2078432696076322, -0.6228983594102563, 1.1200650969709833, -2.731935177403569, 0.27452070617204866, -1.33185670341194], [-1.2364199060323107, -0.787217254862861, 0.7569290834617565, -0.00613482083526524, 0.1348681815081091, 0.07365662159475261]], [[0.34752315488400487], [-0.7353295335800233], [-1.5287357646111284], [0.1925506689459367], [-1.9084411366990939], [0.17664032931079476]]], "biases": [[[0.7313475625883974], [-1.2126759051829274], [-1.7128435757789302], [-0.6443037173177885], [-1.8574625552315835], [-0.11806445403728186]], [[1.579465290648385]]], "layers": [6, 6, 1]}, {"name": "", "score": 10, "weights": [[[-1.7646713879304727, -0.4656608075335685, 0.7106780377110434, 0.11432482883723571, -0.4119084192126717, -0.42749936082165607], [0.191443220665038, 2.183918023983856, 0.2945459280341643, -0.108786827292437, -0.8036066558858584, 1.065409927949724], [-0.3686755665494649, 1.4062109530353526, -1.9690731889541293, 0.1228404134528714, 0.9504009825574353, 1.0104318473868374], [0.008945569126411514, 1.3746836512841987, 0.6714851536648876, 0.41705147384659685, -0.09772111791858643, -1.3517826800128447], [-1.2078432696076322, -0.6228983594102563, 1.1200650969709833, -2.731935177403569, 0.27452070617204866, -1.33185670341194], [-1.2364199060323107, -0.787217254862861, 0.7569290834617565, -0.6302012224729274, 0.1348681815081091, -0.6667571795423141]], [[0.34752315488400487], [-0.7353295335800233], [-0.8813180445694578], [0.1925506689459367], [-1.9084411366990939], [-0.4416367992046048]]], "biases": [[[0.7313475625883974], [-0.6337851138833666], [-1.7128435757789302], [-0.6443037173177885], [1.1659631976871672], [-0.11806445403728186]], [[1.579465290648385]]], "layers": [6, 6, 1]}, {"name": "", "score": 5, "weights": [[[-1.7646713879304727, -0.4656608075335685, 0.7106780377110434, 0.11432482883723571, -0.4119084192126717, -0.42749936082165607], [0.191443220665038, 2.183918023983856, 0.2945459280341643, -0.108786827292437, -0.8036066558858584, 1.065409927949724], [-0.3686755665494649, 1.4062109530353526, -1.6400457403188025, 0.1228404134528714, 0.9504009825574353, 1.0104318473868374], [0.008945569126411514, 0.1908978659526642, 0.6714851536648876, 0.41705147384659685, -0.12811303233252874, -1.3517826800128447], [-1.2078432696076322, -0.6228983594102563, 1.1200650969709833, -2.731935177403569, 0.27452070617204866, -1.33185670341194], [-1.2364199060323107, -0.787217254862861, 0.7569290834617565, -0.6302012224729274, 0.1348681815081091, -0.6667571795423141]], [[0.34752315488400487], [-0.7353295335800233], [-0.8813180445694578], [0.1925506689459367], [-1.9084411366990939], [0.17664032931079476]]], "biases": [[[0.7313475625883974], [-0.6337851138833666], [-1.7128435757789302], [-0.3601870450141868], [-0.5806804915159349], [-0.11806445403728186]], [[1.579465290648385]]], "layers": [6, 6, 1]}, {"name": "", "score": -11, "weights": [[[-0.5148820908034091, -0.4656608075335685, 0.7106780377110434, 1.8070265573152842, -0.4119084192126717, -0.42749936082165607], [0.191443220665038, 2.183918023983856, 0.2945459280341643, -0.108786827292437, -0.8036066558858584, 1.065409927949724], [-0.3686755665494649, 1.4062109530353526, -1.9690731889541293, 0.1228404134528714, 0.9504009825574353, 1.0104318473868374], [0.008945569126411514, 0.1908978659526642, 0.6714851536648876, 0.41705147384659685, -0.12811303233252874, -1.3517826800128447], [-1.2078432696076322, -0.6228983594102563, 1.1200650969709833, -2.731935177403569, 0.27452070617204866, -1.33185670341194], [-1.2364199060323107, -0.787217254862861, 0.7569290834617565, -0.00613482083526524, 0.1348681815081091, -0.6667571795423141]], [[0.34752315488400487], [1.14275052468176], [0.8049539807726244], [0.1925506689459367], [-1.9084411366990939], [0.17664032931079476]]], "biases": [[[0.7313475625883974], [-0.03552256518694826], [-1.7128435757789302], [-0.6443037173177885], [-0.5806804915159349], [-0.11806445403728186]], [[1.579465290648385]]], "layers": [6, 6, 1]}, {"name": "", "score": -1, "weights": [[[-1.7646713879304727, -0.4656608075335685, 0.7106780377110434, 0.11432482883723571, 0.19291129314424788, -0.42749936082165607], [0.191443220665038, 2.183918023983856, 0.2945459280341643, -0.108786827292437, -0.8036066558858584, 0.8181811907342658], [-0.3686755665494649, 1.4062109530353526, -1.9690731889541293, 0.1228404134528714, 0.9504009825574353, 1.0104318473868374], [0.008945569126411514, 1.3746836512841987, 0.619693693888714, 0.41705147384659685, -0.12811303233252874, -1.3517826800128447], [-1.2078432696076322, -0.6228983594102563, 1.1200650969709833, -2.731935177403569, 0.27452070617204866, -2.730715283566637], [-1.2364199060323107, -0.787217254862861, 0.7569290834617565, -0.6302012224729274, 0.1348681815081091, -0.6667571795423141]], [[0.34752315488400487], [-0.7353295335800233], [-1.5287357646111284], [0.3418701782478213], [-1.9084411366990939], [0.17664032931079476]]], "biases": [[[0.7313475625883974], [-0.6337851138833666], [-1.7128435757789302], [-0.6443037173177885], [-1.8574625552315835], [-0.11806445403728186]], [[1.579465290648385]]], "layers": [6, 6, 1]}, {"name": "", "score": 1, "weights": [[[-1.7646713879304727, -0.4656608075335685, 0.7106780377110434, 0.11432482883723571, -0.4119084192126717, -0.42749936082165607], [0.191443220665038, 2.183918023983856, 0.2945459280341643, 2.0305429498098864, -0.8036066558858584, 1.065409927949724], [-0.3686755665494649, 1.4062109530353526, -1.9690731889541293, -0.12767138172027215, 0.9504009825574353, 1.0104318473868374], [0.008945569126411514, 1.3746836512841987, 0.6714851536648876, 0.41705147384659685, -0.12811303233252874, -1.3517826800128447], [-1.2078432696076322, -0.6228983594102563, 1.1200650969709833, -2.731935177403569, 0.27452070617204866, -1.33185670341194], [-1.2364199060323107, -0.787217254862861, 0.7569290834617565, -0.6302012224729274, 0.1348681815081091, -0.6667571795423141]], [[0.34752315488400487], [-0.7353295335800233], [-0.8813180445694578], [0.3418701782478213], [-1.9084411366990939], [-0.4416367992046048]]], "biases": [[[0.7313475625883974], [-0.6337851138833666], [-1.7128435757789302], [-0.6443037173177885], [1.1659631976871672], [-0.11806445403728186]], [[1.579465290648385]]], "layers": [6, 6, 1]}, {"name": "", "score": -11, "weights": [[[-1.7646713879304727, -0.4656608075335685, 0.7106780377110434, 0.11432482883723571, -0.4119084192126717, -0.42749936082165607], [0.191443220665038, 2.183918023983856, 0.2945459280341643, -0.108786827292437, -0.8036066558858584, 0.8181811907342658], [-0.3686755665494649, 0.36382476779966405, -1.9690731889541293, -0.12767138172027215, 0.9504009825574353, -1.098918696456686], [0.008945569126411514, 0.1908978659526642, 0.6714851536648876, 0.41705147384659685, -0.12811303233252874, -1.3517826800128447], [-1.2078432696076322, -0.6228983594102563, 1.1200650969709833, -2.731935177403569, 0.27452070617204866, -1.33185670341194], [-1.2364199060323107, -0.787217254862861, 0.7569290834617565, -0.5711282816906408, 0.1348681815081091, 0.07365662159475261]], [[0.34752315488400487], [-0.7353295335800233], [-1.5287357646111284], [0.1925506689459367], [-1.9084411366990939], [0.17664032931079476]]], "biases": [[[0.7313475625883974], [-0.03552256518694826], [-1.7128435757789302], [-0.3601870450141868], [-1.8574625552315835], [-0.11806445403728186]], [[1.579465290648385]]], "layers": [6, 6, 1]}, {"name": "", "score": -61, "weights": [[[-0.5148820908034091, -0.4656608075335685, 0.7106780377110434, 0.11432482883723571, -0.4119084192126717, -0.42749936082165607], [0.191443220665038, 2.183918023983856, 0.2945459280341643, -0.108786827292437, -0.8036066558858584, 0.8181811907342658], [-0.3686755665494649, 1.4062109530353526, -1.9690731889541293, 0.1228404134528714, 0.9504009825574353, 1.0104318473868374], [0.008945569126411514, 0.1908978659526642, 0.6714851536648876, -0.576161353579317, -0.12811303233252874, -1.3517826800128447], [-1.2078432696076322, -0.6228983594102563, 1.1200650969709833, -2.731935177403569, 0.27452070617204866, -1.33185670341194], [-1.2364199060323107, -0.787217254862861, 0.7569290834617565, -0.00613482083526524, 0.6005402859296362, -0.6667571795423141]], [[0.34752315488400487], [0.8610711501259903], [-1.5287357646111284], [0.1925506689459367], [-1.9084411366990939], [0.17664032931079476]]], "biases": [[[0.7313475625883974], [-0.6337851138833666], [-1.7128435757789302], [-0.6443037173177885], [-1.8574625552315835], [-0.11806445403728186]], [[1.579465290648385]]], "layers": [6, 6, 1]}, {"name": "", "score": -18, "weights": [[[0.5052993788529357, -0.4656608075335685, 0.7106780377110434, 0.11432482883723571, -0.4119084192126717, -0.42749936082165607], [0.191443220665038, 2.183918023983856, 0.2945459280341643, 2.0305429498098864, -0.8036066558858584, 0.8181811907342658], [-0.3686755665494649, 1.4062109530353526, -1.9690731889541293, -0.12767138172027215, 0.9504009825574353, 1.0104318473868374], [0.008945569126411514, 1.3746836512841987, 0.6714851536648876, 0.41705147384659685, -0.12811303233252874, -1.3517826800128447], [-1.2078432696076322, -0.6228983594102563, 1.1200650969709833, -2.731935177403569, 0.27452070617204866, -1.33185670341194], [-1.2364199060323107, -0.787217254862861, 0.7569290834617565, -0.00613482083526524, 0.1348681815081091, 0.07365662159475261]], [[0.34752315488400487], [-0.7353295335800233], [-1.5287357646111284], [0.1925506689459367], [-1.9084411366990939], [0.17664032931079476]]], "biases": [[[0.7313475625883974], [-0.6337851138833666], [-1.7128435757789302], [-0.6443037173177885], [-1.8574625552315835], [-0.11806445403728186]], [[1.579465290648385]]], "layers": [6, 6, 1]}, {"name": "", "score": 9, "weights": [[[-1.7646713879304727, -0.4656608075335685, 0.7106780377110434, 0.11432482883723571, -0.4119084192126717, -0.42749936082165607], [0.191443220665038, 2.183918023983856, 0.2945459280341643, -0.108786827292437, -0.8036066558858584, 1.065409927949724], [-0.3686755665494649, 1.4062109530353526, -1.9690731889541293, 0.1228404134528714, 0.9504009825574353, 1.0104318473868374], [0.008945569126411514, 1.3746836512841987, 1.5387859915987048, 0.41705147384659685, -0.09772111791858643, -1.3517826800128447], [-1.2078432696076322, -0.6228983594102563, 1.1200650969709833, -2.731935177403569, 0.27452070617204866, -1.33185670341194], [-1.2364199060323107, -0.787217254862861, 0.7569290834617565, -0.6302012224729274, 0.1348681815081091, -0.6667571795423141]], [[0.34752315488400487], [-0.7353295335800233], [-0.8813180445694578], [0.3418701782478213], [-1.9084411366990939], [-0.4416367992046048]]], "biases": [[[0.7313475625883974], [-0.6337851138833666], [-1.7128435757789302], [-0.6443037173177885], [-1.8574625552315835], [-0.11806445403728186]], [[1.579465290648385]]], "layers": [6, 6, 1]}, {"name": "", "score": 7, "weights": [[[-0.5148820908034091, -0.4656608075335685, 0.7106780377110434, 0.11432482883723571, -0.4119084192126717, -0.42749936082165607], [0.191443220665038, 2.183918023983856, 0.2945459280341643, -0.108786827292437, -0.8036066558858584, 0.8181811907342658], [-0.3686755665494649, 1.4062109530353526, -1.9690731889541293, 0.1228404134528714, 0.9504009825574353, 1.0104318473868374], [0.008945569126411514, 1.3746836512841987, 0.6714851536648876, 0.41705147384659685, -0.12811303233252874, -1.3517826800128447], [-1.2078432696076322, -0.6228983594102563, 1.1200650969709833, -2.731935177403569, 0.27452070617204866, -1.33185670341194], [-1.2364199060323107, -0.787217254862861, 0.7569290834617565, -0.00613482083526524, 0.1348681815081091, -0.6667571795423141]], [[0.34752315488400487], [0.8610711501259903], [-1.5287357646111284], [0.3418701782478213], [-1.9084411366990939], [-0.4416367992046048]]], "biases": [[[0.7313475625883974], [-0.6337851138833666], [-1.7128435757789302], [-0.6443037173177885], [-1.8574625552315835], [-0.11806445403728186]], [[1.579465290648385]]], "layers": [6, 6, 1]}, {"name": "", "score": -33, "weights": [[[-0.5148820908034091, -0.4656608075335685, 0.7106780377110434, 0.11432482883723571, -0.4119084192126717, -0.42749936082165607], [0.191443220665038, 2.183918023983856, 0.2945459280341643, -0.108786827292437, -0.8036066558858584, 0.8181811907342658], [-0.3686755665494649, 1.4062109530353526, -1.9690731889541293, -0.12767138172027215, 0.9504009825574353, 1.0104318473868374], [0.008945569126411514, 0.1908978659526642, 0.6714851536648876, 0.41705147384659685, -0.12811303233252874, 2.2543113024365127], [-1.2078432696076322, -0.6228983594102563, 1.1200650969709833, -2.731935177403569, 0.27452070617204866, -1.33185670341194], [-1.2364199060323107, -0.787217254862861, 0.7569290834617565, -0.00613482083526524, 0.1348681815081091, 0.07365662159475261]], [[0.34752315488400487], [-0.7353295335800233], [-1.5287357646111284], [0.1925506689459367], [-1.9084411366990939], [0.17664032931079476]]], "biases": [[[0.7313475625883974], [-0.03552256518694826], [-1.7128435757789302], [-0.6443037173177885], [-1.8574625552315835], [-0.11806445403728186]], [[1.579465290648385]]], "layers": [6, 6, 1]}, {"name": "", "score": 11, "weights": [[[-0.5148820908034091, -0.4656608075335685, 0.7106780377110434, 0.11432482883723571, -0.4119084192126717, -0.42749936082165607], [0.191443220665038, 2.183918023983856, 0.2945459280341643, -0.108786827292437, -0.8036066558858584, 0.8181811907342658], [-0.3686755665494649, 1.4062109530353526, -1.9690731889541293, -0.12767138172027215, 0.9504009825574353, -1.098918696456686], [0.008945569126411514, 0.1908978659526642, 0.6714851536648876, 0.41705147384659685, -0.12811303233252874, -1.3517826800128447], [-1.2078432696076322, -0.6228983594102563, 1.1200650969709833, -2.731935177403569, 0.27452070617204866, -1.33185670341194], [-1.2364199060323107, -0.787217254862861, 0.7569290834617565, -0.00613482083526524, 0.1348681815081091, 0.07365662159475261]], [[0.34752315488400487], [-0.7353295335800233], [-1.5287357646111284], [0.1925506689459367], [-1.9084411366990939], [0.17664032931079476]]], "biases": [[[0.7313475625883974], [-0.03552256518694826], [-1.7128435757789302], [-0.6443037173177885], [-1.8574625552315835], [-0.11806445403728186]], [[1.579465290648385]]], "layers": [6, 6, 1]}, {"name": "", "score": 10, "weights": [[[0.5052993788529357, -0.4656608075335685, 0.7106780377110434, 0.11432482883723571, -0.4119084192126717, -0.42749936082165607], [0.191443220665038, 2.183918023983856, 0.2945459280341643, -0.4400589186590386, -0.8036066558858584, 1.065409927949724], [-0.3686755665494649, 1.4062109530353526, -1.9690731889541293, 0.1228404134528714, 0.9504009825574353, -1.098918696456686], [0.008945569126411514, 1.3746836512841987, 0.6714851536648876, 0.41705147384659685, -0.12811303233252874, -1.3517826800128447], [-1.2078432696076322, -0.6228983594102563, 1.1200650969709833, -2.731935177403569, 0.27452070617204866, -1.33185670341194], [-1.2364199060323107, -0.787217254862861, 0.7569290834617565, -0.6302012224729274, 0.1348681815081091, 0.07365662159475261]], [[0.34752315488400487], [-0.7353295335800233], [-0.8813180445694578], [0.3418701782478213], [-1.9084411366990939], [0.17664032931079476]]], "biases": [[[0.7313475625883974], [-0.03552256518694826], [-1.7128435757789302], [-0.6443037173177885], [-1.8574625552315835], [-0.11806445403728186]], [[1.579465290648385]]], "layers": [6, 6, 1]}, {"name": "", "score": -9, "weights": [[[0.5052993788529357, -0.4656608075335685, 0.7106780377110434, 0.11432482883723571, -0.4119084192126717, -0.42749936082165607], [0.191443220665038, 2.183918023983856, 0.2945459280341643, -0.108786827292437, -0.8036066558858584, 0.8181811907342658], [-0.3686755665494649, 1.4062109530353526, -1.9690731889541293, -0.12767138172027215, 0.9504009825574353, -1.098918696456686], [0.008945569126411514, 0.1908978659526642, 0.6714851536648876, 0.41705147384659685, -0.12811303233252874, -1.3517826800128447], [-1.2078432696076322, -0.6228983594102563, 1.1200650969709833, -2.731935177403569, 0.27452070617204866, -1.33185670341194], [-1.2364199060323107, -0.787217254862861, 0.7569290834617565, -0.5711282816906408, 0.1348681815081091, 0.07365662159475261]], [[0.34752315488400487], [-0.7353295335800233], [-1.5287357646111284], [0.1925506689459367], [-1.9084411366990939], [0.17664032931079476]]], "biases": [[[0.7313475625883974], [-0.03552256518694826], [-1.7128435757789302], [-0.3601870450141868], [-0.5806804915159349], [-0.11806445403728186]], [[1.579465290648385]]], "layers": [6, 6, 1]}]}