{"gen": [{"name": "", "score": 4, "weights": [[[-1.7646713879304727, -0.4656608075335685, 0.7106780377110434, 0.11432482883723571, -0.4119084192126717, -0.42749936082165607], [0.191443220665038, 2.183918023983856, 0.2945459280341643, -0.108786827292437, -0.8036066558858584, 0.8181811907342658], [-0.3686755665494649, 1.4062109530353526, -1.9690731889541293, -0.12767138172027215, 0.9504009825574353, 1.0104318473868374], [0.008945569126411514, 1.3746836512841987, 0.6714851536648876, 0.41705147384659685, -0.12811303233252874, -1.3517826800128447], [-1.2078432696076322, -0.6228983594102563, 1.1200650969709833, -2.731935177403569, 0.27452070617204866, -1.33185670341194], [-1.2364199060323107, -0.787217254862861, 0.7569290834617565, -0.00613482083526524, 0.1348681815081091, -0.6667571795423141]], [[0.34752315488400487], [-0.7353295335800233], [-0.8813180445694578], [0.1925506689459367], [-1.9084411366990939], [0.17664032931079476]]], "biases": [[[0.7313475625883974], [-0.6337851138833666], [-1.7128435757789302], [-0.6443037173177885], [-1.8574625552315835], [-0.9655630540814882]], [[1.579465290648385]]], "layers": [6, 6, 1]}, {"name": "", "score": 4, "weights": [[[-1.7646713879304727, -0.4656608075335685, 0.7106780377110434, 0.7799764504935929, -0.4119084192126717, -0.42749936082165607], [0.191443220665038, 2.183918023983856, 0.2945459280341643, -0.108786827292437, -0.8036066558858584, 0.8181811907342658], [-0.3686755665494649, 1.4062109530353526, -1.9690731889541293, -0.12767138172027215, 0.9504009825574353, 1.0104318473868374], [0.008945569126411514, 1.3746836512841987, 0.6714851536648876, 0.41705147384659685, -0.12811303233252874, -1.3517826800128447], [-1.2078432696076322, -0.6228983594102563, 1.1200650969709833, -2.731935177403569, 0.27452070617204866, -1.33185670341194], [-1.2364199060323107, -0.787217254862861, 0.7569290834617565, -0.00613482083526524, 0.1348681815081091, 0.5659487395834177]], [[0.34752315488400487], [-0.7353295335800233], [-0.8813180445694578], [0.1925506689459367], [-1.9084411366990939], [0.17664032931079476]]], "biases": [[[0.7313475625883974], [-0.6337851138833666], [-1.7128435757789302], [-0.6443037173177885], [1.1659631976871672], [-0.9655630540814882]], [[1.579465290648385]]], "layers": [6, 6, 1]}, {"name": "", "score": 5, "weights": [[[-1.7646713879304727, -0.10660523844956732, 0.7106780377110434, 0.11432482883723571, -0.4119084192126717, -0.42749936082165607], [0.5527093994644751, 2.183918023983856, 0.2945459280341643, -0.108786827292437, -0.8036066558858584, 0.8181811907342658], [-0.3686755665494649, 1.4062109530353526, -1.9690731889541293, -0.12767138172027215, 0.9504009825574353, 1.0104318473868374], [0.008945569126411514, 0.1908978659526642, 0.6714851536648876, 0.41705147384659685, -0.12811303233252874, -1.3517826800128447], [-1.2078432696076322, -0.6228983594102563, 1.1200650969709833, -2.731935177403569, 0.27452070617204866, 0.7974574951500555], [-1.2364199060323107, -0.787217254862861, 0.7569290834617565, -0.00613482083526524, 0.1348681815081091, 0.5659487395834177]], [[0.34752315488400487], [-0.7353295335800233], [-0.8813180445694578], [0.1925506689459367], [-1.9084411366990939], [0.17664032931079476]]], "biases": [[[0.7313475625883974], [-1.2126759051829274], [-1.7128435757789302], [-0.6443037173177885], [1.1659631976871672], [-0.11806445403728186]], [[1.579465290648385]]], "layers": [6, 6, 1]}, {"name": "", "score": 8, "weights": [[[-1.7646713879304727, -0.4656608075335685, 0.7106780377110434, 0.11432482883723571, -0.4119084192126717, -0.42749936082165607], [0.191443220665038, 2.183918023983856, 0.2945459280341643, -0.108786827292437, -0.8036066558858584, 1.065409927949724], [-0.3686755665494649, 1.4062109530353526, -1.9690731889541293, -0.12767138172027215, 0.9504009825574353, 1.0104318473868374], [0.008945569126411514, 0.338327798142347, 0.6714851536648876, 0.41705147384659685, -0.09772111791858643, -1.3517826800128447], [-1.2078432696076322, -0.6228983594102563, 1.1200650969709833, -2.731935177403569, 0.27452070617204866, -1.33185670341194], [-1.2364199060323107, -0.787217254862861, 0.7569290834617565, -0.00613482083526524, 0.1348681815081091, 0.9799465153545143]], [[0.34752315488400487], [0.8610711501259903], [-1.5287357646111284], [0.1925506689459367], [-1.9084411366990939], [0.17664032931079476]]], "biases": [[[0.7313475625883974], [-0.6337851138833666], [-1.7128435757789302], [-0.6443037173177885], [1.1659631976871672], [-0.11806445403728186]], [[1.579465290648385]]], "layers": [6, 6, 1]}, {"name": "", "score": 27, "weights": [[[-1.7646713879304727, -0.4656608075335685, 0.7106780377110434, -0.32462064274015684, -0.4119084192126717, -0.42749936082165607], [0.191443220665038, 2.183918023983856, 0.2945459280341643, 2.0305429498098864, -0.8036066558858584, 0.8181811907342658], [-0.3686755665494649, 1.4062109530353526, -1.9690731889541293, -0.12767138172027215, 0.9504009825574353, 1.0104318473868374], [0.008945569126411514, 1.3746836512841987, 0.6714851536648876, 0.41705147384659685, -0.09772111791858643, 0.34898350587402066], [-1.2078432696076322, -0.6228983594102563, 1.1200650969709833, -2.731935177403569, 0.27452070617204866, -1.33185670341194], [-1.2364199060323107, -0.787217254862861, 0.7569290834617565, -0.00613482083526524, 0.1348681815081091, -0.6667571795423141]], [[0.34752315488400487], [-0.7353295335800233], [-0.8813180445694578], [0.1925506689459367], [-1.9084411366990939], [0.17664032931079476]]], "biases": [[[0.7313475625883974], [1.697895936702709], [-1.7128435757789302], [-0.6443037173177885], [1.1659631976871672], [-0.11806445403728186]], [[1.579465290648385]]], "layers": [6, 6, 1]}, {"name": "", "score": 11, "weights": [[[-1.7646713879304727, 2.2610325541747796, 0.7106780377110434, 0.11432482883723571, -0.4119084192126717, -0.42749936082165607], [0.191443220665038, 2.183918023983856, 0.2945459280341643, -0.108786827292437, -0.8036066558858584, 0.8181811907342658], [-0.3686755665494649, 1.4062109530353526, -1.9690731889541293, -0.12767138172027215, 0.9504009825574353, 1.0104318473868374], [0.008945569126411514, 0.338327798142347, 0.6714851536648876, 0.41705147384659685, -0.12811303233252874, -1.3517826800128447], [-1.2078432696076322, -0.6228983594102563, 1.1200650969709833, -2.731935177403569, 0.27452070617204866, -1.33185670341194], [-1.2364199060323107, -0.787217254862861, 0.7569290834617565, -0.00613482083526524, 0.1348681815081091, -0.6667571795423141]], [[0.34752315488400487], [-0.7353295335800233], [-1.5287357646111284], [0.1925506689459367], [-1.9084411366990939], [-0.3536719743563491]]], "biases": [[[0.7313475625883974], [-0.6337851138833666], [-1.7128435757789302], [-0.6443037173177885], [1.1659631976871672], [-0.11806445403728186]], [[1.579465290648385]]], "layers": [6, 6, 1]}, {"name": "", "score": 13, "weights": [[[-1.7646713879304727, -0.4656608075335685, 0.7106780377110434, 0.11432482883723571, -0.4119084192126717, -0.42749936082165607], [0.191443220665038, 2.183918023983856, 0.2945459280341643, -0.108786827292437, -0.8036066558858584, 1.065409927949724], [-0.3686755665494649, 1.4062109530353526, -1.9690731889541293, -0.12767138172027215, 0.9504009825574353, 1.0104318473868374], [0.008945569126411514, 0.338327798142347, 0.6714851536648876, 0.41705147384659685, -0.12811303233252874, -1.3517826800128447], [-1.2078432696076322, -0.6228983594102563, 1.1200650969709833, -2.731935177403569, 0.27452070617204866, -1.33185670341194], [-1.2364199060323107, -0.787217254862861, 0.7569290834617565, -0.00613482083526524, 0.1348681815081091, -0.6667571795423141]], [[0.34752315488400487], [0.8610711501259903], [-1.5287357646111284], [0.1925506689459367], [-1.9084411366990939], [0.17664032931079476]]], "biases": [[[0.7313475625883974], [-0.6337851138833666], [-1.7128435757789302], [-0.6443037173177885], [1.1659631976871672], [-0.11806445403728186]], [[1.579465290648385]]], "layers": [6, 6, 1]}, {"name": "", "score": 24, "weights": [[[-0.5148820908034091, -0.4656608075335685, 0.7106780377110434, -0.32462064274015684, -0.4119084192126717, -0.42749936082165607], [0.191443220665038, 2.183918023983856, 0.2945459280341643, -0.108786827292437, -0.8036066558858584, 0.8181811907342658], [-0.3686755665494649, 1.4062109530353526, -1.9690731889541293, -0.12767138172027215, 0.9504009825574353, -1.098918696456686], [0.008945569126411514, 0.1908978659526642, 0.6714851536648876, 0.41705147384659685, -0.12811303233252874, -1.3517826800128447], [-1.2078432696076322, -0.6228983594102563, 1.1200650969709833, -2.731935177403569, 0.27452070617204866, -1.33185670341194], [-1.2364199060323107, -0.787217254862861, 0.7569290834617565, -0.00613482083526524, 0.1348681815081091, -0.6667571795423141]], [[0.34752315488400487], [-0.7353295335800233], [-1.5287357646111284], [0.1925506689459367], [-1.9084411366990939], [0.17664032931079476]]], "biases": [[[0.7313475625883974], [-0.03552256518694826], [-1.7128435757789302], [-0.6443037173177885], [-1.8574625552315835], [-0.11806445403728186]], [[1.579465290648385]]], "layers": [6, 6, 1]}, {"name": "", "score": -17, "weights": [[[-1.7646713879304727, -0.4656608075335685, 0.7106780377110434, 0.11432482883723571, -0.4119084192126717, -0.42749936082165607], [0.191443220665038, 2.183918023983856, 0.2945459280341643, -0.108786827292437, -0.8036066558858584, 1.065409927949724], [-0.3686755665494649, 1.4062109530353526, -1.9690731889541293, -0.3730070854582888, 0.9504009825574353, 1.0104318473868374], [0.008945569126411514, 0.1908978659526642, 0.6714851536648876, 0.41705147384659685, -0.12811303233252874, -1.3517826800128447], [-1.2078432696076322, -0.6228983594102563, 1.1200650969709833, -2.731935177403569, 0.27452070617204866, -1.33185670341194], [-1.2364199060323107, -0.787217254862861, 0.7569290834617565, -1.7105661417614082, 0.1348681815081091, -0.6667571795423141]], [[0.34752315488400487], [-0.7353295335800233], [-1.5287357646111284], [0.1925506689459367], [-1.9084411366990939], [0.17664032931079476]]], "biases": [[[0.7313475625883974], [-0.03552256518694826], [-1.7128435757789302], [-0.6443037173177885], [-1.8574625552315835], [-0.11806445403728186]], [[0.1328632856252525]]], "layers": [6, 6, 1]}, {"name": "", "score": -22, "weights": [[[-1.7646713879304727, -0.10660523844956732, 0.7106780377110434, 0.11432482883723571, -0.4119084192126717, -0.42749936082165607], [0.191443220665038, 2.183918023983856, 0.2945459280341643, -0.108786827292437, -0.8036066558858584, 0.8181811907342658], [-0.3686755665494649, 1.4062109530353526, -1.9690731889541293, -0.12767138172027215, 0.9504009825574353, 1.0104318473868374], [0.008945569126411514, 0.338327798142347, 0.6714851536648876, 0.41705147384659685, -0.12811303233252874, -1.3517826800128447], [-1.2078432696076322, -0.6228983594102563, 1.1200650969709833, -2.731935177403569, 0.27452070617204866, -1.33185670341194], [-1.2364199060323107, -0.787217254862861, 0.7569290834617565, -0.00613482083526524, 0.1348681815081091, -0.6667571795423141]], [[0.34752315488400487], [-0.7353295335800233], [-1.5287357646111284], [0.1925506689459367], [-1.9084411366990939], [0.17664032931079476]]], "biases": [[[0.7313475625883974], [-0.6337851138833666], [-1.7128435757789302], [-0.6443037173177885], [-1.8574625552315835], [-0.11806445403728186]], [[1.579465290648385]]], "layers": [6, 6, 1]}, {"name": "", "score": 21, "weights": [[[-1.7646713879304727, -0.4656608075335685, 0.7106780377110434, -0.32462064274015684, -0.4119084192126717, -0.42749936082165607], [0.191443220665038, 2.183918023983856, 0.2945459280341643, 2.0305429498098864, -0.8036066558858584, 1.065409927949724], [-0.3686755665494649, 1.4062109530353526, -1.9690731889541293, -0.12767138172027215, 0.9504009825574353, 1.0104318473868374], [0.008945569126411514, 1.3746836512841987, 0.6714851536648876, 0.41705147384659685, -0.12811303233252874, -1.3517826800128447], [-1.2078432696076322, -0.6228983594102563, 1.1200650969709833, -2.731935177403569, 0.27452070617204866, -1.33185670341194], [-1.2364199060323107, -0.787217254862861, 0.7569290834617565, -0.00613482083526524, 0.1348681815081091, -0.6667571795423141]], [[0.34752315488400487], [-0.7353295335800233], [-1.5287357646111284], [0.1925506689459367], [-1.9084411366990939], [0.17664032931079476]]], "biases": [[[0.7313475625883974], [-0.6337851138833666], [-1.7128435757789302], [-0.6443037173177885], [1.1659631976871672], [-0.11806445403728186]], [[-0.07674085681234936]]], "layers": [6, 6, 1]}, {"name": "", "score": 18, "weights": [[[-1.7646713879304727, 2.2610325541747796, 0.7106780377110434, 0.11432482883723571, -0.4119084192126717, -0.42749936082165607], [0.191443220665038, 2.183918023983856, 0.2945459280341643, -0.108786827292437, -0.8036066558858584, 0.8181811907342658], [-0.3686755665494649, 1.4062109530353526, -1.9690731889541293, -0.12767138172027215, 0.9504009825574353, 1.0104318473868374], [0.008945569126411514, 1.3746836512841987, 0.6714851536648876, 0.41705147384659685, -0.12811303233252874, -1.3517826800128447], [-1.2078432696076322, -0.6228983594102563, 1.1200650969709833, -2.731935177403569, 0.27452070617204866, 0.7974574951500555], [-1.2364199060323107, -0.787217254862861, 0.7569290834617565, -0.00613482083526524, 0.1348681815081091, 0.5659487395834177]], [[0.34752315488400487], [-0.7353295335800233], [-0.8813180445694578], [0.1925506689459367], [-1.9084411366990939], [0.17664032931079476]]], "biases": [[[0.7313475625883974], [-0.6337851138833666], [-1.7128435757789302], [-0.6443037173177885], [1.1659631976871672], [-0.9655630540814882]], [[1.579465290648385]]], "layers": [6, 6, 1]}, {"name": "", "score": -21, "weights": [[[-1.7646713879304727, -0.4656608075335685, 0.7106780377110434, -0.32462064274015684, -0.4119084192126717, -0.42749936082165607], [0.191443220665038, 2.515172704150415, 0.2945459280341643, 2.0305429498098864, -0.8036066558858584, 1.065409927949724], [-0.3686755665494649, 0.031181484392668206, -1.9690731889541293, -0.12767138172027215, 0.9504009825574353, 1.0104318473868374], [0.008945569126411514, 1.3746836512841987, 0.6714851536648876, 0.41705147384659685, -0.09772111791858643, -1.3517826800128447], [-1.2078432696076322, -0.6228983594102563, 1.1200650969709833, -2.731935177403569, -0.15291898323774833, -1.33185670341194], [-1.2364199060323107, -0.787217254862861, -1.5591517554275562, -0.00613482083526524, 0.1348681815081091, 0.9799465153545143]], [[0.34752315488400487], [-0.7353295335800233], [-0.8813180445694578], [0.1925506689459367], [-1.9084411366990939], [0.17664032931079476]]], "biases": [[[0.7313475625883974], [-0.6337851138833666], [-1.7128435757789302], [-0.6443037173177885], [1.1659631976871672], [-0.11806445403728186]], [[1.579465290648385]]], "layers": [6, 6, 1]}, {"name": "", "score": 12, "weights": [[[-1.7646713879304727, -0.10660523844956732, 0.7106780377110434, 0.11432482883723571, -0.4119084192126717, -0.42749936082165607], [0.191443220665038, 2.183918023983856, 0.2945459280341643, -0.108786827292437, -0.8036066558858584, 0.8181811907342658], [-0.3686755665494649, 1.4062109530353526, -1.9690731889541293, -0.12767138172027215, 0.9504009825574353, -1.098918696456686], [0.008945569126411514, 1.3746836512841987, 0.6714851536648876, 0.41705147384659685, -0.12811303233252874, -1.3517826800128447], [-1.2078432696076322, -0.6228983594102563, 1.1200650969709833, -2.731935177403569, 0.27452070617204866, 0.7974574951500555], [-1.2364199060323107, -0.787217254862861, 0.7569290834617565, -0.00613482083526524, 0.1348681815081091, 0.5659487395834177]], [[0.34752315488400487], [-0.7353295335800233], [-0.8813180445694578], [0.1925506689459367], [-1.9084411366990939], [0.17664032931079476]]], "biases": [[[0.7313475625883974], [-0.6337851138833666], [-1.7128435757789302], [-0.6443037173177885], [1.1659631976871672], [-1.1580066291632198]], [[1.579465290648385]]], "layers": [6, 6, 1]}, {"name": "", "score": 30, "weights": [[[-1.7646713879304727, -0.4656608075335685, 0.7106780377110434, 0.11432482883723571, -0.4119084192126717, -0.42749936082165607], [0.191443220665038, 2.183918023983856, 0.2945459280341643, 2.0305429498098864, -0.8036066558858584, 1.065409927949724], [-0.3686755665494649, 1.4062109530353526, -1.9690731889541293, -0.12767138172027215, 0.9504009825574353, 1.0104318473868374], [0.008945569126411514, 1.3746836512841987, 0.6714851536648876, 0.41705147384659685, -0.12811303233252874, -1.3517826800128447], [-1.2078432696076322, -0.6228983594102563, 1.1200650969709833, -2.731935177403569, 0.27452070617204866, -1.33185670341194], [-1.2364199060323107, -0.787217254862861, 0.7569290834617565, -0.00613482083526524, 0.1348681815081091, 0.9799465153545143]], [[0.34752315488400487], [0.8610711501259903], [-1.5287357646111284], [0.1925506689459367], [-1.9084411366990939], [0.17664032931079476]]], "biases": [[[0.7313475625883974], [-0.6337851138833666], [-1.7128435757789302], [-0.6443037173177885], [1.1659631976871672], [-0.11806445403728186]], [[1.579465290648385]]], "layers": [6, 6, 1]}, {"name": "", "score": 27, "weights": [[[-0.5148820908034091, -0.4656608075335685, 0.7106780377110434, -0.32462064274015684, -0.4119084192126717, -0.42749936082165607], [0.191443220665038, 2.183918023983856, 0.2945459280341643, -0.108786827292437, -0.8036066558858584, 0.8181811907342658], [-0.3686755665494649, 1.4062109530353526, -1.9690731889541293, -0.12767138172027215, 0.9504009825574353, 1.0104318473868374], [0.008945569126411514, -1.359336862100103, 0.6714851536648876, 0.41705147384659685, -0.12811303233252874, -1.3517826800128447], [-1.2078432696076322, -0.6228983594102563, 1.1200650969709833, -2.731935177403569, 0.27452070617204866, -1.33185670341194], [-1.2364199060323107, -0.787217254862861, 0.7569290834617565, -0.9358576132079337, 0.1348681815081091, -0.6667571795423141]], [[0.34752315488400487], [-0.7353295335800233], [-1.5287357646111284], [0.1925506689459367], [-1.9084411366990939], [0.17664032931079476]]], "biases": [[[0.7313475625883974], [-0.6337851138833666], [-1.7128435757789302], [-0.6443037173177885], [-1.8574625552315835], [-0.11806445403728186]], [[1.579465290648385]]], "layers": [6, 6, 1]}, {"name": "", "score": -35, "weights": [[[0.5052993788529357, -0.4656608075335685, 0.7106780377110434, -0.32462064274015684, -0.4119084192126717, -0.42749936082165607], [0.191443220665038, 2.183918023983856, 0.2945459280341643, -0.108786827292437, -0.8036066558858584, 0.8181811907342658], [-0.3686755665494649, 1.4062109530353526, -1.9690731889541293, -0.12767138172027215, 0.9504009825574353, -1.098918696456686], [0.008945569126411514, 1.3746836512841987, 0.6714851536648876, 0.41705147384659685, -0.09772111791858643, -1.3517826800128447], [-1.2078432696076322, -0.6228983594102563, 1.1200650969709833, -2.731935177403569, 0.27452070617204866, -1.33185670341194], [-1.2364199060323107, -0.787217254862861, 0.7569290834617565, -0.00613482083526524, 0.1348681815081091, 0.07365662159475261]], [[0.34752315488400487], [-0.7353295335800233], [-1.5287357646111284], [0.1925506689459367], [-1.9084411366990939], [0.17664032931079476]]], "biases": [[[0.7313475625883974], [-0.6337851138833666], [-1.7128435757789302], [-0.6443037173177885], [-1.8574625552315835], [-0.11806445403728186]], [[1.579465290648385]]], "layers": [6, 6, 1]}, {"name": "", "score": 12, "weights": [[[-0.5148820908034091, -0.4656608075335685, 0.7106780377110434, 0.11432482883723571, -0.4119084192126717, -3.1048708601167188], [0.191443220665038, 2.183918023983856, 0.2945459280341643, -0.108786827292437, -0.8036066558858584, 1.065409927949724], [-0.3686755665494649, 1.4062109530353526, -1.9690731889541293, -0.12767138172027215, 0.9504009825574353, -1.098918696456686], [0.008945569126411514, 0.338327798142347, 0.6714851536648876, 0.41705147384659685, -0.12811303233252874, -1.3517826800128447], [-1.2078432696076322, -0.6228983594102563, 1.1200650969709833, -2.731935177403569, 0.27452070617204866, -1.33185670341194], [-1.2364199060323107, -0.787217254862861, 0.7569290834617565, -0.00613482083526524, 0.1348681815081091, -0.6667571795423141]], [[0.34752315488400487], [0.8610711501259903], [-1.5287357646111284], [0.1925506689459367], [-1.9084411366990939], [0.17664032931079476]]], "biases": [[[0.7313475625883974], [-0.03552256518694826], [-1.7128435757789302], [-0.6443037173177885], [0.36180505815838776], [-0.11806445403728186]], [[1.579465290648385]]], "layers": [6, 6, 1]}, {"name": "", "score": 17, "weights": [[[-1.7646713879304727, -0.4656608075335685, 0.7106780377110434, 0.11432482883723571, -0.4119084192126717, -0.42749936082165607], [0.191443220665038, 2.183918023983856, 0.2945459280341643, -0.108786827292437, -0.8036066558858584, 1.065409927949724], [-0.3686755665494649, 1.4062109530353526, -1.9690731889541293, 2.0185485111224692, 0.9504009825574353, 1.0104318473868374], [0.008945569126411514, 0.338327798142347, 0.6714851536648876, 0.41705147384659685, -0.09772111791858643, -1.3517826800128447], [-1.2078432696076322, -0.6228983594102563, 1.1200650969709833, -2.731935177403569, 0.27452070617204866, -1.33185670341194], [-1.2364199060323107, -0.787217254862861, 0.7569290834617565, -0.00613482083526524, 0.1348681815081091, -0.6667571795423141]], [[0.34752315488400487], [0.8610711501259903], [-1.5287357646111284], [0.1925506689459367], [-1.9084411366990939], [0.17664032931079476]]], "biases": [[[0.7313475625883974], [-0.6337851138833666], [-1.7128435757789302], [-0.6443037173177885], [1.1659631976871672], [-0.11806445403728186]], [[1.579465290648385]]], "layers": [6, 6, 1]}, {"name": "", "score": -138, "weights": [[[-1.7646713879304727, -0.4656608075335685, 0.7106780377110434, 0.11432482883723571, -0.4119084192126717, -0.42749936082165607], [0.191443220665038, 2.183918023983856, 0.2945459280341643, -0.108786827292437, -0.8036066558858584, 1.065409927949724], [-0.3686755665494649, 1.4062109530353526, -1.9690731889541293, -0.12767138172027215, 0.9504009825574353, 1.0104318473868374], [0.008945569126411514, 0.338327798142347, 0.6714851536648876, 0.41705147384659685, -0.12811303233252874, -1.3517826800128447], [-1.2078432696076322, -0.6228983594102563, 1.1200650969709833, -2.731935177403569, -1.144723269836217, -1.33185670341194], [-1.2364199060323107, -0.787217254862861, 0.7569290834617565, -0.00613482083526524, 0.1348681815081091, -0.6667571795423141]], [[0.34752315488400487], [0.8610711501259903], [-1.5287357646111284], [0.1925506689459367], [-1.9084411366990939], [0.17664032931079476]]], "biases": [[[0.7313475625883974], [-0.6337851138833666], [-1.7128435757789302], [-0.6443037173177885], [1.1659631976871672], [-0.11806445403728186]], [[1.579465290648385]]], "layers": [6, 6, 1]}]}