{"gen": [{"name": "test0", "score": 0, "weights": [[[-1.4344410264120013, 0.24956278786624406, 0.3872397386438184, 1.2118049772826207, -0.47895804937473935, -1.1673211659238043, 0.039098263445890936, -0.48112062999602045, -0.9129544854517826, 0.6400932943286941], [1.3187684417190277, 1.1959428676770933, -1.7381766460931367, 0.4272006219750936, -0.8679930683357624, -0.5771105802295023, -0.13338566118159037, -0.934635304074977, 0.3464342915011223, -0.29139314817090045], [0.9837294862106338, -1.001317109152989, -0.2576273815352648, 0.7830536652721812, 1.5727677531236395, 1.3716032704887335, 1.555074559909361, 1.5915563551966927, -0.5024650648846342, 0.9047600520590247], [0.5512478303228763, 1.4082444896921984, -0.4409764861437092, 0.24864281161146806, 1.3394947124974748, -1.054712774613504, 1.5241818637167943, 0.48409772522917066, 0.9601839555316306, -0.384001730467182], [-0.33980629437088555, -0.7403319992547337, 1.2163839130898306, -0.500356183594596, 0.4707292694450202, 0.057375889683379755, -0.2623580458701562, 0.1792795926232158, -1.061283951965889, -0.7618384079715239], [0.26675619937222983, -1.7522883596929766, 0.9693912241463194, 0.6681389536621025, 0.25589739678411705, 0.548824414686682, 0.901824720985729, 0.6724665520195252, -0.05304025647620979, 0.6049114886063078], [0.8775438122245586, 0.5819096826373689, 3.2528068751616543, -0.18981441412199263, -1.6050028296841383, 0.9276878681431425, 0.14605771221393876, 1.653207057426848, -0.5892087841885586, 0.6573618560587527], [0.8010095493491264, -1.5127187684231662, 0.03209856036133312, -0.42987240705913543, -2.150756542086361, 0.2605455158930703, 0.47853629269368203, -0.9710521662762444, 1.4223152816241142, -1.544601064926607], [1.9073891962366682, 0.5614377440895446, 1.5469848944624733, 2.4880560082777783, -0.1984399968761042, -0.8458959647692842, -0.5717880150220314, 1.1859995138726314, 0.5441866652925395, -0.010843859780829622]], [[0.6621654381506037, -1.1878736179260054, 0.4260981439533735, -0.915723446365796, 1.3638280037277222, 0.5127056113158761, 0.44014937508134655, 1.4773246031706957], [-0.46623401200432923, 0.7337477801145815, -0.3052328708944999, 0.7780497249920991, -0.043253885071117715, 0.26095841420745514, 0.7622602978978565, 1.312451254602302], [-1.5236415722948315, -0.9813926337652289, -0.7141877544980818, 1.2166427752775841, -0.2724139605286848, 0.31155994933603137, -0.4555505937175822, 0.6374150156080121], [-0.8035659650546108, -0.8648461610904669, 0.24975624860860526, 0.7682513924623808, 0.7436694062509716, 0.5373727684849418, -0.3905159818626187, 0.6917381127866602], [-0.29173218540443285, -0.8969810123214356, -0.31381557516694947, 0.8992215772210392, -0.29392628116592745, 0.7372754755329793, 1.4538322494568712, -0.11504009263378336], [0.04393606233376151, -0.026047293040860748, 1.985642270548814, -1.9987173057202636, 0.022057417574361894, 0.5191908800187727, 0.6802214234336769, -0.913023835451482], [-0.07177279082938365, 1.7020275896508088, 1.7647247557293084, 1.461323608879535, -0.3880162996648849, 2.0880168637660486, -0.6383304021070043, 0.8315837588851119], [0.4946067720270151, 0.08684880917604787, 0.15059869032432746, -1.2456509897226484, 0.800756765345506, -0.5650674037294015, -1.789061616737969, 0.4229727994099093], [0.23154617686335063, -0.9434980618243115, -0.7419454022467916, -0.5117063725650899, 1.1245093194003162, -1.5233975223377785, -1.116714559689768, 0.4540327923545136], [0.20162407030488996, -0.9602462866427411, -0.08880788309870599, -1.8246157198587076, 0.49983498260403775, -1.9049520061719845, 0.5088924736027266, 0.4291366218001537]]], "biases": [[[-0.24566859388243195], [0.4737617409437105], [-0.09309277786870475], [1.0902445513072532], [-1.6643814440802354], [-0.5760319724095213], [0.7777408154420744], [-0.13127725128019224], [-1.183815285462466], [-0.28029252788347525]], [[-0.21416119325107805], [-1.3477847772024851], [-0.7151265899507407], [-0.6500847388697993], [1.040193773772923], [-0.7704336709656544], [-0.6830042729835187], [1.5299804951593259]]]}, {"name": "test1", "score": 1, "weights": [[[-0.11218906992382008, -0.39066053582828053, 0.4326937746790329, -1.0092314948375345, 1.0671519572865633, 1.4963345871457996, -1.2143158675712773, 1.0003076586574162, 1.509626466681613, -1.0941835128656925], [-1.9675472369725178, 0.5489662032455264, 0.18215719740838296, 1.086677936482006, -1.916110577653292, 0.9241198760760833, -1.4874290032248176, -1.6582602942136688, -0.9940243813660816, 0.0630008305341669], [0.9999211485483461, 2.6140591532889097, -1.7687296519734848, -0.00883017302279225, 1.0806480378774115, -0.4933316829172716, 1.0011314122558972, 0.5696330251254116, -1.0460184111184403, 0.6607404494339312], [1.4501957550577669, -0.5680916953904659, -1.1530284133503699, -0.3626196851536677, 1.859021932445405, -1.4562182079252926, -0.015306604935638788, 0.3420414552294309, 2.136654619578025, 0.17057663549970747], [-1.1620470080520187, 0.9667947714647543, -1.1654898518513948, 0.18881712761701946, -1.186411375256503, -1.2307654045305607, -0.5100927359426861, -1.9130934472107661, 0.18329731193058948, 0.15778224634641208], [2.052043171145511, -2.0608098836299, -0.19947277985305173, -0.5999914651144393, 0.12530739652221884, -0.5769417329300763, 0.4022650218252701, 0.31196808458066877, -0.4231574703326774, -1.4671579078443682], [1.138848799398768, -0.8194503012808033, -0.2311759375272703, -1.7359078378338872, 0.43130214381904525, 1.7247585821431084, 0.31828506046243793, 0.019571503824270125, -0.4328022970588934, -1.7305131858458036], [-0.5492506335417223, -0.09045846472871848, 0.4275870062127462, 0.5056091636072209, 1.010019982600814, -1.4096837023167252, 0.02681658391752976, -0.9066753721110833, 1.8958261724679892, -0.9319538507004004], [-0.6091930254970211, -1.1949237800725272, 0.8889875329427738, 1.0016538622147528, 1.0082674579987283, -0.9123736515067988, -1.1926964083346958, 1.0184492656929274, 0.7034599196224965, -0.3218389045496843]], [[0.2377650895337741, 0.3673134625507626, -0.0877251110346806, -0.6828824872482865, 2.4656097160256336, -0.037063566733638025, -1.2667782226029736, -0.3707468473205157], [0.24797305047326607, -0.053107223402389415, -0.929471261269872, -0.16087235845956213, -1.2252837322916257, 0.4800525348601819, 0.41687846440795234, 0.09217131564135962], [0.10582176031474018, -2.2341895726756413, 1.4883095457767412, -0.44448985198101126, 0.8408384843847492, -0.20010276212368286, -0.5306698694982148, 0.42263286181510124], [-0.9830260413224104, -2.677164741747599, 0.66232421385157, -0.3454863251309798, -0.864740559978085, -0.9460820998636688, -1.7093764538862235, 0.3398819973054141], [1.107439429336208, -0.6679275207217791, 1.0345006422099976, -0.0839051958700206, -0.4011602705833324, -0.10149665677927544, 0.7533722629209706, 0.3521832804013264], [-0.5544943772301401, 1.9428831923199663, 2.02395850683962, -0.26754496656059157, -0.6317245033902386, -0.8078780187672865, -0.14129572013211603, -0.03943010194906001], [-0.8740225767894326, -1.0391298184933238, -2.6168336183047876, -1.488446185159403, -1.0154450781278983, -0.8900808893444049, 0.6332550234837016, 1.7579364279089802], [1.9853905150439428, -2.234473004729462, 0.1091496381673077, -1.0165502036729261, -0.48791517665993545, 0.8288556720933002, -0.46124027418598434, -1.7020239652300615], [0.5316201093255342, 0.7660770062168702, -1.3958853089947265, 0.8627057362476772, 0.24726070625383567, 0.9275412665795131, 0.024291533156309005, 0.05836395307929055], [1.1349942995216145, -1.8960726268674823, -0.5415511253852987, -0.4182334837320201, -0.9649668746641075, 1.3015345439795485, 0.9708960861182205, -0.06315136623104135]]], "biases": [[[-0.23370580608157238], [0.0379639123273151], [1.2138181189592234], [0.7749232786927913], [0.843719660749562], [-0.920700226175996], [-0.12307840937191082], [0.38980734105798454], [-0.06354834776461414], [0.0998051828304212]], [[-0.9990162304060342], [0.779299084224632], [-0.20177758043127986], [-0.7890771450589582], [0.29141653367003556], [1.2478173103075898], [-1.3947223039310652], [1.9744933980152894]]]}, {"name": "test2", "score": 2, "weights": [[[-0.8811359840738952, -1.8725678777507533, -0.8403303578468189, -1.2112205140192227, 0.1686079834582692, -0.3305496514567926, -2.6555258035867517, 1.0656078133703104, -0.7436160093925738, -1.117435151696162], [0.6419964523468604, 1.459014473880908, -0.24090470325618027, -1.4631069130305194, -0.4906297563621428, 0.0668823555279314, 0.6548403089423761, 0.3138832143150321, -0.8008564349016724, 0.4809534175686067], [0.6580577865710718, 1.375884520255752, 0.65968285207954, 0.3041260690224356, 0.2864670361771108, 0.7090695138149434, -0.682204674718106, -0.5815187329390281, 0.9626161587673356, -0.9180921899146751], [-1.1861234989569407, 1.3045620210000206, -0.5327843947197759, -1.1434665951953589, -1.1336096862268126, -0.34177316476351194, -0.004430740119881168, -0.9014638521211207, 0.4015512129309161, 0.06911997789550774], [0.35313214785474006, 2.26394311314615, 0.6034280028579508, 0.1775680169775389, -0.9549113981560251, 1.6133201819967111, 0.8306261041066528, 0.6175938543045212, -0.17963808531322295, -0.6906087667258898], [1.0614528611481993, -0.3201299565664451, -0.9468550664684918, 1.4360669743658463, 1.3380109438107257, -0.6374756008828235, -0.051580726508714016, -0.23809344092605136, 0.5472688843755084, 0.4654031438232224], [-0.824875266565475, 1.3421151054986795, 0.5832476797302284, 0.8476943420141617, -0.23061225403284386, -0.04315651790301841, -0.645304981845887, -0.32868991763650995, -1.2252978594244286, 0.07903327144505375], [-1.4093232175914479, -0.25821512257769386, 0.34921814825387903, 0.06414864327373083, -2.5334174569546164, -0.6731982837728939, -0.7487320228596118, 0.27278388883181887, -0.24610881832163922, -1.844111164797494], [1.084870632785544, 0.30970517050622476, 0.6123117948178486, -3.043853074029169, 0.957111866052693, 0.9567127179186633, -0.41943854036976064, 0.7381490639731619, 0.19124918375146446, -0.07179432550811508]], [[-0.715512551223773, -0.04429092148991559, 2.723373249331272, -1.2356077258262106, 0.6012440873309566, 1.2787572891819268, 0.9144005716366302, 1.6066413535859756], [-0.8023039957232247, 0.3747644288888119, -0.7846127656633654, 0.7261941271116362, -1.127062437159261, -0.37514126791988844, -1.4778801715490157, -0.703076626510083], [0.1638657090575184, -1.988925141388545, 0.5417665119193803, -0.6134740352035098, 1.4880538801289833, 0.14722093959481697, 0.566634841790008, 0.7217813439537577], [-0.899392747235918, 0.7552251103271306, 0.2821819326042717, -1.2757235742933466, -0.8242368278299184, -2.252011579933491, -1.3670647636135103, -0.13883035270540112], [-1.2193391478291677, 0.15150643763124577, -1.3292659565215752, 0.34255748394194596, 0.5757091978387006, -0.7333906191739151, 0.04000379271338283, 1.2401362791794404], [0.16873911462045232, -1.938263380692395, 0.6707524987372554, -0.8590785247974517, 0.6331514731786538, -1.2122029273988288, 0.32015824203179977, 1.1360147380532537], [0.5092650592088221, 0.007686799542820168, -0.01733695424039441, -1.6111879243010898, -0.24502731793285848, 0.8550799460937294, -0.22550695626716477, 0.984772037784792], [-0.3895883924701904, -1.934965572746756, 0.31054107656121605, 0.89987959554846, -0.35681832567032473, 0.514570852736647, -0.6518428272738878, -0.9490002102898336], [0.37489517794553856, 0.08562534524355103, -0.4861885190745335, 0.15681193977662425, 1.1772911437100686, -0.46651580379140534, 0.8566091869631179, -0.13803565913098015], [1.3037076263973915, 0.5904728273987271, -0.3352477474450768, 1.2128425762337645, 0.5525905363382522, -1.8894033228565121, -0.9938106563319579, 1.1480057979056524]]], "biases": [[[-1.1456565504319862], [-1.1150793223786848], [0.44207035625469326], [0.8906955466016704], [-1.2608228602475957], [-1.0085466875328046], [0.18791198054764727], [0.33628196521485454], [-0.24706875232853248], [-0.323418979752161]], [[1.8012783240626347], [-0.9152338198167568], [-1.6053349483392192], [-0.7559224130888873], [-0.43998153105494964], [-1.7751751286864175], [-0.085270341881346], [-0.5671961607557836]]]}, {"name": "test3", "score": 3, "weights": [[[0.0011823137420687918, 0.4010912438503202, 0.3912328369824012, 0.007528245246605389, 0.3793237864152065, 0.029858116117655785, 1.2711011964247652, -1.1352872109485102, -0.7997860240483059, -0.31376105434936596], [-0.635123477231092, 1.86611517180765, -0.14252522851093594, 0.12813294540265086, 0.4487237423762335, -0.9856349694100728, 1.342410922694064, -0.08724313646455588, 0.624987341900439, 0.7103624245826544], [0.9646357466830277, -0.05668811383609911, -0.16821250605738466, -1.168268885881971, 0.39326413383719283, -1.773113342407576, -0.5926824904542639, -0.430544730033275, 0.7736611099843932, -0.3643529859157313], [1.431241337187891, -0.1458087898169045, 0.24040697171690004, -1.5342868904852363, -0.8540706655555728, -1.9825246662296927, -0.33039214250553445, 0.8483788748791035, 1.5902762698491408, -0.4704663269596098], [-0.20799233432005002, 1.0297352384310665, 1.9984417366014267, -0.6692403179389369, -1.0883921476335423, -0.8525389784888805, 0.8721625610585336, -0.6235826621118932, 0.8761990874052912, 0.5087658847672335], [-1.158450302140475, 0.7045269566229693, 1.0801171957208873, -0.19377118254108022, 1.9880768034210539, -0.9424583414239659, 0.06084853899234265, -0.254238742843671, -0.7170417867399104, 0.9320279134543842], [0.3704890881673438, 1.3647151018258512, -0.2220546083260639, 0.555615588097686, 1.5493261252430943, 1.8342744765078016, 1.7372913321446941, -1.2099084600484873, 1.9705251559439456, 1.1277820918630395], [0.5707695428127056, -0.5904625695186905, -0.061952935941862686, 0.2712601666509733, -0.9521118272160481, 0.7654548377130975, 0.9132796671982982, -1.1101188611845922, -2.87318838992713, -0.06535049374807231], [1.3805241561671464, -0.4250525664046902, 0.13526806603228325, -0.21017247419718388, 1.0483872772728489, 2.1313796023786384, 1.9079588154216938, 2.071937820228485, 0.3372821455314055, -0.6083006229577059]], [[-0.3260021623353044, -0.5823872795071513, -0.22887719056939673, 2.2635979523272134, -1.1672390627818343, 0.22605449492732366, -0.23830063041273808, 0.06933123298157388], [-1.234621085226409, 0.7703419782212819, -2.178838063689772, 0.9518199355674417, -0.8193774431735966, 1.031780157467932, 1.275905467354545, -1.278772587835143], [-0.44017067950260713, -1.8434385278243248, -0.5817888890840441, 0.151756372266227, -1.6485994401686483, -0.744823687757405, 0.180852988273602, 1.6249801900242737], [-0.40443041753708786, -0.9562507941071291, 2.02545220472074, 0.9511691304768166, -1.2221912310919594, 0.837801767388939, -0.6780012816200441, 0.2570295203444527], [0.6531531524050056, -1.4895389856922463, 0.1184929775552048, 0.10973009090481309, -0.2596319060764818, 0.04733134985480257, -2.198514508928908, 0.6949348016656429], [0.7391583423753437, 0.168979606513463, 1.4122967738514363, 0.12900523885154314, 1.0899786637485096, -0.48888127653477714, 0.6622957820401273, 1.5356496713214318], [0.2504137251954992, -1.2352022472365414, -0.887710334361689, -0.34350846629308707, 1.2187824915224352, -0.7206566719520399, -0.9063389225364468, 0.19991765304959183], [-2.192731354509721, -0.7905139994911465, -0.04826325021610874, 0.46281200001616674, 0.8895024344172, -0.6982374613502959, 0.8488457386953819, 0.16368868518686838], [-0.4884565966811124, -1.2747657487178305, 0.7977523975388141, -0.36769021450032857, 0.8081879594656023, 0.45908802932676246, -1.7467100891922256, 0.2749828023870526], [-0.18506044481619496, 1.1668911730305889, 0.2144031811107488, -0.9839444741909155, 0.5506715232760929, 0.8063470528577645, -1.7073188292530481, 1.1772863816341548]]], "biases": [[[0.26289552114713155], [-2.247479500378654], [0.22101533727181732], [-1.4561789712259905], [-0.4646058270384679], [-0.34174326252806325], [1.606964789258413], [0.5034994209859326], [1.0178588989384294], [-0.8727297690887652]], [[1.6192759915144368], [-2.6639817453664993], [-0.03994860718118882], [-1.6323404340761247], [-1.4069054075755958], [-0.3753529165292626], [0.06222989242314712], [-0.3773861983839694]]]}, {"name": "test4", "score": 4, "weights": [[[-1.031399740037232, -0.40597798200805185, -0.6752462131963606, -0.784951277851993, 0.7154882848240884, -0.8493092573652128, 1.4314467177253343, 1.5319454491311073, 1.431878472483166, -1.0809775175216687], [0.5100653893009727, 0.7009865973278668, 2.854067691295186, 1.0520765710364153, -0.08537874499377175, 0.07685004775403666, -0.39576808715904616, -0.05548308950650781, -0.5009288505611433, -1.6819325217187058], [1.3862117546609876, -0.8818415578337929, 1.4150548652659523, -0.323952944757988, -0.278513400929559, 0.5175173961743745, -0.6333750496897113, 2.1793108088009205, -1.3954996346524762, 0.12645658813533173], [-0.9716433517651957, 0.6674266251207013, -3.0920961206561444, -0.39952206447052124, 1.170235229942384, -0.30937013615085646, 0.7738451794972956, 0.4691665196780721, -0.9230329160913627, -0.43258936688249394], [-0.2264243572581532, 0.5395292468862498, 0.7917368447838443, -0.3628083951958735, 0.7714991205304079, -0.511003225688533, -2.2885697761445813, 0.6795431364564215, -0.7297878348260565, 1.1778435773950235], [0.19015969008020384, -1.7349441979333882, 0.44270962314431267, -0.12997842466908716, -0.4520152859784998, -0.6086251753220379, 0.29353013648788395, -1.6448467960590785, -0.5986735789776094, 1.0481207407943403], [0.9485532283052296, 0.8619914180675481, -2.261437483439645, 2.5266524011962135, -0.6603751365444928, -0.9349618157385243, -0.011680835029865125, -0.0519594874491324, -0.8734358252620682, -1.1596404343470694], [-1.764296669621575, 0.7177739318066363, 0.336142676667236, 1.7126613813897869, -2.9779162417280705, 1.9602864665812167, 1.121703185458229, 0.15406213577780087, 0.8636872676327034, -0.02418346236524504], [0.6114725888858724, -2.2156692971640974, -1.2832662893274602, 0.8334488253839714, -0.8018834091314535, 0.9979960057114516, -0.7909719782618061, -1.1433642690576749, 1.140381817839878, -0.40707325883381607]], [[-1.424654089048195, 1.8508738408771785, -0.04081792504193848, -1.6452026424514157, 0.504751335949396, -0.8099644740377137, 0.6194564060261789, -0.41320655663831024], [-1.0571739603229502, -0.15275518780374964, -0.9854297886899374, 0.8959088289357113, 0.4724459892788325, -0.6909285017846207, 0.5264255594748701, 1.443383106469002], [-1.1590352589836679, -0.6570119478879034, 0.2598993290462004, -0.45659736782635424, 2.312623187412948, -1.247130590805117, -1.2394992298929253, 2.0261708484478738], [1.7199001815582202, -0.038454877994951155, 0.4570771200489222, -1.182209909337984, -0.8591838671863106, 1.7169149228931684, -1.3967369497783646, 0.19967425513455445], [1.3153920416188734, 0.6164583813477641, -0.55212196212991, 0.18461154258738866, -1.4899976816686034, -0.5423458911297807, 1.2854547891818415, 0.7194390412857912], [0.1758683301462085, -0.7981798068197233, -1.5342072583150559, -1.5219380981348365, -0.888315676786915, -0.17274476744891637, -0.5632763163478972, 1.4353243194617142], [-2.05147078929381, 0.6514094781328945, 0.1226550095250299, 0.46424599598355426, -0.5397530449975245, 0.8815484940201661, 0.9694833606658403, 0.07428731113708871], [-0.18521949212127065, 0.3864105089006825, -1.8446313749116854, 0.5887613581772597, -0.20300058479790276, 0.9053002993801907, -2.4162552111125066, -0.26393577870865437], [0.5946453793700259, -0.3874422666277267, 0.5157750373812743, 0.09176813774174594, -2.0335958419801003, 0.3788170716131859, -0.9324668247938114, 0.9385160729621237], [0.4510616877549576, -2.7857983597051286, -0.09681672207804991, 1.0279976182971684, -1.5147527810305728, -1.3273509664749477, -0.5849763418537667, -0.9252395064872037]]], "biases": [[[3.5271893036711837], [-0.048627515801528055], [0.04665269683687091], [0.3160660141526351], [0.006936640683223043], [1.2049333202493309], [-0.4461956668372845], [2.5120268043987237], [1.8078832711806874], [-0.7853917730170419]], [[-0.27364235617082533], [0.11164520897986567], [0.6572692650390879], [-0.12151476217213865], [-1.3400653940115737], [-0.5807946053346329], [-0.5259420109974289], [-0.414433528205248]]]}, {"name": "test5", "score": 5, "weights": [[[0.6098041316891949, 0.35016585827983837, -0.2704575255347156, 0.6463913394756686, 0.10190700880433336, 0.8988953830392695, -0.4560933532535754, -2.424309828675943, 0.4557466283915046, -0.8511168625630324], [-0.6561697179759889, -0.5075244566613644, 0.15469175458507328, -0.6236573041915487, 0.30588108756335614, -1.8862177917779577, -0.6474450066735026, 0.6673399307521356, 1.7056942199413005, -0.5260462965953756], [-0.3157159484789318, -0.5860603334990525, -0.17320199398616734, 0.07155837689009711, -2.751562441222086, 0.035711463389897335, 1.0746370984455487, -0.9179070275306729, 0.5040386450922804, -2.3321822552107587], [-0.04809159714766599, 0.41832097758406966, 0.5839126318894714, -1.7069018192034309, 0.6229664964590806, 0.32645469462394144, -0.28492571069156447, 1.359830637346842, 2.5345453926729413, 0.1182191873166946], [-0.6418329352082989, 0.7336144994725298, 0.3311560996476581, 1.6817013472009572, -0.3709392985286245, 0.7468580190314529, -0.814347296875826, -0.21831182545334193, -0.11383295135312786, 1.1291971261491576], [0.3231750033402636, -0.594264169700886, 1.6424673699253711, 0.4183677660087485, 1.414412753605934, -1.5421676594044547, -0.1494006125959801, -0.6014148837447953, -0.42254922369368225, 3.429835600576835], [-0.8074558081689375, -0.25699666914558045, -1.118865050131833, -0.055620557351045846, 0.3636144817478746, -1.7483269178154746, 0.5343869724480373, -0.3468664788521897, 0.5656712119689339, -0.21194845322508724], [2.042516798356383, 0.216405640958656, -2.7344917925441004, -0.2805481754675254, -1.1961286307789565, -0.1577541409183869, -0.36570660157964524, -1.5958627898447804, 0.5034582408894364, 0.17565795597363085], [0.32364937200536725, 1.7164509991349026, 0.2359606477637121, 1.702994394279021, -0.7096477854958573, -0.6203907958130936, 0.16293989267532477, 0.8737611143189692, -0.9324768243749804, 0.28727177490780553]], [[0.256983745273512, -0.12219341538778435, 2.3377341828591964, -2.227345515800038, -1.030158226659813, -1.214911940670165, -0.15570471571460112, -0.5334810844759702], [-0.14814866328579016, -2.0328956594123433, -1.989184965882549, -0.6698811995626336, 0.37162666156803115, 0.5134061103637994, 1.5388351429756717, -0.41974824945271166], [-0.931142898862387, -0.8964875088317441, 1.5440241022179548, 0.07850356379402236, 0.3706164389250171, -2.763128182943186, 2.065658823896508, -0.32615602280094474], [-0.0670261900748673, 0.7178356114861516, 0.6396716948042966, 1.8557234030855017, -1.782787246311892, -0.07093540723093174, -0.02204902093446399, 0.5651866583328785], [-0.3441736404882141, 0.3376612963578151, 0.7760453619765011, -0.9850078140914387, -0.7117195721631451, 1.294003904262133, -0.9982232382987833, 0.053301849036967726], [-0.20034747348964407, -0.20077183839085921, 0.06681597531349498, 0.33394885362872423, 1.978546407866079, 0.9267246043257849, 0.5475226632428868, 0.6657855571003258], [-0.9896716750947072, -0.46192007154858555, 0.3884500668482788, 0.335016197342061, 1.0054314114088956, -1.2402614691372384, -0.28529368623237417, 0.9046147217474089], [1.5679496027592221, -1.1034761466576892, 0.6763860580089717, 0.45364465564096496, 1.0015193385464873, 1.9596585068089165, 1.3584422507121683, 1.9430091150774378], [-0.5963473732112496, 0.0696338795641103, -0.12757920070720907, 0.7593039792387467, 1.9818220517466905, 0.3861162405391001, 0.7450074810908852, 1.5736989353417479], [1.9451416135695663, -0.05634522206619826, -0.011314365794485753, -0.6218056873758755, -0.831981505386547, -0.8623704473850554, 0.024628538081605436, -0.5073026834791681]]], "biases": [[[0.6309091738890493], [-1.2588653442022757], [0.28123030704347435], [-1.58941329220983], [-1.1082886615423124], [-0.39319610590338977], [-0.30756919127099935], [0.4310273898975428], [2.1606450902109313], [-0.9933989159526229]], [[-0.024554175969957494], [0.13906949330194276], [0.8526546499571263], [-1.1286355777360206], [-0.8278400644210144], [1.1014409445439917], [-0.593870229736538], [-1.4404561033109577]]]}, {"name": "test6", "score": 6, "weights": [[[0.6411373696955762, -1.4243109486049124, -0.7685071140826996, 0.22147712665214453, 0.9229419494427876, 0.036127726145874006, 0.7947492248987201, -0.2171892140477504, 0.9577328338389609, 0.04398634390801961], [0.4293021975257616, 0.8262237009017219, 1.8511214930346047, 0.5225491809948062, 1.063773200537403, -1.097486195274499, 1.7268180731597218, -0.18679978248858953, 2.1750113713514185, -0.9733063369056427], [0.06449459223244089, -1.9312064177608397, -0.34562827933764406, -0.05345956947068011, 0.028889280906111946, 0.5950450109889144, -0.04246141843634689, 1.1779625231051838, -1.4197102440519438, -0.5588459958405692], [-0.8872423217440618, -1.5851622828661451, -1.1051913489086933, 0.35703334494994965, 0.4796502575183952, -0.29856640562414827, 0.33832456123104004, -1.9761730804298, 0.6302630322244618, 1.9128346381480088], [-0.42957500133201276, -0.45725110958876847, 0.6027162641824446, -0.4458727564296782, 0.1677345464821909, 0.08336829058090278, -0.3084554794114458, 0.078679493119237, 0.08988041571002456, 0.9558937158009316], [0.46504483041656436, 0.10395254005627622, 0.5657951461521861, -0.37021623484487626, 0.7678235470535727, 0.5727679180260367, -0.13537588939212578, -0.24400393579776156, -0.9582828537148792, -0.9673422260065848], [-0.5388668147536898, 0.2938174987966183, -1.1892115678859836, -1.14458437534293, -0.8368140981729467, 0.8153524129477564, 1.2476891809044568, -0.44063805140702583, 0.34269680454337703, 1.0661819285976402], [0.5364098904360795, -0.16244016716485266, -1.2251206040214746, -2.28857711838002, 0.32742522309554156, 0.14602409044280515, 0.2360978336933548, -0.965667727518667, 1.5620497142806398, 1.5569850393791171], [-0.9824558559353684, -0.5051390150176654, -0.4917787887715108, -1.2559986921303283, -0.8824266220679858, -0.9650651462033573, -0.6734735910080503, 2.8474918424325275, -0.7321165371506645, 0.015136654599109607]], [[-0.8590379925959907, 1.6957064549253202, -0.22388151649757082, -0.005740084696158423, 1.539925750677225, -0.06401085858183599, -0.8808499057186485, -1.1020558417669453], [0.07494606153391561, 0.6037001261075231, -0.4585169283028299, -0.733895730514782, 0.22478716135862506, -0.5052030152423669, 0.03292212041775498, -1.5169239410273472], [2.1233466882229726, -0.7941521465566158, 0.6465331524940549, 0.16240461297757303, -0.9871003651580277, 1.7718584766029881, 0.45503514740426926, 1.9819616407456024], [1.5770292823201093, 0.11949283676173329, -0.07904006076131057, 1.0938494665191152, -0.7482581717128107, -1.1725252144518044, -2.074436344073064, -1.2917809130097702], [-2.007696117875946, 0.7271546395102215, 0.8283177446389357, 1.124347822491067, 1.9373081079934238, 0.3297087556544474, -0.3543616985742512, -0.27318465345743925], [0.7213526410886899, -0.4785918455631443, 0.8507863207627478, -0.12705120872143325, 0.13181834218811633, 0.4430972818070945, -0.8634079277484794, -0.6979443717795438], [0.2478387536884418, 0.4573392412917795, 1.9083488697189204, -1.542746670526152, -0.48865411476513365, -0.808011135259304, 0.19451706481459902, 0.18187109676518956], [0.20672481618464697, -0.5792306196804271, -1.8293535576855007, -1.6617367464746726, -0.1124839782672805, 0.6325282495564818, 1.3241796560797225, -1.142707523576752], [0.28107947393666377, 2.309426257639192, -0.5641404382466342, 0.6688356326581794, 1.8304119073074163, 2.18816635549937, -1.12367315512351, 0.0174348609093139], [-0.8470525583586874, -3.0083328598148835, -1.015731645649467, -1.0188240654043739, -0.06747468031996076, -1.9617558801189412, 1.4903677142207754, 0.7753604206322057]]], "biases": [[[0.6212554421224291], [-0.046663694149627795], [0.17360126234540404], [-0.4096499769631637], [1.03051848915271], [0.8058733878533139], [-1.7876685319340142], [-0.3650012995078106], [0.3988459162131135], [-1.4617799672337042]], [[-0.08905986519796434], [0.09124529282018941], [0.5110949863486778], [1.766676912223297], [0.9139859703268671], [-0.14956912392482968], [1.205905272043843], [-0.1372573397159773]]]}, {"name": "test7", "score": 7, "weights": [[[0.33004873527810763, 0.2508473485675444, 0.9043037761431185, -0.10122159941648834, 0.4354808675867903, -0.05203553471775791, 1.670948642971199, -0.10277749870725081, -1.1518540767800844, 0.004264799875947767], [-0.03854462641895326, 1.888791170815925, 1.615738332546203, 0.6901770806278845, 1.0452406748790068, 0.24691058840869126, -1.8441858861962355, -0.9940037183757635, 0.22667207794397212, 0.6260269330703438], [-0.19969301993306535, -0.2872403652724241, -0.2128850614594857, -0.4613897955458564, -0.17628017134803778, 0.8427399737866641, 0.12631897574304687, -0.5841979418951238, -1.201125617448348, 1.4233310819847358], [0.9278084143599944, -1.6178273367927285, -1.5214615681424368, -0.5910753425827489, 0.19333868749497524, -0.6437417885138225, -0.17149969321480762, -1.0094644946547482, 1.193496872895438, 0.9711608014913081], [-0.2554297765193683, -0.4539730249765036, -1.6608144131617015, -1.199112262263627, 0.11348105047630992, 0.035081074628119845, 1.3257263096934613, 0.18847125616052363, 1.152870175964293, 1.2883360674424063], [-0.45729579002592524, 0.4059624702404054, -0.6294666472344652, -0.5866539508793832, -0.09167168105568342, -1.808720404599397, -1.2493641589481883, 0.40098171529138077, 0.142417217068286, -1.9046111751393615], [-0.029845182445075138, -0.059831923614527764, 1.3691617322621559, -0.5786622451005371, 0.20128174406008262, -1.599443709596359, -1.0559446231314888, 0.493776595299133, -0.8109935409644198, -0.43862488078722983], [1.4304072605362532, 0.5999650031354904, 0.10260047836037102, -0.15899775453266515, 0.7362361602893381, -1.57116818346761, -0.9242193835961087, 0.8426490680821469, -0.08928651703268536, 1.5090872901947059], [-0.457301009462892, 0.15143306171473242, -1.529526054935457, 1.3073455287846432, 0.8308608480289922, -0.6499353675274385, -0.9685378715487503, -0.25120432261585346, 3.343856436690624, 0.7675487650382784]], [[-0.6150030565215353, 0.4614093714509285, -1.1633820969990445, -0.7180413287204569, -0.4023064820863091, -0.37246506728458567, -0.7732936183883509, -0.9975012039309004], [-1.0696836241169227, 0.6024918400700529, 0.6402626309180331, 0.49230092895912014, 0.813046271137724, 1.1054903929739277, 0.7755594981585566, 0.5561494869211725], [-0.8571139702387118, 0.1291855484794734, -0.39773604018623465, 1.4702095619544024, 1.5613566068517373, 0.7454364480661875, -3.025982813658386, 1.13249098486071], [-0.3003241219829219, -0.03654486894962398, 0.6523246124999372, 2.286197555804878, 1.5473693445481913, -0.8902720706104456, 0.16472332048656954, 1.330822976271617], [-0.4315061273927928, 1.2674644380181712, 3.007952653170079, 0.19908559798241568, 1.2280371188555412, 0.5865377748733155, 0.7235641304032483, 0.28367919498608324], [-1.8288163430846829, 0.16638249229364716, -0.17588819711437387, -0.437537528664104, 0.7535917919959928, -1.6479407586866857, -1.0837248736514031, -0.9251757559002102], [0.15958213367473847, -1.46200172389522, 0.9129460306458381, -0.816235367561478, 0.2155887506295096, 0.725238856089381, -0.6086658706855992, -0.3011745447741817], [-1.6659020404495641, 0.3945886625233064, -0.03875135413955367, 1.6031754121230284, 1.159767701252424, 1.1462128609234212, 1.6622980018439495, 0.2151057254646827], [0.28200454753068255, -0.05014267268846288, 0.6301363783322865, -0.22629011781861916, 1.5747832735021867, -1.3067254916591236, -0.5769062676476933, 0.9195471283935751], [0.5972115688872031, -1.877908301944623, 0.47655192894811327, 0.8032624361694969, 0.0012139552603208587, 0.2364540076655218, 1.7781021843953206, -0.5240798102233869]]], "biases": [[[-0.09559751215702342], [-0.2414448042993092], [-0.5724475740283007], [-0.26477019141374786], [-1.242508207651456], [1.145718546187275], [0.4746627180924436], [-1.9653875727649084], [-1.4201968311892699], [0.6246578018808224]], [[-3.2188338557752783], [1.0788019434556018], [1.0946240811576282], [0.21071627337762505], [0.2608580484864229], [-0.156452365918882], [1.5224684995257276], [-0.027835417764714567]]]}, {"name": "test8", "score": 8, "weights": [[[1.1723785443441577, -0.8222578995082568, -1.3986638630722361, -0.718504081511292, 2.6075821135937813, -0.7140725588488379, -0.32839821135389646, -1.2323500046058353, -0.33258633049162006, -0.5844724755498542], [0.6827784767147418, -1.4322811562149937, -0.2683689608333226, -0.18641413222116834, 0.6221983691376378, 0.7115717762580248, -0.44509429695784813, 0.9754164827405231, -0.3024738801115852, -0.16701154895639134], [0.8473910098565657, -1.5487676070608245, -2.2509040074702376, -0.7454380486997492, 0.6771860334503682, 0.17918365496537758, -0.8352880076717519, 0.28253641684647085, 0.38487853528944804, -1.5684903819299718], [-0.047756729290588364, 0.05574634241352184, -0.24858451588717315, 1.043857091818853, 0.30522608764132675, 0.6924324037719103, 0.6092030037822923, -0.019034051200808613, -0.04668372830201018, 1.4593164995316232], [0.2788937806084716, -0.7324462940263358, 1.127970124060337, 1.2506486598506548, -1.0813661726631425, -0.15956808828919006, -0.578808632932971, -0.2663833770922991, -1.8254402662966982, -0.25087500435654153], [-1.1087423654402238, -1.7933229404926023, -1.7493371146226404, 0.9943658303858707, -1.594224969384158, -0.6843171900650568, -2.805879110404288, 1.2130871203697702, -0.28372403136198066, -1.0856290563984117], [0.20177135974257626, 0.2780948795269314, -0.9816470698000626, -1.576444018415903, -0.5860861967375331, -0.9057838631026637, 1.54011287849019, 1.5033461771655767, 1.2685300082340942, -0.5767943606054067], [-1.298869810470539, -0.8635161086283043, -0.2572429896246754, -1.5180907456336405, -0.4958814612893742, -0.17877167444088007, -0.32643661516846867, 0.7839788530352516, -0.27403170733374715, 0.19995012669569312], [0.4710827516648776, 0.015372957278918492, -0.9211469829325153, 1.1304414500320872, 0.0016705414255441344, -1.034395316022743, 0.8153290686806219, -1.7872862731694077, -0.979997202179521, 0.7796042815178501]], [[-1.9846076496642069, 0.45846716758103284, -1.187594552045744, -1.6713076749781393, 0.12047397046184048, 0.9413523291980929, -0.6503085860987646, 0.31741223907254495], [-1.2235847887661788, 0.297664298595217, -0.7538265885931703, 1.3116359110938975, -1.2703310191400732, 0.18090981616078705, 0.49360000426771816, 0.8771363120372577], [-0.20893357753709357, -0.3144260707715627, -0.1646391073830423, -0.2726892098272384, 0.6065768428033644, 0.3330908735367101, 1.7139495693472595, 0.47709162245205067], [-1.2341977537963376, -0.20031788455752655, 0.20746762922850162, 0.6173278657812443, -0.19104865215950925, 0.5893759066351051, -0.5407381054627144, -0.06932535017931041], [0.1493511439566079, 0.7642775879581162, -0.07892701855926262, -0.26077379171820253, 1.5024440139894635, 0.3351982396683227, 0.5800203071234925, -0.7156860793050865], [-0.14441653439687982, -1.4447910125068404, -0.6149816200404188, -0.8467905161882193, 0.9136087939709686, -0.18597592646898828, 0.5154960913869717, 1.2728607915443746], [-0.9425545778800113, -0.5633772628268898, 0.2699455894605475, -1.53960185066236, 0.5612431461107545, 0.8112945557251996, -0.3757371734086088, 0.9892185573891412], [-1.776092317281378, -0.9006295480777631, -0.19980044289863724, 0.7878089287490132, 0.31167662812568064, -0.6622079147883242, 0.07677916954056865, 0.7661893041204508], [0.9103605317276495, -0.35353510393107945, 0.2480149164798421, 0.8546767021615482, -0.22996496903538505, -0.20882224989102774, -1.575228174009194, -0.8060947463233533], [0.5858719514839146, 0.23045685667423502, -0.5669614442296914, 0.957624952133924, -0.8861495910043492, 1.0012957461212726, 0.12152131435908244, 1.3135162854413371]]], "biases": [[[0.09913303165287211], [0.5871336046221771], [-0.9704510884265737], [-1.2594688592223038], [-0.42213209116941847], [0.45475435819967075], [0.5635600696339734], [-0.15312841135778915], [-0.9197732905956784], [-0.003305774225845179]], [[1.0357025820810026], [-0.7453879253957738], [2.5489287955592266], [-0.8265373656426015], [0.8560834433040946], [-0.7005638425554389], [0.47529961548849314], [2.255658866828357]]]}, {"name": "test9", "score": 9, "weights": [[[1.3637463307832607, 0.09432370211840635, 0.3335785196017393, 0.9054660583521028, 0.5416062990786505, -1.6602376979796893, 1.3551639778812483, -0.6235961959997579, -0.24493244200696324, -0.6531433798538266], [1.7221993891872118, -0.12858106978330888, -0.3192362245782881, 0.20051627189184576, 0.017861935731987584, -0.4326224154978922, -1.7531687170100512, -0.05615129998752557, -2.4478629499195694, -0.31590561557114205], [0.07592427322549714, 1.130600034143834, -0.28818450982119626, 1.8428587372882794, -0.3834304313986673, -1.564130832923886, 0.08143596931331785, -0.39297447062712754, -1.4114607424019996, -0.6234442777310506], [-1.9271457102789835, 2.354368078401096, 2.3382601211041214, -0.5046541811368677, 0.7419682585904279, -1.017576413688341, 0.5369153706317895, 1.165318077906224, 0.5828269683692435, -0.8300832498440424], [-1.0814389280693086, -0.4420941777432578, -0.8061146136822834, -1.0024877602468363, -0.273536798622653, -1.6303912857946605, -0.9522524025522251, -0.2603410067195312, -0.9449603772066343, -0.34330110590882623], [-1.123493633717952, 1.2946868982555166, 0.7578604310348789, 0.1382399928507291, -0.5526894469937864, -0.5784498622511977, 0.8621002377155024, 0.04056934490953203, 1.2052174160751783, -2.376035112033651], [0.14980403140491366, 0.5750269972071139, -0.5963092730698468, 0.2687865754535414, -2.0619731685642013, 0.7349202560693882, 1.1524079625808805, 0.9124829805782841, -0.8315488926724197, -0.327897757110045], [0.0031851412740185993, -0.8568802894825845, 1.1305472330912452, -0.5435231700278943, 0.581536407397454, 1.5478963189278225, -1.0249484619798517, 0.7265530361337518, 1.2572768171713886, 0.6466121595419274], [-0.3209421898500525, 1.3626201924629435, -0.632377231967325, -0.507380500026272, 0.8372735203748544, 0.4481325055235797, -0.6644127513204289, 0.3913570108952712, 0.1669842391849355, 1.5904309810316475]], [[0.7520469563117, 0.8259711616230526, 0.12230510142700203, -1.8549497061716629, 0.3467810739925734, -0.3413464257435709, 0.317842725053305, 0.2802094410854448], [0.015076223983226255, -1.8077567982904386, -0.23071049521522824, 2.0672404861165194, 0.7740669775044217, -1.1457821844417373, 1.6162507222206646, 0.5872411591674956], [-0.1764542105813251, 0.011270837490850474, 0.3073533296166095, -1.2379243529809374, -0.34150490017870294, 0.11554872624078402, 2.571303603700081, 0.3229661397367848], [1.5751456591862039, 0.7963242109410849, 0.42418494965124137, -1.589577438129083, 1.0381550678392748, 0.3056040685407212, 0.3052022608249645, -0.6004950436275749], [0.24480136335181402, -1.495687961139174, 1.274681049451424, -0.6904134460389361, 0.39988270117090097, 2.0730540696981525, -0.4316304731024624, 1.0421034756683691], [-0.759108644360047, 0.7174328880392508, 0.8640839742141201, 1.3016113876238535, 1.4446545777872275, 0.01314739728031169, -0.4803187933098161, -0.5573795304905039], [0.35237914469322207, -0.7837657864543884, -0.29784351733589887, 0.3949518246421687, -1.0617896277155177, 0.4158162385312114, -1.391632183944432, -1.1690703483668405], [1.857519561583076, 0.07637326775667853, 0.3492256716407673, -0.4872245374262486, 0.9727073499657433, 1.8398472037210098, -0.7828804657748201, -1.9901514770984088], [0.6152572186534983, 2.474049020622958, 1.769190963753036, 1.137652187723103, 0.9504677360469888, -0.22828182213789544, -0.616565759663782, -2.381619975844665], [0.6959149962537071, 1.185136071896032, -0.16074510853304114, -0.9828675378640461, -1.2624835893811484, -0.6280707020531832, 0.2032892161270345, -0.06813029237752433]]], "biases": [[[-0.7106538729244959], [-0.9398108386298353], [-0.10974485375069776], [-0.8055294897483882], [-0.0051295818667900644], [-0.9899024676642643], [-1.5554691434884362], [-0.7837025512651115], [2.0219714119887335], [-0.14693172606538396]], [[-0.05917931371767717], [0.5013750356697255], [-0.6605365174413471], [0.7226708777077453], [0.3590591625186275], [0.897265367140291], [2.127377542674147], [0.700093361567537]]]}, {"name": "test10", "score": 10, "weights": [[[-0.9681366838438433, -0.4334904392032894, -0.305162951712111, 0.04726517533789165, -1.1560185851281561, 0.1984414614727025, 1.3882457606009735, -0.4296350118446315, 0.6452121337891243, 1.551402759003245], [0.14149226874602328, 1.2667854126404254, -0.6889872865850318, 0.5603900294127225, 1.562819486899346, 0.2870196221214135, 0.14623837356959699, -1.9876676451123667, 0.663377212018103, -0.701349788333259], [-0.3305218282120151, -0.39021600866873535, -1.1994752283158188, -0.3869142096810787, -0.201082967812026, -0.3686523331554292, -0.004614269471945546, -0.06642865308471106, -0.14058623495593628, -0.31520377695179863], [0.1735937486609669, -0.15830770088476664, 0.46202628952133895, 0.846587110033228, 0.2407580109403962, 0.5627649459727847, -1.450904019883442, -0.054444835432470334, 0.5320435776879728, 0.6142399744635632], [-0.7029455149119309, 1.9336162506643353, 0.43002620817190645, -0.054047252970520765, -0.4141827220212249, -0.5893395946406915, 0.06252978632033417, 0.8989518314821435, 0.18532888289136726, -1.0680935009003971], [1.3238827124020716, -0.026986135604745987, 0.14557280875167553, 0.43459726414874156, -0.5076159445694679, -0.6872278943516646, -0.9082490525010024, -1.6804399930375964, 0.4986165451977228, -0.9620367469492864], [-0.02131330860721866, 0.08376549937800526, -0.06771553233390051, 0.4665382219865969, -0.26652808003142325, -0.8921235647055845, -0.48284409192007927, 0.22829746962230327, -0.9379051256849624, 0.07615234529343445], [0.13535906165866862, 0.738254988103158, -0.9802040556714243, 2.164399960846269, -0.7488401386143776, -1.2618191832624066, 0.7604882516314153, 1.8082555377600238, 1.236630412842614, 1.8976562806817008], [1.4315087596388696, -0.8425780843975167, 0.7374344871464054, 1.397192277704624, 0.40815573794881405, -0.3945800067926953, -0.5339750783231774, 1.5203540937088003, -0.9526647947766974, 0.3173305615386757]], [[-0.08679444356892005, 0.8549414662854468, 1.3732912454531911, -1.0232788590559982, 0.683437473801039, -0.531867496594825, 0.07735842563373481, 1.106956073974472], [-0.7791026653198743, -0.09715516620310821, -0.42321633113271234, 0.4076056267521565, 0.6088473143237876, -0.3586689146818221, -1.6609427962267558, 0.04650036986911072], [-0.14488135270863478, 1.3889329245164879, -0.7847349816549686, 0.9560937634686524, -0.6364529069026036, 1.5147640614845317, 1.6820121669302837, -2.3013885665542446], [-0.19545887465185333, 1.1297126161503939, -0.4772956602095824, -0.9123532491262765, -1.1536338518098268, 1.103624063925376, -0.13946105760248517, 0.01831202699855281], [0.2810398816783507, -0.62970300873762, 0.19982759492933794, 0.6964151314999862, 0.8309611777863959, 0.05344466726607283, 1.142098738723446, -0.5705079106186981], [0.4130686508048894, 1.4277497893937232, -0.8788696129623724, 2.101138459697614, -1.2766241651041776, 1.1368445240751508, -0.6866660025478296, -2.3145976169810205], [1.7087306996272835, -0.31012866719210563, -0.633560569096105, -0.8801081313186517, 1.6832067918107494, -2.5711075234928535, 0.7946823119155842, -1.5512240721204835], [-0.5934614506080681, -0.21783543535393426, 0.8012012993088469, -1.1386022759873373, -0.7571316114364833, -0.6915724970185406, -0.8993850716328052, 0.1683137974580554], [2.082981977921428, 0.2639529922721387, -0.36977457917881495, 0.19350017881444662, -0.2109163439182238, -1.361797908313947, 1.7132089726969928, 0.35258455737737915], [-0.276469099605186, 0.10353235010559829, 2.5777247471834768, -0.9370867010426099, 1.7743115425571465, 0.7920672453634435, 0.36473446148991046, -1.0797826106197275]]], "biases": [[[1.083087174728419], [1.1033526677492624], [0.42990954570238055], [-1.861744485823616], [-1.679079118318217], [-0.26994124429873556], [0.007342045118306408], [0.20455677232785477], [1.2001483330899718], [-0.4996066741847865]], [[-1.3914348813116246], [-1.1611667842382676], [-0.1288562118510532], [0.046934828987907705], [0.1182756041575745], [1.0020072040013972], [-0.6748222656366015], [0.8007818245469498]]]}, {"name": "test11", "score": 11, "weights": [[[-2.264598559860683, 1.187460048358928, 0.8689977037267296, -1.5489370772281503, 0.39383419168771594, 1.8583120042166115, 0.24580909631206915, -1.097794191788229, -1.755333388036105, -0.24000061672619624], [1.6662773155416002, -1.3448416293148955, 0.22997705651923503, 0.034559170059046844, -0.2891877131512118, -0.5051680738629976, -1.638154362995241, 0.5748898326051534, -0.07522720463728544, -0.48726316363297983], [1.427257629241429, 1.240726301146963, 0.9480340037990269, -0.3367952558365561, -0.236189334148783, 1.5236164677301705, 0.8260643136628326, -1.1921542836309464, 0.2972282879224625, 0.47336184599481673], [-1.394411161861426, -2.7590123155793265, 1.710006414691293, -0.9345017351755072, 2.469849000780688, 0.36669295730311063, 0.531783268836863, -1.0978632988517694, 0.8738928737878273, 0.9325288044751113], [-1.8434058418579238, 0.9154746400053075, 0.9167585905797854, 0.2210149236090896, 0.743075843303753, 0.8692092328025739, -0.444798100874475, 0.16355957843008978, -1.3207253399987435, 0.22143868605242517], [0.7510453699947802, 0.4388476143008055, 0.7050899523232738, -2.2113226915358593, -0.683070509182018, 1.4053432637440118, -0.5926952743474934, 1.1859517194864555, 2.7765410855921857, 1.117594509389591], [-0.6559799063049907, 0.22146997255592335, 1.1365526286752676, 0.836821290753849, 0.658685394220093, 0.14373965732118207, 0.5217648269906779, -0.9756134903502611, -0.13058985215419433, -1.3353542812561816], [-0.7159994055144693, 0.6076985055369497, 0.12012100634441544, -0.7359949345820423, -0.8125339120486537, 1.4620988537070894, 0.9220787547960752, 0.40410575711950847, 0.5962511425760603, 0.5376189773166548], [-0.5838673423411253, -0.20184703732887924, -0.7054212068803815, 2.4820322042452516, 2.0474329160230442, -0.43381503353005724, -1.32216475636533, 1.5581824243080264, 0.4119865612327342, -0.5131574042158842]], [[1.4528862522634058, -1.0536608193405541, 0.7435869627196058, -1.3056827241361793, -0.42427608678998086, 0.12869420387047042, 0.725840186947652, 0.29551051552912894], [-0.8143444187760484, 0.3459695600996518, 1.218878301990447, 0.012739064539498574, 0.05264192982536578, -0.0035773208790925272, -0.15467875617575602, 1.45420671861657], [0.014073557464542115, -0.14225349922832145, -0.5348179134878163, -0.12186518619004309, -0.7958211200109421, 0.43605709269902726, -1.5210722037397932, 0.5378943042977713], [0.12023975715956589, -0.14764387664923626, -0.6935645378523351, 0.9942326243269445, -0.34288488253237814, 1.276288931768116, -1.566273017882589, 0.8474420979199597], [1.3249668632200635, -0.8104022943241259, -0.4403481104868432, -1.5022947586088689, -1.4577004788225791, 0.937462763332547, 1.1124964844608682, -0.01909192779436809], [-0.10226824949306643, 0.6884648970973454, -0.824028050400253, -0.417248387255988, 1.8350111181137234, 1.6653776937789677, 1.2227000157093306, 1.1722118020772259], [1.523197468832322, -0.9342514965365051, -0.4224242047519293, -2.4840625703260613, -0.3636381168568058, 0.8772736566303153, 0.7085529451306697, 0.8487996390973143], [0.5409522213243728, -0.43705626704357, 1.078411592636742, -0.5338200134474937, 0.3508129796391716, -0.4123327155693128, 1.7588528023210344, -1.292319003512535], [-0.8599784316735343, -0.6613984287769918, 0.716693589500145, 1.3395021036243575, 1.7827757041077488, 1.2073408757275266, 0.5884763609132936, 0.35001879301815525], [-0.7554837861186353, -1.102683880280452, -0.2528735104892246, 1.4397300703811997, -0.24489631733047262, -0.8133078141066558, 1.1869473708896885, 1.2937193733110521]]], "biases": [[[0.7920393970157801], [-0.705107843618661], [0.08719895567305287], [-0.36396567940433094], [-0.005905996815155682], [1.136930494009447], [-0.0071179307626976236], [1.3103310245856532], [0.6713400459219014], [0.720230982002239]], [[-0.48210383581800664], [0.2847340497877813], [-0.4646766757619861], [-0.49920598553967627], [-1.206893446100338], [0.8142814058927613], [-0.1570749328328023], [0.5532344832318901]]]}, {"name": "test12", "score": 12, "weights": [[[-0.8623089341066374, 0.3459148890373413, -0.7011740501844436, 0.15933745845319208, -0.3483964584324459, -0.7381930307470906, 0.10052189065326925, -0.047095981293720994, 1.6919765635138224, 0.7960059971994075], [1.2569610262761248, -1.4374780104002534, -1.1903281451546743, -0.25155142075857445, 1.8962290220774671, 0.06400283893396046, -0.831083031641811, -0.792857931026574, 0.4000384919497032, -2.013396084532046], [0.13150883939900151, 0.9184762435606622, -0.7157160136142153, -1.6107629692346876, -2.1352080098428914, 0.5087281365747405, -1.673210057044395, -0.5220024400597466, -2.123210805522803, -1.0617888874766956], [-0.011807754747948911, 0.3534256832467303, 2.0970837523167223, 0.8960364372689233, 0.22000654339293782, 0.30953917602245407, -0.03860530169497505, -0.5060240598618012, 0.7874470626350397, -1.2660643883053362], [-1.2436758308216105, -0.8423797012032643, 0.3336148488549729, -1.7239727179669215, -0.3281556721738999, -1.458329600926051, -0.6865627222937278, 1.7842656383212212, -0.6428132942968403, 0.1974035064379773], [0.5527513745674683, -2.5155750255828697, -0.2673152121507889, 0.7506210064618587, -0.8921634636111986, 0.07113523962600461, -0.2820382639035205, -0.411619895643021, 0.6044929746778263, -0.7049783724524504], [-0.6086252312479666, 0.603412323057908, 0.7137880908920735, -0.1507432316014468, 1.8408801555877832, 0.0038058214635922653, 2.1494629826423446, -0.23494202674055248, -1.118578781744823, -0.31370320594122003], [-1.3343915948985516, -1.7711606127872783, 0.6978670462611679, -0.012314698551079955, -0.1948428788562893, -0.17781052606236536, -0.4425537951402167, -0.31235090111843167, -0.009411487504177073, -0.2767039968630776], [0.17774138472161508, 0.5001977147362392, 0.7365057638171423, 0.11790428992193633, -1.8381291143962872, 0.07105778032859197, -0.3182201747311774, 0.5442357867383906, -1.0553115862962115, -0.851739367091912]], [[-0.9558232085603672, 0.6017327297152621, 0.5782303574740263, 0.9783096953070481, -1.1474718613725141, 0.3486517455840144, -1.0858978987966517, 0.8998020314492329], [-0.3641413991322419, -0.6268930674478499, -0.7678915138187348, 0.8788764776566818, -1.2103288233906317, 0.7473234376562371, -0.8225847287099303, -3.0725645969381152], [-1.3855716862875154, -0.03853967660722527, 0.890224414228198, -2.3090503707659598, -0.7166928358371417, 0.2060130926172887, 1.3233206036523921, 0.19741480478501408], [-0.7669046663016824, -1.3901875745794243, 0.04489448166521513, -0.3872116742347043, 2.2436607556794357, 0.14223721501498293, 1.0031894360023246, -0.21406901343549523], [-1.323454800725698, 0.17571337290968608, -0.03298867810119085, -0.7242689923135852, -1.0897961566090721, 1.063157249070512, 1.1628355619994886, -0.09907364633742377], [0.25435372245079646, -0.9312038502481769, 1.1545073087188011, 1.142864709488797, 1.1771421006260496, 2.015295058147468, -1.7635169278137308, 0.08983415862133241], [0.43195276550904155, -0.24544950557546746, 0.6710903062585035, 0.19875674798109044, 0.7957722414138663, -0.09872198348664632, 1.0058436474625894, 1.6151213299510399], [-2.0959150196344134, 0.2831742060165528, -0.24760127774892204, -1.3008390036782425, -0.2731816925232289, 0.20914938899572608, 0.4886740332001253, -0.628704817535535], [-1.2698536950274175, -1.0364005814667197, 0.7359692466110705, -0.7023657511471861, -0.2560405717779113, -0.37326337042257207, -1.2240834443606712, 0.7149359481718697], [1.5223137584867077, 0.16669244152452098, -1.0354245550141368, 0.6840732993616946, 0.4958993041334553, -1.1794024357936896, -0.30096446639626945, -1.4062044471506265]]], "biases": [[[0.15256670976308362], [0.4068140364828057], [-0.46700252691362976], [1.400380730183218], [0.3670849667693601], [-1.255142550166677], [1.1092051916960062], [0.3513100252916337], [-0.0034974952516953262], [-0.3535602706068053]], [[2.061457852116104], [-0.5446924275701358], [-0.24736565356602155], [0.8841484675544583], [-0.6082204195469858], [-0.748722352367005], [-0.34547326645752086], [0.7663643405643903]]]}, {"name": "test13", "score": 13, "weights": [[[-0.6577637824495428, -0.5333842542056466, -0.4171525844051904, -0.48380290657489416, -0.3480504038078605, -0.3972574905546158, 0.5932940755789925, 1.2443496679954644, 0.506984296462537, -0.8693299398561959], [0.6464948146343439, -1.072667593289549, -0.35233194287051267, 0.8849426957938707, 0.11667005781638609, -0.33727192982666326, 0.5141779368180126, 0.07759024089816458, 0.10753837169163573, 0.14145957239043616], [0.3342095594015734, 0.328576219201934, 0.25958468201618723, -0.6253655665959066, 0.7538031144508653, 0.30669434769054965, 1.2844896067570781, -1.3437015909983916, -0.02479036943243814, 1.1654950878108736], [1.3410753904684043, -0.4911096759552241, 0.9468083723150772, 0.8344198059789737, 1.3712175625014547, -0.9540805991003507, 0.6178569771739599, -0.6540094548638822, -0.6246055517933647, -1.298346374920777], [1.2602078286777711, 0.8657778146230422, -0.09568481512566868, 0.5809624729595516, -1.2741027739455617, -0.4496524793945298, 0.49183921096866795, -0.1277957865204018, -2.2524538526353663, 0.43794130650915736], [0.16179402303991355, 0.9385360670905829, 0.5302932351190903, 0.6233100688672006, 0.5812498085189671, 0.41237993467480405, -0.4037099056308002, 1.8838836155421692, 0.10096867738535775, 0.8831142193769437], [1.599145950106716, -1.266420596064332, 1.511075904964441, -1.130896783061709, 0.9168092575583002, -2.127981173965081, 0.011535424267283444, -1.2071040493433391, -0.5842589397335075, 0.9179158264426085], [-0.002045250929239224, 0.6093095316212259, 0.38537361218383087, -0.9904685813822484, -0.9892781914108097, -0.3100164490305556, 0.3050450974233681, -0.31367895882382124, -0.04601702848372666, -0.06605999181168026], [-0.38493733077062525, 0.33077763221668766, 0.5724916184229654, 0.4864774684121718, -1.3899161238290008, -0.5994116483109075, 2.3991930775395693, -0.19236602405263512, -1.3574542116363766, 0.06789303663747485]], [[-0.17025068085473594, -0.12304343184796332, 0.2993685649416386, 0.14012226179180626, 0.4251985873922722, -0.5098059466347383, -0.037749499878342974, 0.39789877102050636], [-0.6656813570534611, 0.038593919733350655, -0.8994621844798392, -0.9856997394984287, -0.5719976833454956, 1.7248804245672826, 1.051693318819687, 0.2233408720702566], [-0.3389309724508914, 0.7118478975132019, -0.06531075049231772, 0.22264881898368086, -0.08013411362856862, 0.7578245587216252, -0.9466098414597047, -0.39788732826020246], [0.5092777366737715, 1.5890850359543882, -0.07174031119322488, 0.2013878285357064, 1.413048130985144, 0.10431023924200629, 0.33068687292478355, 1.322737140381664], [0.4281942890633197, -0.8104974700155799, 0.9205626770553306, -0.18845335049152614, -0.4044928746340263, 0.6918265009687554, 0.45164724206317536, -0.5682418187540952], [-0.5459728642970277, 0.0045949905286358835, -1.1340953620763075, -1.7845183577129247, 0.3667580000594739, 0.9355521984470012, -0.5785693039047651, 0.8779216640401802], [0.5757028334176364, -1.7699330157535067, 1.4341583765053814, 0.2866460431861004, -0.3812253664578963, 1.2905947163991076, -0.16806180972238435, -0.11396055149735129], [-0.607628287553174, 0.20941106158937423, -1.8082919739889103, 0.42164274995195733, -0.44344478945709614, 0.3679360130936881, 0.12574335620293603, 0.6884941592617919], [-0.4887898326901818, -1.3470477630279676, -0.19859069907622157, -0.5487602070746439, 0.8841466788598887, -1.6801761284709498, 0.04191514593110117, 0.0038239263239056944], [-0.47754034505594706, 0.6200626518860184, 0.9083053154034434, -1.6591340576782219, 0.05888384623757268, 0.611001437131911, 0.5147802659565645, 0.14747758134577002]]], "biases": [[[-0.8091856654983918], [0.905638941836184], [1.0774127255275832], [0.28441467660649145], [-0.26952266285378446], [0.2171471259413817], [0.3565723956017849], [-1.360989378538058], [1.1392941214916117], [-0.40010331013786593]], [[-0.33480357287575435], [-0.7276586756245332], [0.6784410593900682], [-0.35869663005109464], [-0.1829538373793058], [1.7295493626439353], [0.2523702312370545], [0.031257505852626224]]]}, {"name": "test14", "score": 14, "weights": [[[-0.7623335158412522, 1.8010171001723307, 0.8057236778106281, -2.4996624086300208, -0.9323804259681857, -0.2311458827481558, 0.5569674793278422, 0.5253204600844129, -0.4690028683755388, 1.3510784351355236], [-0.7968298866723937, 0.7692000966306772, 0.033340755446963036, -0.9797938148916763, -0.03703057343483651, 0.280379390325929, -0.962661160460639, 0.19896071035281282, -0.19954224486245795, -0.5525114803644254], [-1.201027437013207, -0.19332700884051468, -1.856955436462159, 1.6078829871953197, -1.138258398140329, -1.822178024755461, 0.8550298069592658, -1.0161562668400186, -0.1249570272983494, -0.9426028540983852], [-1.745354424073208, 0.5256254322649868, 1.005577710127536, -0.08810752914488466, 2.0882605310707465, 0.22070850544238932, -0.1456164086168848, 0.3453060974190255, -0.22048620407661002, -0.4655240054514063], [0.4493019131193279, 0.3978861525580647, -0.5124821648075302, -0.0323482302776592, -0.8015248276950341, -0.45002327891238586, 0.9674675441040371, 0.8340626706892386, -0.3555773239777969, -0.5172637704335908], [0.4680246303854661, 0.6581329172529311, -0.5531574456060766, -0.7246310423592885, 1.7807578160315316, -0.8479703677513577, 1.59126167842781, 0.1987833469917928, -0.10754503003055399, -1.1161031145773883], [-2.559310151559486, -0.25589979538003615, -1.9683523182404612, 0.4815636095005355, -0.5064732582027955, 0.3142322178245501, -0.08541281620607483, 0.9399434747779194, 0.9095744074630182, -1.2672356814400272], [-1.0660453870883766, -1.023622943640381, -0.40880737303975634, 1.0683785549191418, 1.0088997996616722, -0.3623263270560259, 0.8711697964067915, -1.4480346705767115, 2.6091086146060856, 0.18270943277124183], [-0.7776499103001107, -0.7207238513578443, 0.5764414012404592, 1.4804013412406967, 0.13846446380301988, -0.053879702560105255, -0.7123746741059689, -3.0817390706915737, 1.0428437178472716, -0.9638365041095259]], [[0.34997243006868295, -0.3735768347368032, 0.03592097373614362, -0.937303169402099, -1.034017946042915, 1.4298193224736697, -0.47011757802160237, 0.5503474862813003], [1.0316908820111754, -0.6263507423468209, -0.7195025030196983, 0.3437354238080077, 1.3042044812035314, 1.137321071229604, 1.1068674646861933, 0.5622575862535362], [2.0250680364672373, 0.9218425154365185, 0.9743441029616888, 1.7258902566139047, 1.4033063162616248, -0.4602695183797989, 0.7125879634999684, -0.38537828848340666], [-0.7683508876154999, -0.32878851823514194, 0.9964127919772638, 2.005437405582987, -1.2638708427667238, -0.45604259452787815, 1.853380749158283, -0.20695525992266042], [-0.2570394197911493, 2.0538707405390446, 0.7336414785669646, -0.8383637829108, 1.0594981502080083, 0.9646679249064078, 0.13116618343764225, 0.4355820030314306], [0.4772649098580671, 0.6037671877088046, -0.033242490223689754, -1.0104274912144535, 1.313137829958865, -1.4612055180196981, -2.2377416058467516, 0.9781339696152889], [-0.3453133199385723, 1.0158501507903572, 1.1939515474689475, 1.5870586495873291, 0.8115394041302226, -0.10750912814083607, -0.7038425020743402, -0.7693420449101054], [-0.9685703735032668, 1.5289188550700419, -0.9122810068817601, -1.3147834157750882, 2.916217308135331, 0.0587854262001113, 1.6043853036376048, 0.39079315815101134], [1.174322547232318, 0.6118294640045332, 1.1209043800535972, -0.7284875410391514, 0.15641041464677394, 0.4719350957363597, -1.9500868393063588, 0.1252011286928048], [-0.9950928998754652, 0.830848784645897, -0.37984265428594033, -1.0205106390666434, -0.9925290082707457, 0.39765393664137516, -1.5295208683908632, -0.3092554274022923]]], "biases": [[[-1.1231255586968372], [1.159772682996934], [-2.798868503518283], [0.19724942249019864], [0.966732727022589], [0.20795166047384944], [-1.9237990557088422], [0.014316202755668583], [1.1199826368211938], [1.5829444853765182]], [[1.2886535232034377], [-1.0078912049712494], [1.4933237887197255], [0.6239416829536469], [0.26526037070411057], [-1.3818992758883009], [-0.7498998805753904], [-0.7278949433590439]]]}, {"name": "test15", "score": 15, "weights": [[[0.5613215326196157, -0.9233713928863682, -0.16394040056470377, 1.3323745563893143, 0.20639030132821035, 0.3478877015416304, 0.9479302505197269, -1.4505814592479953, -0.7060104268381326, -1.5569429848530152], [1.0894936603586953, -0.5772057133873819, 1.5033671886813582, 0.7841059862465762, -0.09546925591783813, -1.6031643079982005, -0.4611725351212364, 0.9739980307958023, 0.3697434170295259, 1.254717083357768], [-0.2848727516120674, 0.07296532207336147, -0.5135262084617627, -0.7449144319965004, -1.839983417701039, -0.14042080816802655, -0.892927679305771, -0.4325054260711093, 0.3128463719443171, -1.21537293588054], [-0.09712348661801047, -0.5736020938371268, -0.9504278000917467, 0.6386185340299609, -0.5109334524328686, -1.2282905887733753, 0.10186856513326074, 1.0985406048461666, -2.475225659010474, 1.6344230245522124], [-1.3624719546955342, -0.2982966573960964, -1.1035791398454096, -0.12169911722387344, -0.6723638798308864, 0.3604958805348489, 1.2257403039756174, 1.1845054120072684, 0.015187140165663193, -0.7386761282811357], [-0.5277827296686027, -1.3432009612029512, -1.1622797677219925, 1.1695697704447323, -0.7070683992711422, -0.43341845087310354, -0.8227706542710302, -0.824224851963821, -0.505760121487371, 0.018071695663258752], [-0.4498043605151769, 0.8832178883819439, 1.3269745144350829, 1.5428604500828873, -0.2818981263000235, 0.8840900561130273, 0.7111135406604764, 0.14747361424880776, -1.002692006849222, -1.1253635943979272], [0.518493977726548, -0.6336659450587623, -2.2614456936203755, 0.1762941403776955, -0.5905064341093772, -0.32120691287729497, -0.6452204718409275, 1.1412868904537226, 0.3258063989525844, -0.6003189474316779], [-0.3235580752063944, -0.7787846476851817, -0.9345864553317744, -0.3126577305243945, -0.3728038027226291, -0.7371150206133209, 0.06390138787618628, -0.6673551216083097, 0.7531187103364422, -1.0995219100193794]], [[-0.2842973689984319, 0.400536072437435, -0.6152053644204951, 0.03342902454789528, 0.8389601565114682, 0.5112953370653399, 2.1575006626509605, -0.34762565973434534], [0.7420571241468187, 2.868573700653733, 1.45484117191405, -0.632738016356556, -1.3927372275535788, -0.16310178709692646, -0.3781580440268326, 0.9256541997861943], [-1.3015601439359994, 0.4848092395398263, 1.5848399238125677, 1.274316884816401, -0.16582510087796204, -0.4389365159073822, -0.2406923658038755, 0.18637591954435404], [-1.724883580492417, -1.137278247795987, -1.103573226425459, 0.5788446177517385, 0.25592776208379436, 0.8380615083577984, 0.6344945545789473, -0.35694927949029875], [-1.0033684037751691, -0.7818655376333873, 0.5637855686492204, -0.046001013613324516, 0.23210706042015886, -0.3158817228761962, -3.558118615852755, -0.7379876525793937], [-0.11591810636621434, 0.2515480476296726, -1.7327309182391992, -0.26548746148275787, 1.3672207522565207, -2.456024745473529, -0.5627576174049648, 2.109893400491336], [-0.5727122735332414, -1.3478966864375117, -0.9109400089731033, 0.37394688068790766, 0.6723801365614819, -0.8725406397638684, -1.6271257391044824, -2.6222849183837993], [2.80734323098424, 0.4429633774084546, 0.3380232816865033, 0.21474829827264513, -0.1275629350747871, 0.42897327483156683, 2.729667980212069, 0.6010178738774943], [-0.9373823777823068, -0.6311654599520773, -0.01138651914063937, -0.9157473734758357, 0.9061693649479786, -0.8223358337575919, -0.709375516409298, -1.8419700472074705], [-0.08572816967919042, 0.21190472587112102, -1.1000799079377241, -0.7644399776707557, -1.04798455870428, 0.5306930627770153, -0.03400516288674312, -1.0563798632783592]]], "biases": [[[-1.2573306714491816], [-0.16469022483424808], [0.19253146233104307], [-1.9127699125578919], [-1.9231368514352125], [0.6472036988228915], [-0.3839146838495779], [1.200659386999464], [-0.0026900666027314174], [-0.1567372248961501]], [[1.0443114112655794], [-1.34396848800977], [-0.5691227071773656], [-0.22259024195931576], [0.46596680553970937], [-0.44927411788705796], [0.9580756044071881], [-1.4214437322386972]]]}, {"name": "test16", "score": 16, "weights": [[[0.6282166099810234, 0.14576140132562407, -0.9160189333206287, 1.2204653556244711, -0.3574134814261147, -0.6079156183631294, 0.2685317480448067, -0.22603416295969184, -1.109964187703267, -0.1971718554934892], [-0.35011437513438126, 1.3355032380891645, 0.34615714878911036, 0.131347785235515, -1.7573566268524592, -1.4839310294733683, 0.8545726860501603, 0.5123708829731267, 1.4032610994990409, -1.8080576392542764], [-1.0037520120947996, 0.5522561726693042, 0.8798128316979773, -1.1581988096302096, -1.3611383692592869, 0.4126228554453141, -0.794688411693314, -0.1300583878869282, -0.3231091667722304, -0.46077640072593407], [1.4189963019340168, -0.3987029530438558, 2.7051697627991045, 0.5498433520908413, 0.6742566594374283, 1.403091428013237, 0.032977756477010914, 0.02828038258794707, 1.4616011150383745, -0.7525114665352561], [1.4056817793583023, 1.272592492754608, -0.5639844172163498, 1.4804375108804322, 0.4365492491936417, -1.2361254680524196, 0.8305912936122625, 0.9753565810648405, -0.8444164684536227, -0.5558266059006456], [-2.3854274906605477, -2.8106641021583685, -0.6203122141479909, 0.6250319015195012, 0.17608855518359348, -0.050920608678237236, -0.7167445641767799, -0.5304022555549874, 1.3418163687086362, -0.7517862302360031], [1.454047700748672, -0.28125375229916627, -0.9962661394071369, 2.3210251483696287e-05, 1.245274909690561, -0.1973280692739933, 1.244017779621683, -0.32913733306235193, -0.6353140644529529, -0.14896152159682635], [0.09641638789596622, 0.011020149669071912, -0.5975752491277424, 0.4624264177380151, 1.7764287509883094, -0.439806998478378, 0.7674884965040675, 0.2441905215173715, 0.21041373638637126, 0.716207313600933], [-0.08630952342584652, 0.6881102027051877, 0.5931635916272661, -0.3247279722816474, 0.03732043252485756, -0.4108161639348162, -1.585416231181295, -0.8444856025520706, 0.015068652331579332, 1.2264839383442498]], [[1.1656445279242542, 0.3505372713274942, -0.07835549300116346, 0.3031703516267601, -0.8819314040669357, -0.7960103149578409, -0.11910884950890091, 0.8540354498401471], [-0.14145428156570541, -0.867967725998147, 0.8030384154924988, -2.8074451418951605, -0.06971265733694332, -1.1016890084290518, -1.1220012407297408, 0.5024722942934388], [-0.011003252378223142, -0.5299480657734218, -0.3264327645572791, 0.9381621266909572, -0.23357460554541284, -0.06636316004797983, 0.1086693587694986, 1.1630328881873484], [0.2994463544313879, -1.094362215727266, -1.1345647337933742, 0.9708582738159754, -2.21359835380284, -1.204359536201228, -1.537866691079125, -0.04368985456529049], [0.525622526528924, -1.5719624092522337, -0.6522359228427083, -2.2641637456828145, -0.016412946524854113, -1.4322051563415046, 1.443863321461801, -0.4500521421500351], [0.6578669344682967, -1.621281161819483, -0.2981042237151296, -1.1273176466142505, -0.5126606178538077, 0.2856713911985857, -2.065763642304952, 0.619744921060414], [-1.7792532972342663, -1.0458825447160631, -0.14595875693312807, -1.2705865516012436, 0.6729375522804217, -1.7203116511009817, -1.3079870870640122, 0.49123452447853116], [0.5090911453964398, -0.565242766541537, 1.3513092628673546, -1.1245753883619631, 1.7716580951168621, -1.2930875202223382, -1.3149843716754885, 0.08304846862715273], [-1.5283103706352434, -0.42007378142073226, 0.9900339918041143, -0.5239757180659405, 0.9823809400095382, 0.3147654735381465, -1.3503030233826505, -0.7564504944922152], [-0.2685487214341801, 0.5926519566081815, 1.5262163529464532, -0.2177168637290049, 2.713160944359789, 1.442835814442706, -0.06037035551743293, 1.121812310401323]]], "biases": [[[0.20218682419038136], [-0.33546910402767627], [0.6814495711568989], [1.4390942134742055], [0.6115035447698723], [0.07095800369039552], [-0.027343255514905716], [-0.37125906972221634], [-0.7316401024437862], [0.8629062705265452]], [[-1.799043169936403], [0.1941471286401312], [-0.3489094450474088], [0.5547132813662978], [-0.9228394438230956], [-1.5263990933062936], [-0.37979886874271107], [-0.8987007475620074]]]}, {"name": "test17", "score": 17, "weights": [[[0.5693236715103748, 0.7973189349645922, 1.2217498084927574, -1.6346614621765627, -1.6121818802096226, 1.3360405310039434, -0.20536526950740291, -0.4274972589958519, -0.2065980809307006, -0.8522937194954024], [0.9953522932517278, -0.5785227151891941, -0.0020151168034545732, 0.20578517646954428, -1.0911073432458482, 0.3988485226067332, -1.0402642446539196, -0.3751872320465544, 0.9880581325308181, -0.24583483492214214], [-0.6312223147388244, -1.1662251480937325, 0.780313117096858, -0.861588586958765, 1.3820827516775875, -0.8330791976175275, -0.8967239417216818, 0.8970542967306503, -0.5277371568190017, 0.0757043749558042], [-0.38903473405954636, -0.34803689724825826, 0.28619934687651577, -0.28339461361235724, 1.4359502755622437, 0.16631142467471932, 0.6027735603678405, 0.22633921628085601, -0.1749448010201215, -0.18880535610532465], [-0.9849505291425633, 0.3246380262581431, -0.24174804286323864, 0.7189348357817442, 0.5167174622200429, -0.22572667350729472, 1.5484593266864835, -0.9638745426743164, -1.0601497922731795, 0.08237476028663875], [0.5092431729517451, -0.030160204564494305, -1.7475348376487454, -0.8723664030209742, -0.8643699818382057, -1.0740099184957497, -0.8054191259910214, -0.11514134977758932, -0.00032165971897701976, -0.7469534794958901], [0.06599038650278109, -0.1451870307798101, 0.5229428551269869, 0.8213415948193111, -0.5704347046595334, 0.8349820362893402, -0.1525556953478747, 0.3257096423971968, -0.2523750638056348, 0.8306505510064832], [-1.0933192944603054, 1.2193914228203793, -0.039437056949779684, 0.5628432099777418, -0.3929370736350657, -0.5277671122003827, 0.11475529546138653, -2.5508782845748006, -2.0284792493617827, -0.9236360124269846], [-0.0966877416615595, 0.30703494667397996, -1.1865879696664767, 0.5929552893988217, -0.6772582063467243, 0.2935617640014519, -1.085113987663608, -0.31338694313222476, 0.8926633324375802, -0.7962545711898956]], [[-0.24963313123212919, -0.963676289486097, -2.4322151813948727, -0.8534389161742069, -0.3422271399154657, -0.050161453801228335, -1.6899462757661916, 0.889621355319251], [0.5644016397488051, -0.08527397322863303, -0.8049352226056002, 0.8908000961437503, -1.4745775927618934, -0.08862375302812399, -2.377062143758246, 0.25281396199488454], [-0.5087292260724509, -1.3320554474966195, 0.2336572182647538, -1.2396564860622092, -0.3078331926769503, -1.1427521389613748, -0.8904023928445562, 0.27486736512731413], [-0.30356943160498223, 1.1534249109995671, 0.353261821970205, 0.0067296203910683205, 0.8825824378884072, -0.20287222832639523, -0.6792380106695161, -0.7000796899288538], [-1.3841842152358286, 0.414377935225201, -0.4005637364368982, -0.9623023454679506, 1.369679791262359, -0.008932516534068048, -2.1238450822245345, 1.1509734413892825], [-1.6694421845584828, 0.2626471675670964, -1.122054129119409, -0.8016425392643538, -0.8438508594652058, -0.020926815614438946, -0.5105017908631445, 0.4747594664968308], [0.49425228350870193, 1.2773960714617267, 0.4769149743790027, -0.3971467111041535, -0.24972130501293796, -0.865390955508116, -0.2707677166213272, 0.1126292758747374], [0.5253679158669119, 0.14634823281891027, 1.5713131779162322, -0.16089538317125623, 0.3531932760737468, 0.3964861379784016, -0.22218051376852405, -0.8050871616490259], [0.28982147045023215, 0.17725920382248683, -2.701467951247533, 1.5106796131486904, -1.7397896754924538, -0.35644803377926165, 2.3241744523657, 1.3809806749580025], [1.9469857307580023, -1.1898542807232142, -0.8112452601398339, 1.430377592197331, -0.06855055139201628, 1.7215563759872419, 0.5032608713038111, 0.1722085975309274]]], "biases": [[[0.7026892547113802], [-1.1240302207739166], [-0.7962432329186265], [0.28036391349991396], [0.5830264714817117], [0.420101362838167], [1.2314420649828717], [0.5666578139016493], [0.4180650085707087], [-1.1181585216118977]], [[1.2460721424159076], [-0.14199858349093325], [0.42281654610250274], [-0.5251883610255078], [0.2810901224328451], [-0.44168869795007665], [-0.24038523360870406], [-0.16626854685824546]]]}, {"name": "test18", "score": 18, "weights": [[[0.6934301844898401, 0.44263670357766155, 0.739532730037293, 1.114229983226823, 0.8495948128484726, -0.09655926764693351, -0.018369939337688383, -0.44772839331486375, -0.9191889092431245, 1.981970581976481], [-0.8080178987852434, 1.1119490101612828, 1.4301678602806043, 0.5220016434012476, -0.6777337324822144, 0.6087329873288297, -0.5636990309866469, -0.8943475262366615, 1.1473605995286715, -0.4366125439686349], [-0.6755957642100681, -0.3122902631888216, -0.38020618439271514, -1.805407069711817, 0.7084003682542781, -0.5434582437562696, 0.7547436478443511, 0.7901666958031436, -1.4649825233377702, -0.11113656338079192], [-0.33227614389627225, -0.5030307870976808, -1.4515326392596408, 0.7968198230342896, -0.8247567903014961, 0.42081236599064853, 0.3325373980283728, 0.5935131424477932, -0.13124158250649542, 0.7295722741585137], [-0.18857895363303742, 0.5864119104356623, 0.33391832064936006, 0.47402043087502044, 2.2876870266930958, -0.41036681059556807, 0.597506839917512, -0.18899915174074583, 0.5936488040619469, -0.4444970340959285], [-1.0597332535118849, 0.35061844201958714, 0.290642489065241, -0.07777774819105668, 0.7219992501998852, -2.4742291212607723, 2.2890531526622095, 0.23598481489232362, 0.07204770964705824, 0.5570115762317438], [0.07499838861756156, 0.23232139501440938, 2.0524222468173177, 0.2365290872021909, -1.4006567182015492, 1.0911619106640926, -0.6144897552692292, 0.7550113444456377, -1.4584796799687914, 1.3901108602463603], [-0.3168287620075721, 1.2233977310710398, -0.42198136141268117, 0.13346858096249195, 0.5322159507509568, 2.7322633183102045, -0.9240418779155212, -1.1900177628010802, 0.8679382638532844, -0.49922964657545943], [-0.6253122292097598, 1.244263863470797, 2.761577948149533, 0.07940926986179472, 0.29427394194995793, -0.4425182274480349, 0.6206870859012921, 0.5735724327355167, -2.240534751007002, 1.6000951621447561]], [[0.595186634678978, -0.46121937127780677, 0.15459029415966666, 0.08270235921907909, -1.0913577865676527, -1.3343773483919708, 1.3439992942379297, -0.7117484292625558], [-0.11060176930539405, 0.16672558648497027, -0.14392218811943966, 2.2714833885596106, -0.8261483278295157, 1.5226339756510687, 0.04909882991765911, 0.2974500590480142], [-0.22419015700819342, -0.584592230402433, -0.38896235195394346, -1.0794514071864598, 2.250558461379547, -0.6650506750550547, -0.2831105614755818, -1.2527188064256387], [-1.2470581084042038, -0.30994759149315554, -0.18047817973638325, -1.195039723772864, 1.2651201709273232, -1.1125203465877187, -0.5829996179482955, -1.0616617929211258], [0.17968255427755794, -0.4608927620234233, 2.0355807305191025, -0.7617644512047405, -0.5139624982674984, 1.2399093759589976, -0.6270935263828846, -0.4057508658325321], [0.9792685662656615, -0.6072992251197918, -2.8048903938951426, 0.518634585218625, 1.052618205590778, 0.09629679829184153, -1.059439551328876, 1.7980019567150762], [0.926979605490284, 0.622690393366698, 0.5063759775766681, -0.626066541252695, 0.7744299869779165, -0.4461524314987711, 0.7154972267610578, 2.3171146665924898], [-0.2699097594377046, 1.27670423935418, -1.015483333295691, 1.7639852108277723, 0.11993356132703599, 1.1700967112307934, -2.01449662639195, -0.026677116707941418], [1.2568256732526824, 1.2049119197012954, 1.493667445107957, 1.2411243341983176, -0.5612987072933452, -0.3627542947839751, -1.7540620899283894, -1.3035491426819434], [0.386415181035618, -0.14884084126588892, 1.187469011617786, 1.2015299990433697, -0.5889379490583554, -0.8117446696174436, -0.8726415311189426, -2.2164523474322095]]], "biases": [[[0.6499315347478161], [0.2401078338643742], [-0.0660607816368528], [0.8571983215626988], [-0.18945627245082558], [-0.926813935050558], [-0.690372703948441], [-0.6350195805041545], [0.45183194954116535], [-0.566960018707457]], [[0.0038138074680374224], [0.4789798294928195], [-1.5501981933356044], [-1.552595470045612], [0.4234164967411353], [-0.6426477721984943], [-2.1364516975564065], [-0.7317293998891736]]]}, {"name": "test19", "score": 19, "weights": [[[0.0484229340869235, -0.7376070168099713, 0.11049293581065886, 0.2861192886297802, -1.148415448543292, 0.674730192532139, -0.15900349845974177, -0.015044628515057841, -0.8070404327926226, -0.1695031264866962], [-0.43096694788055867, -1.0795611729536525, 1.1570998310212672, 0.5523012423575989, 0.958164517605552, -0.7350216820908417, 0.02768739860032167, -1.0901542520823428, -0.5238332545429901, 0.1759885286950591], [1.421474229716445, -0.12382602221206672, -0.000816403375808463, -1.8777002657138118, -1.148587018178896, 0.8133390229496089, -0.8328470901185052, -0.850185892129505, 1.2138242800138899, -0.07183811006018868], [-0.21935628640079116, 1.263372430542639, 0.26054904097966414, -1.2196965839144909, -0.25932891965312715, -2.924439991507527, 1.1023898675467547, 1.5950249175081215, 1.08163743866171, 0.5616550298561717], [-0.6931483386442647, -0.06533131108306116, -0.31136790916751617, 1.0130279919905114, 0.04577309721029977, -1.2169859916829375, -0.8212137211656765, -1.33615991943961, 1.1578766521627872, -0.48617334689074454], [-0.6343852367632251, -0.4212575713805494, -0.2999858232786649, 0.2669721772364366, 0.22974483074172913, 0.39318116728156954, 0.5486478165232251, 0.22940629175827526, 0.8684848106899081, -0.7556946422114348], [1.8833387903145409, 0.9234730931543681, 0.6070086436384027, 0.843344753347001, -1.971090603957523, 0.813431107410873, 0.6774523038135799, 0.19990963868544456, 1.4011514372521046, 0.23175825493423277], [1.8013240400662371, -0.3846966730132638, 0.5344095622038082, -0.1642207705258027, -0.3949600710641611, 0.9873810727724003, -0.9393775177722131, 1.0346533220188798, 0.29279587246422073, -0.3156963530684491], [-0.2917026881152646, -0.5316779429072971, -1.3952012194157477, -0.7340794649173097, -2.0098891279463986, 1.1543301009116085, -0.12472090911449829, -1.9121581193094315, -0.20019236311502123, 0.3083269470970592]], [[0.5997238092517923, -0.8251118689708209, -0.06518848554257135, 1.3125335811467467, 0.5630448754755217, 0.8331340551695603, -0.9043563455624627, -0.17562690345524654], [-0.9917997886757444, 0.48984683752453745, 0.011091474457886606, 1.0623828221728542, -0.08682703391281202, 1.5319693044548863, 0.31507229084389243, 0.003947563596823829], [-1.8632454216449974, -1.0041866114368359, 0.7103888171010493, -1.0523432359571112, 1.0182254484833897, -1.7487310345054354, 1.2680367270223913, -1.6094102742736631], [1.5344447523055211, 0.9356728310771191, -0.10588099540732475, 0.7580328894752479, 0.816785506396921, -0.5149280306860383, 0.07401915342990179, -0.6691190388502626], [-0.6570925055761686, 1.1494839331038935, 0.6282628996319188, -1.000890538414717, -0.30304873173998104, 0.2579317257633878, 0.973108223613307, -1.4880208432829893], [0.5580084865994667, -1.3715279081571632, 1.2960734127250084, 2.2446589280801024, -0.02951992060258097, -0.7141697824340278, 1.4410782447608905, 1.586766134013532], [0.37983861764011195, -0.8531882673376147, 0.48268242090809804, -0.8285826341473083, -1.7311802243684649, 0.32801071615227034, -0.0860966476349576, 0.522173825370563], [1.3361369912938599, 0.5422828534186139, 1.1901482147521825, -2.1513415007714753, -1.1510287980897462, 0.03937026675101252, -0.9858459869421896, -0.3259372872042859], [-0.3257044966430953, -0.5621899926471594, -1.5391487991613737, 0.300889888747463, 0.3389090213406796, -0.04373284721169909, -0.8994577303203761, 2.4183100461575586], [-0.8977303634713389, -0.8943966513695898, 1.833053419087483, 0.1522268861862858, -1.028978153573772, -0.2075715643519871, 0.11717974933643716, 0.5690063454116847]]], "biases": [[[0.8384348291697832], [0.6123446800385831], [-0.1695385539948718], [-1.077397359973557], [-0.5361077072781065], [-0.42838488295347915], [2.060967180869043], [-0.9247111928659147], [0.8562498236535759], [0.09414794613744072]], [[-0.7157491180295646], [0.11155110955488917], [0.12193426717430064], [-0.40218945158675584], [1.1666734738335376], [0.6691089400647756], [0.5778762556174893], [-0.6411953742125337]]]}, {"name": "test20", "score": 20, "weights": [[[-1.6470811257794495, 0.14417425831346486, 0.2561378285397953, 0.11289696161494603, 0.31188793399074005, -0.4680528799499615, 1.0960064359907424, -1.4489231271795673, 0.4869951809216157, -1.4201960592053415], [0.34839317052368346, -0.2267351783607214, 0.8760230631162174, -0.14433905495190605, -2.317528351197898, 0.6422251145582685, 0.31810514593438405, 0.033310835217240195, -0.3766919289501351, -0.4316970624078321], [0.2916739902375279, 0.13971117731729454, -1.877247693713264, 0.1324653136387858, -0.7876552513177455, 0.10438406692414058, 0.1646253866415138, 0.41936103935856267, 0.9044634389128243, -0.5330407730913552], [-0.2685250700122611, 1.2075978243184762, -1.8536541709350676, 0.5374597739377194, -0.5231253676648134, -0.4190850821772914, 0.5482831848723488, 0.9515396384736647, -1.657563311706646, -2.4195462452496272], [-0.07585492860877298, 0.21061037849249134, -1.1638607790278868, 0.9366231677669518, 0.14696072519770262, 2.2699961460882268, 0.9043357895279895, -0.45962376313660136, -0.8182107841351707, 0.4275749948334962], [0.3476808325788318, -0.5674058562740989, -0.5199968467419049, 1.4605182333890792, 0.3145570351743022, -0.2897590647203243, -0.2611441565781247, 0.4042453497189261, 0.40957735209326884, -0.03208151413853621], [-1.0170641659066615, -0.2823390235422292, -1.6297893611855532, -0.8606707622076606, 0.1041382164618621, 1.6861310968409184, -0.1645624791329671, -0.5618894010453621, -1.078875506543096, 0.23178571296713837], [-2.0499568464773366, -0.5956407814181127, -0.21276501660705663, 0.3545939014989758, 0.6646514277071335, 0.8292456890490035, -0.04830293356303141, -0.7483904971289468, 0.4915412762996959, -0.6651177430904296], [0.15791621042444648, 0.06792338869066054, 0.1851064965089942, 1.1202589609207205, -0.30866976227919235, -1.113356095731908, 1.7082562867034778, 0.8594738032778401, -1.7529369747073866, 1.4613217527838278]], [[-0.5810700504713254, 0.08997689120765962, -0.004145791220660976, -0.753146982583113, 0.06186335342908384, 0.10854533658938878, 0.620065415260924, 2.1479104258846964], [0.7856956991122416, 0.403683804252406, -1.0950735648547827, 1.545713355516216, 0.0038501966454579884, 0.6001281697840499, -0.16618850506317143, -1.4657263873309445], [0.050033940181925356, -0.20774867765533356, -1.1920792922286048, -0.2774724175482879, -0.04488802568235401, 0.9483201196872154, 0.1196235164611501, 1.1426643249303792], [1.67074279583352, -0.02985211068590512, -0.7703254476945569, 1.8450309359471624, -1.4197572185161826, -1.0123929275122028, -0.7663234199151322, 0.4581624139957453], [-0.37207302109351503, 0.7377138258372234, -1.8046916024337005, 0.27083124891920296, 1.9694685625225565, 1.3305491836806134, -0.2898276870909944, 0.27687537390060935], [-1.494035495997464, 2.30326087696156, -0.5849874001449394, 1.4968829969076995, 0.7209522931651581, -1.4778270377954439, -0.8598922607787445, 0.6452931268595109], [-1.6008053543959657, 1.1794899386018391, 0.11868158853185086, 0.9758637291377539, -0.13440230983217502, -0.889026545989364, -0.4545489277112643, -1.615350894042175], [-1.581860335063007, 1.393655090571104, -0.9407015004610585, -2.657111003628553, -0.5841175134063593, 2.5014638126525313, 1.1766761517341813, -1.305404295855935], [1.1518376897727933, -0.28481424571220515, 0.13318248636990454, -0.931197614068894, -0.9326356758028317, -1.1361620121306386, 0.9294679163552603, 0.547133260460223], [-0.35516692466866545, 1.0868623347514637, 0.2019466614521913, -2.013420142878856, -0.47802143818716786, -0.3255163576935144, -1.2856304066150244, 1.0615641166927894]]], "biases": [[[-0.2681505581112495], [-0.03361899179362257], [-1.1397458282998436], [0.02026838693548557], [-0.5101801521989852], [-1.3572488294353782], [2.462143983807732], [-1.213890108304236], [-1.0130606321655857], [0.6008359619881184]], [[1.1199519856057283], [-0.505486013377391], [-0.3208758070741093], [1.6486485469021557], [-0.49496575864031855], [0.5672980234162005], [0.8209465091307897], [0.11458037463332943]]]}, {"name": "test21", "score": 21, "weights": [[[-0.682615864499136, -0.44792277853579643, -0.6455144948760522, -0.03162172767609153, 1.2493535505270208, -0.6046934726334587, -0.024020063455860732, 0.09435125583171085, -2.0477660356389507, -2.801169964672701], [-0.19162182785667098, -0.6969580341155707, -0.04376619626122006, -0.9538259468895268, 1.0079168594199117, -3.22053687798014, 0.6590055735465147, -0.4401137129062736, -1.0754570782251835, 1.5051339483421005], [-1.1600872598411374, -1.7055770314000331, -0.3175249615236335, -0.22433726940906168, 0.47706980967450047, 0.8909659453597403, -0.166930439576621, 0.15294370442821179, 1.6161416561905975, -0.19909750316636118], [-0.46507146626551565, 1.8553373086205431, -1.4463546163881822, 2.1657720328464305, -0.6802548992008057, 0.6249867088927309, -0.43149114377209424, 0.08289564489576658, -1.628939618006617, -0.6997591670880206], [-1.6467434654204345, 0.20837014965558598, -0.15059068887251958, 1.7660134509749459, 1.453154886644407, -0.6007928996184898, 0.3165687742004261, 1.0997895633733832, -0.055421599808100394, -1.3534142746657072], [1.0117179072317775, 1.292279150011053, -1.1806957898658095, -0.3423079329297975, -0.1944152120623192, -0.16781064766499842, 0.6514483376494651, 0.21897763496156122, -1.6594170016145982, -0.35825319050460275], [-0.07431511601424576, -0.3737594501502329, 2.007694540605028, -0.9878322798829953, -0.36221562115542566, 0.9044253531713261, -0.6113168080188726, 1.048805202084358, -0.3343118929355727, -1.0152964839885072], [-0.2906949196097269, 1.5970083023209276, -0.26568608199349847, -0.6701278164079478, 2.267644055009659, 0.5207849179593336, -1.5700040093261962, 0.6427143613292466, 0.8806233626016708, -1.4410983163611681], [0.12914799316546371, -1.5311412118509182, 1.0520596842404377, 1.3597980333163975, -0.12419170324728043, 1.303612224268991, -1.046601650245172, -0.7555525849325347, 0.43298515446083563, -0.25952915218907224]], [[0.06483730706745507, 0.9058346755566133, 0.2788182031225787, -1.2855150949988778, 0.289099647552765, 0.06896890991211842, 0.8894022356753467, -0.30397081951222793], [-2.938560357182981, 0.3013429809246021, 1.7954519127900703, -0.6393386021004593, -0.867577620232262, 0.1511967729792321, 0.29420285387143313, 0.539581344827096], [-0.45281379053245885, -0.7563112907520924, -0.6318593791817938, -0.6110584352268722, 0.5249632022273903, -1.2627107074206074, -0.0031209729580097727, -1.8325348292640704], [0.07640400647967205, -0.6747319583992278, 0.4177155770724031, -0.5133858704063977, 2.3754524636340073, 1.0302847031218265, 0.5895256990657052, 0.620904488071156], [-1.092255910104902, -1.381351493643233, -0.699230781526808, -0.99478924446752, -0.01787934167692686, 0.6164796406246722, 1.4920587776936922, -0.4199444415451817], [0.08458174857865168, -1.300585769309062, 0.956247710335204, -0.8037546297457402, -0.8455469852470525, -0.8433226339432525, 0.37588814130223674, -1.1073604146046665], [-0.9313356256788365, 1.0131933198791823, 1.2356427264163494, 0.7044703528170705, -1.3348874735888336, -0.1774326595145938, 0.49303465670086255, 0.418939661152774], [-0.6799867113834277, -0.0013648787971288407, -2.2842407888974297, -1.3732627822690568, -0.3647210008667979, -0.9325274556032385, -0.8988980828947482, 1.2897687072949475], [-1.141533846791402, -1.201011666799544, -0.7416830353648844, -1.2970131539513188, -1.1516822697646545, 1.9050197990353293, 0.7044659508452833, 1.9315315028602205], [-2.2539764173276935, 0.21580956692679795, 0.24933734671372637, -1.3616869312001088, -0.2926796744410282, 1.3510890376052243, -0.9665326593598073, 0.5864879122300106]]], "biases": [[[-0.6469722250272582], [1.1044711019496247], [2.328583342425132], [1.131334240279634], [-1.7701265650927929], [0.22869487393003105], [1.3408537032700547], [1.8403261001842215], [-0.6430244453566925], [0.039343716409625105]], [[0.6152500894008457], [0.302913314404164], [0.3938436909537661], [-0.5222777255761474], [-1.1835219211848786], [-1.1702218312094599], [0.48495381308281366], [-1.1752092752093808]]]}, {"name": "test22", "score": 22, "weights": [[[0.6263326213615316, 0.9399136568137378, 0.14996136978068128, 1.228183300430389, 0.003467466585767029, 1.9369006875841144, 0.3765304011491138, -0.5348498303313607, -1.0137147310630377, 0.27444167525997976], [-0.6388495865988368, 1.4005537208786927, 0.07314087615618761, -1.6155178327697364, 0.2524285881895217, 1.021045136328925, -0.8413237458376926, 1.6744081907114945, -0.9564908974688764, 1.2308827429524074], [0.6818124073587628, -0.6655868546826337, 1.566342128179314, -1.0033252004858018, -0.1736011440749164, -0.3860323680758231, 1.1684237931818464, 0.0896954468522612, 0.1584688935525859, 0.8748419706111191], [1.3945388082795327, 0.36065361852197997, -0.8957456846269384, -0.815802406438888, 0.6024830208928791, -0.3988249401566416, -1.0796266218756496, 0.31127652605516154, 0.19630425254827372, -1.004722575613367], [0.5197581949455017, -0.4778153004543917, -0.6392296803132775, 0.11026668570641344, 0.944841750402068, -0.22445269267904067, 0.017389354493049868, -1.2039043021282063, -0.2771504704968483, -0.7316497716922011], [0.17101447714479365, 0.5616556811455964, 0.4449483349224423, -1.245284668070985, -1.0252070576337855, 0.8071766382619315, -0.1534699319417413, 1.2825361355021632, 0.6796509626989721, -0.18197381319707365], [0.34182274079107955, 2.4438443352349055, 0.33066837243066405, -0.7855459884247502, -0.07083987157862015, 0.8997067724965172, -0.15689356475436173, -0.6393071613798753, -0.4286430070025707, 0.9418252410870039], [1.3725287873354988, -0.40340748265750215, 0.4106461370945392, 0.17459572923826433, -0.07212966612241269, -2.3324934872745335, -0.23983782677556587, 1.3994586262183741, -0.4405547564229893, 0.10408272087547757], [-0.024152508994596474, -0.9644804637764209, 1.1308583353437074, 0.5640857023554626, -0.19552856063596555, 0.9966144075268888, 1.5203962764846621, -0.6769538190694105, -0.20431889223000244, 1.2582570912117665]], [[1.6274204163504489, -1.0904561864089606, 1.2132561316673884, -0.26969415238691574, 1.0987476892926566, 1.5057253557451549, 1.9151054256289657, -0.13820016477875813], [0.1426217337079154, 0.44561219254380924, -0.6871616457195203, -0.6178356631174442, 0.6587383468432706, 0.3693775717748416, 1.0832856348942022, 0.5500614049389707], [-0.4568025751567253, -0.36781016788482956, -0.5245674963688924, 1.663896450263939, -0.7339304714821118, -0.11699614831450844, -1.8629429992707387, -0.7398480999641402], [-0.7726708910248615, 1.1845627834760708, 0.06059457009015095, -0.3866538389106838, 0.4154698802488678, -0.41815931148790475, 1.9005577494886667, -0.1664952840553762], [-0.9145737410363742, -1.7401372099339991, 1.784695188891367, -1.58071186885582, -0.10104770240236832, 0.07412645107933032, 0.04832972551578231, 1.3637197874204727], [2.1406300325536467, -0.2365552436745649, -0.8239983031431639, 0.8579976920904785, -0.04568205782008084, 0.8136588701420924, -0.032654041859389304, -0.02611971941273263], [0.5775417442863473, -1.356783443836072, 1.8868989385441437, -0.6822591142638513, -0.1134429907642334, 2.0552222088853926, 0.7720416171509026, 0.3918354428511154], [0.1455554881914276, 0.9236809278395576, -0.9781960576473321, -0.47206529836458305, 0.5991056827046218, -1.1932895451262648, 1.9586474610168711, 0.09854901542186492], [1.6478658153777055, -0.562225652279343, -1.2514629198304819, 0.1627169870078599, 0.6300015103643676, -1.5383156845386674, 2.240950592078991, -1.4771043262279608], [0.1602626895505242, 0.3778182678919018, 0.7808370473023813, -1.025558115786004, -1.4049443509260933, -0.8117067263817064, 0.1562429447396251, -1.8632881370960344]]], "biases": [[[1.1801154417899915], [-1.1282579599197071], [0.8770487820676128], [2.2083718941627284], [0.7519236300803829], [-0.7654330732574429], [-1.177905522718872], [0.9005569633110401], [1.5701819094191984], [-0.6628730760163252]], [[0.11432428710034025], [1.118407218494689], [0.399739682880305], [0.0068217990099945815], [-0.8363900489605819], [0.9068750046389771], [0.2124838221288081], [1.580366440759292]]]}, {"name": "test23", "score": 23, "weights": [[[0.9598655048451532, -1.0461394816899088, 0.7460105247798948, 1.326300834350028, 0.21617019601639634, 1.5002899012798714, -0.06364774758944033, -0.38923853505145983, -0.5142459069564004, 1.3852091179123533], [-0.6320642301185229, -1.241320683008138, 2.704478526834417, -0.6047079680926174, 0.26452121937019646, 2.2797922492044953, -1.903256921170897, 0.24956612061703617, 0.0736679754141611, 0.9406860079613727], [0.5769448279554709, -1.9773963462382336, -0.1428945521020023, 0.8540799562156554, -0.7610984824707167, 0.05608764985631484, 0.5408568358107545, -1.5665597551144301, 0.33776791599908057, 0.06987137713046798], [1.32353986664551, -0.12170903476926884, 0.28220625805800986, 0.9081327277953608, -0.8372525064542532, -0.18042771649956119, 1.0513667153508026, -0.04559969998207032, 0.4069022904379886, -0.6411933886877688], [0.042548817954650445, -0.03852055243070659, -0.7698942693753708, 1.8481250524608472, 0.8545587460463775, -0.3779079398057199, -1.2855179262600969, -0.9956905100382742, 0.21517811230032569, -1.033230069191905], [0.44868363980259157, 0.134618677997764, 1.2831409167071175, 0.5773760173789333, 1.844602528368489, 1.9788689536227473, -0.38359806196265944, -1.3363662530613236, -0.45022574234492374, 0.19782449025537435], [0.1578843210256941, 0.3414324091587226, -1.2947160479701352, 1.0513690378748648, -0.8710968987223873, 1.5361329146906442, -0.24520362188035089, 2.816459806642857, -0.057509607411807384, 0.8371987708603154], [-0.46322680141582795, -0.2263794408628714, 0.5483970531210204, 0.7516573699105359, -0.5684800521873361, 0.4445955954176642, -0.19853449472128196, -0.8380720495934818, -1.0777015292184282, -1.3418753675799575], [-0.6402609113251913, -0.03918200007392026, 0.2129973254135101, 0.6526250107161863, -0.10973835349033614, 0.43768920515043924, 0.9992064289587855, -1.2411216788605428, -0.1410277972494053, -0.7207238577174003]], [[-0.08151088702605311, -1.2694176601956706, -0.199184353927106, -0.4222861526010654, 0.5566062571222855, 1.1046362554623614, -0.654803256498957, -0.9391094098766499], [0.6226068749951856, -0.39390377127027554, 0.46530498979559365, -0.428525593237369, 0.24056659326172353, 0.8155654507130692, -0.17659071642251487, -0.19630276132146668], [-1.1590859479835383, -0.7884696262010247, -0.2822550701837366, -2.3994782432232507, 0.7416080580404595, -1.1485986054873578, 0.8369470256230799, 0.29623091381836875], [-2.051933439157423, -0.4653005455580458, -0.3489523350590512, -0.14384366247898356, -1.0875343546292946, -0.2189442129889412, -1.011108770319152, -0.9410496054658888], [0.5945107445827527, -0.497279352951489, -0.5490746325560052, -2.2313226179564833, -1.4480910347059033, 0.41790288487116434, -1.307355612349878, 0.5987792825876324], [-0.6708393497903307, -0.6346850604691707, 1.0846539934807689, 1.4083584721309654, 0.7283922986462531, 0.26874811992928405, -0.8029100644490678, 0.029385772221368896], [-0.9098670377287971, 1.219914248518741, -0.20816461364105474, -0.04030539445922672, -0.3453408147952642, 1.0228639164066275, -0.6215121463037272, -2.1536587991332965], [1.3678426274211286, -0.36450519869156806, -1.3665042653841333, -1.0329536889710411, -0.4181014426563915, -0.6688977164259635, -1.1821053161534958, 0.9817091547425738], [-0.7468732375656045, 0.5101534117482912, -1.1483557810111464, -1.0075723578683446, -0.7260488015171634, -1.4919260689675087, 0.14464137378378852, -1.253269553914082], [1.9976588483581132, 0.0312783441324022, -0.2657942859984749, 0.19852577438383184, 0.5879132465888226, -0.5188740429702455, -0.09742019681635836, -0.8194377019812292]]], "biases": [[[0.06836890250687888], [-0.6610558103694486], [0.5623424605288293], [-1.292749336498557], [0.40936925555822057], [0.5103201085586515], [0.6319765825258287], [0.20359898505123777], [1.2692607025672409], [0.6298915862023343]], [[-0.5542960691720703], [-0.8868423059908773], [0.5152752652711966], [0.02223745926458229], [-0.29772623308147694], [0.525748504873503], [0.7080469982538707], [0.30626774286078323]]]}, {"name": "test24", "score": 24, "weights": [[[1.0812630669318553, -1.1622178081246972, 0.38008292260443216, 0.3831750622702936, 0.19789617937616194, -0.031102365595819515, 0.027705480450289043, 0.1840579191567276, -0.31616582948255373, 0.48879157566587106], [-0.1283072065847068, -1.3646108729243525, 0.5411863804709234, -0.23480226209103056, 1.688550294009999, -2.232684826034842, 0.8634231458469719, 0.4088917600629197, -0.5365085621410256, 0.14805081890918342], [-0.047388288320592886, -0.4381264445816235, 1.9224100374878175, 0.5273963198743108, -0.499018259894725, 0.7391573461904365, 2.2417335176995072, -1.5979842471299022, -0.2320382913616583, 0.9458791189977972], [0.693070703073772, 0.9390554374093794, -0.36466107806193526, -1.2682974661271695, 0.22005641752377667, 0.8216895506873666, -0.9929439247724998, 0.6357895225883139, -0.08904090927831251, 0.31249029994873423], [0.50932690906322, -1.964355561692826, -1.424576936421518, -0.0680046623965488, -0.7498263635128367, 0.9262586374798922, 1.6824090801894145, -0.1789238168390082, -0.27390857695303533, -1.2839203856565866], [1.505295528345656, 0.9510937152572148, 0.49673166274904007, -1.4392947967544256, -1.050987910593384, -0.3991641359611949, 0.3949636631676465, -0.7930647683839461, -0.19884274387266818, 0.8606518348439093], [1.6717536579064838, 0.31696259747234223, -0.9263613503446818, -1.3196812142012042, -0.6449820069279826, -0.4198286367332097, 0.0965318167569152, -0.35520896114915573, -0.06408768209209409, -1.4920862690758139], [-0.37293352483133546, -0.045720125625505606, 1.0929864902380855, -2.216177532253675, -1.2213852983232407, 0.8846204219859374, -0.2550722898011585, -0.4629218451453815, -1.8306139310595189, -2.3896435619369614], [1.3447295748388286, 0.11678715675417747, -1.8547208469944558, -1.0584577910067048, -1.575607469605351, -1.4747682881860427, -0.3009780090345691, 0.20946460905712913, -0.061739171670857296, 0.9416878444492343]], [[0.8101617279983964, -0.11938643387777989, 0.6141756020138903, 0.051144241576877456, 0.3997911814466671, 1.3683228090152353, 0.44587555776385973, -0.7071967755105291], [-1.8965825946820927, -0.1473121814797669, 0.820703160586677, 0.5181770569575214, 0.8541020771086522, 0.8113460268856604, -0.4260788934618179, 0.17068806384668417], [-1.1856723214762108, 0.8407180519625651, 0.19702280924760435, -1.6798414961965236, 1.8869289368963156, 0.9201435425857085, -0.24515841538187597, -1.125407722156215], [0.06634141562334811, 2.6300142618998894, -0.6042864594757186, 0.8038202735504217, 1.4479119436732177, -0.2610740733182296, -1.1833361695828384, 0.5882595622135364], [-2.069335040927821, 0.11064275086049298, 0.6199814428471923, -1.0861339330028872, 0.2747218334683798, -1.1719856975340843, 1.300207399054109, -0.1857644608135539], [1.4608207586125892, 0.8422379601143012, 0.3313582656716385, -0.27010663519814054, -1.8027175222744174, -1.0206187884639515, 0.29820265506238647, 0.29983752324872026], [-0.49940881630104617, -0.0033271188443967695, 0.8318983103881898, 0.9043761601290248, 0.7267785835497793, 0.7863982101658532, -0.7557719190504104, 0.8367311690792597], [0.4052371916779213, 0.8284593126274981, -0.12479681281530745, 0.401689651282899, -0.03601569001613574, -0.9804604303867877, 0.1565125204887385, -0.08741974956100872], [1.8924867041898912, -0.17453175830004386, -0.8188940607988451, -0.0998441339574886, -2.395301987390539, -0.6443368317084169, -0.5710257604521798, 0.45596679297121023], [1.2070869937677968, 2.0560728302350064, -1.3391564572428412, -1.4251850148840297, 