{"gen": [{"name": "test0", "score": 0, "weights": [[[-0.9831895566484828, 0.536526758645454, -0.736485173214336, -0.6395634089889964, -1.062310315304401, -0.9142559593000072, -0.9007810652964909, 0.1819443409436702, -0.3597595820529665, 1.0183636999421837], [1.2245247247317446, -1.2301742740850077, -0.25120014115702927, -0.37097992688909065, 0.45989107218586933, 0.3555041513394877, 0.27747956433722926, -0.024978912612988496, 1.0043822910479936, 0.4549210823009738], [-0.9460053331953121, 0.08137020283017567, 1.494381289659893, 0.7529131823731264, 1.0143541004941508, -0.43366646822660737, 0.08093291384744312, 0.3482643181880794, 0.44239768689489267, 0.5694628401621376], [1.4436037330529488, -0.8910336320155835, -0.8663097622884679, 0.32917624815124913, 1.3595418256150185, -0.5964949657308404, -1.6495720293795302, -0.18501701692378394, 0.913001291009118, -1.5835595971361436], [0.14551386536894448, -2.4421567119389813, 0.571774728857937, 0.004838762152109139, 1.8050632604164176, 1.3364561909964567, -1.0238910517519357, -0.22533242039193405, -0.5943031484869755, -1.6145841084656833], [1.8728943476768647, 0.40165959349569225, 0.36385480789954094, 0.9425513922659747, -1.142702131933487, 0.23954239435301267, -1.0615838959228834, 0.5564618368711942, -0.33931455336431576, -2.0268525466227416], [1.1237376659021425, 0.5556498543594429, 0.8746977378733262, 1.2574593184379381, 0.6235776821816944, -0.2472015520957471, 2.6936901608271917, -0.9103511178663012, -1.1685963272026778, -1.0859196356525296], [-0.8555049588588803, 0.33788442922276013, 0.2705351062710124, -1.238685778146371, -0.8337036928561462, 0.27948844977830317, -1.2910098914086494, 0.9310500391563252, 0.4825256534550036, -0.9957493355438436], [0.5114072187719101, 0.6556601301749668, -0.4203884106365731, -0.5354396186654785, 0.8393880291454587, 0.05520818796020361, -1.353728776070441, -0.7574674157165345, -0.7844219546749298, -0.5721355458172285]], [[-1.1651831183190549, 0.009054083654094741, -0.6715656787420597, -2.5682883633924547, -0.21716357799168756, -0.6388696077048123, 0.0877998473447132, -1.0622789404420074], [-0.33023579763082106, -1.1850927004259428, -0.8135660196669202, 2.023980700317276, 2.9515457792766044, 0.617899683602926, 0.9286907727889224, 0.036190726882950684], [0.8546340053400207, -0.4102200172241925, 0.4710442026552592, 0.4431108323941291, -2.486269354553014, 0.03396571837936642, 1.0267560980967332, 0.301656117673966], [0.4969100662165965, 0.35742289464280275, 0.7273791684831084, 0.09376909376404231, 2.623420586559038, -0.5772378786461867, 1.250029243334532, -0.1023570871223639], [0.041909106729718794, 2.1733201525617836, -1.203175852615795, -0.40888255750590496, -0.043852852099541345, 0.8802796788968941, 0.6592457768869266, 0.8787449165074548], [-0.17465569832215183, 0.8931026138722276, 0.9941121234571035, 0.11388759179697931, -1.0773405787271084, 1.512252472550437, -0.5904588979989686, 0.802912187299902], [-0.5879946951693628, 1.1005933287834588, 1.3723556498576381, -0.47215850577582746, -0.6827981438712806, 0.9357395489085846, 0.08894761555981802, 1.6140793209459077], [-1.3884399736062345, -1.0415586169336288, 0.8849697272945513, -0.3367408619582257, 0.7292657939254029, 1.789525454917247, 1.0238805716537227, -1.9344469876534074], [0.7930015501337576, 0.2924899828133297, -0.6584591634952055, 1.9541349872757219, -0.811776047686518, 0.26363167032827045, -0.05057224452439826, -0.7132117581344772], [-0.4961380742889819, -0.36267307229999723, -1.1933630243507332, 2.164618798890971, -0.9137286595286744, 0.12013135269048071, -0.8345184147387877, -1.4033416282907913]]], "biases": [[[-0.7797865282217404], [-0.29296533185119733], [0.9186302205422694], [-1.0130438651330356], [0.9479907651826487], [-0.04697472642697803], [-0.6838176631668871], [1.108369118323045], [-0.5511106853585571], [0.8648444796492331]], [[0.9977071964016977], [0.5069060086149778], [-0.0012162307148925779], [-0.5134833124349645], [1.196905716151902], [-0.16744009790673622], [0.5739228623034714], [-0.17285472134962196]]]}, {"name": "test1", "score": 1, "weights": [[[-1.0637245611824035, -0.5555925430026466, 1.4451169267741375, 2.080456823302407, 2.607331899978926, 0.7514107042131951, -0.5111850830224008, 1.4953980591370302, -0.3135202274787231, 1.1722409155579971], [-0.016724098154595614, 0.7520555293853045, 0.31643139898897266, -0.3678155739230311, -0.8148155226278124, -0.6682628368781978, 1.2061535452737204, -1.0627614438595876, 0.6533133997433032, -0.19591062208987736], [0.15406424583420741, 1.360174998824725, -1.9125453254045763, -1.092931970821835, -1.808067245706893, -1.2756564562599215, 0.6662982604214506, -0.4656807844775567, 0.7864431741830031, -0.8243495072363145], [-1.8445047500268243, 0.5623090203302501, 0.15508769248451573, -1.1525950240032476, 0.400788657767467, -0.7269759734478429, -0.8757037518422509, 0.6950051851806289, -0.12888661761715334, -0.21233831372342749], [-1.2411063922693768, -0.03653357053193725, 0.7252977654463827, 0.5006232823481475, 0.9949990305284933, -0.327760622073897, 0.5364462332284897, -0.5435140872755487, 2.178031349607131, 0.4649880232667548], [-0.14187980278915008, -1.0730965168472817, -1.3767965888261768, -0.007467686585446372, 0.3901397044803586, -2.611490093846132, -0.8059234237591106, -0.2675811362017178, -0.8909086297932515, 0.18525759086967114], [-0.7263273136787782, 1.671862489724199, 1.0211370090011174, -0.7791393796439461, 0.5364529514740298, -1.1305094149524828, -0.15268103510585487, 0.07007960174296254, -0.4716502181324587, -1.150224671423284], [-0.26132305210924694, 0.40061263885072, 1.4689381906533523, 0.2015610177748855, -1.482602165085564, -0.8074609635573844, -0.2902502118533397, -0.3823002640020847, 0.4276219974956641, -1.2481777662021503], [-0.23941031815621924, -2.0229375459729404, -0.5397660251215873, -0.22862668040362333, 0.5334794859765977, 0.784346464223106, -0.8260857553201327, -0.12859491961858177, -0.7724338157900249, 0.6769459155677696]], [[0.7479222989600011, 2.8279563134292305, 1.5952081736440806, -0.17459323387506406, 1.4003984228712612, 0.8928423957458114, -0.16757699135801107, 0.8427835289428465], [-0.20058827024151746, 1.1757482668786419, -1.3230554904419474, -0.4018925918050178, 0.4285063545583515, 1.21499210191069, -0.44662497956008396, -0.07780892061045218], [0.17471951139512415, -1.1628692470106172, 2.6146762925610147, -0.2889135385145264, -1.389545287446055, -0.10062554942835553, 0.751509452401057, 0.024379599255363912], [0.2668914724716625, -1.2100342837154938, 0.847614815574505, -0.3427058883644265, 1.6503915137138254, 0.9665522425460529, -0.16121816217594204, 0.6287466191108917], [-2.676058950274314, -1.2320280515354975, 1.5463307014579675, 0.5616908615657753, -0.04757384046078762, -1.011166032556446, 1.2763659139296413, -0.3342704246119193], [1.1072578666635293, 1.0962037338304855, 0.29769757155255344, 0.3516763790297874, 0.4480502174324076, -0.6390666794225822, 0.34138388724381824, -0.7198609076283184], [1.1606311234369115, -0.7864485616380725, 1.8674955747774293, -0.5695083156194057, 0.021414128219698444, -0.9592283173458004, 1.0607299276832036, 0.2475135322414439], [0.18524188588550777, 0.37996283067590514, 0.9543745262543749, 0.9253732516087075, 1.028308372988823, -0.7967312984156805, -0.7715775386974708, -0.8732596587119213], [-1.4737076602945975, 1.0922809699778424, 1.6415757401415931, 0.8876179576687128, -0.4596777834294988, 1.0675835999456917, 0.19519670134886294, -1.2082071144336821], [1.1283123829949055, -0.22136270162608193, -1.5155465896710096, 0.028230705665445777, 0.3891522348992017, 1.6091507191623948, -2.871933052340106, -0.2426546453762159]]], "biases": [[[0.23390175541490493], [1.7913831248095755], [2.0789345520234788], [1.4321890225888705], [-0.5654804577147029], [-0.6041428685491945], [-0.27469392365814166], [-0.2375326774042215], [-0.6442908700336002], [1.0547235105202872]], [[-1.0144443415582767], [0.572984199683012], [1.0935123217004217], [0.5714727260452386], [-1.06864815783459], [0.46617044457527695], [-1.903503817628471], [0.6049761354729417]]]}, {"name": "test2", "score": 2, "weights": [[[-1.2958020038455176, -0.502077520405745, -0.4537362825695049, 0.48371445244315864, 0.08300582898850138, -0.18319721777508038, -0.8292831707634479, 1.3133633369212547, -0.14154216190059843, 1.7433545871607863], [0.5459073108858162, -0.7725578275231157, 0.8027808572694055, 2.2970389536700924, -0.8976876929154266, 0.7574354610318005, 0.4687110564983669, 0.6165113717912586, -1.4888766179414012, -0.7038357880585507], [0.8828131515350867, -0.889174582465158, 2.083923085755676, 0.32933752356412527, -0.09019771237116618, 0.4442029007077743, 1.4157021951947553, -0.35598252304058137, 0.3000276129531948, 1.2931454562772604], [0.34877484779839324, -0.07939820229831726, 0.005135963454927429, -0.36173711854762314, -0.9407192148729583, 0.22327509416792604, -0.7106990859049438, -0.03913528837762441, 0.09041356040056235, -1.2711731035226002], [-0.33584866192141355, 1.5508866934875352, 0.4398545878748044, 0.35944346397728977, -0.28657794288086097, -0.4728572045837238, -0.7176372931078986, -0.08310031375421414, -0.9530184335558842, -3.3324079417803745], [-1.6054769250291825, 0.47029751503661626, 1.5837685716303285, -0.20689035777406248, -1.1275868438907406, -0.6131833283664578, -0.8338732916694835, -0.13565167435320954, 0.9885585979002316, -0.7280203655603649], [1.7022082904072675, -1.9961770977849862, 0.45236542364794186, -0.007778782747512069, -1.2139687243908215, 0.7580256679419575, -0.23719210116234574, -0.29848186963990264, 0.42949923196365986, 1.5306300397807495], [0.18699203049865779, -1.0027960634879725, -0.6120844677969007, 1.003914677567783, -1.6459960655611796, -0.2788656909185642, 2.437413544355611, 0.0838001730111181, -1.0427064395272148, 0.1863310985688021], [1.8915788540196345, 0.2853620236260903, -2.9166161535822024, 0.43480976857941783, -0.7704264259620126, -1.0694709129179971, -1.9246263118263862, -0.557172737674449, -2.1153112758936987, -0.5083593375984955]], [[-0.43224017989949154, 0.5070508920936185, -0.15331815608531552, 1.0737683999549517, 0.16034635684181484, 0.2244564927387385, 1.4345373273333415, 1.220443839076534], [-1.0079644063886055, 1.2732921865989604, -0.6246889432507323, -0.6164868069388703, -0.2810437572814179, 0.9981282199590209, 1.2001061385647416, -0.0296358323745632], [1.374827688295765, 1.0145658383975305, 1.8423816903801398, -1.507115289741659, -0.6804088040342825, 1.3127062387964812, 0.9389936330274204, 0.08230225254666405], [0.025213776821911553, -1.2997873558414854, -0.27331232180259013, 2.1790466683766936, -0.5192527955339952, -2.0022641995469956, 0.742969023728412, 0.05523082553483247], [0.6122534646410968, -0.8459421498789061, -0.8343027158086175, -1.2102036374249692, -0.8818917181489655, 1.0681361905647644, 1.78894480697114, -0.6953955945832543], [0.5635208517820004, 0.9004544238425654, 1.4802245683533397, 0.20554371886337924, 0.5328142392126449, -1.7031564427602635, 1.2837191912984411, 0.28760624104220006], [0.3326129352542235, 0.9381954247016766, -0.32594334406378467, 0.08037375395099323, -1.0707956124158124, -0.07729663444610704, -1.6760736506330876, 1.3061212789790924], [-0.2809279848434468, -1.40103834342292, 2.108441964518952, 0.3523339220402212, -0.551213367711761, 0.787126704378203, -0.1740475420305699, -0.11017684162735858], [0.17725747465436698, -0.9881400044052814, 0.18592390023754415, 0.560010078347569, -0.10521915105074399, -0.27991205230246263, 0.3159006670742206, 0.5697942171158071], [-0.23547671028267594, -0.19870957229967706, 0.7994220767817596, -0.13668880431638727, 0.6941369326264615, 0.03353225106086615, -0.5925793598725781, 0.18601713122687613]]], "biases": [[[2.013327277115745], [-0.3566945705965894], [0.5188182583346422], [0.48346148529191135], [1.7219648047779204], [0.6744218556724222], [-0.9740206398684081], [0.0012641679198171667], [-1.1928790098151587], [-0.3426971541906334]], [[0.8022238509435865], [1.4772997767924723], [0.7681860728372755], [-0.38060471473112734], [0.029765822564986687], [-0.4427451272121292], [1.5242272212137042], [0.44623896251236944]]]}, {"name": "test3", "score": 3, "weights": [[[0.8254530913210963, 0.3145346365161678, -0.24050161733848532, -1.352390428040357, -0.374861606587303, -0.2738938005751528, 1.0046095261412584, -1.3475538449544469, 0.7006700115530246, 0.21891972477652705], [0.22559419535314118, 0.4843169551547243, -0.21371253466806692, -0.2657119655268568, 1.4849444962133196, -1.0382376407064993, 0.3480685611808239, 1.138039904811522, -1.7004769280711138, 0.017119523304628632], [0.1824061427523393, 0.9413668411363717, -0.6336275673697676, -0.42129012071211863, -0.6139830544699431, 0.054755684244437136, -1.2638780909178284, -0.6822994459897942, 1.167064910976823, -1.4117998111575296], [0.33485446543459585, 0.24479297197192046, -0.8836284295210113, 1.7230580524611665, -0.30172711570385574, 0.8825746559791773, -1.1342943219925077, -0.8742013971861412, -0.7429398252997138, -0.07752423130211666], [2.667636161794723, 0.02141975416317847, 0.033235530260166506, 1.3976383062786208, -0.5106849263890052, -0.6534240936354955, -0.13126096473870755, 1.0986093823448322, 0.24655357959494148, 1.7512666461162274], [-2.4759986342561944, 1.779586700829715, -0.10917664207499923, 0.5061226539512478, 0.1376165424049312, -0.057230542697129586, -1.3312058901704107, -0.22863513592313106, -1.8241438981375202, -0.827129857056807], [-1.3497062547076861, 0.45665364939820374, 0.8072716724372723, -0.8408936195431951, 0.6732410416492319, -0.2841652836493909, -1.3813373500450428, -1.5724715280393242, 2.0202353754051763, 0.31516341047321816], [0.42460031331027137, 1.0459825961060445, 0.7837375709692048, 0.217070346076136, 3.4978639349740637, -0.285242663836378, -0.49650173664220976, -0.03543071848336909, -0.21750123146674707, -0.3371513156246975], [0.8194260262917826, 0.9271683205805412, -0.9370916760063196, 2.3562484810806303, -0.7925352098131762, 0.5738334154698737, 1.4800381626683992, 0.26830296611618887, -1.3267217413536034, -0.8370290651236201]], [[-0.41020941892688917, -1.0733385966770757, 0.40992449032750766, -0.027194544984039365, -1.0274485666743824, 0.14949577589198554, -0.8215471841128951, -1.286367055219178], [0.015022749399315227, 1.033222790350695, -1.3417777848942773, 1.7463269865520543, -1.7262790148370368, -1.2631840901724647, 1.541052553513134, -1.246270002154109], [0.22772069997397307, -0.25253222334308073, -0.26645999425198175, 0.9038171246396535, 1.4904387904597913, 0.4746254418550384, 0.5261986233977273, -0.8301203290824176], [-1.4904719371306567, -0.1828580395592761, 0.4730310877563447, 0.3845786550246439, -0.48087630795660147, 0.5869819962832229, 0.2997231074859597, -0.6916468237047733], [-1.3266813982293533, -0.9229958660410039, 1.9232158382457567, 0.09181933870259043, 0.638979836175836, -1.651288581462686, 0.30711815014789157, -0.4892837939998884], [-0.5090033962694297, 0.3022732716035782, 0.42610287117487794, 0.4644288625385738, -1.2656325569795948, 1.3048214235819395, 0.223764484420854, -1.084657159346954], [-1.3718981175536544, -0.6886787940744731, -0.05189591768185802, -0.36479124711372307, 0.026136927598830767, -1.2432777788087037, -1.388975734902075, -1.9180782574721889], [-0.5105337032238157, -0.9942981059195062, -0.8052416538532202, 0.49858789028876127, 2.27298071764069, 1.1921908390091545, -0.9788210292964921, -1.3799281994792134], [-1.587446291948005, 0.37798125021710044, -1.5051013490327825, -0.07160232269929741, -0.3448872072121262, 0.6007094587418694, 0.22338809269447873, -1.2270131744680637], [0.3650095047735346, -0.6481660429325243, -1.559852338041386, -1.6059448152547247, -0.546111102779289, 1.0096447811830165, 0.09404142508963546, -1.0914483554150345]]], "biases": [[[-0.30797200388584045], [0.9169018108552661], [0.5046321367930234], [2.0919657224471595], [-0.3976489270056147], [0.4281080582777962], [0.17776670755484175], [-0.9722273991346322], [-0.8038006165344522], [-0.6568933609343033]], [[1.0286848267356328], [-0.7444206649297155], [-1.7838450913754949], [-1.402234279233285], [-0.9670417468652084], [-0.9823659028094319], [0.2931642811255285], [1.28751299644197]]]}, {"name": "test4", "score": 4, "weights": [[[0.6454707974542873, 0.788085252570047, 0.7598108234225066, -1.374115800320041, 0.6615448021491188, 0.10593894744134313, -0.40912993885584414, -0.8544319970039869, 0.4798024460542401, 0.4405944022330564], [-0.9769848367579173, -1.2079924729515212, -0.06917949270185007, 1.3808778391886427, 0.16507271034249182, -0.8423653435084727, 1.0760968397698836, 0.20600168136034097, -0.9866697323331991, -0.6027908440652999], [2.1925686660369896, -0.3416997748026932, 1.6014552776282056, -0.9998503844288932, 1.3364624409145074, -0.22203502737567635, -0.7193645569236787, 0.3399229417020064, -1.0795371645925482, -0.8159149323267934], [0.12915851653309995, 1.7209880345032496, 1.5065365766057062, 1.004678938557483, -0.3771289504310011, -0.3349182058401299, 1.5965294038450457, -0.50897452869056, -0.42043014443960036, 1.4989926047339712], [-1.3849861545448219, -0.9653708089720687, 0.2777920162802678, -1.2429272197164898, 0.44206773844511277, -0.4366912329138303, -0.5881912271098824, 0.5303892881824721, -2.0432757523232765, 0.3295331910079741], [0.7961666136259984, -0.44091157960383626, -0.49152522716951313, -0.011836007138473208, -0.01429883345832142, -0.23620050114406643, -1.0595487547089737, 0.3645053993290376, -0.17744321182417486, 1.5883648205684768], [1.3760469551456491, -0.9560897400064717, -0.9144329327884554, 0.176976757620159, 1.9275904886925794, -0.09985271210165923, 1.6148755960813501, -0.6008654378546124, 1.3452210084379979, -0.948974779361113], [-0.3809073438257948, -0.036666035060572595, 0.7021996746728505, 0.23103433508179821, -0.2660752148781423, 0.3092454505899905, -0.10592658775269397, 0.06059382270159164, 1.3726931316974178, -0.782041409470416], [-0.8784023610207694, 1.792118430208585, 0.10320523615768518, 0.11362819394852484, -0.25459116791994285, -0.7221522271160447, 0.4385705730757079, 0.09335630415731692, -0.041937680348364426, -1.5755974314828614]], [[0.32935380294679395, 0.13067329598268346, -0.6369167688823704, 1.5321572141915603, -0.17373828061326493, 0.24200094730326102, -0.4883872829049994, -1.095486618993689], [-0.4788791424432539, -1.4492765738177755, -1.7443493883638836, 0.9457960131733953, -0.5075186850836676, 0.10804114653960109, -1.5104229042592439, 1.8933919174542566], [-0.669341377900782, -0.3842649195954251, 1.2832701397859365, 0.8516565176627987, 0.15994580637732078, -1.7250048633363226, -2.9825424799292537, 0.35365294904285477], [0.33736039699616377, 0.17135010160884998, -1.2723502367589035, 1.0843131687147767, 1.3499130155255767, 0.207636572743488, -1.8232706628912003, 0.6465024140445732], [0.9813152810703621, -0.39540037649044335, -0.07572315348229566, 0.13031359164720957, 0.486424761837178, -0.028042352287887994, 0.6654244420897867, -0.8017183373495312], [-1.7143853294794342, 0.6844010049220465, 0.5676182992808819, 0.0023685963324611347, -1.3232790859493542, -0.21846872305099208, -1.9578441165066371, -0.2676748138608151], [1.5841706619398443, 1.2234362442047857, -0.019135230007458624, 0.2056348897311216, -0.9541040627923436, -0.8403559340357137, 0.42815660742111494, 0.9125744432118824], [1.217225958048805, -0.6390136054522638, -1.6738377144971148, -0.4609313610495924, 1.1228538240712802, -0.39125723561168535, -1.0522450606681524, -0.0016323519475280321], [-0.9535821199961996, 1.2686508586171152, -0.387326445389083, -0.2897468245040507, -0.028920947137808663, -0.11073339168516984, -0.06687986109375112, 0.27320124134868157], [0.6566770561534044, 1.6917110586167459, -0.8217509039180965, 0.48609969244929296, -0.7201948880101224, -0.6369540747671159, 1.8666072824282607, 0.9892180581614848]]], "biases": [[[-0.6634177918224494], [-0.436587674694574], [-0.05588526513779208], [-0.2617291091133037], [1.9692757939065975], [0.792711970941426], [-0.06643896396998032], [0.09161139389925166], [0.12448811184945119], [-1.1376403859993192]], [[-1.504541696396996], [-0.9648594224576028], [0.40099469055903303], [1.1620448917741515], [1.3361192264530168], [-1.0585045979425545], [-0.2645052708098229], [-0.567435401313823]]]}, {"name": "test5", "score": 5, "weights": [[[2.098033510675494, -0.5348832024086625, -0.6514987279282131, 0.7539082906277479, 0.34393817829337836, -0.14008337050345157, -1.40680786862937, 0.2782374980551224, -0.16986863196273308, -1.7023791436437719], [-1.3057785373333166, 0.001971544689048054, -0.08381511671883123, -1.2238223475543208, -1.074072336797994, -1.587528190943173, -0.7181032949390059, 0.5164301108273582, -0.6451767478213429, 0.14359315223400676], [0.4962402045575272, 1.367626818960758, 0.2049081491032388, 0.17188357495399934, 0.6100634866423524, 0.19216179693948168, -0.3244893282872734, -0.4726016772622382, 1.3355068993832104, -0.2087977747978809], [0.004042029084513338, 0.9441133888869023, 0.7236897043295314, 0.9145286767473984, 1.401972205832863, 0.7533661598356932, -0.49996214710753684, 0.5393224939887765, -0.6908388246957483, 0.08623935600562392], [0.36624409851352396, 0.6932591104565462, 0.9567857305239429, 0.9330933252600546, -0.6084727158846553, 1.2983418923213352, -0.7639566515938334, 0.5312989710257403, -1.8867373518284942, 0.611235084750114], [-0.6412737140175643, 0.1910884399012994, 0.8767045216829676, 0.7854877059380914, -0.6927825974575326, -1.31940560810653, -0.2851746895009888, 1.6925980075470175, -0.5637275077166415, 0.06210917638104458], [-1.055140099715218, 0.6976809402040591, -0.933626569616105, -0.06476066803127638, -0.1656161948677918, 1.674953873585853, -0.9043232034427506, 1.1649977864079661, 1.6494669354949312, -0.054270421112751085], [0.5756899938052196, 0.47082779451583406, -0.8729210655640617, 0.4089260644069409, 0.48406984884456195, -2.101295990957094, -0.7627685714606252, -1.6456770414718713, 0.8469755031069779, 1.0348628347945248], [-0.25559693293477953, -0.42756096787924547, 0.17778721105686388, -0.5403690747256951, 0.5542591358017758, -1.633741047985669, -0.49530258017110884, -1.2485846256154534, 0.9942613002317829, 0.460058892930479]], [[-0.6361985078730134, 0.9418896649235783, -1.0783643165438546, 0.7078910372199663, 0.687059489169338, -0.05574810036292628, -1.0210752445829083, 0.10091243867515594], [-0.44977785536661596, -0.3250183555641322, 0.4580159323631626, -0.5691152371720208, 2.3607165915018298, 1.6203681584174092, 0.34184532263240186, 1.8898969419690392], [0.4605249658341513, -0.45728728258939483, 1.512874762973701, -0.8414611870389467, 1.1266065794178355, -0.44911924478051113, 0.27804982793871585, 0.9035873811493178], [1.7957702925898498, -0.39594084758701675, -0.23788956697442898, -3.0699918756284315, -0.7639736053914031, -0.04434500933810874, -0.15507696129849793, 0.15610012060775114], [0.35021673925475716, 0.7255393610899601, -0.854035629772951, -0.12629078470286934, -0.9082749343063486, -0.47877957152718076, 0.4769627121247511, -0.48148207423000083], [0.04663711191914785, 0.5529197895045863, 0.07932370629885607, -0.5606613364620393, 1.1249061172713612, -0.5855447273251341, 0.7793890115279443, 0.10101712582032753], [-0.22771905328591288, 0.16989108690128252, 0.16683226111248695, 1.2980755931763606, 0.1200811121658551, -0.13992511747478437, -1.0077833946541244, -0.4007513894464971], [0.6451772554350326, -0.34095853090135514, -0.7899745696341883, 0.448693783188309, -1.1488407075678364, 1.257676315698549, -0.053658292347758166, -0.3248742624103525], [-0.706254677509162, -0.2932936964203755, 0.5662201269397553, 1.2231909665143745, 0.8851012016955944, -0.23987536156121037, 0.7502821286520781, 1.6861559681417995], [1.6765870786832915, -0.22482666164858459, 0.4750033181906803, -1.0185933179712519, 2.2686561684128486, 0.004076986953626597, -0.34439188541219823, -0.9891494949997385]]], "biases": [[[-1.3321823805522357], [-1.3149536029781619], [0.8916474894897404], [-1.5978866699938166], [0.06640627417664474], [-1.2467087374008703], [-0.09547399611418747], [0.639512568890354], [-0.8157120907293125], [-0.7634531853070375]], [[-0.7210848534652149], [-0.3707349050516876], [-1.3082328660135891], [-2.187167597696894], [1.263715976151545], [0.1016617631563269], [-0.5819695184532637], [-1.1099695126825038]]]}, {"name": "test6", "score": 6, "weights": [[[0.10592724118799131, -1.9483307368069882, -1.875174178771238, 0.5153583654031245, -0.5387853899444857, -0.06226326103239635, 0.1557948830216849, -0.16423573606304262, 0.7138949435386586, 0.4515545686414075], [-0.4570628352501318, 0.7702833119058683, 1.1517775190292767, -1.0722269303596919, -0.7739117976871099, -1.0321387614557267, 0.597249714996762, -1.7200168002366334, 0.3636185785828488, -0.24515733115549707], [0.24363038376658136, -0.5969790493155315, 0.7647296305778905, -1.197057884753882, 1.5420445315210374, -0.6469132426536836, 1.8114344919262158, 0.8812100774716974, 0.11610424098288806, 0.8954671715443728], [0.9242506219390589, 0.9997063328448755, 0.058581180627231604, 0.0065264703640017735, 1.161151566692478, -1.1044210803271466, -2.1982403543638154, -1.602337860198772, -0.6041382073907177, 1.816241733622956], [1.914496500127301, 1.36472053039706, -0.7021057755656, -0.6441009467611652, -2.2000150287430733, 1.261022231093487, 1.6428455598897225, 1.1704418460262025, -0.26198490314827455, -0.9631682860501803], [-1.3295413083184828, -0.3353352282214878, 1.9130540766918105, 0.6735939916074349, -0.11010871784880018, 1.5022846226009834, -2.414136872327768, -0.039635511232846636, -0.33525191077259536, -0.021663351163325434], [1.6924132356737804, 0.22950912848042535, -0.8079386863791466, -0.6635979965415839, -0.8857413543169663, -0.07413596625574774, 1.5440817829808695, 0.476432344316044, 0.39967586472781486, 0.4585118552080698], [-0.13277801180599044, 1.1502372276164046, -0.29275122015178723, -0.45074718227295546, -1.439343371258463, -1.1292139091697282, -0.11631622341930291, 0.3734102764995098, -1.983820212904901, -2.2171223219691254], [-0.29447383881867645, -0.13941227192267142, -0.631623867830074, 0.3828398726509884, 0.24577746853265353, 0.9173765025661301, 1.5446768102658195, 0.24219994002543627, -0.7963239330085669, 1.2722377175965998]], [[0.7528328751745751, 0.22330180652209206, 0.6087784740131027, 0.48885881072311665, 0.42146080300163236, 0.5031898593050057, -1.0258605170763362, -0.030464389559760028], [-0.615597542262231, -0.7631501184771005, -1.7595816970840628, 0.8088504531948276, 1.3390397765368482, -1.0905958798497062, 2.19709578303338, -0.17738193050210196], [-0.5214111306427226, 0.12243263084135861, -1.1604029529847697, 0.34199221324190404, 0.7219669886268587, -0.041939546500722624, -1.8100378116790368, 0.6015846111548216], [1.3426994813086894, -1.2894748381146337, 0.6367817850152608, -2.0024547213601385, 0.458546980435846, -0.20854696635210224, -0.9726080951150577, -0.9192719241500813], [0.8934750428755703, -0.6538153878145515, 1.0239467103274085, -1.3652692729036118, -3.295436461080484, -0.03217181334790279, -0.7571465753384841, 1.0144016224594135], [-0.7798596862071072, -1.1665631266155883, -0.5003319197496362, -0.7698080479059879, -0.7140788116841043, -0.4037326536202337, 1.0915297115053488, -1.5519936701350114], [-1.789766897521062, -0.7685404256182832, -0.22536963565046594, -1.6426480446024339, 0.8755544354257584, -0.671920892414929, 0.9407436272940191, -0.012130848880167957], [0.30490572078281225, 0.3921854165053317, -1.4961502931479211, 2.166592035323997, -1.0373820669994056, 0.017857461203723387, 0.3715888807802215, -1.4831705578368382], [-0.7496174845158355, 0.20656463059172825, -1.391579685640243, 1.9708577832858731, 0.03112376379376225, 0.5984495116551388, -1.8152832825184224, -1.0188433260558716], [2.092144660610478, 0.02053943234322662, 0.5734722365774435, -1.7822109224594138, -0.9552994250120398, 0.4356482764755043, 0.05050382099596827, -0.1562232278664248]]], "biases": [[[-1.340206721075953], [0.7724105129092992], [0.8473764189613797], [-0.14188084140412754], [0.6554135427550581], [-0.31638966776190286], [-1.6960617857744174], [-0.8833456182221243], [-1.3302875659061248], [0.2533818828098426]], [[0.06478329269923334], [0.44499089592448776], [1.7128078824966024], [-0.5265489423639031], [0.13588856786144846], [0.05986165321262758], [-0.7324372517607246], [-0.46123979067637816]]]}, {"name": "test7", "score": 7, "weights": [[[2.4299177449251266, -0.22483752666821533, -0.6988969551613133, 1.2055612809593637, -0.4078629233922587, 1.6146253253974576, -0.10010949310623093, 1.6131206910563465, -0.6719270715085848, 0.5498644717210553], [-1.1258480464492606, -1.0908603052580699, 0.5971395467795985, 0.9239817960872382, -0.5117946415211307, 0.26769798915098697, -0.847202166440658, 0.5522364858360337, 1.7500704714590627, 0.5482624009356514], [0.8293235240055705, -1.1506389910751933, 0.40097794300617173, 1.2339196375807588, 0.008688473778395336, 0.34037448298414663, -0.5967026975007733, -0.49463261676273085, -0.5967881891271064, 0.3559743203155927], [-0.4412747514588733, 0.8523853777282043, 0.04967155533978073, -0.32496233610095127, -0.27658181178712443, -1.2086302721422277, -1.4844036630780564, 0.5991726379994272, 0.49130092508263074, 0.7247219459920906], [-1.035059950710984, 1.4080297619790871, -0.5678127362876098, 0.9367820216604023, 0.3873170518181584, -1.5201617635856428, -2.0133229073977033, 0.8466736583869977, -0.5968792522321216, 2.0033927020966784], [-0.0015668406727104753, -1.4756144556906554, -1.0640793633506216, -0.43880038427966406, 0.9093806667640177, -1.2149826697412407, -0.6037828301720986, 0.7912234256761604, -1.1845005866245617, 0.16098757739744843], [0.3700014409910974, -1.63380800851849, 0.4584608923924647, 0.8667785167751386, 0.3347095822802019, 2.4845302805702536, -0.07200004050960448, -1.2376521989749967, 1.172559673734114, 1.4774087537089615], [-0.18020634244747347, 0.045702460044129076, -1.3162980882452782, -0.5545616022723634, 0.4338013051756768, -0.13966465770316816, -0.19616274938679729, 0.5366884720525983, -0.8979937060368112, -0.7453763690020526], [-2.0327503218353824, 1.180500204949885, 1.9672792573024074, -0.07291934934302843, -2.096501736724952, -0.35681201870997076, 1.7153842786832119, 1.46173268920521, -0.29332920800220996, -2.5510296694778223]], [[-2.5376839236872506, -0.5123802907800623, -0.45414651075327206, -0.6480629053522844, 1.5304829195028984, 1.8022357408330503, 0.3933634569034556, -0.1312392020658565], [0.3657461611546429, 0.3427136728122919, 0.2619288024746706, 0.28129604320243373, 0.186168222376874, 0.8623258140679951, -2.0610989270357263, -0.6498173328805675], [-0.5763411185980805, 0.7800088402540142, 1.7153653206240398, 1.23446744034985, -0.7082323842398416, 0.28408564780275525, -0.3090095660059861, 0.9329955043305495], [0.9542369025137927, 0.12099639709208809, -0.18401276748533132, -0.9775509109878305, 1.0051920904536407, -1.6230417495058496, -0.08849817837390256, 2.4417938389838145], [0.9467470671732547, 0.4526597025990459, 0.6093044791163659, 0.40929265690946903, -0.03374597054593373, 0.566344426334953, 0.3740106579408288, 0.9639379569508971], [-0.10330219471117656, 0.4541388390362411, -3.067824901872109, 1.1089563857841656, -0.360557998936799, 0.42475337235157445, -0.26750796276431116, -0.36403225973634334], [0.9456899361609571, 0.80475550713803, -1.2908767323226127, 2.5661818658457407, -0.8576249782259965, 0.15079609131313565, -0.9280390869792208, 1.4258216856564851], [-0.938712012061181, 1.023215297565051, 1.466831417345559, 0.6505212012011221, -1.778342602497267, -1.0136676197812706, -0.66691771483849, -2.1528012794976736], [0.1508289031466861, -0.03193604320182759, 0.40986069334493513, 1.0421762076799648, -0.6832793071500419, -1.3536905237377537, 0.14971999013968673, 1.1488617114690738], [0.6818420434985947, 0.36221394090285686, -1.624319454815254, -0.07121453650378609, 2.784200863165242, 1.2241745585881316, -0.6499898311153669, -0.01313893326052639]]], "biases": [[[-0.02417699591863902], [0.2502077183623047], [-0.007114733754067325], [0.673948783890225], [-2.3925690621584517], [0.9221362802095044], [-1.1614769760903467], [0.4146896760694152], [0.5266521990665546], [-1.766000693013545]], [[0.5428673043930589], [0.4210905897720047], [-0.7413947807984506], [0.8267202728600572], [-0.22990135623117677], [-0.14241204031721835], [-0.15794982930576928], [1.446447479719039]]]}, {"name": "test8", "score": 8, "weights": [[[-0.887270804325631, -0.2292768487552579, 0.24260314710008812, -1.1553867789062382, 0.7540530015808093, 0.04680181112434062, 0.5735167535471345, -0.4928591890118256, -1.02014656408528, 0.1301586476624004], [-0.14377263681177796, -0.7534398907473998, 1.7916927813915868, -1.5935581267550574, -1.6031367761253235, 0.4315507989440297, 1.0518438790450653, -0.9579556064887952, 0.9543233640523022, -1.5381365048361506], [-0.7420503892348064, -0.8864724031922866, -0.4749883617002846, -0.5463799412963253, -0.24430211718216124, -0.03866381672201942, -0.0765459092527741, -0.3220923313406345, 0.41732552194730244, -0.37228596242366496], [-0.8606606717854521, 1.3011716084370457, -0.03146712417542151, -1.3641065405769044, -2.7090815723251227, 0.1655401323894128, 0.41687440874269033, -0.6887380524797554, 2.3720165515314577, 0.16546040657873093], [-1.5314703252584494, -0.8534668140087858, -0.37141443248061445, -0.07675604580575056, 0.2829427838954607, 0.6462500583766181, 0.7208763739011164, -0.5053820971701894, -2.9754208119453747, 0.1574700738697075], [0.21107481919287976, -0.08243009588600646, 0.09430764101755568, -1.2421464892635368, 0.37858260341571254, 1.032660357373131, 0.030417060256144785, -1.2721622591902289, 2.0094746407030213, -1.2820547208045672], [-0.4743493827676631, -1.372927286820084, -0.9246904821684934, 0.09430641071548902, 1.0629769594809648, 0.5010031438330209, 0.27651868034295457, -0.5969690108878519, -1.620417207612099, 1.4821017204891165], [-1.6852160228678632, -0.25628199716682076, -1.2123673419852956, 0.514480680515996, -0.9705058536626241, 1.049820194586202, -0.6746104844115361, 0.9131347389468857, -1.5160956564085013, 0.821289816404739], [-0.8073932568280947, 1.495423281850222, 0.811632623743974, 0.4553608171560765, 0.40404240127056495, 1.61192804071528, 0.41740771695710677, -0.04620310976696631, -0.0728519044711018, 0.11231072763863462]], [[-2.166773567905573, -0.50029155516432, 1.3296135971335363, -1.4222989359569544, -0.2516491373001437, -0.21453131430645478, -0.41034567752193707, -1.381501580461498], [-0.8747019996411554, 1.2703465221380053, 0.11633131187552014, -0.08226304189338135, 0.7268139471853136, -1.0873231907357401, 0.0006940093220697072, 1.0037202732404884], [0.22227385874203562, 0.25260232605465693, 1.1256371780686212, 0.0319106816262905, -0.5842425110636745, -0.1389469947362069, 0.7993971257724484, -1.1554202822948891], [0.8044789890354351, 0.536893894643677, 1.0105587522667023, -0.5067599667205712, 2.1112480141695107, 1.2617062059490038, 1.6948261358839962, -0.09335278279890422], [0.4193136006293514, -0.20536629582508362, -0.8262511154336399, -0.7382515123646467, -1.1855937017502831, 0.5796708288498903, 0.8594261497928853, -0.6166180365232041], [-0.047773696764218304, 0.3421023465685416, -0.6778224370931983, -0.25671448620982873, -0.055463634390918025, -0.7393833377175988, -0.20163557100280588, 0.45677375669349723], [0.03857299248639647, 0.9216455882857493, 0.7490256387194769, -0.9623369659836903, -0.1736181474434635, -0.5653075257883711, -0.7911949749970508, 1.9034493477704044], [0.2966728574332837, -0.25191829960228707, 0.8949490442268166, -0.6496998360428734, -0.04416267995415407, 1.2021696258864376, 0.778891344129769, -0.34926160430317366], [0.06512582738647309, 0.4870994279376495, -1.4572072620624432, -1.11223618619137, -0.18172714984603633, 1.1080077437108065, -2.179017059523285, -0.16014491980965753], [0.6860269251264879, -0.12903193816455677, 0.23147970910673718, 0.191027843964213, -0.4601894332397305, -0.6967411101016662, 0.3520682293065807, -0.6111278350535538]]], "biases": [[[0.6977657444311821], [-0.43948022247510016], [0.3199692592232337], [0.6018884800090275], [-1.0822943145955022], [0.21081650071885205], [-0.7869737327762517], [0.3528783157298148], [0.0736834291662533], [0.8313237129198628]], [[-0.4069782284458684], [1.0777243329679569], [0.45197173893427767], [-0.8898197022535299], [0.5071009673049047], [-0.1965757491956383], [0.500377496591073], [1.0766231270597242]]]}, {"name": "test9", "score": 9, "weights": [[[-0.6248881756852697, 0.8647035585217945, 1.0711687122631846, 0.055632300395969246, -0.3952286904022803, -0.6559389999198122, 0.9222137248492475, 0.27639067420748736, 0.28842000001198576, 0.21559524337244163], [-0.7406835239203405, 0.35317408013659346, 0.6737405690125475, -0.0035808567673956348, 0.288250002342754, -0.2510621410316167, 0.5851767633773425, 0.3456885255286559, -1.5651539058311692, 0.26689430570483635], [0.09962690531559562, 0.998849831129392, -2.4105829882695793, -1.2141986897778765, 0.9231757357158547, -0.6863627627483154, 0.7865927867434128, 0.027933601757688383, 0.0971840970543186, -0.4315162550959056], [0.17478117865790435, 0.48333359604572734, 2.5514402861847256, 2.151217053508835, 0.6087440973819964, -0.9249771088993762, 0.8627104435945775, -0.5907664767795889, -0.7837115311419174, -0.10263355204499829], [0.02375240141136386, 1.3566638386241963, 0.6307504320011197, -0.6351294786354152, -0.42976430313427044, 0.10178054462292357, -1.1395637992257768, -0.37917154600059083, 0.9581708828960096, 0.17076205926194568], [0.5323246955699813, 0.4178020905326157, -0.22479142849417616, -1.9188356969205649, -0.8993793656141655, 1.1042084023039858, 0.007077477473756792, 0.7413522871290054, 0.19715636511122453, 1.4695744872216563], [1.3482315858910108, -0.2834483335686007, 1.2722929771995055, -0.9144628046091027, -1.0144144948489215, -2.16162403288567, 0.7356342965369993, -0.5281245997503019, -0.07810181147546814, -0.4657588932894778], [0.5239659795645927, -1.0865041085114846, -0.5758193684840524, -0.3211348868627119, -0.023031648698180848, -0.31173336474468594, -1.066805341519976, -1.0353770391279988, -0.8528177564825431, -0.9857512476736132], [-0.12457776395284872, -1.4768306601096575, 0.9217093418704885, 0.11282118255824106, 0.530367416622856, -0.6586398845607206, 0.9876349541520066, -0.1475881232580027, -1.096009350060477, -0.6940008417102281]], [[0.5960428128170152, -0.043178596658100976, -2.175889407355305, -0.9373516589891351, 0.4881980602617118, 0.7445109772172462, 0.2923533087948346, -0.74287135897579], [0.05427007794268685, -0.009072430496589323, 0.33362259995895976, -1.52658252898709, 3.056254452218894, 1.6785474220328727, 0.48881443478563447, -0.49667901600134645], [-0.06717445550171994, 1.0680510783725914, -0.9147437432149538, -1.3606333156510757, -0.7116635346797249, -0.559351443178411, 0.6810820714539533, -0.2200333132022365], [-0.3231152349861168, 0.3841373637984931, -0.35536142707357743, 1.8732962959970973, 0.905905582416463, 0.5325794123105526, -0.4184630035895471, -0.08403186807302294], [-0.3579117907199231, -0.06238877139559346, -0.045532083416584566, 1.3869470925969334, -0.49559882743449174, 0.3718267971838679, -0.9484087106049257, -2.276487470488731], [0.3385526659685614, -0.6424414369636405, -0.6157582277281313, -1.1582821334113087, -1.064354641915791, 0.41671746119869535, -1.665549009799985, -1.5218565100044088], [0.9553920473398927, -1.327710150299592, -0.8646603591233308, 0.587620589640432, 0.3992280653531149, -0.4083810580710842, 0.3218440935997079, -0.32910449337462494], [-0.3273471420552753, -0.3005400222194997, -1.6495088718419473, -3.0493366118169227, 0.2596539960140637, -0.9958685088927802, -0.10916853658625314, -0.1998461329480548], [-0.11993375555317348, 0.13381431320769074, 0.49047621264448593, -0.18084696216811005, -0.25889944136511345, -0.7818121115153421, 1.3615441713272531, -0.2230764876446634], [-1.679038907072138, -0.47239023200083075, 1.0068539041228455, -0.6675360771960351, -0.311268492685301, 0.18333749930335316, 1.495615968014264, -0.05917972982007907]]], "biases": [[[1.121455934936483], [2.114244148888547], [-1.3431232970264713], [-0.4082970803812786], [-1.431461605765543], [0.39172212159934644], [0.9497114957843732], [-0.6424270932735628], [1.090678508513683], [-1.1081340448257189]], [[3.1757409211173226], [-2.0243877656560283], [1.211797644110404], [0.5108751073447458], [-0.6844959000307901], [2.192100519465063], [-0.24723963569477], [-1.8748600328664997]]]}, {"name": "test10", "score": 10, "weights": [[[-1.265671566747312, 0.7228962711793602, 0.21486300462518068, 1.655408218722306, 2.089328799877161, -0.9769858622545958, -0.16192730281617349, -0.7713515516987944, 0.22798691833759588, -1.1257879970456373], [-1.237793637910306, -0.6632768594376218, -1.0545037402191133, -0.03980341432648038, -1.2168537935753043, -0.6881989243883315, -0.5693100562600291, -0.41122717820427784, -0.08988308325351756, 0.4014322625000255], [0.9821264336039542, 0.9883244858825715, -1.3724984505475277, 0.6996509668747164, 0.027928432034392006, -0.04255786469857214, 0.4539127005966783, 1.442026372232255, -1.3349801815059503, -0.24672102731935205], [-1.6392122329856493, 0.42176306773821465, -0.33265756019626014, 0.22586176682042103, -0.4396922168677208, -0.5406755054918774, -0.8872811850235787, 0.6571921219914405, -2.1450064044968506, -1.2056029812703768], [-0.9206247254023663, 0.5042576287958455, -0.8505179969142771, -1.7168317755316376, 2.2242797894931385, -0.26123073057044316, 0.10386823635394514, 0.38325771098158107, -1.2312677432458479, 0.4181455164897998], [0.05559988203794575, 0.7222632972062251, 0.8354625963696293, 1.3236918034014205, 2.09077445200406, -0.1070162262711349, 1.223494125725221, -1.3898336390540715, -0.8085311005646457, 0.01281964029338826], [-0.05858746805086223, -0.2695475571257509, -0.6821133903289037, 0.22256689333860358, -1.5625870580982866, 1.6057887998999316, -0.17264310712608658, -0.6531149406495168, 0.3320479624024798, 0.011860203092468602], [-1.4147011747698461, -1.5575698330825714, 1.0353256137194073, -1.6332422693711501, 0.795772640489966, -0.9188079136551197, 0.06211914926537996, 2.0830476269274265, 0.4008252857201551, -1.1469975947049424], [-0.24731897648294388, 1.4481459609377654, 0.33705154020369954, 0.20864469589779008, -1.2245205540224229, 1.4502092957103956, -0.03232377840684209, 0.2882819435195796, 1.8992404691147429, 0.008108008772179086]], [[-0.6313799433976476, -0.5534602041310849, 1.0658159127292133, -0.027542759023053996, 0.6681261319640417, -0.2606225084578045, -1.133066344109337, 0.45821862334238916], [-0.12855389367700867, -1.8663131914121298, -0.22442563328910758, -1.9137600475274033, -0.034075863369922875, -0.5755337967109351, -1.0908160281415356, 0.40553491886322046], [0.6989516468123878, -0.8713502514767498, 0.6210257018575674, -0.48580016948633103, 0.2998258016058032, 0.28474872874028523, -0.12540105256483353, -1.164453187461136], [0.019073946370826978, 0.9522155870903267, -0.5307173408268461, 0.6314281439246695, -1.0467774017557507, 0.3670226307147896, -0.6641125825708597, -0.0693132976857469], [-0.1393788301317137, 1.5391649095515827, 0.9251172183728675, 0.6024643884548325, -0.2665131697689271, 1.0141096267124734, 0.048199193456266554, -0.47414521895787876], [-1.1777796995409722, 0.373825235143864, -1.1973543102362605, 0.30836817605307854, -0.6744511913250855, 1.7972205317064283, -1.2582365996833924, -0.38829534523393183], [-0.31142381389383017, 0.22981328983569493, 0.9081212482749104, 0.22835906728369904, 0.681705576011995, -0.9473584972039584, 0.05605788432957439, -0.9533587795472129], [0.867446200159822, 0.9211097222252, 0.46205237014746015, -0.09035819118641433, -1.9287905887973766, -0.05015557759584993, 0.6227655131587926, 0.5067145495695906], [1.2011051812511875, 2.0968791114509155, 0.8223770441561907, 1.1880136537109873, 0.5359692603047026, -0.91616333903576, 2.0301489767397958, -1.3297762285641903], [-0.5839215485181634, -1.5471066252476737, -1.2754005195863813, -0.5938165991943833, 0.7716707171835744, 0.03241377886183908, 0.7788104342723209, -0.15948331569052815]]], "biases": [[[-0.4213629872372478], [-1.3209466903603206], [0.1169547884866497], [0.24716141568930172], [-0.6536599606377719], [-0.889294739659444], [0.879535379450324], [0.04876107951350056], [0.25018024827791047], [-0.5425975300637356]], [[-0.5579544054933103], [1.787595779348032], [-1.3951480489274661], [-0.3658036335403996], [-0.2782611292504747], [0.9427873763509674], [1.4213882348675042], [0.6740364329795143]]]}, {"name": "test11", "score": 11, "weights": [[[-2.2804499274071994, -0.41636443639256676, 1.8755455431966235, -1.9802495586800875, 0.2511204360571521, 0.5731059825563647, 0.36931444913998757, -1.1937995127473597, 0.8217482675369154, -0.6628769651380805], [0.4622312238029848, 0.975560351973204, 0.2771340083898256, -0.4119762296394842, 0.04048599498179687, -1.2115348580889123, 0.5580497496905169, 1.3105679171404327, 1.0387373014510433, -0.4208283607871023], [-0.32747813241885804, -0.6319817095090057, -0.2931373034776178, -1.2032522512451065, 0.7763094882884922, -0.5551646960885727, -0.60671496652029, 0.7601778822011204, -1.8467511690772027, 0.313109208659324], [-0.45325083888142514, -1.1923388575723228, 0.07651862670905916, 0.8866372524753553, -0.8659083981665571, -0.05675813043858542, 0.10863690509251699, -0.7141968351623946, -0.06350155503705798, 0.7457514565746486], [-1.0692713253973893, -0.47611833811923165, 0.43446918592861117, 0.031845722816906216, -0.6685225361699643, -0.35720462091381006, 0.19475745227830124, -0.02429020254293728, 1.8176942851637508, -1.7816828169077676], [1.5306890535331505, 0.09918574916388065, -1.9103567242247392, -1.477076827181277, -1.2843683121415734, -0.6961856294607519, -1.1139545958233839, -0.745997662516445, 0.3403742464320924, -0.6524310162254549], [-1.715921144705028, 1.1175471862125954, -1.1649407151902476, 0.5648068730874833, 0.7080576354091996, -0.21547433932599103, -0.47762851196401096, -0.1745080685121355, -1.3434741920286166, -2.5125046503319104], [-1.6240294016908314, -0.5147678811950388, 0.4763220763981486, 1.2290486363677993, -0.915845428857451, 1.7560568013792048, -1.2961715131292675, -0.22205642439450124, 0.5092199185038506, -1.1175739328725016], [-0.7083387768204189, -0.46419436709413286, -1.3053342100011975, 0.41915885515232715, -0.5794465390471637, -0.47070157034448895, -0.06795199720686179, 2.150687626729014, 0.258301684308418, 1.8074382381568836]], [[-1.6630274216873961, -0.9318122717544722, -0.4529628002051671, 0.24590455710230535, 0.11689813597235577, -0.4541454344752828, -0.5313831796692156, -0.09663047996754373], [1.7278782524615655, 1.7535567411532353, -0.03726766166669511, 0.02627304221153243, 0.21792809885320488, -1.4434324122625464, -0.2614646692107245, -0.15416336448199308], [-0.732418186713701, 1.3068315096486642, 1.3003173785549176, -0.14765653473972856, -0.5491158249443198, 0.6432025978753799, -1.1292027248208945, -0.6011979644482099], [-0.44075028965526436, 0.5900247632098559, -1.0510163129155032, 0.4097387135185962, 2.318196430262106, -0.05755626524720576, 0.19312641914799422, 1.4186843365943331], [-0.22233251612552168, 0.07467056126671584, -0.06400921117544398, 0.7400904428889761, 0.9795194444300916, 0.023235217066611177, -0.8435897297805064, -0.38530223293835786], [0.7180973293896604, 0.07729620859186034, 0.7585585862988722, -0.5402324114642304, 1.1892100573201771, -0.42123995727184943, -0.4282229402319431, -2.424575135487503], [-0.2922454887306239, 0.708923633545675, -0.29039701374465193, 0.2765929811730615, 0.5614328269291826, 0.5539808244099628, 0.39847099171014017, -0.04097811913185618], [0.39603108481561716, -0.503230259414037, -1.0987815492354027, -1.7186110598886781, 0.33924594323800866, -0.909331737628629, -1.250997635374175, 0.3382818274920878], [-0.24352765014777808, 0.7505233335266394, -0.13214598895648896, -0.08894912487857294, 2.8125707584045587, -0.29939304147326173, -0.023173015156518945, 0.5320341335426633], [-0.4674445747215824, 0.37755366146835745, 0.16925161752751733, 0.4271656935855654, 1.2687382726826177, 0.24175376915880809, 0.44674617532508476, 0.27255246144611595]]], "biases": [[[0.42086598077691767], [0.3253833407928106], [0.21877694591437158], [2.199430490145955], [-0.5976321451702077], [0.47980130557547107], [-0.23070042313303515], [-0.24428491934706525], [2.213434501406503], [0.10368715750842351]], [[-0.008080642330079161], [-0.35541525245286193], [-1.0170864638943562], [-0.5308589383231156], [-0.9641593501770324], [-1.1050285009520695], [-0.042562150227812796], [-1.156310888105345]]]}, {"name": "test12", "score": 12, "weights": [[[0.1358571723201312, 0.10692332240897014, 0.8123963184357403, -0.7736492034165194, 0.9647882843088776, -1.106857957501844, -1.3057398118207784, -0.19378630096014815, -0.17508819892664018, 0.37700395181391244], [0.30288895742598526, 0.42658239472325726, 1.1334362663967439, 1.128804700915131, 0.34376162417958506, -0.09240888373231453, 0.9305886155747621, 0.5694763257626517, 0.45039249349293176, -0.32771952761198536], [-0.21030921331828945, -1.4585132512466803, -1.1285416330542735, -0.41669043558786945, -0.2655386510958488, -0.289879877168627, -0.08585184009818933, -0.4743262557436113, -1.3283286565949006, -1.394361052349402], [-0.4103952875895854, 0.23191635362434962, -0.17006871709484295, -0.37058845407639734, -0.7824368033571723, -0.3574615885385727, 1.9205779070324005, 0.37541810997441843, -0.7400789256974664, -2.6023249959303625], [0.7759387526108648, -0.464925466131212, -1.4673053746788405, -1.6272879113364047, -0.8562346050034286, -1.632363100309439, -1.482695571570692, 0.695143170799185, -0.7122248800513424, -1.093456731636133], [0.40579166222555485, -0.18383409352989874, 0.0936164019005402, 1.1391904186002595, 0.5214858982445238, 0.3335092086749028, 1.3160889012922181, -0.2725849080466097, -0.64685912483029, -0.4692199414027239], [-0.11186598594710163, -1.3773270469056176, 2.220862703318217, -0.1231583313654241, -1.0939685913708002, -0.003083832143083936, -2.0327122900675403, 1.0215985438998971, -0.461520617756884, 0.6523368449980916], [-0.49820721561874814, 0.3504906728650382, 0.1527615602356554, -1.1030232150449504, 1.6722033530495972, 1.801500988102855, -0.1080432561719585, -0.0247200390211519, 0.04343112260849502, 0.05487421293054767], [0.6220472683603289, -1.0435006961140338, 0.8056553898660919, -1.0181907044812357, 0.06922590856057473, -1.4752642354647427, -0.5371968588540112, -0.05763729910064811, -1.3021817872562471, 1.3393969640860273]], [[0.7223237649179329, -1.3501944861212922, 0.40386432414031725, 1.4962250424054364, 1.60356000838974, -0.8163217906894681, -0.6992671533290289, -0.9710125395916964], [-0.4284658430780912, 0.18936381473524733, -0.0153535559572192, -1.0079002698916155, -1.8245750908313991, 0.7225519050507567, 0.37740096723601796, -0.2951865025323144], [-0.19978277060930993, -1.3587387140515952, 1.1668970566057577, -1.3609605978001875, 1.0626981899724117, -1.2298277908628439, -0.5898375642511775, -0.46200701131422245], [0.4862830986349246, -0.7257206710141618, 0.34195284346681415, 0.16529781167159158, 0.3695547536502619, -0.9426646812190367, 0.07535654545813444, -1.3084727796346183], [-0.9936001821264175, 1.2030817692766218, 1.15499832781355, -0.9882493877800724, -1.6742640466233152, 1.3019445809409023, -0.12067655548310038, -0.12057579933723196], [0.14788438405425394, -1.8315516398231495, -0.9077636450795282, 1.653773217967814, -0.9496404610320215, 0.050932307996242425, 1.9345823117630638, 0.9890877067715437], [-0.7278807029175124, -1.0607899852627067, -0.754854282889657, -1.2563670186767317, 0.2735912506266973, -0.5140544426768711, -0.4804579448377581, 0.4770732640448038], [-1.2813887246854403, 1.2648712672515436, -0.21771492888005728, 1.8367740450706258, 1.0315170075282927, 0.12374132413212739, -0.6749278164656635, 0.6283266274557174], [-0.8485898522571051, 0.3845003278440028, -0.8324956626204003, 0.13966688659561036, 0.6272619296452365, -0.33885838025232473, 0.6758095001565615, -2.02684642444924], [1.1942527540250123, 1.5240606092717135, 1.1889482261798003, 0.16558749915320098, 0.07731808940318494, -0.18095316163314631, 1.2128933415992456, 0.1695861395375472]]], "biases": [[[-0.2741228735692597], [1.7516111477024578], [0.17693276487225026], [0.2580899638880143], [1.5435227936580482], [-0.1533232143023589], [-0.12873111675456553], [-0.766559652736032], [-0.9655565782602812], [0.233203064467397]], [[-1.3519696364255398], [0.6931991958956222], [1.6499087941588484], [-0.31043281580086046], [-0.9430258223420015], [-1.6486710213658264], [0.05529063553978258], [-1.3437281038241002]]]}, {"name": "test13", "score": 13, "weights": [[[0.793616441069818, -0.9458417628432834, -2.245353310309693, 0.9847786732125593, 0.4180840764656397, 0.0822969310733755, -0.9281395535124667, 0.0286283965200665, -1.0679979669589756, 1.2734298895580616], [-0.96524476211656, -1.9652028716458263, 1.056876071298896, 0.36763935363315925, -0.4525982074000154, -1.883052537024515, -0.04393610499438932, -0.2989073849312252, 0.42639277367759026, -0.34564347999841083], [-1.1308268796376038, -0.4171035664150603, -1.2422112178113327, -0.12410974977162648, 0.8538912473059458, 1.4488895940983615, -0.05544027337989769, -0.9574649135314507, 0.59043462100362, -0.22703479454806091], [0.5142583400752323, -0.13317546372939845, 1.358946023977228, -0.7927459150141626, 1.2254181274576752, 0.015975983018116487, 1.2152874688792104, -0.3161130935578956, 0.4722078081000169, -2.475062698075869], [-0.5948731516804794, 0.6578554162552556, -1.4766574347404915, 1.1519985098007204, -0.40954791627695836, -0.6112543413262932, -0.32285903472740957, -0.2196636965164533, 0.08051075396021119, -1.9747802966564867], [-1.03574930223254, 1.1234267940038152, -0.7163959602768358, 0.42329764885271665, 0.1008408183843538, 0.5392039880498819, -0.6034962766638418, 0.28929828474993874, 1.2320030980339465, 0.6849979097809207], [-0.8365151190476876, 0.24852022232738835, 0.9602475217322234, -1.9156142133933922, 0.4688578101195547, 0.2887855307116497, -1.0155233896742057, -0.10815294371210077, 0.5668168733316638, 1.2738332270601773], [-0.9214573504680115, -0.1303110736793148, 1.6014640706693801, 0.8021064974066922, -1.3277851536329124, -0.4070928093719497, -0.38615035091342376, 1.1702581509086891, -0.1832298321581943, 0.8374070344195514], [-0.9438099373734408, 0.6878614930132984, -0.2921667196235119, -1.4383527798886184, 0.8255314554071622, -0.669826306142936, 0.02494001763913304, -1.184789783496444, 1.6307101422599968, 1.2051407993121932]], [[-0.5248629305985619, -1.0484821236962083, 0.08872751011622364, -0.8001685462574823, -1.34262768691946, -0.7587278323589617, 0.9163911038602807, 0.21626703604106504], [-0.5148527641795378, 0.3883178651827665, 0.34859705622032544, -0.9053890374757524, 1.012214036517884, -0.21807813426573924, -0.3561509873687441, -0.31279038286619254], [1.629535473116753, 1.032495504816157, 0.7036229928992878, 0.7665336671658824, 0.9101700969042896, -0.45857863400717414, -0.9620446194972054, 0.9593189576292169], [0.2944356315419093, -0.4754839508816575, 0.038815856853442306, 0.9789170796314303, -0.44771905480029717, -0.8017364289160892, 1.0011439498071983, -1.1473846040754645], [0.2241131127237317, 1.1409694754879656, 0.9642233940458442, -0.8065871084921417, -0.71270194200571, -1.0826651272429373, 0.2612839188061846, 0.07643621347323998], [0.6236276977911095, -0.024566289672289576, 0.3022358245482296, 0.7771872462489834, 0.5558036540426379, -1.0506532368133994, -0.12764450028383378, -0.4619378464961816], [0.3572944632946237, -1.0287331198185026, -0.7305336047889205, 0.8168497047434715, -0.6682838503014796, -0.092909379915323, -0.47629281650296496, -0.7259158155176441], [1.1615645461532307, 0.6162013894572023, -0.7953633973574703, 1.2883990879565195, -2.0569240060889182, -0.13644210634763268, 0.11162764738410413, -0.7705503878653862], [0.08947167399614372, -1.518937965975416, -0.4751507760013018, 3.4410985248934822, -0.522561165324837, -0.5786769258897249, -0.7389049609401314, 0.12445103262305625], [0.13668527496652633, -1.14471470238672, 0.2551775102559373, 2.3625802795954205, -0.5570291964774571, -0.4478120420387393, -0.6160865125707066, 0.41226713366799683]]], "biases": [[[-0.8377705284794454], [-0.656008546182458], [0.1826890768900103], [1.4663201744830736], [-1.4442384573796032], [1.358160175119947], [1.0650158265547813], [0.5825093012824163], [0.5608440181104912], [0.4429749176532779]], [[-0.36407870560966243], [-1.3741705020893071], [1.0968544971457423], [1.241200539027681], [0.344856404894279], [-0.988509265785567], [-0.06855192086240772], [0.23886702066143578]]]}, {"name": "test14", "score": 14, "weights": [[[0.2948133752904438, -1.9647777584853243, -0.1111586095205108, 1.0464521599505645, -0.7496551228801377, 0.5607758871789063, -0.27109410451735544, -0.1526132188498437, -0.1657269269528879, 1.5628886477887622], [-0.13215252377579875, -0.07091317926306098, 2.7118530542915624, 0.049876460594592026, -0.18450234446303398, 0.45766760597467465, 0.10810336657611866, 0.04932075082756041, 1.996641079421801, 0.5690281869061353], [1.2203823780813412, 0.7695127599343627, -0.5593792927400661, -0.7724999377042907, -0.7694501275519345, 1.333029528664753, 1.0108246460981936, -0.9538878737373109, 2.047924652568442, 0.5455757827235509], [0.05342173278614101, -0.6471241861420451, 1.5239633681297602, -0.27753491800446467, -0.12568571125015363, 1.1097064743029872, 1.6111281391171208, 0.6823993909424135, 0.9949013992372235, 0.059827728123391134], [1.5766054601622657, 0.8397903111973718, 0.28217719116342416, 0.7198401505996163, -0.8745215940053523, -0.05946368070082455, -0.4816341560578877, -0.748124333489816, 0.4024301103616101, 0.1694757036704426], [-0.11891299635413415, -0.19587955017221217, -0.8755314289807361, -0.5030924534788243, -2.2927365208215673, -0.7640764658333598, 0.2560428447257451, -1.4681330918861162, -2.4045852204480966, -0.05548475123294986], [0.6814982606235142, -1.7124188352291236, -0.3920469197884037, -1.330788603982612, 1.3865299067097774, -0.2586867446932398, -0.36244345444382375, -1.2585053600590161, -1.0319482291279245, -0.7725241485776483], [-1.7031013132885953, 0.8172668799874496, 0.7179145080846097, 1.399549576203512, -0.640206886297484, 1.7518525994641394, -0.4956834736598443, 0.3199251185552638, -0.6396338978887187, -1.4381954234682455], [-0.4752483969167633, 1.6210019263592883, 1.0334248544132933, 0.48555430292046287, -1.9659725870747484, 0.7877336547439389, 1.4542113033931792, 1.9267137541898653, 0.5211821422366728, 0.14884161606589094]], [[1.2303748638792107, 0.900316640156285, 0.9742497434755769, -0.18028894346271793, 0.762554012317212, 0.9586184191779372, -0.4840963451192998, 0.8990185103564085], [-0.7506348275003837, -0.4836020164536461, 0.589876235666898, -1.8320269405397656, -2.0933182283555505, 0.5299305556286763, 0.10177933685601519, 1.4390687282114227], [0.09632992238928716, 0.3240721228582269, 1.3837648237299625, 1.3295535798588167, -0.8213366044630522, 0.9629869786541089, -1.1105658730647747, -0.7380033413187364], [-1.3694595871656974, -0.22509060468360984, 0.05019251701707627, -0.699927328399778, 1.0523376923407537, -0.29984068611985126, 0.0030453407009024386, -1.854531859098629], [-2.0078362584528184, -0.4933456585518772, -0.6082867707193366, 0.35770351480316537, -0.6563209235118147, -1.544580539278353, -1.6190397503324663, -0.01428285087370384], [0.8773117517965131, -0.4466584363873804, 2.5947397466725577, 1.035769697718129, 1.21034939502062, 0.057980850698883, 0.6687062281011518, -2.0872002205853524], [-0.4663488337648991, 0.8292708703245553, -1.092299272094142, -0.5148560708041613, 0.08929867236972679, 0.2580286589354109, -1.5245968975826987, -0.03035498133619728], [0.1511745400935174, -0.8745827308737532, -1.5431553166234986, -0.1432882427556133, -0.645198314125696, -1.2418447444672738, -0.9460496998828363, -0.0052016679732551155], [0.7422953875607365, 0.4352776058248161, -0.25041668271069867, 0.33917501475849954, -2.6198557056127916, -0.034241042578768414, 0.6097430609782837, -0.7797993419131823], [-0.6841151987743929, 1.017881984901093, -0.4575271695577743, -1.6137962131430772, 0.26808187864140764, 0.8581792679280841, 0.3377726706186964, -1.103893212022719]]], "biases": [[[-1.0204702657656066], [-0.005091220456741844], [0.1686585376911659], [-1.3201373669645868], [-0.7510150157417117], [0.7314148118566595], [-1.0314132368084878], [-1.2408921899207295], [1.4878555348891263], [-0.4164738786177434]], [[-0.7521258438905336], [0.32771435670433974], [-2.619064286060468], [-0.09288181509530925], [-1.2548982971302907], [-0.14474108742447986], [-1.353354169701552], [0.4003852032161145]]]}, {"name": "test15", "score": 15, "weights": [[[1.5612486596783395, -0.20957347243305857, 0.7899103487958551, 2.032362240673766, 0.25731743874486357, -0.05934223578120203, -0.11554933650739282, -0.5374209116865657, 0.2874906682124597, -0.4421545874196759], [-0.544561594975314, 0.3390933973004648, 1.0658577174667219, 0.3735376400886923, 0.6920218741531087, -0.06670847919625537, -0.22976088055154742, -0.7618573160655431, 0.2423493017480483, -0.9079335208400018], [-1.062378650891422, -0.6542716358018704, 0.35229355508761545, 0.08394076646518404, -1.6655361981947978, 0.8385911774697963, -0.5495118810453782, -0.17031047321896822, -0.9281318837312941, 1.2354850246498619], [0.7942304899625102, 0.40998252675700225, -2.4130546285031103, -0.7538181550877002, -0.03834882667271563, 0.33825380977458985, 0.23850492463607598, 0.5124337898607296, -0.24078182746799834, -1.9911444366371296], [0.6304082480367277, -0.15769879646997456, 0.05282821232115166, -0.06037153752468122, 1.155816528692021, -0.6291978709995085, 1.0337883278671012, -1.6185116953809826, -1.8163801929231245, 0.12050427629587596], [0.3034431569901811, 1.0682095732757102, -1.1628569156143127, 1.2377512756665876, 1.3072326171514352, -0.1580078680533961, -1.1773004176422899, -1.38293660585691, 0.34430502326076745, -0.05662448339036257], [-0.2671913807795158, -0.07677512240284126, 0.42392521103089553, -0.6706764428477083, 0.2632269120206177, -1.2603920386269096, 0.29219369124660205, -0.6799036469049119, -0.6782134027689232, 0.08868337450358316], [0.1470194999817125, -0.5107564928243187, -1.8679152157074226, -1.7516745575737709, -1.7737055879487167, 1.240536251773403, -0.6763650775732578, -0.36066187142219003, -0.7490631748611254, 1.9111769688662876], [0.9509678622589639, 2.4556487237235447, 0.3863630526686356, 0.8123774995290901, 0.3609026750784143, -2.22977510743477, -0.008424084620929312, 1.5822897713369939, -0.4231145346653878, -0.3908614600283304]], [[-0.8890837018776123, 1.4413513137714822, -0.023939323884270593, -0.43419117412987573, -0.9088682372263477, -0.13602359151470608, 0.38797284999380044, 0.4252919951432653], [0.5959626542830825, -0.19239964976892324, 1.298582319857004, 0.49531462921653907, -0.5902148928674665, 0.3545998140383047, 1.2371921679849067, 0.8295792672109348], [0.31615267451976753, 0.12811174874518633, -0.1779714369699606, -0.8056430529486426, -0.15445742316262548, -0.6995594095168541, -0.9769274040390525, 0.4188440313569035], [2.303052225739867, -0.4781464780619644, 0.5433584394379722, -1.0828611697266766, 0.9597796945870418, 0.03761276254372982, 0.8558818451166862, -0.8685940051404802], [-0.05147094641213676, -1.0011508930561335, 1.0965648474003629, -0.5584941634492695, -0.46500435437300913, 0.5750545559179173, -0.9734767348605317, 0.8379090450812435], [0.4522762363924117, -0.7100718277122159, -0.05918946427452815, 1.3187844844213248, -1.3507722258611943, 1.6386418628848263, 0.402769741784355, -1.3941790818102713], [-1.2926204555274199, 0.8549579625872753, -1.0353625526805494, 0.30785270494149214, -0.5445085083740485, 0.07037934272967349, -0.7508850717704919, -0.45043560908629027], [-0.44630132893886526, 2.05040321168156, -1.6041713266594544, -0.10762049524940628, 1.742769789990806, 0.9082472090924951, -1.544768634601455, 0.9064032411776364], [-1.2399635818168127, 1.5908416532136382, 0.5129754454232541, 0.6309497870399646, -0.7657618807826091, 0.5287480235263069, -0.8363979931163854, 1.8253685274060203], [0.36744479086121923, -0.48461023980750373, -1.0819531320090172, -0.5098522457659439, 1.222307803963965, -0.7218226305127491, -0.40367558780836377, -0.9588526263246583]]], "biases": [[[-0.23993470267909972], [-0.03479991600842368], [1.253190939901092], [-1.9307219727094367], [0.519240186938703], [-0.6234326338386157], [-1.4889090075539109], [-0.395394545832414], [-1.1084725278675926], [1.069368261717666]], [[-0.46681417109728074], [1.5624404578764033], [-0.4680036740658469], [-0.7463235249482612], [-0.38669666597562086], [0.7280088860012641], [1.5591715330057334], [-1.1427896201429621]]]}, {"name": "test16", "score": 16, "weights": [[[-0.9549620480581431, 0.3247640002254744, -0.21827275626138834, -0.6205298701428709, 0.44323909453228333, -0.31501967474001535, 0.3847596963326445, -2.308117587558787, -0.5717934439534268, 0.3362704559175648], [-0.41132207006479254, 0.8525348337004974, 1.130261911117527, 0.9235695036578877, 1.601573563536012, 0.711352991761361, -0.7019670576495509, -0.5609778355094931, -0.3361757681881405, 0.3154993911549881], [0.03484337608001296, -1.1379535215600176, 0.8815847721804212, -0.770929771337814, -0.79438121184112, 0.07803207297513842, 0.9481672581313569, -0.013515921646594835, 0.10484689152105309, -0.5122931649181927], [0.890821487735837, 2.7784367307131856, -0.9406193934672353, 0.7811981599051873, 0.4340972370100389, 0.3221010755515157, -0.8888628261665323, 0.5640701217881853, -1.1260760130563974, 1.1839928404924822], [0.3033191888384579, 0.20810830431295035, 0.245944488570074, 0.4054753138071358, -1.2183306337014619, -0.3976843945907642, -0.7467400795940558, -1.3588139467516516, -1.7327323701679795, 1.0212174711701425], [0.6471721084369123, 0.03235977652502105, -0.06468874170233188, 0.051923044258740406, -0.5249319566942015, -0.1321400710890911, -0.21162988258181353, -1.0095654584680303, 0.9723434415318613, 0.16734587596933037], [-0.10777526180122309, 0.06336330664901128, -0.2995447192153124, 0.6661102999074439, 1.8309621515181347, 0.25484986296633444, 1.1359245712594879, -0.26857094510089746, -0.4231263450972794, -0.3880015609767014], [-0.2065322679966691, -1.238796216795331, 1.5610680088078683, -1.9322934241386374, 0.7069665105993546, 0.6242649172286617, -1.4407205576857423, 0.2590034782992071, 0.784220921252962, 0.1476939444540803], [1.3585444121603298, -0.7195529159268059, -0.3411336687519351, 0.785200534520431, 0.7275221264944229, -2.0437498413855617, -0.8343331416175419, -1.6736759352531474, 0.48443636300955134, -1.0179472428326208]], [[0.3675711761638574, -0.1532181945830187, -0.2997307148491141, 0.4376978589628481, -1.0456037561008706, -0.30944407319602957, -1.104337922359313, -1.0552080245475692], [-0.572338424870424, -0.7075846138005625, 0.7090774157629888, 1.3631039400491114, 1.11379803049931, -0.14283981643912327, -0.07059903417136829, 1.6271584662575482], [-0.30916359349023453, -1.5764663501226392, 0.0035873038337400588, 1.3387180554459526, 0.019354824822748428, 1.2697506939651848, -0.6491184748632978, 0.695766949469389], [0.1557336862736024, -0.6631652889013399, -1.0176386026580921, -0.2771460229584821, 0.09714033230013579, -0.4977881376909023, 0.1755745350268342, 0.6793113883242969], [-0.693897781099644, -0.6543151976142807, 0.2201253188304876, 1.3239743093615879, -1.128187133689336, 0.10638023108859677, -1.3722787153894562, 0.4461407225717015], [-2.330967486013051, 2.280720371859274, -0.9659249141590074, -1.3270174003291493, 0.5778667368915065, -0.0934223156644183, -0.1814956093490925, -1.0559502187280152], [-0.05696950825202542, 0.3246112660264451, 0.5375798910677793, 2.596643107759402, -0.9098790854145881, 0.08602346076893636, -1.9018097554881686, 1.0923208565125975], [-0.5661090026543028, -0.7717248004850671, 0.5683329406757978, -0.7357057909692596, -0.29921617370523323, -0.9602435840860448, -0.12886007589439147, -0.42217585909668165], [-1.4528659171145346, -0.14536126229520716, -1.2861319550177452, 0.7441340331851953, -1.2597941322672024, 0.16431465256640132, 0.6784239193616203, 0.8648777874266278], [0.9531117300324595, -0.11057029892984731, 0.7613334647478308, 0.34863641449727856, -0.09820509033288204, -0.2574119941286217, -0.9607107639465743, -0.3238987784490283]]], "biases": [[[1.0072612771644684], [0.4774722482352625], [-0.7285911366437693], [0.9349471627258614], [0.7070347000467755], [1.3844277971914425], [0.40034444238309247], [-0.8332881846874342], [-2.116262075776088], [-0.19831111361561857]], [[-1.6156181158093867], [-1.1442610400920625], [-0.14197816831918197], [-0.30947324689745953], [-1.060119317245548], [-2.2907801651422006], [0.3410867644902168], [0.8657263621322211]]]}, {"name": "test17", "score": 17, "weights": [[[0.7496368414440128, 0.31573939439311016, -0.25183581527190185, -0.3415248999416518, 0.2906961901332452, -0.5143390128354707, -0.8611403045665881, 0.5492057619616683, 1.3111585623336486, -2.017589619204448], [1.8478385784695321, 0.384060785763049, 0.9738520333637284, -0.6360215230993601, -1.40973787078941, -0.1307667468481496, 0.6175365550773328, 0.015204004485835433, -0.8953062888838976, 0.170264247491055], [0.5870049188618351, -0.46451631437544544, -1.1518082899622322, -0.7765027679787135, -0.40724282676561097, 0.32614789253574716, -0.11848001287731832, -0.15191099974418265, -1.8084062844219972, -0.4802786312701012], [-0.7511935281765354, 2.103476948752025, -0.9959349787705337, -0.4753040795468442, 1.2910283555514288, -0.9374521423707757, 0.5936403418671244, -1.2205342641186478, -0.03828041746684031, -0.631160022401541], [0.4418646086313088, -0.2506123057515316, -0.34862864889636064, -1.3241361214024876, -0.6661477607945206, -0.18731623395517552, 0.27424614490894583, 1.121185504323297, -0.3027683270315861, -0.742067020090665], [-0.2056528156625201, -0.005027331881529094, 0.4797942843592371, -0.28338297322130385, 1.9832685720849275, 0.32569748963617257, -0.2252998614408786, 0.06743046556373966, -1.8657423748595177, 1.8404049311259425], [-0.437222746566361, -0.744140198518298, 0.019627956799687308, 0.027324866130693508, -0.47126448075954486, -1.6424972605382975, 0.7931607362300583, 1.0877053458298187, 1.2724491527878896, 0.8532782891811627], [-0.7426220028072669, -1.5679954910040348, 1.714227974629212, -1.0437780487597015, -0.18473930459828902, -0.27698219416338654, -0.7647958322541046, 0.018579297471438366, 0.11748796613197561, -0.2134029387206826], [0.5010786870987166, -0.16708739937045683, -0.8164541622504967, 0.9363228836334629, -1.4866288465816713, -0.36493028392280163, -0.020928302189284674, -0.33524419112291126, -0.18716560887346592, 1.083272805441286]], [[-0.9359919775984683, 1.0468020139871033, 1.9101133524547278, -2.0424757777339106, -0.7242501437011746, 0.05329449328267277, 0.27259325084902125, 0.8402447305609413], [-0.8599381178644997, -0.9859567472768271, 0.979319857860154, -1.4606785804278128, 0.30668280686435057, -1.9851812263037005, 0.6842972174025409, 0.357461113735556], [0.941310608813833, 0.9984741007873168, 0.9834800243232861, 0.23814042540216918, 1.2717413711639347, 0.8577998562339044, 1.956363540881979, 2.295748030468279], [-0.21420265635826288, 0.13402540138440247, 1.6401903936338693, 0.5471755518739255, 0.05913135318871403, -0.9890613091840232, 0.14565233069201305, -0.9972635303885868], [-1.746744167544864, -0.12007357269097957, -0.1943491188313621, 0.3048150869411747, -0.8715782766099975, -1.7255382820147491, -0.2706975251249039, -0.3474725560771545], [0.22538385787313733, -0.25945400293935644, 2.181819141792882, -0.08720133702087068, 0.9717019629972692, -0.49697728583848916, 0.2489930671282404, -0.6094072537092826], [0.4806906260215652, -0.30156779569564524, -2.086987538710233, -0.947275166419608, -0.09698227486389827, -0.5769383810794225, -0.07966226746087425, 0.625011467725129], [-0.41603441037378946, 3.249974611410694, -0.5351504191852091, 0.19083750039884007, -1.2344329221832742, 0.5603723634278132, -1.398212317250712, 0.12233542705820845], [-0.5363824088189281, -0.9876968493058491, 0.8146210382972319, 1.1630316215517733, 0.3612141014435068, -0.5382389667744043, -0.29354864064313996, 0.757205263391647], [-1.1811186874419988, 1.7154285264337779, 0.3473096622681765, -0.5551448371512085, -0.1707331316972392, 1.0665513855805033, 1.0523501148579313, 1.1851868602691442]]], "biases": [[[-0.07961505624826795], [-1.4904437269604902], [-0.9739626267282233], [-0.22668205488811252], [0.16963101804368916], [0.610099965228874], [0.3506159173289357], [0.11325269657845422], [-0.23095715574548065], [-1.1815200544375866]], [[-0.25414061012945344], [-0.5150742346935763], [-1.0444371762865834], [2.4985774840237345], [2.5652057182577144], [1.0356689489184145], [0.7972429494578808], [-0.6292824130195138]]]}, {"name": "test18", "score": 18, "weights": [[[-0.8544659432412464, -0.10032063340020152, 0.0983942489588006, -0.3110542876281903, -0.552835145533957, 0.856565694318462, 1.0933697415381418, 0.5544189672802814, -1.3012134232217796, 0.16410387132934787], [-1.0899386945740879, 1.213081903697533, 1.2575602196585722, 0.2962662311474077, 0.23690522372342007, 0.6899850043113854, 0.7125673032110867, 0.155773672457487, 0.3328491885960036, -3.0562291860644093], [1.1284550497048957, 0.4452078500582691, 0.10103495943954291, -0.8470250176083439, -0.2500996145180148, -0.7148378688047389, -0.8772122384089034, -1.2221849070738393, 0.13153725743886346, -0.9990604052491041], [0.22324982010346056, -0.9906070201439734, -1.433849208497878, 0.2966328528434766, -0.9898348210698453, -0.010723825783565632, 2.0798819376965287, -0.8577230840888316, 0.4709445777731242, -0.6322609888928999], [0.4388343291194764, -1.3430431139433776, -0.7444675820912121, -0.24012180761160984, -0.12507813459010153, 1.0558474018087463, 0.5153026243209677, 0.43248398806791044, -0.16144525735141105, -0.6810329630943336], [0.4982984779103524, 1.1616575372502225, -2.0101183163250145, 0.4071055100835584, -0.6147375789820613, -0.7533806268196571, -0.3578240049753636, 1.1791614667435766, 0.15716410757447377, -1.602215351632044], [-0.8339893034670021, 0.0902335136281908, -0.30883445451086294, -0.2346438487499664, 0.7244741877953389, 1.4397561080506756, 0.7698886098656329, 1.1256390761999582, -0.3087461895395577, 0.13195581666714007], [-0.48957620733251433, -0.4139573926977281, -0.054164208798141884, -0.6005218111473236, -0.5862372410370484, 2.2320383506436667, 1.351509568222424, -1.2330665881156668, -0.5057798547289566, 0.6456038249042799], [-1.459210704652793, 0.8570552906419576, -0.9727911020867037, -0.3416598303854855, 0.2934801483212717, -1.374612956648799, -2.148923219287837, -0.08132633883426954, 0.597449070581078, -1.0143865195250399]], [[0.5149056236277005, -0.04129607844362787, -1.654677619414774, -0.6900179490446033, 2.028649190239637, 0.2802215235141741, -0.6838843130817599, -0.7317152424934705], [0.6128801090687109, -1.402474531961853, 1.961431493736874, -0.12330226532879228, -0.6996847490511332, 0.4933967894624116, 1.9085383309004555, -0.740444816098587], [-1.1591975054698018, -0.8239283419667215, 0.06689267594949348, 0.6219612516557754, 0.7154172122707203, 0.5572052044033265, -2.518783171667023, 1.497757069735244], [-0.9786069050146791, -0.570118866550272, -0.4995004503396718, 0.36723360173305886, 0.017052351195074783, -0.5024776529597509, 2.06335010697076, 1.3140744038166146], [2.5247638608350855, 0.6972062016633288, -0.038074379561611874, 0.9631125895080587, 1.3984531454996856, -2.1842933509763425, 0.162547079541292, 1.298220691225809], [1.8082525654698116, 0.8808766333534369, 0.8595119172105521, -0.05334738387243141, 0.2503402831842574, 1.2392692236348646, 0.2198730061413944, 0.8346339937701215], [-0.790371811243295, 0.8233069617906632, -0.4987656311222074, 0.6413361521519892, 0.49411535626317526, 0.8886134689847162, -1.4699160499994388, 0.9384083845101268], [-0.9140408983461178, 1.767256464334248, -1.8181742229375204, -1.1376467850423844, 0.6513439590309018, -0.36630028817727683, 1.1977698387419877, -0.29839742722547086], [0.5529371079181852, 0.16240667146585291, -0.3222649718385417, -0.1613641817358513, -1.0383372560863682, -1.1290640662539695, -0.882123449697438, -0.03838262627309686], [-1.075092247136221, -0.3765187840637633, 0.12899456776347204, -1.8821392779829438, 1.461201412007512, -1.501932513113608, -0.8767396481407009, 0.4348149945727554]]], "biases": [[[0.2250869077793075], [1.3765293761252129], [-1.088934381876163], [0.5851736699586173], [-0.030020173608560036], [0.5701433400745239], [-0.4611910204215359], [0.23821220006064286], [-1.0132052295371152], [-1.3203833746850444]], [[0.8336168785687615], [-0.11995482953702026], [0.13455835140614017], [0.16310267807647613], [0.6220542589353449], [1.0580170547110068], [-0.2518741242137974], [0.6741022583841823]]]}, {"name": "test19", "score": 19, "weights": [[[0.8173051588607759, 0.7220041472688955, 0.2305925154940954, 3.072482679181567, 0.44686598747395295, -0.9962718726665103, -0.12140872483765369, -0.7380157764464657, 1.1719196010774948, 0.3966980496611134], [-0.7381503604906507, -0.5264540409396559, -0.209503960672986, -0.051145365531908786, -0.05077162578257352, -1.3559787578170905, 0.2674187292545074, 0.0785394689497083, -1.0358739139759037, -0.4813288310284683], [-1.360751319830865, 0.0012496134901387004, 0.17384313676572843, -1.7286115104661974, -1.1549965543823313, 0.234527439297251, 0.2855805813833752, -0.22401561380766988, -0.35875740846107795, 0.5632298740740347], [1.154026867055647, -0.3343680021355453, -0.2092649675610521, 0.7237043950757276, -0.4888592375535931, 1.3373164506672246, 0.3040470652536285, 0.3780456155232908, 0.508771740729234, -1.1948249911227529], [-0.15515653585871894, 0.29800258961484155, 1.1492246976545475, -0.7288049026167974, -0.0748302006512111, 0.30542625108935595, 1.0325182061104636, 0.3645212675767246, 1.1091313238197666, -1.624180237894994], [-0.3608275804129662, 0.39445800912353757, -0.9185707455675598, -2.0861721104934206, 0.7275605077399451, -0.30423235376291363, -1.7064451717715268, -1.351689746551282, 0.5690380885768437, -0.6021579809252985], [-0.3461103109390695, -0.5971817974376015, 0.5786795589946225, 0.5483107829398836, 0.720216382599432, 0.029904068001290873, 0.25484389375148553, 3.5691906469524435, 0.38541861109008524, -0.9946534196736205], [-1.2409468288489172, 0.3415636787779381, -1.8913612585071833, -0.10818127578991395, -0.031449587576935924, -1.9860153059741805, -2.159589944159755, -1.7812335436679811, -0.03784556050124409, 0.0044689343594030454], [-0.7190020067066769, -0.35421605331969375, 0.8529831611143758, 0.9653243374638979, 0.5675242916627176, 0.8424592653128783, 0.5485583239605963, 0.7251530965047739, -0.5063469146112964, -0.059822307444017]], [[-0.33400236052547005, -0.7319421431052129, -0.11756401060586066, 0.9519156630518073, -0.47516624586817136, 0.708285050472373, 0.4508544806055808, -0.7281699665670791], [1.1084471354869145, -0.6059090462520378, 0.27427402029235304, 0.5375808186075453, -0.4606387746757451, 1.5835464420213499, -0.6108466887613064, 0.355862927771755], [-0.39394712269507726, -1.2099269024923633, -1.4632806698235754, -0.8966120951196835, -0.5707609889543187, -0.3837272825571433, 0.8267447512116841, -0.28011362087767117], [1.0343228262702946, 0.9217470900586419, 0.6958417135552505, -2.2890135207228215, -0.5302116522099465, 1.2802811875246074, -0.5173983144414235, -0.5008055131973163], [-1.1122602874637517, -0.14180312254886088, 0.982632052735996, -0.6233971011913418, -1.9684498736076612, 0.9195996673692107, -1.6193620959835267, -0.016250633989217514], [1.737642153386051, -0.4746659014342226, -0.5468333829719809, 0.6711673662112658, 0.21280173751845777, -0.8727644216992021, -0.22643603325013378, -2.118438592269066], [-1.2265063572070118, 0.21085952804039987, -0.49015463883444277, 1.1747135405846556, 0.024255624477499786, -0.35110526685442756, 0.431388886895806, -0.823786000942023], [2.0256761707426025, 0.6009857529253002, -0.03151467681147164, 0.20502888144606524, 1.2869391059022612, 0.8018114775924777, 0.5455055578611632, -0.49210344255001237], [2.3916258080197035, 0.5641587705090139, -1.6780436687618863, 0.06537617200625824, 0.33712891368844156, 0.5466300098847116, -0.7996429883199293, 2.0995971988750313], [-0.7621774234770563, -1.7190819968155773, -1.3998675937034974, -0.4426215698296984, 0.20762860543326583, -0.5630183076321481, -1.3553839847468285, -1.4462600720750287]]], "biases": [[[1.0560998350184856], [0.7502736188930532], [0.13067707638044193], [-1.6697706383672342], [-1.3985294432687303], [0.25345007110773016], [-0.15028540888327396], [1.4402744599216233], [1.4217588119131097], [0.34826430186277324]], [[1.2942664895170435], [-1.1844205874861633], [-0.7835184367251768], [0.4418678095621808], [0.6117220459802176], [-0.3946192446014063], [0.9431733635424147], [-0.6600189379409688]]]}, {"name": "test20", "score": 20, "weights": [[[-0.048840000919058414, -0.8320933384960308, 0.08159986913552113, -0.4072661484549975, 0.11571975571989399, 1.0699199618528297, -0.1392732108129992, 0.779661579889336, 0.29987550264587287, 0.6763450950636631], [-1.442325935383257, -0.07910727641021355, -0.41969892665697783, 1.7039633888620196, -0.6427700119804451, -1.1080312405795918, -0.4772922482920201, 0.5509313918030334, -1.0453914780213438, -0.9254045880598876], [-0.07710277173961158, -0.8831781870357676, -0.2545010689752617, -0.11301326591166519, -0.44166506182649834, 0.15447491818986583, -0.6757191028928222, -0.07845887495572829, 0.6261937902870862, 1.3754214471680033], [0.48994032781903485, -0.16376395523917603, -1.5123893757425573, 0.16879603263473764, 0.32764591402934107, 1.3475676884889995, 0.27709765293777244, -0.7373608370545519, 1.9011443375182475, 1.676553307075198], [-0.017459646591096695, -0.7722110314845967, 1.937479337161366, 1.07686189362605, -0.29807576539716923, -0.8127023619953615, 1.3203571450110259, 0.755848021231857, 0.695102068431751, -0.552449208252772], [-0.9650940103057598, -0.8653206411662151, -0.1557543102601065, 0.5520677545178013, 0.784596029415937, -0.9185831871013389, -1.3146123772759815, -0.11643211431308595, 1.2649068985854388, 0.8431406395942048], [-0.9596830476116892, -1.2128916092978392, -1.8542601724434973, -0.2879407530537305, -0.38048978525908655, 1.6619872544355623, 0.42822906045359543, -3.4764749045731382, 1.2020782625296187, -0.6263484578891271], [0.5678024271910395, 0.5562005745155363, 0.8945468182165867, -1.05530688598081, -1.26238792527036, 0.7728362472151129, -1.5064353243014805, 0.8388539825664165, -0.7660454357164832, 0.3800269253277003], [0.6078532652933848, -0.13373718080863467, 0.23647159357757064, 0.7739312663078702, -0.031925845969096166, 0.5057354149840109, -0.9333825010028708, 0.5351617151742957, 0.534450812693774, 1.360430036223491]], [[-0.27695589762314154, -1.6236376081736064, 2.028528495729438, -1.3065630596025215, 0.08090916026061235, 1.1270126901610868, 0.050613750690776525, -0.4614696087599213], [0.9899091917318588, -0.21943187216878146, -2.293235258281623, -0.09966971283170037, -1.1839590786812677, -0.6214988278497098, 0.9529343159901486, 2.4979475450939046], [0.365243500985526, -0.48962188635036763, -0.3508998179686784, 0.04852430202686346, 1.041038184692949, 0.4034567458759571, 0.5499353508705354, 1.3892965882521517], [0.6988150935914375, 1.1791157652388327, 0.9665453716692921, 0.7536898669599622, -0.10681529907452161, -0.88372196755126, 0.6697485828728702, -0.22400088390840156], [0.15722496628301347, -0.49299739397218517, -0.28736596034264916, -0.2013126410548873, -1.5506383909946282, -1.0056095512664174, -0.3385735858432171, -0.5518442618177434], [0.19431546350724224, 1.1256379642704417, 0.5861160244122768, 0.48595289285285576, -0.8284551123905692, -1.2425990088615642, 0.9699832864963105, 0.06545731413717167], [0.9090663893214495, 0.3483870936664332, -2.5641337837607243, -0.20968266939968458, 0.3556020908298197, -0.06342625858569745, 1.4635873385472227, 0.04088054354218522], [-0.2112995340569738, 0.3402160985335369, -1.299909679813503, 0.4948536443087104, -1.1507076847068678, -1.0660936877772622, -0.8838437095161263, -0.5174733029022885], [1.3318153391810652, 0.02353685918979317, -0.19205522264658828, -1.3252232378879656, -0.7501910749140351, -1.6323365723334586, -0.39303001488358796, -1.4642700081900528], [0.19862298953737445, -1.9260283358449741, -0.6071066576031305, 1.7539901474057071, 0.13294230122693282, -0.1561587147481545, -0.21138295678793068, 1.330358004963517]]], "biases": [[[-1.128943394521326], [-0.81192170218559], [-0.3763291297222405], [-0.5431254168880192], [-2.2862877747088395], [-1.058085754459351], [1.6799853769996609], [1.3910347749030931], [0.7636508419306663], [-0.1638010053299834]], [[-0.8393775889356642], [-1.0735460413630833], [0.14164147939358654], [-0.2230925660418019], [1.6105226953043366], [1.1757659875402156], [0.4699904327844415], [0.3624278843854577]]]}, {"name": "test21", "score": 21, "weights": [[[-0.2889212801381242, -0.6607671166989629, -0.86473968717811, -1.0476994789021563, 0.5806141219399837, 0.40345158071715215, -0.1726357063268959, -1.1021740308872399, 0.9700119651657266, -0.1559601498743149], [0.47846302059530343, 0.7992905634194453, 1.3493205444943002, 0.3097329203181802, 1.0009297094322558, 0.7804013275873491, -0.9659438649020795, -1.807281803301012, -0.027731305692242796, -0.02763149170411376], [1.566257969453918, 0.23111030199133004, -0.6502974730522485, -2.13184043204318, 0.14789609145651827, -1.8013618948940648, 1.4538438312758348, 1.0524139880909729, 0.21282721662844892, 1.9051590391603443], [-1.481378294871525, -1.2733540131724141, 0.17913840457625746, -0.36753389966006295, -0.021699000533762555, -0.4154689295957622, 0.39218223954526993, 1.394603452224052, -0.5691454235000156, -1.3146514827159486], [0.28532531442268116, -0.6676874469662697, 1.3376792786669895, -0.7452148413923025, 0.5992158896014801, -0.18790598318106363, 0.9722111348358348, -0.8255855113538152, 0.45226043681632966, -0.4250531542385792], [-0.7682206022856722, 0.4918960019634342, -0.3010455949144492, 1.0585156512713894, -0.25704335857295035, 0.5438790644990726, 0.4203827840385232, 1.0575355167975617, 0.4635372016803582, -1.9243896638835807], [1.6206870233041086, -0.02833500957522181, -0.5008139738994777, -1.7082172558525701, -0.9670102968166745, 0.8743904858157434, 1.252636791143802, -1.6254342245697533, -0.09039457970222224, 0.37537774117203043], [-1.6208462048968546, 0.8174732948162614, -2.2030586688499887, -0.8084030082595843, 0.5571498821519794, -0.6019915776269072, 1.085092042652088, -0.27333749845274874, 0.12466553730924555, -1.9401082954598476], [1.4345508952434383, 0.9285017819405721, -1.5882193307758614, -0.8127713251615349, 1.3265939642533464, -0.27556813168143957, -0.9947793070725348, -1.4159569302427886, 0.4228772706425978, -1.4271672993125217]], [[0.7817433202485932, -0.19862465283657688, -0.3733292981487861, -1.7329206958087313, -1.3872704699729022, -0.5860051925967519, -1.1466748523088188, -1.7235385177737672], [0.7119927913623408, 0.7689896110463345, -0.468165435752669, 0.045960048929092695, -1.377985782369274, -1.021328231847878, -0.012307582419261288, 0.5167618465725314], [-0.18406208260332957, -0.2911797826783698, 3.133561433611468, 0.8600277841424845, -0.5801520454950588, 1.2047578121860203, -0.9112668179305365, 0.9228603649124366], [-1.6494959383570005, 0.07309084496637576, -1.083182711974206, -1.423464341768685, -2.4299558320227406, 1.1823519746743345, -0.5048900269484156, 1.0685925043754083], [0.7003733391302884, -1.6654673711100196, 0.01878803181442731, -1.239513397272007, -1.1640788065350627, -1.4049522716371061, 0.8211283317936996, -0.16181868768078397], [-0.005914050943937789, 1.753649219536382, -0.8475366175122783, 1.8788294347703578, 0.03399424392931509, 0.6812079547242569, 0.43169473764920213, 1.0832867112026345], [-0.24644615027632225, -0.8759775245033325, -1.325661290614573, 1.7869671339461424, 0.5029117444303267, -0.38864396417082175, 1.2802014493937286, 0.7326346398263648], [-0.7911282163256722, -1.3406133342708992, 0.8687860625163946, 0.8532349607907557, -2.077518246610919, 0.7445197490647455, 0.07455006141164384, -0.6259013774577298], [0.015113707913810365, 0.57208723018329, -1.7474349312299475, -0.664085703320707, -0.2037597632049727, 1.1767723536983876, 1.553981850415509, -1.5869642248354958], [-1.4785767611220642, 0.3250460413188505, -0.7662945252850615, -1.6630540264355465, 0.782436544672634, 0.9006027477769457, -0.04761416354281552, -2.160982771462958]]], "biases": [[[0.12147698593930943], [-1.406148794939385], [0.37510868991049096], [-2.051523327410877], [0.2802292576505007], [-0.7124986998439319], [0.6991376557896742], [0.8894345863628775], [-1.5833892207050642], [0.6997684731243701]], [[-1.4192634298316182], [0.17795698022910386], [-1.0414287356575294], [-0.1441288889316986], [1.3397274967556285], [-1.1168284464397287], [0.5694504272485615], [0.5713419817074074]]]}, {"name": "test22", "score": 22, "weights": [[[-0.8196849251811679, -0.5872837124616638, 0.19509871999218145, -0.7791025772099774, -0.03733885076763999, 0.5456867369841101, -0.40205676367078513, -1.4281119834409732, -1.2000667834709255, 0.24720311673805329], [1.071293861860667, -1.0221293068123964, 0.6491980908192125, 0.9954629179784557, -0.8421303369085452, 0.518109462105508, -0.3462728901491214, -0.8019089663167155, -0.9862911306451898, 1.8937294944839487], [0.816389704264966, 0.04007325558061791, 1.8021263697474714, -0.45480950591676667, -0.9566661772443585, -0.7506297339316904, -0.2657436134832139, 0.6445477769493594, 0.2748945178036356, 0.8438411725045096], [-0.1070378013707187, -0.6332859448855258, 1.0992327588301716, 0.2650952725375769, -0.17499487883555764, -1.0249964280893828, 0.6007546020155309, 0.9737715765245402, -1.844297603597383, -0.043143177610451125], [0.644232530819231, 1.7134340090208717, -1.5687043537077194, 0.15104013550387174, 0.7085566679818912, 0.5083950256044893, -0.5671496526245862, 0.7124642186940802, 0.3122301527097664, 0.44743476125195664], [-0.613071400089141, -0.9501017917010063, 0.2709588363613715, 0.28619859009056103, -0.35742034145109325, -0.3357973655115467, -0.25612789673184877, -1.7040031025015965, -0.628357614532479, 0.543725926215331], [0.24971550603713122, 1.736038764039676, -0.00944230864208016, -0.598908867227167, -0.5423508850670993, 1.7435071205106811, -0.6936113494541077, -2.252911265524386, 0.3197155081456655, -0.46204016638629114], [-0.3689689003903458, -0.42649222019226335, 2.0978592437081165, 1.5767308942148406, 0.6066905112230606, -0.18028997565242552, -0.28139058005815176, 0.9847132924487714, -0.5473598467692016, -1.293694236666106], [-0.11572192997680149, -0.39111125574573735, -0.9588249121483556, -0.2575734586866575, 0.07249120862417963, -1.042680609703617, -1.9068053602286439, -0.10646363292414668, -0.4961651545267756, 0.048053070215771564]], [[-0.2958712183902138, 0.5663104351434044, -1.087767313419485, -1.7415821934089755, -0.17363239259066843, -0.8834138651552029, -0.7704917116739791, -0.9275635719326099], [-0.2641416738505801, -0.010754274543730957, -0.01886039475116306, 1.0072249103729334, 2.9240889144718754, 0.030265151132510663, 0.41776527167081495, 0.8949621822835809], [0.7633362492480755, 0.7033875734837476, -0.08856983156117393, -1.5392834097819807, -1.1422714584489022, -0.735775374731219, 1.7088285888944326, -0.18658714701842957], [0.08391539738601332, -0.2246757079017356, 1.9161687801909917, -1.4278270420129133, 0.9425839398805537, 0.0947183996967788, -2.206031493798278, -0.32629165841662977], [-0.6827295855912018, 2.859348495945745, -0.8834675404754216, 1.1414737509059727, 0.7420564126162317, 1.6868446459947262, -1.2161658178673382, 0.017881747754208786], [-0.7586414514374297, -0.19421823459398052, -1.302989071488645, -1.0005176216864862, -1.7015967571349884, 0.750316455300235, -1.0679304540976975, -0.3614295838306805], [-0.5117375000666805, 1.2145258929228044, 0.8290157107890649, -0.2936822871600708, -2.6026081288862346, -1.006017076415056, 1.7788645053103975, 2.5311928373150163], [-0.05523537911878064, 0.47756699272746533, 0.4140476464620793, 0.8871376879238866, 0.05588737438352151, 1.8431162425035703, -0.34711898671414176, -0.23628748987842502], [0.6815791391169963, -0.787997310266905, -0.6205840135535783, 0.12275290824361264, -4.059753548224567, 0.16148265633622413, -1.739244169258974, 1.072723518604177], [0.7973908495851008, -0.20197842166332336, 0.3577230847272181, -0.7641087892104192, -0.10532986805943137, 0.28953768559226095, -1.5070185882286176, 0.9923937633346691]]], "biases": [[[-0.8306922251372205], [-0.04517774802145119], [0.5150375919405864], [0.9604732898600026], [-1.011687193050531], [-1.9512870730946217], [1.2582408342283495], [0.2074020845585583], [-0.23727044384842688], [1.0761371688693846]], [[0.5124722397473571], [-1.9266360395564017], [0.5457045980026267], [1.0336789978946108], [-1.0683494852728859], [-0.9753090565959309], [-0.19669476133599786], [1.0279036749118267]]]}, {"name": "test23", "score": 23, "weights": [[[0.7980291920594293, 0.21374732781514996, -0.5571576619190499, -0.6695805740169609, -0.7273170247807316, -2.760016550408087, -0.6738303617746769, 1.8164788655288457, -0.1339145700293463, -0.8457816977319899], [0.15404565060771339, -1.1034225236976478, -0.6981389226536543, 0.4383331362576585, 3.818124744826462, 1.0006460350271882, 0.874918422249183, 0.3886360508523466, 0.8946921092202464, -0.17313079731473205], [0.015107413091644394, 1.539511767185102, 0.04826315935782735, 1.5755531323594423, -0.7338916380455124, -0.8944132705702015, -1.396630657808866, -2.236856867476381, 0.4332391376816404, 1.7707234792508155], [0.5737394185963264, -1.2070966158749037, -0.43216207314635585, -0.14610835339222983, -0.4159437753181608, -1.2863948777021823, 1.2676528773175688, -1.5485393204520297, -1.3447480730229278, 0.9401107193724529], [-0.2758447925614626, -0.4621447505480996, -0.5406302428127465, -1.1337340323175689, 1.0111277307528361, -0.5281915983134579, 0.0448755136248027, -2.8540745363311277, 0.023561298385400702, 0.42959200895160643], [-0.671086455713663, -1.0386640664938165, 0.7844918464696654, 1.8685894827752472, -0.9656894453927027, 2.5960313739157175, 0.6018797508060133, -0.17391185613834514, -0.9446257903249072, -0.35813624505420133], [0.7403709561868487, -0.3434261509043164, 0.0675405382027573, -0.27332718853642884, 0.4558854055741984, -1.4411343378202552, 1.285406049321316, 1.7261216819271694, -0.44787794435743017, -1.5581555175064241], [-0.08352723983416316, 1.206794295774425, 0.8393823981896968, -0.8644032255248283, 0.621477916424819, -0.8630176489878159, 1.7181437544571938, -0.6179855302985569, 0.332481819995217, -0.03702661185973809], [-0.8071906148005216, 1.1796409688279845, -0.10477112619472434, -0.7436669037570368, 1.2077820512264836, 0.7026406158404026, -0.35975614275946133, -1.1836564471545115, -0.568998427930298, 1.5177368334557182]], [[0.08642814785223024, 0.08696664697676978, 1.165643291317443, -1.089636705200086, -1.0749936035101544, -1.6236903639678917, -1.6235778402362901, 0.7028447189474692], [1.1581510753931288, 0.5345726536620088, -0.053063351221765545, -0.6176905412326643, 0.8001972606251154, 0.2127148525854888, -0.6778415364155376, -0.35786142157166373], [-1.2390245462366418, -0.18719453108830403, 1.103350164134501, 0.7783377079522806, 0.3084006508730149, 0.6979520604081388, -0.51752289016242, 0.07469760479756767], [-1.3548721837041584, 1.3535316064503045, -0.5065854398288665, 0.953779312915912, 0.05274334541644817, -0.5749229203667126, -2.18978059781389, -0.35909128372960114], [0.36613351255372656, -1.677782872918819, 0.3650026490601026, -1.3716949778051208, 0.015773126298502207, 0.4872394418937158, -1.282323909536179, -0.9537891056693774], [0.2394891657983675, 0.5501316422894861, 2.5475087182394516, 0.04089881992090878, 1.3648555485361042, -0.13673745927713252, 1.6316523581628712, 0.09710880656529379], [3.1194068854074746, -0.9262048312269555, -0.6992303991821303, -0.3072020596070625, 1.8229408578048336, 0.05590289239457207, -0.4828685907682505, 0.14367029210551008], [-0.5796281129261774, 0.10047832706349157, 0.9545278513370284, 0.6734627532690606, 1.3955678759325663, -1.1795452346572581, -0.9595044796316501, -2.181562511246832], [1.719257502238507, 0.5947493960982783, -1.1325161020993462, 0.9678393710825356, -0.20621310767117343, 0.6328570355787518, -1.4423350377999347, 0.033924491028358573], [-1.183010649713445, -1.4365521058056419, -0.4271857442029115, -0.24181226632324881, -0.7579867323926597, -0.8881581706532574, 1.1303094920276242, -2.237098040164459]]], "biases": [[[1.650167474443589], [-0.32640078172448955], [-0.5428598398989649], [-2.7921187874764892], [-0.2230751769512905], [0.36884518746968925], [0.2746821437948354], [-0.5954132607576132], [1.8966461782221316], [-0.9056786646262499]], [[1.5932476447626094], [-1.352269281180702], [-0.5188358258709846], [-1.201172851863338], [-0.1887015525429661], [-0.23147361489907348], [-1.3710473688896612], [-0.7967519040160503]]]}, {"name": "test24", "score": 24, "weights": [[[0.16873759909799788, -0.4329386740850358, 0.2858372807885558, -0.8510099763180393, -0.14387136427423924, -0.08691085918253387, 0.0991679367606181, -0.024773555327737472, -0.39694053749641317, 0.6108162673411295], [0.7871860402180656, -0.2999533961536379, 0.09249223467709397, -0.826699242438355, 0.38923962313177324, 1.1819976950462643, 0.12354361186851644, 0.15161542434825112, 0.02272107501828246, 0.03327485170815943], [-2.1542227089176404, -0.5496670538186875, 1.2697667523731713, -0.29787529846411454, -1.3370476422315418, -1.311067490076337, -0.49841528283331427, -1.1868262519204387, 1.4807303245904522, 1.2855220141200439], [-0.49146957649777584, 1.0126542967997698, 0.3476203178780458, 0.4229348203903124, 0.282523385031434, 0.13766209744236993, 1.6590848413098438, -0.24571380116840227, -0.45338912851445495, -0.9504341519198133], [1.0184318019371015, 0.588725596223734, 0.04124634831280089, -0.17047592622690122, -0.5775556391119444, 0.5176893573798605, 0.03577594673852626, -0.08077304502351387, 0.06908327101443328, -0.6039192771908518], [0.20303606968943813, -1.1561790477308513, -0.8470019345302146, 0.37018347134415885, -1.045804901485377, -0.3309091901027898, 1.818231543656608, -2.6516019269529254, -0.8349415546215726, 0.2500710770555643], [-0.6587851989522605, -0.3515682505312602, 1.2817072574166821, -0.066430164351866, 0.8424532185640892, -1.0456845811900481, 0.5540892546922304, 0.944610134235592, 0.23899709928258822, -0.03709844330514794], [-0.10284525589973541, 0.6961136526019319, -0.4977846249436155, 0.24826855144587537, -1.4058867780102957, -0.6617895687285862, -0.4866838122853993, -0.5405642533094072, 0.11041186725373339, 1.0426253241812296], [2.000646507321558, -1.4963571742066242, 1.4404045687507139, 1.151326211087222, -2.2001722127432686, 1.186690022490056, 1.6017718811798125, 0.2373682825054289, -0.9445383965397461, 1.3855972396339886]], [[0.1646046952968833, 0.36307956745733994, 1.8763521943763826, -0.07072247836565408, -0.5439302528087954, -1.0148231666246663, 0.20754821785920063, 0.8027403014661241], [-1.811966268509413, -1.697227579128175, 0.5543574519163647, -0.15383516811988943, 0.8631653542865445, 0.22110758350070503, 2.9950610881318918, 0.44444932812882715], [-3.4390476751633168, 0.03204411496950706, 1.4457343550823285, 0.295615489505358, -1.7373623186556746, -0.43243052847525015, -0.488169201911524, -0.1303218516024675], [0.5561159204899282, 0.22940174994442308, 0.8456086365146034, 0.6406745070543003, 1.2723146224068265, -0.6536350235609734, 0.729911599970085, 1.7666925634312416], [0.01838290833446498, -0.8658002306434385, -1.983762968201387, -0.7422509050490133, 0.05196666053053388, -0.4104453897254665, 0.5191479218298539, 1.319980341326047], [0.42576585068839135, -0.3740540309283761, -0.1972558867827802, -0.4716154351817293, -0.049042654115480755, 0.9672878182265182, 0.14545847982421, 1.8344903638588392], [-0.39267878388053223, -0.29790704962976877, -0.9288277881857367, -0.20333213224926505, 0.8724993380391337, 0.16880321559394743, -1.0378913457085173, 0.23410446185647563], [-0.2580293365110792, -0.5517279714458704, -0.2920305146003239, -0.5021142048336892, 1.855632027922812, -0.39684570164877564, -0.2985061117211125, 3.0318681364215325], [1.2594735794087664, -1.0434361816480267, -0.8136379416180676, -0.7745584742107157, 1.4620518930838544, 