{"gen": [{"name": "", "score": 0, "weights": [[[-0.9681366838438433, -0.6819504141122699, -0.305162951712111, -1.0153418602180773, -1.1560185851281561, 0.1984414614727025, 1.3882457606009735, -0.4833829673288396, 0.1018060863143481, 0.5115742037409093], [-0.42764022415368086, -1.2843028154653429, -0.6889872865850318, 0.926934311967738, 1.562819486899346, 0.2870196221214135, -0.033668776659883395, 0.9744010267765914, 0.022194747056581494, -0.701349788333259], [-0.27190688062666823, -0.39021600866873535, -0.8955763060937725, -0.3869142096810787, 1.0320235610827093, -0.3686523331554292, -0.004614269471945546, 1.282748548464184, -1.589541169737217, -0.6955327584475338], [0.4723753095592804, 2.8444464898167747, 0.46202628952133895, 0.846587110033228, 0.2407580109403962, 0.5486676982444648, -0.4621990218857619, 1.0685672705999274, 0.5320435776879728, 0.6142399744635632], [-0.7029455149119309, 1.3915927164610187, 0.43002620817190645, -0.41750282864195937, -0.4141827220212249, -0.5893395946406915, -2.437615621258939, 0.8989518314821435, -0.960034801497248, 0.39714037970102467], [0.9664183402836694, -1.1259359795022745, 0.5146540262362271, 0.43459726414874156, -1.15107593215594, 1.2896132207906696, -0.9082490525010024, -1.6804399930375964, 0.4986165451977228, -0.41033112018278284], [-0.02131330860721866, -0.0712320572650808, -0.06771553233390051, -1.485001600182772, -0.26652808003142325, -0.8921235647055845, -0.48284409192007927, 0.29011192980365436, -0.8138731959607954, 0.07615234529343445], [0.13535906165866862, 0.738254988103158, -0.9802040556714243, -0.43250515023423874, -0.30028588419007624, 1.3921477480053275, 0.7604882516314153, 1.8082555377600238, -0.39719081848229576, 1.8976562806817008], [1.4315087596388696, -0.8425780843975167, 0.7374344871464054, 1.397192277704624, -0.6201861363719325, -0.4443134757431497, -0.5339750783231774, -0.09535998402930415, -0.9526647947766974, 0.8672051357725028]], [[-0.08679444356892005, 0.8549414662854468, -0.537168755120175, -0.5628373168227426, 0.683437473801039, 0.1369837000147313, 1.8894529494719319, 1.106956073974472], [-0.7791026653198743, -0.7730830389803344, -0.42321633113271234, 0.4076056267521565, 0.6088473143237876, 0.20657615210144725, 0.1048889887950117, 0.04650036986911072], [-0.14488135270863478, 1.3889329245164879, 1.280556877083108, 0.9560937634686524, -0.6364529069026036, 1.5147640614845317, -0.7492183428612147, -2.3013885665542446], [0.16755978324115245, -1.4202072569110542, -0.4772956602095824, -1.254497416699177, -1.1536338518098268, -0.6836121579257665, 0.1558372131798969, 0.01831202699855281], [0.2810398816783507, 0.3828955581364435, 1.4856681150020898, -0.15705068199324135, 0.8309611777863959, 1.4451925377765311, 1.142098738723446, -0.5705079106186981], [0.4130686508048894, 0.5811863129337376, -0.8788696129623724, -1.247129711725068, -0.659283961875925, 0.9170079010428519, -1.1863297339320251, -2.3145976169810205], [1.7087306996272835, -0.31012866719210563, -1.288188250545543, -0.38673169226555515, 0.7310905721755331, -1.960967173582516, 0.7946823119155842, 0.06968304411626136], [1.448784716496286, 1.1790327085647085, 0.8012012993088469, -1.1386022759873373, 1.4365799020831982, 0.2859504572801488, 0.5311688085298024, 0.1683137974580554], [-0.5513338650277478, 0.2639529922721387, -0.36977457917881495, 0.19350017881444662, -0.2109163439182238, 1.2474360783384795, 1.7132089726969928, -0.052856982866907785], [-2.7379818559177376, 0.10353235010559829, 2.5777247471834768, -0.9370867010426099, 1.7743115425571465, 0.7920672453634435, 0.48051701048141, -1.0797826106197275]]], "biases": [[[0.5448940233045283], [1.1033526677492624], [0.42990954570238055], [-1.861744485823616], [-1.102315061448747], [0.5781953502408911], [0.007342045118306408], [-0.14337243554300746], [-1.8529452628716434], [-0.4996066741847865]], [[-1.6185574525378457], [-0.8767000589997495], [-0.1288562118510532], [0.2893667907805982], [0.1182756041575745], [0.40453479103135587], [-0.6748222656366015], [1.0575515368267534]]]}, {"name": "", "score": 1, "weights": [[[-0.7623335158412522, 1.8010171001723307, 0.8057236778106281, -2.4996624086300208, -0.9323804259681857, -0.2311458827481558, 0.5569674793278422, -0.2171892140477504, 0.9577328338389609, 1.3510784351355236], [0.4293021975257616, 0.7692000966306772, 1.8511214930346047, 0.5225491809948062, -0.03703057343483651, 0.280379390325929, 1.7268180731597218, -0.18679978248858953, -0.19954224486245795, -0.9733063369056427], [0.06449459223244089, -1.9312064177608397, -0.34562827933764406, 1.6078829871953197, 0.028889280906111946, -1.822178024755461, -0.04246141843634689, -1.0161562668400186, -0.1249570272983494, -0.9426028540983852], [-1.745354424073208, 0.5256254322649868, 1.005577710127536, -0.08810752914488466, 2.0882605310707465, 0.22070850544238932, 0.33832456123104004, 0.3453060974190255, -0.22048620407661002, 1.9128346381480088], [-0.42957500133201276, 0.3978861525580647, 0.6027162641824446, -0.4458727564296782, 0.1677345464821909, -0.45002327891238586, -0.3084554794114458, 0.078679493119237, -0.3555773239777969, 0.9558937158009316], [0.46504483041656436, 0.10395254005627622, 0.5657951461521861, -0.7246310423592885, 1.7807578160315316, 0.5727679180260367, -0.13537588939212578, 0.1987833469917928, -0.9582828537148792, -0.9673422260065848], [-2.559310151559486, 0.2938174987966183, -1.9683523182404612, -1.14458437534293, -0.8368140981729467, 0.8153524129477564, 1.2476891809044568, -0.44063805140702583, 0.9095744074630182, -1.2672356814400272], [0.5364098904360795, -0.16244016716485266, -1.2251206040214746, -2.28857711838002, 1.0088997996616722, -0.3623263270560259, 0.2360978336933548, -0.965667727518667, 1.5620497142806398, 0.18270943277124183], [-0.7776499103001107, -0.5051390150176654, 0.5764414012404592, -1.2559986921303283, 0.13846446380301988, -0.9650651462033573, -0.6734735910080503, 2.8474918424325275, 1.0428437178472716, -0.9638365041095259]], [[0.34997243006868295, -0.3735768347368032, 0.03592097373614362, -0.937303169402099, 1.539925750677225, 1.4298193224736697, -0.47011757802160237, -1.1020558417669453], [1.0316908820111754, 0.6037001261075231, -0.7195025030196983, 0.3437354238080077, 0.22478716135862506, -0.5052030152423669, 1.1068674646861933, -1.5169239410273472], [2.1233466882229726, -0.7941521465566158, 0.6465331524940549, 1.7258902566139047, 1.4033063162616248, 1.7718584766029881, 0.45503514740426926, 1.9819616407456024], [1.5770292823201093, -0.32878851823514194, -0.07904006076131057, 1.0938494665191152, -0.7482581717128107, -1.1725252144518044, -2.074436344073064, -1.2917809130097702], [-0.2570394197911493, 0.7271546395102215, 0.8283177446389357, -0.8383637829108, 1.0594981502080083, 0.3297087556544474, -0.3543616985742512, -0.27318465345743925], [0.4772649098580671, 0.6037671877088046, -0.033242490223689754, -1.0104274912144535, 0.13181834218811633, 0.4430972818070945, -0.8634079277484794, -0.6979443717795438], [0.2478387536884418, 1.0158501507903572, 1.9083488697189204, -0.011259150029727464, -0.48865411476513365, -0.10750912814083607, -0.7038425020743402, -0.7693420449101054], [0.20672481618464697, 1.5289188550700419, -1.8293535576855007, -1.3147834157750882, -0.1124839782672805, 0.6325282495564818, 1.3241796560797225, 0.39079315815101134], [1.174322547232318, 2.309426257639192, 1.1209043800535972, -0.7284875410391514, 1.8304119073074163, 2.18816635549937, -1.12367315512351, 0.0174348609093139], [-0.9950928998754652, -3.0083328598148835, -1.015731645649467, -1.0205106390666434, -0.9925290082707457, 0.39765393664137516, 1.4903677142207754, -0.3092554274022923]]], "biases": [[[0.6212554421224291], [1.159772682996934], [-2.798868503518283], [0.19724942249019864], [0.966732727022589], [0.20795166047384944], [-1.7876685319340142], [-0.3650012995078106], [1.1199826368211938], [1.5829444853765182]], [[-0.08905986519796434], [-1.0078912049712494], [1.4933237887197255], [1.766676912223297], [0.9139859703268671], [-1.3818992758883009], [-0.7498998805753904], [-0.1372573397159773]]]}, {"name": "", "score": 2, "weights": [[[0.18704393157973528, -0.6819504141122699, 0.3551414787322666, -1.0153418602180773, 0.4182347032108039, -1.2222215227256905, 0.11664232417891326, -0.4833829673288396, 0.1018060863143481, 0.5115742037409093], [-0.42764022415368086, -1.2843028154653429, 0.12811454553784998, 0.926934311967738, 1.2685080061689527, -0.2210939076710004, -0.033668776659883395, 0.9744010267765914, 0.022194747056581494, -2.0221068304259937], [-0.27190688062666823, -0.2055668105091207, -0.8955763060937725, -1.3801828571994483, 1.0320235610827093, -0.1623509397735329, -0.40773315194022053, 1.282748548464184, -1.589541169737217, -0.6955327584475338], [0.4723753095592804, 2.8444464898167747, 0.9393967609409607, -0.012152421529960076, -0.8336635176760109, 0.5486676982444648, -0.4621990218857619, 1.0685672705999274, 0.9053708310419042, -0.22835622741891345], [0.23520361582418553, 1.3915927164610187, -0.6253710177955888, -0.41750282864195937, -0.06855712624022331, 0.2878603199960191, -2.437615621258939, -0.40414191533332267, -0.960034801497248, 0.39714037970102467], [0.9664183402836694, -1.1259359795022745, 0.5146540262362271, -0.7308011070461916, -1.15107593215594, 1.2896132207906696, -0.33176270817928016, 1.719125470747511, -0.12020772253467388, -0.41033112018278284], [0.8254034330652211, -0.0712320572650808, 0.28200381495183824, -1.485001600182772, 0.44299663331443845, 0.8766556500894203, -1.845035263793378, 0.29011192980365436, -0.8138731959607954, -1.2164699113087845], [0.33891820922267646, 1.1118797054434173, -0.3749742217820868, -0.43250515023423874, -0.30028588419007624, 1.3921477480053275, -0.04146223389552876, -1.3385954805115101, -0.39719081848229576, 0.5360397927954704], [1.15178098114874, 0.584197580614646, 0.9236599105287022, -0.5205377562522358, -0.6201861363719325, -0.4443134757431497, 0.08995783351796292, -0.09535998402930415, 0.11138706829805027, 0.8672051357725028]], [[0.7126746632018106, -0.2854967741296874, -0.537168755120175, -0.5628373168227426, -0.3653634865112496, 0.1369837000147313, 1.8894529494719319, 1.1125571266146954], [0.8206303004888058, -0.7730830389803344, -1.6047414280785868, -0.011119177875729962, -1.1056109144848274, 0.20657615210144725, 0.1048889887950117, 1.9989803293907686], [0.6109873629754639, -0.47737755733254017, 1.280556877083108, 0.4283352165742548, 0.6175301522368251, -1.1424488648431015, -0.7492183428612147, 0.17896692447605422], [0.16755978324115245, -1.4202072569110542, 1.3060352046420816, -1.254497416699177, 1.2231378758546954, -0.6836121579257665, 0.1558372131798969, -0.759534236100608], [-0.1345178397005667, -0.4642955218460242, 1.4856681150020898, -0.15705068199324135, -0.5736170396542858, 1.4451925377765311, 1.7300837358581216, -0.1284477823348584], [-1.4274678621349142, 0.5811863129337376, -0.8107922420563963, -1.247129711725068, -0.659283961875925, 0.9170079010428519, -1.1863297339320251, -1.1368376204872008], [0.9408934433007371, -0.4452011741592253, -1.288188250545543, -0.38673169226555515, 0.7310905721755331, -1.960967173582516, -0.7742894348918401, 0.06968304411626136], [1.448784716496286, 1.1790327085647085, 0.06696122134733595, -0.6247968891748213, 1.4365799020831982, 0.2859504572801488, 0.5311688085298024, 1.9398311008457851], [-0.5513338650277478, -1.5595807902520171, 0.9167483272757407, 1.8351060499739873, 0.5821302045236738, 1.2474360783384795, 0.9215224488619624, -0.052856982866907785], [-2.7379818559177376, 0.7857977482973223, -1.9077665692533763, -1.8269254388528116, -0.2732406514257458, -0.23796589868812978, 0.48051701048141, -0.8244336838909506]]], "biases": [[[0.5448940233045283], [0.8913899230453991], [1.3497714517365031], [0.17815851179839737], [-1.102315061448747], [0.5781953502408911], [1.408969155599634], [-0.14337243554300746], [-1.8529452628716434], [-0.8533905634135033]], [[-1.6185574525378457], [-0.8767000589997495], [-0.40623405455839284], [0.2893667907805982], [-0.7928988219716533], [0.40453479103135587], [0.7618777387130232], [1.0575515368267534]]]}, {"name": "", "score": 3, "weights": [[[-0.7623335158412522, 0.4010912438503202, 0.3912328369824012, 0.007528245246605389, -0.9323804259681857, 0.029858116117655785, 1.2711011964247652, -1.1352872109485102, -0.7997860240483059, -0.31376105434936596], [-0.635123477231092, 1.86611517180765, -0.14252522851093594, -0.9797938148916763, -0.03703057343483651, 0.280379390325929, -0.962661160460639, 0.19896071035281282, -0.19954224486245795, 0.7103624245826544], [0.9646357466830277, -0.05668811383609911, -0.16821250605738466, 1.6078829871953197, 0.39326413383719283, -1.822178024755461, -0.5926824904542639, -0.430544730033275, -0.1249570272983494, -0.9426028540983852], [1.431241337187891, -0.1458087898169045, 1.005577710127536, -1.5342868904852363, -0.8540706655555728, -1.9825246662296927, -0.33039214250553445, 0.3453060974190255, 1.5902762698491408, -0.4704663269596098], [-0.20799233432005002, 1.0297352384310665, -0.5124821648075302, -0.0323482302776592, -0.8015248276950341, -0.8525389784888805, 0.8721625610585336, 0.8340626706892386, -0.3555773239777969, 0.5087658847672335], [-1.158450302140475, 0.6581329172529311, 1.0801171957208873, -0.19377118254108022, 1.9880768034210539, -0.8479703677513577, 1.59126167842781, 0.1987833469917928, -0.7170417867399104, 0.9320279134543842], [0.3704890881673438, 1.3647151018258512, -1.9683523182404612, 0.555615588097686, -0.5064732582027955, 0.3142322178245501, 1.7372913321446941, -1.2099084600484873, 1.9705251559439456, -1.2672356814400272], [0.5707695428127056, -1.023622943640381, -0.061952935941862686, 0.2712601666509733, -0.9521118272160481, 0.7654548377130975, 0.9132796671982982, -1.1101188611845922, -2.87318838992713, 0.18270943277124183], [-0.7776499103001107, -0.4250525664046902, 0.5764414012404592, 1.4804013412406967, 1.0483872772728489, 2.1313796023786384, -0.7123746741059689, 2.071937820228485, 0.3372821455314055, -0.9638365041095259]], [[-0.3260021623353044, -0.5823872795071513, 0.03592097373614362, -0.937303169402099, -1.034017946042915, 0.22605449492732366, -0.47011757802160237, 0.5503474862813003], [1.0316908820111754, 0.7703419782212819, -0.7195025030196983, 0.3437354238080077, 1.3042044812035314, 1.137321071229604, 1.1068674646861933, -1.278772587835143], [2.0250680364672373, -1.8434385278243248, -0.5817888890840441, 0.151756372266227, -1.6485994401686483, -0.4602695183797989, 0.7125879634999684, 1.6249801900242737], [-0.7683508876154999, -0.32878851823514194, 0.9964127919772638, 0.9511691304768166, -1.2638708427667238, -0.45604259452787815, 1.853380749158283, -0.20695525992266042], [-0.2570394197911493, -1.4895389856922463, 0.7336414785669646, 0.10973009090481309, 1.0594981502080083, 0.9646679249064078, -2.198514508928908, 0.4355820030314306], [0.4772649098580671, 0.168979606513463, -0.033242490223689754, -1.0104274912144535, 1.0899786637485096, -1.4612055180196981, 0.6622957820401273, 0.9781339696152889], [-0.3453133199385723, -1.2352022472365414, 1.1939515474689475, -0.34350846629308707, 1.2187824915224352, -0.7206566719520399, -0.9063389225364468, 0.19991765304959183], [-0.9685703735032668, -0.7905139994911465, -0.9122810068817601, -1.3147834157750882, 2.916217308135331, 0.0587854262001113, 1.6043853036376048, 0.16368868518686838], [1.174322547232318, -1.2747657487178305, 0.7977523975388141, -0.36769021450032857, 0.15641041464677394, 0.4719350957363597, -1.9500868393063588, 0.2749828023870526], [-0.9950928998754652, 0.830848784645897, 0.2144031811107488, -1.0205106390666434, -0.9925290082707457, 0.39765393664137516, -1.7073188292530481, 1.1772863816341548]]], "biases": [[[0.26289552114713155], [1.159772682996934], [-2.798868503518283], [0.19724942249019864], [-0.4646058270384679], [-0.34174326252806325], [-1.9237990557088422], [0.5034994209859326], [1.1199826368211938], [1.5829444853765182]], [[1.6192759915144368], [-1.0078912049712494], [1.4933237887197255], [-1.6323404340761247], [-1.4069054075755958], [-1.3818992758883009], [0.06222989242314712], [-0.7278949433590439]]]}, {"name": "", "score": 4, "weights": [[[0.5613215326196157, -1.4243109486049124, -0.16394040056470377, 0.22147712665214453, 0.20639030132821035, 0.3478877015416304, 0.9479302505197269, -0.2171892140477504, -0.7060104268381326, -1.5569429848530152], [0.4293021975257616, 0.8262237009017219, 1.5033671886813582, 0.7841059862465762, 1.063773200537403, -1.097486195274499, 1.7268180731597218, 0.9739980307958023, -0.5746126043652927, 1.254717083357768], [0.06449459223244089, -1.9312064177608397, -0.5135262084617627, -0.7449144319965004, 0.028889280906111946, 0.5950450109889144, -0.892927679305771, 1.1779625231051838, -1.4197102440519438, -1.21537293588054], [-0.09712348661801047, -0.5736020938371268, -1.1051913489086933, 0.35703334494994965, -0.5109334524328686, -0.29856640562414827, 0.33832456123104004, 1.0985406048461666, 0.6302630322244618, 1.6344230245522124], [-0.42957500133201276, -0.45725110958876847, -1.1035791398454096, -0.12169911722387344, 0.1677345464821909, 0.08336829058090278, 1.2257403039756174, 1.1845054120072684, 0.015187140165663193, -0.7386761282811357], [0.46504483041656436, -1.3432009612029512, -1.1622797677219925, -0.37021623484487626, -0.7070683992711422, 0.5727679180260367, -0.8227706542710302, -0.824224851963821, -0.505760121487371, -0.9673422260065848], [-0.5388668147536898, 0.8832178883819439, 1.3269745144350829, 1.5428604500828873, -0.2818981263000235, 0.8153524129477564, 1.2476891809044568, 0.14747361424880776, -1.002692006849222, -1.1253635943979272], [0.518493977726548, -0.6336659450587623, -2.2614456936203755, 0.1762941403776955, 0.32742522309554156, -0.32120691287729497, -0.6452204718409275, 1.1412868904537226, 1.5620497142806398, -0.6003189474316779], [-0.9824558559353684, -0.5051390150176654, -0.9345864553317744, -0.3126577305243945, -0.8824266220679858, -0.7371150206133209, 0.06390138787618628, 2.8474918424325275, 0.7531187103364422, -1.0995219100193794]], [[-0.8590379925959907, 0.400536072437435, -0.6152053644204951, -0.005740084696158423, 1.539925750677225, -0.06401085858183599, -0.8808499057186485, -1.1020558417669453], [0.07494606153391561, 0.6037001261075231, -0.4585169283028299, -0.733895730514782, -1.3927372275535788, -0.16310178709692646, -0.3781580440268326, 0.9256541997861943], [2.1233466882229726, -0.7941521465566158, 1.5848399238125677, 1.274316884816401, -0.16582510087796204, -0.4389365159073822, 0.45503514740426926, 0.18637591954435404], [1.5770292823201093, 0.11949283676173329, -0.07904006076131057, 0.5788446177517385, 0.25592776208379436, 0.8380615083577984, 0.6344945545789473, -1.2917809130097702], [-1.0033684037751691, 0.7271546395102215, 0.5637855686492204, 1.124347822491067, 0.23210706042015886, -0.3158817228761962, -0.3543616985742512, -0.27318465345743925], [0.7213526410886899, -0.4785918455631443, -1.7327309182391992, -0.26548746148275787, 1.3672207522565207, 0.4430972818070945, -0.8634079277484794, 2.109893400491336], [0.2478387536884418, 0.4573392412917795, 1.9083488697189204, 0.37394688068790766, -0.48865411476513365, -0.808011135259304, -1.6271257391044824, -2.6222849183837993], [0.20672481618464697, -0.5792306196804271, -1.8293535576855007, 0.21474829827264513, -0.1275629350747871, 0.6325282495564818, 2.729667980212069, -1.142707523576752], [0.28107947393666377, -0.6311654599520773, -0.5641404382466342, 0.6688356326581794, 0.9061693649479786, -0.8223358337575919, -0.709375516409298, 0.0174348609093139], [-0.8470525583586874, 0.21190472587112102, -1.1000799079377241, -0.7644399776707557, -0.06747468031996076, 0.5306930627770153, 1.4903677142207754, 0.7753604206322057]]], "biases": [[[0.6212554421224291], [-0.046663694149627795], [0.19253146233104307], [-1.9127699125578919], [1.03051848915271], [0.6472036988228915], [-1.7876685319340142], [-0.3650012995078106], [-0.0026900666027314174], [-1.4617799672337042]], [[-0.08905986519796434], [-1.34396848800977], [-0.5691227071773656], [1.766676912223297], [0.9139859703268671], [-0.44927411788705796], [1.205905272043843], [-1.4214437322386972]]]}, {"name": "", "score": 5, "weights": [[[0.18704393157973528, 0.09432370211840635, 0.3551414787322666, 0.9054660583521028, 0.4182347032108039, -1.6602376979796893, 1.3551639778812483, -0.4833829673288396, -0.24493244200696324, -0.6531433798538266], [-0.42764022415368086, 1.1689213765568187, -0.3192362245782881, 0.926934311967738, 0.017861935731987584, -0.2210939076710004, -1.7531687170100512, 0.9744010267765914, -2.4478629499195694, -2.0221068304259937], [0.07592427322549714, -0.2055668105091207, -0.8955763060937725, 1.8428587372882794, -0.3834304313986673, -1.564130832923886, -0.40773315194022053, 1.282748548464184, -1.589541169737217, -0.6234442777310506], [-1.9271457102789835, 2.8444464898167747, 0.9393967609409607, -0.5046541811368677, -0.8336635176760109, -1.017576413688341, 0.5369153706317895, 1.0685672705999274, 0.5828269683692435, -0.8300832498440424], [0.6216084683565474, -0.4420941777432578, -0.8061146136822834, -0.41750282864195937, -0.06855712624022331, 0.2878603199960191, -2.437615621258939, -0.2603410067195312, -0.9449603772066343, -0.34330110590882623], [0.9664183402836694, 1.2946868982555166, 0.5146540262362271, 0.1382399928507291, -1.15107593215594, -0.5784498622511977, -0.33176270817928016, 0.04056934490953203, 1.2052174160751783, -2.376035112033651], [0.8254034330652211, -0.0712320572650808, -0.5963092730698468, 0.2687865754535414, 0.44299663331443845, 0.8766556500894203, -1.845035263793378, 0.9124829805782841, -0.8138731959607954, -1.2164699113087845], [0.33891820922267646, -0.8568802894825845, -0.3749742217820868, -0.5435231700278943, -0.30028588419007624, 1.5478963189278225, -1.0249484619798517, 0.7265530361337518, -0.39719081848229576, 0.6466121595419274], [1.15178098114874, 1.3626201924629435, -0.632377231967325, -0.5205377562522358, 0.8372735203748544, 0.4481325055235797, -0.6644127513204289, 0.3913570108952712, 0.1669842391849355, 1.5904309810316475]], [[0.7126746632018106, -0.2854967741296874, -0.537168755120175, -0.5628373168227426, -0.3653634865112496, 0.1369837000147313, 1.8894529494719319, 0.2802094410854448], [0.8206303004888058, -0.7730830389803344, -0.23071049521522824, -0.011119177875729962, 0.7740669775044217, -1.1457821844417373, 1.6162507222206646, 0.5872411591674956], [-0.1764542105813251, 0.011270837490850474, 0.3073533296166095, 0.4283352165742548, -0.34150490017870294, 0.11554872624078402, -0.7492183428612147, 0.3229661397367848], [1.5751456591862039, 0.7963242109410849, 1.3060352046420816, -1.254497416699177, 1.2231378758546954, 0.3056040685407212, 0.3052022608249645, -0.759534236100608], [-0.1345178397005667, -1.495687961139174, 1.274681049451424, -0.15705068199324135, -0.5736170396542858, 1.4451925377765311, 1.7300837358581216, -0.1284477823348584], [-1.4274678621349142, 0.7174328880392508, -0.8107922420563963, -1.247129711725068, -0.659283961875925, 0.01314739728031169, -0.4803187933098161, -1.1368376204872008], [0.9408934433007371, -0.4452011741592253, -0.29784351733589887, 0.3949518246421687, -1.0617896277155177, -1.960967173582516, -1.391632183944432, -1.1690703483668405], [1.448784716496286, 0.8813707209397611, 0.3492256716407673, -0.4872245374262486, 1.4365799020831982, 1.8398472037210098, 0.5311688085298024, -1.9901514770984088], [0.6152572186534983, 2.474049020622958, 1.769190963753036, 1.137652187723103, 0.5821302045236738, -0.22828182213789544, -0.616565759663782, -2.381619975844665], [0.6959149962537071, -0.7774193501650418, -0.16074510853304114, -0.9828675378640461, -1.2624835893811484, -0.6280707020531832, 0.48051701048141, -0.06813029237752433]]], "biases": [[[-0.7106538729244959], [-0.9398108386298353], [1.3497714517365031], [0.17815851179839737], [-0.0051295818667900644], [-0.9899024676642643], [1.408969155599634], [-0.7837025512651115], [-1.8529452628716434], [-0.14693172606538396]], [[-0.05917931371767717], [-0.8767000589997495], [-0.6605365174413471], [0.2893667907805982], [0.3590591625186275], [0.897265367140291], [0.7618777387130232], [0.700093361567537]]]}, {"name": "", "score": 6, "weights": [[[1.3637463307832607, -1.4243109486049124, 0.3335785196017393, 0.9054660583521028, 0.5416062990786505, 0.036127726145874006, 0.7947492248987201, -0.2171892140477504, -0.24493244200696324, -0.6531433798538266], [0.4293021975257616, 0.8262237009017219, -0.3192362245782881, 0.5225491809948062, 1.063773200537403, -0.4326224154978922, 1.7268180731597218, -0.18679978248858953, -2.4478629499195694, -0.9733063369056427], [0.07592427322549714, -1.9312064177608397, -0.34562827933764406, -0.05345956947068011, -0.3834304313986673, 0.5950450109889144, -0.04246141843634689, -0.39297447062712754, -1.4114607424019996, -0.5588459958405692], [-1.9271457102789835, -1.5851622828661451, -1.1051913489086933, 0.35703334494994965, 0.7419682585904279, -0.29856640562414827, 0.5369153706317895, 1.165318077906224, 0.6302630322244618, -0.8300832498440424], [-1.0814389280693086, -0.45725110958876847, -0.8061146136822834, -1.0024877602468363, 0.1677345464821909, 0.08336829058090278, -0.9522524025522251, 0.078679493119237, -0.9449603772066343, 0.9558937158009316], [-1.123493633717952, 0.10395254005627622, 0.5657951461521861, 0.1382399928507291, -0.5526894469937864, -0.5784498622511977, 0.8621002377155024, 0.04056934490953203, 1.2052174160751783, -2.376035112033651], [0.14980403140491366, 0.2938174987966183, -0.5963092730698468, 0.2687865754535414, -2.0619731685642013, 0.7349202560693882, -0.7679245551086845, -0.44063805140702583, -0.8315488926724197, 1.0661819285976402], [-1.0079900382299252, -0.16244016716485266, -1.2251206040214746, -2.28857711838002, 0.32742522309554156, 0.14602409044280515, -1.0249484619798517, 0.7265530361337518, 1.2572768171713886, 0.6466121595419274], [-0.9824558559353684, -0.5051390150176654, -0.632377231967325, -1.2559986921303283, 0.8372735203748544, -0.9650651462033573, -0.6644127513204289, 0.3913570108952712, -0.7321165371506645, 1.5904309810316475]], [[0.7520469563117, 0.8259711616230526, 0.12230510142700203, -1.8549497061716629, 1.539925750677225, -0.3413464257435709, -0.8808499057186485, -1.1020558417669453], [0.015076223983226255, -1.8077567982904386, -0.4585169283028299, -0.733895730514782, 0.22478716135862506, -1.1457821844417373, 1.6162507222206646, -1.5169239410273472], [2.1233466882229726, -0.7941521465566158, 0.6465331524940549, -1.2379243529809374, -0.9871003651580277, 1.7718584766029881, 0.45503514740426926, 0.3229661397367848], [1.5751456591862039, 0.7963242109410849, 0.42418494965124137, -1.589577438129083, 1.0381550678392748, 0.3056040685407212, 0.3052022608249645, -1.1515893025922215], [-2.007696117875946, -1.495687961139174, 1.274681049451424, -0.6904134460389361, 1.9373081079934238, 0.3297087556544474, -0.4316304731024624, 1.0421034756683691], [-0.759108644360047, 0.7174328880392508, 0.8507863207627478, 1.3016113876238535, 1.4446545777872275, 0.4430972818070945, -0.4803187933098161, -0.5573795304905039], [0.2478387536884418, -0.7837657864543884, 1.9083488697189204, -1.542746670526152, -1.0617896277155177, -0.808011135259304, 0.19451706481459902, -1.1690703483668405], [0.20672481618464697, -0.5792306196804271, 0.3492256716407673, -0.4872245374262486, -0.1124839782672805, 0.6325282495564818, 1.3241796560797225, -1.142707523576752], [0.6152572186534983, 2.309426257639192, 1.769190963753036, 0.6688356326581794, 0.9504677360469888, 2.18816635549937, -0.616565759663782, -2.381619975844665], [-0.8470525583586874, 1.185136071896032, -0.16074510853304114, -1.0188240654043739, -0.06747468031996076, -1.9617558801189412, 0.2032892161270345, 0.7753604206322057]]], "biases": [[[0.6212554421224291], [-0.9398108386298353], [0.17360126234540404], [-0.8055294897483882], [-0.0051295818667900644], [-0.9899024676642643], [-1.7876685319340142], [-0.3650012995078106], [0.3988459162131135], [-1.4617799672337042]], [[-0.08905986519796434], [0.5013750356697255], [-0.6605365174413471], [0.7226708777077453], [0.3590591625186275], [0.897265367140291], [2.127377542674147], [0.700093361567537]]]}, {"name": "", "score": 7, "weights": [[[0.18704393157973528, 0.4010912438503202, 0.3912328369824012, 0.007528245246605389, 0.4182347032108039, 0.029858116117655785, 0.11664232417891326, -0.4833829673288396, 0.1018060863143481, 0.5115742037409093], [-0.635123477231092, 1.86611517180765, -0.14252522851093594, 0.12813294540265086, 0.4487237423762335, -0.9856349694100728, -0.033668776659883395, -0.08724313646455588, 0.022194747056581494, -2.0221068304259937], [0.9646357466830277, -0.2055668105091207, -0.16821250605738466, -1.168268885881971, 1.0320235610827093, -1.773113342407576, -0.40773315194022053, -0.430544730033275, 0.7736611099843932, -0.3643529859157313], [1.431241337187891, 2.8444464898167747, 0.9393967609409607, -0.012152421529960076, -0.8540706655555728, -1.9825246662296927, -0.33039214250553445, 0.8483788748791035, 1.5902762698491408, -0.22835622741891345], [-0.20799233432005002, 1.3915927164610187, 1.9984417366014267, -0.6692403179389369, -1.0883921476335423, -0.8525389784888805, -2.437615621258939, -0.40414191533332267, 0.8761990874052912, 0.5087658847672335], [0.9664183402836694, 0.7045269566229693, 0.5146540262362271, -0.7308011070461916, -1.15107593215594, -0.9424583414239659, 0.06084853899234265, -0.254238742843671, -0.12020772253467388, 0.9320279134543842], [0.8254034330652211, 1.3647151018258512, -0.2220546083260639, -1.485001600182772, 0.44299663331443845, 1.8342744765078016, -1.845035263793378, -1.2099084600484873, -0.8138731959607954, -1.2164699113087845], [0.5707695428127056, -0.5904625695186905, -0.3749742217820868, -0.43250515023423874, -0.9521118272160481, 1.3921477480053275, -0.8058713396318267, -1.1101188611845922, -2.87318838992713, 0.5360397927954704], [1.3805241561671464, 0.584197580614646, 0.9236599105287022, -0.21017247419718388, -0.6201861363719325, 2.1313796023786384, 1.9079588154216938, -0.09535998402930415, 0.11138706829805027, -0.6083006229577059]], [[0.7126746632018106, -0.5823872795071513, -0.537168755120175, -0.5628373168227426, -1.1672390627818343, 0.1369837000147313, 1.8894529494719319, 1.1125571266146954], [0.8206303004888058, -0.7730830389803344, -1.6047414280785868, 0.9518199355674417, -1.1056109144848274, 1.031780157467932, 0.1048889887950117, -1.278772587835143], [-0.44017067950260713, -1.8434385278243248, 1.280556877083108, 0.4283352165742548, -1.6485994401686483, -1.1424488648431015, 0.180852988273602, 1.6249801900242737], [-0.40443041753708786, -0.9562507941071291, 1.3060352046420816, -1.254497416699177, -1.2221912310919594, 0.837801767388939, 0.1558372131798969, 0.2570295203444527], [-0.1345178397005667, -1.4895389856922463, 1.4856681150020898, 0.10973009090481309, -0.5736170396542858, 0.04733134985480257, 1.7300837358581216, -0.1284477823348584], [-1.4274678621349142, 0.168979606513463, 1.4122967738514363, 0.12900523885154314, 1.0899786637485096, 0.9170079010428519, -1.1863297339320251, -1.1368376204872008], [0.9408934433007371, -0.4452011741592253, -1.288188250545543, -0.38673169226555515, 0.7310905721755331, -0.7206566719520399, -0.7742894348918401, 0.19991765304959183], [1.448784716496286, 1.1790327085647085, 0.06696122134733595, 0.46281200001616674, 0.8895024344172, -0.6982374613502959, 0.8488457386953819, 1.9398311008457851], [-0.4884565966811124, -1.2747657487178305, 0.9167483272757407, 1.8351060499739873, 0.5821302045236738, 0.45908802932676246, 0.9215224488619624, 0.2749828023870526], [-0.18506044481619496, 1.1668911730305889, 0.2144031811107488, -1.8269254388528116, -0.2732406514257458, -0.23796589868812978, -1.7073188292530481, -0.8244336838909506]]], "biases": [[[0.26289552114713155], [0.8913899230453991], [1.3497714517365031], [0.17815851179839737], [-1.102315061448747], [-0.34174326252806325], [1.606964789258413], [0.5034994209859326], [-1.8529452628716434], [-0.8533905634135033]], [[1.6192759915144368], [-2.6639817453664993], [-0.40623405455839284], [-0.26600193442826264], [-1.4069054075755958], [-0.3753529165292626], [0.06222989242314712], [-0.3773861983839694]]]}, {"name": "", "score": 8, "weights": [[[0.0011823137420687918, 0.09432370211840635, 0.3912328369824012, 0.007528245246605389, 0.5416062990786505, 0.029858116117655785, 1.3551639778812483, -1.1352872109485102, -0.7997860240483059, -0.31376105434936596], [1.7221993891872118, 1.86611517180765, -0.3192362245782881, 0.20051627189184576, 0.4487237423762335, -0.9856349694100728, -1.7531687170100512, -0.08724313646455588, -2.4478629499195694, 0.7103624245826544], [0.9646357466830277, -0.05668811383609911, -0.28818450982119626, -1.168268885881971, -0.3834304313986673, -1.773113342407576, 0.08143596931331785, -0.39297447062712754, -1.4114607424019996, -0.6234442777310506], [-1.9271457102789835, 2.354368078401096, 2.3382601211041214, -0.5046541811368677, 0.7419682585904279, -1.017576413688341, 0.5369153706317895, 0.8483788748791035, 0.5828269683692435, -0.4704663269596098], [-1.0814389280693086, 1.0297352384310665, 1.9984417366014267, -0.6692403179389369, -0.273536798622653, -0.8525389784888805, 0.8721625610585336, -0.2603410067195312, -0.9449603772066343, 0.5087658847672335], [-1.123493633717952, 1.2946868982555166, 0.7578604310348789, -0.19377118254108022, -0.5526894469937864, -0.9424583414239659, 0.06084853899234265, -0.254238742843671, -0.7170417867399104, -2.376035112033651], [0.3704890881673438, 0.5750269972071139, -0.5963092730698468, 0.555615588097686, 1.5493261252430943, 0.7349202560693882, 1.7372913321446941, -1.2099084600484873, 1.9705251559439456, -0.327897757110045], [0.5707695428127056, -0.8568802894825845, -0.061952935941862686, 0.2712601666509733, 0.581536407397454, 1.5478963189278225, 0.9132796671982982, -1.1101188611845922, -2.87318838992713, -0.06535049374807231], [1.3805241561671464, -0.4250525664046902, 0.13526806603228325, -0.507380500026272, 1.0483872772728489, 0.4481325055235797, 1.9079588154216938, 2.071937820228485, 0.3372821455314055, 1.5904309810316475]], [[-0.3260021623353044, 0.8259711616230526, -0.22887719056939673, 2.2635979523272134, -1.1672390627818343, 0.22605449492732366, 0.317842725053305, 0.06933123298157388], [-1.234621085226409, -1.8077567982904386, -2.178838063689772, 2.0672404861165194, 0.7740669775044217, -1.1457821844417373, 1.6162507222206646, 0.5872411591674956], [-0.1764542105813251, 0.011270837490850474, 0.3073533296166095, 0.151756372266227, -0.34150490017870294, 0.11554872624078402, 0.180852988273602, 1.6249801900242737], [1.5751456591862039, -0.9562507941071291, 2.02545220472074, 0.9511691304768166, -1.2221912310919594, 0.837801767388939, 0.3052022608249645, 0.2570295203444527], [0.6531531524050056, -1.4895389856922463, 1.274681049451424, -0.6904134460389361, -0.2596319060764818, 0.04733134985480257, -2.198514508928908, 0.6949348016656429], [0.7391583423753437, 0.168979606513463, 1.4122967738514363, 0.12900523885154314, 1.0899786637485096, 0.01314739728031169, 0.6622957820401273, 1.5356496713214318], [0.2504137251954992, -0.7837657864543884, -0.887710334361689, -0.34350846629308707, 1.2187824915224352, 0.4158162385312114, -1.391632183944432, 0.19991765304959183], [1.857519561583076, -0.7905139994911465, 0.3492256716407673, 0.46281200001616674, 0.9727073499657433, -0.6982374613502959, 0.8488457386953819, 0.16368868518686838], [0.6152572186534983, 2.474049020622958, 1.769190963753036, 1.137652187723103, 0.8081879594656023, -0.22828182213789544, -0.616565759663782, -2.381619975844665], [0.6959149962537071, 1.1668911730305889, -0.16074510853304114, -0.9839444741909155, 0.5506715232760929, 0.8063470528577645, 0.2032892161270345, -0.06813029237752433]]], "biases": [[[-0.7106538729244959], [-2.247479500378654], [0.22101533727181732], [-0.8055294897483882], [-0.4646058270384679], [-0.9899024676642643], [1.606964789258413], [-0.7837025512651115], [2.0219714119887335], [-0.8727297690887652]], [[1.6192759915144368], [0.5013750356697255], [-0.03994860718118882], [0.7226708777077453], [-1.4069054075755958], [-0.3753529165292626], [2.127377542674147], [-0.3773861983839694]]]}, {"name": "", "score": 9, "weights": [[[0.6263326213615316, 0.9399136568137378, 0.14996136978068128, 1.228183300430389, 0.20639030132821035, 1.9369006875841144, 0.3765304011491138, -0.5348498303313607, -0.7060104268381326, -1.5569429848530152], [1.0894936603586953, 1.4005537208786927, 1.5033671886813582, -1.6155178327697364, -0.09546925591783813, -1.6031643079982005, -0.4611725351212364, 1.6744081907114945, 0.3697434170295259, 1.2308827429524074], [0.6818124073587628, 0.07296532207336147, -0.5135262084617627, -0.7449144319965004, -0.1736011440749164, -0.3860323680758231, 1.1684237931818464, 0.0896954468522612, 0.3128463719443171, -1.21537293588054], [1.3945388082795327, -0.5736020938371268, -0.8957456846269384, 0.6386185340299609, 0.6024830208928791, -1.2282905887733753, 0.10186856513326074, 0.31127652605516154, 0.19630425254827372, -1.004722575613367], [-1.3624719546955342, -0.2982966573960964, -0.6392296803132775, -0.12169911722387344, 0.944841750402068, 0.3604958805348489, 1.2257403039756174, 1.1845054120072684, -0.2771504704968483, -0.7386761282811357], [0.17101447714479365, -1.3432009612029512, 0.7578222775427997, 1.1695697704447323, -0.7070683992711422, 0.8071766382619315, -0.8227706542710302, -0.824224851963821, 0.6796509626989721, 0.018071695663258752], [-0.4498043605151769, 0.8832178883819439, 0.33066837243066405, -0.7855459884247502, -0.2818981263000235, 0.8997067724965172, 0.7111135406604764, -0.6393071613798753, -1.002692006849222, -1.1253635943979272], [1.3725287873354988, -0.40340748265750215, -2.2614456936203755, 0.1762941403776955, -0.5905064341093772, -0.32120691287729497, -0.23983782677556587, 1.1412868904537226, 0.3258063989525844, 0.10408272087547757], [-0.3235580752063944, -0.9644804637764209, 1.1308583353437074, 0.5640857023554626, -0.3728038027226291, 0.9966144075268888, 0.06390138787618628, -0.6769538190694105, 0.7531187103364422, -1.0995219100193794]], [[-0.2842973689984319, -1.0904561864089606, 1.2132561316673884, 0.03342902454789528, 1.0987476892926566, 0.5112953370653399, 2.1575006626509605, -0.34762565973434534], [0.7420571241468187, 2.868573700653733, -0.6871616457195203, -0.6178356631174442, -1.3927372275535788, -0.16310178709692646, 1.0832856348942022, 0.5500614049389707], [-1.3015601439359994, 0.4848092395398263, 1.5848399238125677, 1.274316884816401, -0.16582510087796204, -0.4389365159073822, -1.8629429992707387, 0.18637591954435404], [-0.7726708910248615, -1.137278247795987, 0.06059457009015095, 0.5788446177517385, 0.25592776208379436, 0.8380615083577984, 0.6344945545789473, -0.1664952840553762], [-1.0033684037751691, -1.7401372099339991, 0.5637855686492204, -1.58071186885582, 0.23210706042015886, 0.07412645107933032, -3.558118615852755, 1.3637197874204727], [-0.11591810636621434, 0.2515480476296726, -1.7327309182391992, -0.26548746148275787, -0.04568205782008084, -2.456024745473529, -0.032654041859389304, -0.02611971941273263], [-0.5727122735332414, -1.3478966864375117, 1.8868989385441437, -0.6822591142638513, 0.6723801365614819, -0.8725406397638684, 0.7720416171509026, -2.6222849183837993], [0.1455554881914276, 0.4429633774084546, 0.3380232816865033, 0.21474829827264513, 0.5991056827046218, -1.1932895451262648, 1.9586474610168711, 0.09854901542186492], [1.6478658153777055, -0.562225652279343, -1.2514629198304819, -0.9157473734758357, 0.9061693649479786, -0.8223358337575919, -0.709375516409298, -1.8419700472074705], [-0.08572816967919042, 0.21190472587112102, -1.1000799079377241, -0.7644399776707557, -1.4049443509260933, -0.8117067263817064, -0.03400516288674312, -1.8632881370960344]]], "biases": [[[-1.2573306714491816], [-0.16469022483424808], [0.19253146233104307], [2.2083718941627284], [-1.9231368514352125], [0.6472036988228915], [-1.177905522718872], [0.9005569633110401], [1.5701819094191984], [-0.6628730760163252]], [[0.11432428710034025], [-1.34396848800977], [0.399739682880305], [0.0068217990099945815], [-0.8363900489605819], [-0.44927411788705796], [0.2124838221288081], [1.580366440759292]]]}, {"name": "", "score": 10, "weights": [[[0.6411373696955762, -1.4243109486049124, 0.3872397386438184, 0.22147712665214453, -0.47895804937473935, 0.036127726145874006, 0.039098263445890936, -0.48112062999602045, 0.9577328338389609, 0.6400932943286941], [1.3187684417190277, 0.8262237009017219, 1.8511214930346047, 0.4272006219750936, 1.063773200537403, -0.5771105802295023, -0.13338566118159037, -0.18679978248858953, 0.3464342915011223, -0.29139314817090045], [0.9837294862106338, -1.001317109152989, -0.34562827933764406, -0.05345956947068011, 1.5727677531236395, 0.5950450109889144, -0.04246141843634689, 1.1779625231051838, -0.5024650648846342, 0.9047600520590247], [0.5512478303228763, 1.4082444896921984, -0.4409764861437092, 0.35703334494994965, 1.3394947124974748, -1.054712774613504, 0.33832456123104004, -1.9761730804298, 0.6302630322244618, 1.9128346381480088], [-0.42957500133201276, -0.7403319992547337, 0.6027162641824446, -0.500356183594596, 0.4707292694450202, 0.057375889683379755, -0.2623580458701562, 0.1792795926232158, -1.061283951965889, -0.7618384079715239], [0.46504483041656436, -1.7522883596929766, 0.5657951461521861, -0.37021623484487626, 0.25589739678411705, 0.5727679180260367, -0.13537588939212578, 0.6724665520195252, -0.9582828537148792, 0.6049114886063078], [-0.5388668147536898, 0.5819096826373689, 3.2528068751616543, -0.18981441412199263, -0.8368140981729467, 0.9276878681431425, 0.14605771221393876, -0.44063805140702583, 0.34269680454337703, 1.0661819285976402], [0.5364098904360795, -0.16244016716485266, 0.03209856036133312, -2.28857711838002, -2.150756542086361, 0.2605455158930703, 0.47853629269368203, -0.965667727518667, 1.5620497142806398, 1.5569850393791171], [-0.9824558559353684, 0.5614377440895446, -0.4917787887715108, 2.4880560082777783, -0.8824266220679858, -0.9650651462033573, -0.5717880150220314, 2.8474918424325275, 0.5441866652925395, -0.010843859780829622]], [[-0.8590379925959907, 1.6957064549253202, -0.22388151649757082, -0.915723446365796, 1.3638280037277222, -0.06401085858183599, 0.44014937508134655, 1.4773246031706957], [-0.46623401200432923, 0.7337477801145815, -0.4585169283028299, -0.733895730514782, 0.22478716135862506, 0.26095841420745514, 0.03292212041775498, 1.312451254602302], [-1.5236415722948315, -0.7941521465566158, 0.6465331524940549, 1.2166427752775841, -0.2724139605286848, 0.31155994933603137, 0.45503514740426926, 1.9819616407456024], [-0.8035659650546108, 0.76206285542921, -0.07904006076131057, 0.7682513924623808, 0.7436694062509716, -1.1725252144518044, -2.074436344073064, 0.6917381127866602], [-0.29173218540443285, -0.8969810123214356, -0.31381557516694947, 1.124347822491067, 1.9373081079934238, 0.3297087556544474, -0.3543616985742512, -0.11504009263378336], [0.04393606233376151, -0.4785918455631443, 1.985642270548814, -0.12705120872143325, 0.13181834218811633, 0.5191908800187727, -0.8634079277484794, -0.6979443717795438], [0.2478387536884418, 0.4573392412917795, 1.7647247557293084, 1.461323608879535, -0.3880162996648849, 2.0880168637660486, 0.19451706481459902, 0.8315837588851119], [0.20672481618464697, -0.5792306196804271, 0.15059869032432746, -1.6617367464746726, -0.1124839782672805, -0.5650674037294015, -1.789061616737969, 1.260942146498366], [0.23154617686335063, -0.9434980618243115, -0.5641404382466342, -0.5117063725650899, 1.8304119073074163, 2.18816635549937, -1.12367315512351, 0.4540327923545136], [-0.8470525583586874, -3.0083328598148835, -1.015731645649467, -1.0188240654043739, 0.49983498260403775, -1.9617558801189412, 0.5088924736027266, 0.4291366218001537]]], "biases": [[[0.6212554421224291], [0.4737617409437105], [0.17360126234540404], [1.0902445513072532], [-1.6643814440802354], [-0.5760319724095213], [-1.7876685319340142], [-0.13127725128019224], [-1.183815285462466], [-0.28029252788347525]], [[-0.08905986519796434], [0.09124529282018941], [0.5110949863486778], [-0.6500847388697993], [0.9139859703268671], [-0.7704336709656544], [-0.6830042729835187], [-0.1372573397159773]]]}, {"name": "", "score": 11, "weights": [[[0.6411373696955762, -1.4243109486049124, -0.7685071140826996, 0.22147712665214453, 0.20639030132821035, 0.036127726145874006, 0.7947492248987201, -1.4505814592479953, -0.7060104268381326, 0.04398634390801961], [0.4293021975257616, 0.8262237009017219, 1.5033671886813582, 0.7841059862465762, -1.317721900089844, -1.6031643079982005, -0.4611725351212364, 0.9739980307958023, 0.3697434170295259, -0.9733063369056427], [-0.2848727516120674, -1.9312064177608397, -0.34562827933764406, -0.05345956947068011, 0.028889280906111946, 0.5950450109889144, -0.04246141843634689, -0.4325054260711093, 0.3128463719443171, -1.21537293588054], [-0.8872423217440618, -0.5736020938371268, -0.9504278000917467, 0.6386185340299609, 0.4796502575183952, -0.29856640562414827, 0.33832456123104004, 1.0985406048461666, 0.6302630322244618, 1.6344230245522124], [-0.42957500133201276, -0.2982966573960964, -1.1035791398454096, -0.4458727564296782, -0.6723638798308864, 0.08336829058090278, -0.3084554794114458, 0.078679493119237, 0.08988041571002456, 0.9558937158009316], [-0.5277827296686027, -1.3432009612029512, 0.5657951461521861, -0.37021623484487626, -0.7070683992711422, 0.5727679180260367, -0.13537588939212578, -0.824224851963821, -0.9582828537148792, 0.018071695663258752], [-0.5388668147536898, 0.8832178883819439, -1.1892115678859836, -1.14458437534293, -0.8368140981729467, 0.8840900561130273, 1.2476891809044568, 0.14747361424880776, -1.002692006849222, -1.1253635943979272], [0.518493977726548, -0.16244016716485266, -1.2251206040214746, -2.28857711838002, 0.32742522309554156, -0.32120691287729497, 0.2360978336933548, -0.965667727518667, 0.3258063989525844, 1.5569850393791171], [-0.9824558559353684, -0.7787846476851817, -0.9345864553317744, -1.2559986921303283, -0.3728038027226291, -0.9650651462033573, -0.6734735910080503, -0.6673551216083097, 0.7531187103364422, 0.015136654599109607]], [[-0.2842973689984319, 1.6957064549253202, -0.6152053644204951, 0.03342902454789528, 1.539925750677225, 0.5112953370653399, -0.8808499057186485, -0.34762565973434534], [0.7420571241468187, 2.868573700653733, 1.45484117191405, -0.632738016356556, 0.22478716135862506, -0.5052030152423669, -0.3781580440268326, -1.5169239410273472], [-1.3015601439359994, 0.4848092395398263, 1.5848399238125677, 0.16240461297757303, -0.9871003651580277, -0.4389365159073822, -0.2406923658038755, 1.9819616407456024], [1.5770292823201093, -1.137278247795987, -1.103573226425459, 0.5788446177517385, -0.7482581717128107, -1.1725252144518044, -2.074436344073064, -1.2917809130097702], [-1.0033684037751691, -0.7818655376333873, 0.5637855686492204, -0.046001013613324516, 0.23210706042015886, 0.3297087556544474, -0.3543616985742512, -0.7379876525793937], [-0.11591810636621434, 0.2515480476296726, -1.7327309182391992, -0.12705120872143325, 0.13181834218811633, -2.456024745473529, -0.8634079277484794, -0.6979443717795438], [-0.5727122735332414, 0.4573392412917795, 1.9083488697189204, -1.542746670526152, 0.6723801365614819, -0.808011135259304, 0.19451706481459902, -2.6222849183837993], [2.80734323098424, -0.5792306196804271, -1.8293535576855007, 0.21474829827264513, -0.1275629350747871, 0.42897327483156683, 2.729667980212069, -1.142707523576752], [-0.9373823777823068, 2.309426257639192, -0.5641404382466342, -0.9157473734758357, 0.9061693649479786, 2.18816635549937, -0.709375516409298, -1.8419700472074705], [-0.8470525583586874, -3.0083328598148835, -1.015731645649467, -1.0188240654043739, -0.06747468031996076, -1.9617558801189412, 1.4903677142207754, -1.0563798632783592]]], "biases": [[[-1.2573306714491816], [-0.046663694149627795], [0.17360126234540404], [-0.4096499769631637], [-1.9231368514352125], [0.8058733878533139], [-0.3839146838495779], [-0.3650012995078106], [-0.0026900666027314174], [-0.1567372248961501]], [[1.0443114112655794], [0.09124529282018941], [-0.5691227071773656], [1.766676912223297], [0.46596680553970937], [-0.44927411788705796], [0.9580756044071881], [-1.4214437322386972]]]}, {"name": "", "score": 12, "weights": [[[0.6411373696955762, -1.4243109486049124, 0.3551414787322666, 0.22147712665214453, 0.4182347032108039, 0.036127726145874006, 0.7947492248987201, -0.2171892140477504, 0.9577328338389609, 0.5115742037409093], [-0.42764022415368086, -1.2843028154653429, 1.8511214930346047, 0.5225491809948062, 1.2685080061689527, -1.097486195274499, -0.033668776659883395, 0.9744010267765914, 0.022194747056581494, -2.0221068304259937], [-0.27190688062666823, -0.2055668105091207, -0.8955763060937725, -1.3801828571994483, 1.0320235610827093, -0.1623509397735329, -0.04246141843634689, 1.282748548464184, -1.589541169737217, -0.5588459958405692], [-0.8872423217440618, -1.5851622828661451, -1.1051913489086933, 0.35703334494994965, -0.8336635176760109, -0.29856640562414827, 0.33832456123104004, -1.9761730804298, 0.6302630322244618, 1.9128346381480088], [-0.42957500133201276, -0.45725110958876847, -0.6253710177955888, -0.41750282864195937, -0.06855712624022331, 0.2878603199960191, -0.3084554794114458, 0.078679493119237, 0.08988041571002456, 0.39714037970102467], [0.9664183402836694, 0.10395254005627622, 0.5146540262362271, -0.7308011070461916, -1.15107593215594, 1.2896132207906696, -0.13537588939212578, -0.24400393579776156, -0.12020772253467388, -0.9673422260065848], [0.8254034330652211, 0.2938174987966183, 0.28200381495183824, -1.485001600182772, 0.44299663331443845, 0.8153524129477564, -1.845035263793378, 0.29011192980365436, -0.8138731959607954, -1.2164699113087845], [0.33891820922267646, 1.1118797054434173, -1.2251206040214746, -2.28857711838002, -0.30028588419007624, 0.14602409044280515, 0.2360978336933548, -1.3385954805115101, 1.5620497142806398, 1.5569850393791171], [0.9144062900015347, 0.584197580614646, -0.4917787887715108, -1.2559986921303283, -0.6201861363719325, -0.4443134757431497, -0.6734735910080503, 2.8474918424325275, 0.11138706829805027, 0.015136654599109607]], [[0.7126746632018106, 1.6957064549253202, -0.537168755120175, -0.005740084696158423, -0.3653634865112496, -0.06401085858183599, -0.8808499057186485, 1.1125571266146954], [0.07494606153391561, 0.6037001261075231, -0.4585169283028299, -0.733895730514782, -1.1056109144848274, 0.20657615210144725, 0.1048889887950117, 0.9845282263780185], [0.6109873629754639, -0.7941521465566158, 1.280556877083108, 0.4283352165742548, -0.9871003651580277, -1.1424488648431015, 0.45503514740426926, 1.9819616407456024], [1.5770292823201093, 0.11949283676173329, 1.3060352046420816, -1.254497416699177, 1.2231378758546954, -1.1725252144518044, -2.074436344073064, -1.2917809130097702], [-0.1345178397005667, -0.4642955218460242, 1.4856681150020898, 1.124347822491067, 1.9373081079934238, 0.3297087556544474, 1.7300837358581216, -0.27318465345743925], [-1.4274678621349142, -0.4785918455631443, 0.8507863207627478, -1.247129711725068, -0.659283961875925, 0.9170079010428519, -1.1863297339320251, -0.6979443717795438], [0.2478387536884418, 0.4573392412917795, 1.9083488697189204, -1.542746670526152, 0.7310905721755331, -1.960967173582516, -0.7742894348918401, 0.06968304411626136], [0.20672481618464697, -0.5792306196804271, 0.06696122134733595, -0.6247968891748213, -0.1124839782672805, 0.2859504572801488, 0.5311688085298024, -1.142707523576752], [-0.5513338650277478, 2.309426257639192, 0.9167483272757407, 1.8351060499739873, 0.5821302045236738, 2.18816635549937, 0.9215224488619624, 0.0174348609093139], [-0.8470525583586874, 0.7857977482973223, -1.9077665692533763, -1.0188240654043739, -0.06747468031996076, -1.9617558801189412, 0.48051701048141, -0.8244336838909506]]], "biases": [[[0.6212554421224291], [-0.046663694149627795], [0.17360126234540404], [-0.4096499769631637], [-1.102315061448747], [0.5781953502408911], [1.408969155599634], [-0.3650012995078106], [-1.8529452628716434], [-1.4617799672337042]], [[-1.6185574525378457], [-0.8767000589997495], [-0.40623405455839284], [1.766676912223297], [0.9139859703268671], [0.40453479103135587], [1.205905272043843], [-0.1372573397159773]]]}, {"name": "", "score": 13, "weights": [[[0.0011823137420687918, -1.4243109486049124, -0.7685071140826996, 0.007528245246605389, -1.1348767317401907, 0.029858116117655785, 0.7947492248987201, -0.2171892140477504, -0.7997860240483059, -0.31376105434936596], [0.4293021975257616, 1.86611517180765, 1.8511214930346047, 0.5225491809948062, 1.063773200537403, -0.9856349694100728, 1.342410922694064, -0.08724313646455588, 0.624987341900439, -0.9733063369056427], [0.06449459223244089, -1.9312064177608397, -0.34562827933764406, -1.168268885881971, 0.39326413383719283, 0.5950450109889144, -0.5926824904542639, 1.1779625231051838, -1.4197102440519438, -0.3643529859157313], [1.431241337187891, -0.1458087898169045, -1.1051913489086933, -1.5342868904852363, 0.4796502575183952, -1.9825246662296927, -0.33039214250553445, -1.9761730804298, 1.5902762698491408, 1.9128346381480088], [-0.20799233432005002, -0.45725110958876847, 0.6027162641824446, -0.6692403179389369, 0.1677345464821909, 0.08336829058090278, -0.3084554794114458, 0.078679493119237, 0.8761990874052912, 0.5087658847672335], [0.46504483041656436, 0.7045269566229693, 1.0801171957208873, -0.19377118254108022, 1.9880768034210539, -0.9424583414239659, -0.13537588939212578, -0.24400393579776156, -0.9582828537148792, -0.9673422260065848], [0.3704890881673438, 1.3647151018258512, -0.2220546083260639, -1.14458437534293, 1.5493261252430943, 0.8153524129477564, 1.7372913321446941, -0.44063805140702583, 0.34269680454337703, 1.1277820918630395], [0.297740575401775, -0.16244016716485266, -0.061952935941862686, -2.28857711838002, -0.9521118272160481, 0.14602409044280515, 0.2360978336933548, -0.965667727518667, -2.87318838992713, -0.06535049374807231], [-0.9824558559353684, -0.4250525664046902, 0.13526806603228325, -1.2559986921303283, -0.8824266220679858, -0.9650651462033573, -0.6734735910080503, 2.071937820228485, 0.3372821455314055, -0.6083006229577059]], [[-0.3260021623353044, 1.6957064549253202, -0.22388151649757082, 2.2635979523272134, -1.1672390627818343, -0.06401085858183599, -0.23830063041273808, -1.1020558417669453], [0.07494606153391561, 0.6037001261075231, -2.178838063689772, 0.9518199355674417, 0.22478716135862506, -0.5052030152423669, 0.03292212041775498, -1.278772587835143], [2.1233466882229726, -0.7941521465566158, -0.5817888890840441, -1.0200422292838116, -0.9871003651580277, -0.744823687757405, 0.180852988273602, 1.9819616407456024], [1.5770292823201093, -0.9562507941071291, -0.07904006076131057, 1.0938494665191152, -1.2221912310919594, -1.1725252144518044, -0.6780012816200441, -1.2917809130097702], [0.6531531524050056, -1.4895389856922463, 0.8283177446389357, 0.10973009090481309, 1.9373081079934238, 0.3297087556544474, -0.3543616985742512, -0.27318465345743925], [0.7391583423753437, -0.4785918455631443, 1.4122967738514363, -0.12705120872143325, 1.0899786637485096, 0.4430972818070945, -0.8634079277484794, 1.5356496713214318], [0.2478387536884418, -1.2352022472365414, 1.9083488697189204, -0.34350846629308707, -0.48865411476513365, -0.808011135259304, 0.19451706481459902, 0.18187109676518956], [-2.192731354509721, -0.5792306196804271, -1.8293535576855007, 0.46281200001616674, 0.8895024344172, -0.6982374613502959, 1.3241796560797225, 0.16368868518686838], [-0.4884565966811124, 2.309426257639192, -0.5641404382466342, 0.6688356326581794, 0.8081879594656023, 0.45908802932676246, -1.7467100891922256, 0.0174348609093139], [-0.18506044481619496, -3.0083328598148835, 0.2144031811107488, -1.0188240654043739, -0.06747468031996076, -1.9617558801189412, -1.7073188292530481, 0.7753604206322057]]], "biases": [[[0.26289552114713155], [-2.247479500378654], [0.17360126234540404], [-0.4096499769631637], [-0.4646058270384679], [-0.34174326252806325], [-1.7876685319340142], [0.5034994209859326], [1.0178588989384294], [-1.4617799672337042]], [[1.6192759915144368], [-2.6639817453664993], [0.5110949863486778], [1.766676912223297], [0.9139859703268671], [-0.3753529165292626], [0.06222989242314712], [-0.1372573397159773]]]}, {"name": "", "score": 14, "weights": [[[-0.8811359840738952, -1.8725678777507533, -0.8403303578468189, -0.10578442627903775, 0.21471579327400706, 0.7947937695475233, -2.6555258035867517, 1.0656078133703104, -0.06475206378267703, -0.13312563770439836], [0.6419964523468604, 0.8832145627535838, -0.2567205799077746, 0.3102663899267692, 0.34383847353277464, 0.0668823555279314, -0.30084698352389505, -1.13643675568854, -0.8008564349016724, -1.2815659064287317], [0.6580577865710718, 0.044074240894094376, -0.6245475326563387, -0.9877795729593245, 0.2864670361771108, 0.7090695138149434, -1.698366857039407, -0.5815187329390281, 0.9626161587673356, -0.9864436534324479], [-1.1861234989569407, 1.3045620210000206, -0.5327843947197759, -1.1434665951953589, -1.1336096862268126, -0.34177316476351194, 0.9189337960269617, 1.624512402947121, 0.4015512129309161, 0.20295341503559686], [0.35313214785474006, 0.6475436948872796, 0.6034280028579508, -1.223119108450138, -0.9549113981560251, 0.6530123323242844, 0.2621935624486562, -1.3983260968961198, -0.17963808531322295, 0.9163556675797015], [0.6009765820634484, -0.3201299565664451, -0.9468550664684918, 1.4360669743658463, 0.9649493595994678, -0.6374756008828235, -0.051580726508714016, -0.27995354236746106, 0.5472688843755084, 0.11433028424844185], [-0.824875266565475, -0.6195706175520334, 0.8083494117315665, -1.6660950533135437, -0.23061225403284386, -0.8034475777005803, -0.645304981845887, -0.32868991763650995, -1.2252978594244286, 0.7013468924045604], [-1.4093232175914479, -0.25821512257769386, 0.34921814825387903, 0.06414864327373083, -2.5334174569546164, -0.6731982837728939, -0.7487320228596118, 0.27278388883181887, -0.24610881832163922, 0.01563749133577808], [1.084870632785544, -1.43294560509646, 0.7365999041669017, -3.043853074029169, -1.1884610529202393, 0.9567127179186633, -0.5057750520200591, 0.018619696148520583, 0.19124918375146446, 0.8211753192844177]], [[-0.8738725488551727, -0.5938999186351316, -1.1209089343396579, -1.2356077258262106, 0.41061162153734937, 1.2787572891819268, 0.9144005716366302, 0.6384420740132122], [-0.9022248274798348, 0.3747644288888119, -0.7846127656633654, 0.7261941271116362, -1.127062437159261, -0.37514126791988844, 0.704144101634724, -0.703076626510083], [2.0689333458533126, -1.988925141388545, 0.8027326860575644, 1.1438414914828705, 1.4880538801289833, 0.14722093959481697, -0.10514872604240907, 0.112632357391666], [-0.899392747235918, -0.2309465908575661, -0.48938778893431084, -1.0037997679574617, -0.8242368278299184, -0.8562326484747159, -1.7457682279878393, -0.34870675739681234], [-1.7866301645046119, 0.15150643763124577, -1.3292659565215752, 0.3360087409221535, 0.5757091978387006, -0.44762556260008507, 0.04000379271338283, 1.2401362791794404], [-0.45811831553006377, -1.938263380692395, 0.6707524987372554, -0.8590785247974517, 1.328208803723769, -1.2122029273988288, -1.5138379113723055, 1.1360147380532537], [-2.457782684228727, 1.1740932139991243, -0.01733695424039441, 1.4302083124652099, 0.7478276310177009, 0.8550799460937294, -0.22550695626716477, 0.984772037784792], [-0.6209165406888859, -2.2631091784578845, -1.2796905595566757, 0.89987959554846, -0.35681832567032473, 0.514570852736647, -0.5903715737088764, -0.9490002102898336], [0.37489517794553856, 1.4794765759050288, -0.4861885190745335, -0.1347476580116373, 0.5239658018144857, -0.8880501680688316, 0.8566091869631179, -0.13803565913098015], [-0.665820850060468, 0.5904728273987271, 0.5187790879780463, 1.2128425762337645, 0.00862240846575086, -0.6123760400632143, -0.9938106563319579, -0.4521395979283742]]], "biases": [[[-1.1456565504319862], [-1.1150793223786848], [-0.7630759890841903], [0.3180299280357266], [0.3564110908229205], [-0.2027902409686619], [-1.2910927261758782], [1.2757010748920914], [-0.24706875232853248], [-0.323418979752161]], [[1.8012783240626347], [-0.9152338198167568], [0.9674149660361816], [-0.7559224130888873], [-0.43998153105494964], [1.0149064672168144], [-0.085270341881346], [-0.1856909838383632]]]}, {"name": "", "score": 15, "weights": [[[-1.4344410264120013, 0.4010912438503202, 0.3912328369824012, 1.2118049772826207, -0.47895804937473935, 0.029858116117655785, 0.039098263445890936, -1.1352872109485102, -0.9129544854517826, -0.31376105434936596], [1.3187684417190277, 1.86611517180765, -0.14252522851093594, 0.12813294540265086, -0.8679930683357624, -0.5771105802295023, 1.342410922694064, -0.08724313646455588, 0.624987341900439, 0.7103624245826544], [0.9837294862106338, -1.001317109152989, -0.2576273815352648, -1.168268885881971, 1.5727677531236395, 1.3716032704887335, 1.555074559909361, -0.430544730033275, 0.7736611099843932, -0.3643529859157313], [0.5512478303228763, -0.1458087898169045, 0.24040697171690004, -1.5342868904852363, 1.3394947124974748, -1.054712774613504, 1.5241818637167943, 0.8483788748791035, 1.5902762698491408, -0.0019411178016688082], [-0.20799233432005002, -0.7403319992547337, 1.9984417366014267, -0.500356183594596, -1.0883921476335423, 0.057375889683379755, 0.8721625610585336, 0.1792795926232158, 0.8761990874052912, 0.5087658847672335], [0.26675619937222983, 0.7045269566229693, 0.9693912241463194, -0.19377118254108022, 0.25589739678411705, 0.548824414686682, 0.901824720985729, 0.6724665520195252, -0.7170417867399104, 0.6049114886063078], [0.8775438122245586, 0.5819096826373689, -0.2220546083260639, 0.555615588097686, 1.5493261252430943, 1.8342744765078016, 1.7372913321446941, 1.653207057426848, 1.9705251559439456, 1.1277820918630395], [0.8010095493491264, -0.5904625695186905, 0.03209856036133312, -0.42987240705913543, -2.150756542086361, 0.7654548377130975, 0.9132796671982982, -0.9710521662762444, 1.4223152816241142, -1.544601064926607], [1.9073891962366682, -0.4250525664046902, 1.5469848944624733, -0.21017247419718388, 1.0483872772728489, 2.1313796023786384, 1.9079588154216938, 2.071937820228485, 0.3372821455314055, -0.6083006229577059]], [[-0.3260021623353044, -1.1878736179260054, -0.22887719056939673, -0.915723446365796, -1.1672390627818343, 0.22605449492732366, 0.44014937508134655, 1.4773246031706957], [-0.46623401200432923, 0.7337477801145815, -0.3052328708944999, 0.7780497249920991, -0.043253885071117715, 1.031780157467932, 1.275905467354545, -1.278772587835143], [-1.5236415722948315, -1.8434385278243248, -0.5817888890840441, 1.2166427752775841, -0.2724139605286848, 0.31155994933603137, -0.4555505937175822, 1.6249801900242737], [-0.40443041753708786, -0.8648461610904669, 2.02545220472074, 0.9511691304768166, -1.2221912310919594, 0.5373727684849418, -0.3905159818626187, 0.6917381127866602], [0.6531531524050056, -1.4895389856922463, -0.31381557516694947, 0.8992215772210392, -0.29392628116592745, 0.7372754755329793, -2.198514508928908, 0.6949348016656429], [0.04393606233376151, 0.168979606513463, 1.985642270548814, -1.9987173057202636, 1.0899786637485096, -0.48888127653477714, 0.6622957820401273, -0.913023835451482], [-0.07177279082938365, -1.2352022472365414, -0.887710334361689, 1.461323608879535, 1.2187824915224352, 2.0880168637660486, -0.9063389225364468, 0.8315837588851119], [-2.192731354509721, 0.08684880917604787, 0.15059869032432746, 0.46281200001616674, 0.8895024344172, -0.5650674037294015, -1.789061616737969, 0.4229727994099093], [-0.4884565966811124, -0.9434980618243115, -0.7419454022467916, -0.5117063725650899, 1.1245093194003162, 0.45908802932676246, -1.7467100891922256, 0.2749828023870526], [-0.18506044481619496, 1.1668911730305889, -0.08880788309870599, -0.9839444741909155, 0.5506715232760929, 0.8063470528577645, -1.7073188292530481, 0.4291366218001537]]], "biases": [[[0.26289552114713155], [-2.247479500378654], [-0.09309277786870475], [1.0902445513072532], [-0.4646058270384679], [-0.34174326252806325], [1.606964789258413], [0.5034994209859326], [1.0178588989384294], [-0.28029252788347525]], [[-0.21416119325107805], [-2.6639817453664993], [-0.03994860718118882], [-1.6323404340761247], [-1.4069054075755958], [-0.7704336709656544], [-0.6830042729835187], [-0.3773861983839694]]]}, {"name": "", "score": 16, "weights": [[[0.7815025885066629, -1.8725678777507533, 0.3497753554239024, 0.4622969841522999, 0.1686079834582692, 0.7947937695475233, 0.5432405864443048, 1.052219594384948, -0.06475206378267703, -1.117435151696162], [0.26266837485889005, 0.8832145627535838, -0.24090470325618027, -1.4631069130305194, 0.34383847353277464, 0.0668823555279314, -0.30084698352389505, -1.13643675568854, -0.8008564349016724, 0.4809534175686067], [0.7779364714897508, 0.044074240894094376, -0.9015209873069346, -0.9877795729593245, 0.557751735096326, -0.2763014780354307, -1.698366857039407, -0.5815187329390281, 0.9626161587673356, -0.9180921899146751], [-0.693708035985654, 1.3045620210000206, -1.059679303520092, -0.5881880579969664, 0.41150617866777944, 1.2911761231855197, 0.9189337960269617, -0.9014638521211207, -1.6792074146218219, 0.20295341503559686], [0.2882416796334403, 0.6475436948872796, -0.6049114641546325, 0.1775680169775389, -0.9549113981560251, 1.6133201819967111, 0.2621935624486562, -1.386267801841969, -1.0147211023485294, 0.9163556675797015], [1.0614528611481993, -0.3201299565664451, -0.9468550664684918, 0.595199751569695, 1.3380109438107257, -0.6374756008828235, -0.051580726508714016, -0.23809344092605136, 1.2660313787979582, 0.4654031438232224], [-2.5012752250250534, 1.3421151054986795, 0.8083494117315665, 0.8476943420141617, 0.9743737298289445, -0.8034475777005803, -0.645304981845887, 0.6243985633825192, -1.2252978594244286, 0.07903327144505375], [-1.2790058684236554, 1.45180260196168, 0.34921814825387903, 0.06414864327373083, 0.1437113589107087, -2.323785650294962, -0.7487320228596118, 0.24227834153103217, -1.224787668639315, 0.01563749133577808], [1.1449057991791078, -1.43294560509646, 0.7365999041669017, -1.4547156400236128, -1.1884610529202393, 0.20509624282779648, -0.5057750520200591, 0.7381490639731619, 0.449870365989086, -0.07179432550811508]], [[-0.8738725488551727, -0.04429092148991559, -1.1209089343396579, 1.2590248591216686, 0.6012440873309566, 1.3735397221537342, 0.9144005716366302, 1.6066413535859756], [-0.8023039957232247, 0.3747644288888119, -0.7846127656633654, 0.8750594587987045, -0.7278491205224636, -0.37514126791988844, -1.4778801715490157, -0.703076626510083], [0.1638657090575184, -1.6379016513852416, 0.5417665119193803, -0.6134740352035098, 1.4880538801289833, 0.14722093959481697, 0.566634841790008, 0.7217813439537577], [-0.899392747235918, -0.2309465908575661, -0.48938778893431084, -1.2757235742933466, -0.8242368278299184, -2.252011579933491, -1.3670647636135103, -0.13883035270540112], [-1.7866301645046119, 0.15150643763124577, -1.3292659565215752, 0.34255748394194596, 0.5757091978387006, -0.7333906191739151, -0.41828801989832826, -0.9611986286251547], [0.16873911462045232, 2.1060610665665287, 0.8661159951337745, -0.8590785247974517, 1.328208803723769, -1.2122029273988288, 0.32015824203179977, 1.1360147380532537], [0.5092650592088221, 1.1740932139991243, -0.01733695424039441, -1.6111879243010898, 0.7478276310177009, -0.11496458142937754, -0.22550695626716477, 0.984772037784792], [-0.3895883924701904, -1.934965572746756, -1.2796905595566757, -0.9748428826357636, -0.35681832567032473, 1.0951705514883892, -0.5903715737088764, -0.9490002102898336], [-0.24321671192672895, 0.08562534524355103, -0.4536201941204098, -1.5342795787995782, 0.5239658018144857, -0.8880501680688316, -0.36083034231315414, -0.13803565913098015], [-0.665820850060468, 0.3184869628242046, -0.3352477474450768, 0.8376795940842284, 0.00862240846575086, -0.6123760400632143, -0.9938106563319579, -0.4521395979283742]]], "biases": [[[-1.1456565504319862], [-1.1150793223786848], [0.44207035625469326], [-0.14041543660453915], [0.09092642682543173], [0.1628484550114915], [-1.2910927261758782], [0.33628196521485454], [-0.24706875232853248], [0.21313359330867365]], [[1.8012783240626347], [-0.7479808883041796], [-1.6053349483392192], [-0.26514913725667205], [0.9942751575780835], [1.0149064672168144], [1.5648857171895174], [-0.1781433779287525]]]}, {"name": "", "score": 17, "weights": [[[-0.8811359840738952, -0.6819504141122699, -0.8403303578468189, -1.2112205140192227, 0.4182347032108039, -0.3305496514567926, 0.11664232417891326, -0.4833829673288396, 0.1018060863143481, -1.117435151696162], [-0.42764022415368086, 1.459014473880908, 0.12811454553784998, 0.926934311967738, -0.4906297563621428, -0.2210939076710004, -0.033668776659883395, 0.9744010267765914, -0.8008564349016724, 0.4809534175686067], [-0.27190688062666823, -0.2055668105091207, -0.8955763060937725, -1.3801828571994483, 1.0320235610827093, -0.1623509397735329, -0.682204674718106, -0.5815187329390281, 0.9626161587673356, -0.9180921899146751], [0.4723753095592804, 2.8444464898167747, -0.5327843947197759, -0.012152421529960076, -1.1336096862268126, 0.5486676982444648, -0.4621990218857619, 1.0685672705999274, 0.4015512129309161, 0.06911997789550774], [0.23520361582418553, 2.26394311314615, 0.6034280028579508, -0.41750282864195937, -0.9549113981560251, 0.2878603199960191, -2.437615621258939, 0.6175938543045212, -0.17963808531322295, -0.6906087667258898], [0.9664183402836694, -0.3201299565664451, 0.5146540262362271, 1.4360669743658463, -1.15107593215594, -0.6374756008828235, -0.33176270817928016, -0.23809344092605136, -0.12020772253467388, 0.4654031438232224], [0.8254034330652211, 1.3421151054986795, 0.5832476797302284, -1.485001600182772, 0.44299663331443845, -0.04315651790301841, -1.845035263793378, 0.29011192980365436, -0.8138731959607954, 0.07903327144505375], [-1.4093232175914479, 1.1118797054434173, 0.34921814825387903, 0.06414864327373083, -2.5334174569546164, -0.6731982837728939, -0.04146223389552876, 0.27278388883181887, -0.24610881832163922, -1.844111164797494], [1.084870632785544, 0.584197580614646, 0.9236599105287022, -3.043853074029169, 0.957111866052693, -0.4443134757431497, 0.08995783351796292, -0.09535998402930415, 0.19124918375146446, -0.07179432550811508]], [[0.7126746632018106, -0.04429092148991559, -0.537168755120175, -1.2356077258262106, 0.6012440873309566, 0.1369837000147313, 0.9144005716366302, 1.6066413535859756], [0.8206303004888058, 0.3747644288888119, -0.7846127656633654, 0.7261941271116362, -1.1056109144848274, 0.20657615210144725, -1.4778801715490157, -0.703076626510083], [0.1638657090575184, -0.47737755733254017, 1.280556877083108, -0.6134740352035098, 0.6175301522368251, -1.1424488648431015, 0.566634841790008, 0.17896692447605422], [0.16755978324115245, 0.7552251103271306, 0.2821819326042717, -1.2757235742933466, 1.2231378758546954, -0.6836121579257665, 0.1558372131798969, -0.13883035270540112], [-1.2193391478291677, 0.15150643763124577, -1.3292659565215752, 0.34255748394194596, -0.5736170396542858, 1.4451925377765311, 1.7300837358581216, -0.1284477823348584], [-1.4274678621349142, 0.5811863129337376, 0.6707524987372554, -0.8590785247974517, -1.2394139179134882, 0.9170079010428519, 0.32015824203179977, -1.1368376204872008], [0.5092650592088221, 0.007686799542820168, -1.288188250545543, -1.6111879243010898, -0.24502731793285848, 0.8550799460937294, -0.22550695626716477, 0.06968304411626136], [-0.3895883924701904, 1.1790327085647085, 0.31054107656121605, -0.6247968891748213, 1.4365799020831982, 0.514570852736647, 0.5311688085298024, 1.9398311008457851], [0.37489517794553856, -1.5595807902520171, -0.4861885190745335, 0.15681193977662425, 0.5821302045236738, -0.46651580379140534, 0.8566091869631179, -0.13803565913098015], [1.3037076263973915, 0.7857977482973223, -0.3352477474450768, -1.8269254388528116, 0.5525905363382522, -1.8894033228565121, -0.9938106563319579, 1.1480057979056524]]], "biases": [[[-1.1456565504319862], [0.8913899230453991], [1.3497714517365031], [0.8906955466016704], [-1.102315061448747], [0.5781953502408911], [1.408969155599634], [0.33628196521485454], [-0.24706875232853248], [-0.8533905634135033]], [[1.8012783240626347], [-0.8767000589997495], [-1.6053349483392192], [0.2893667907805982], [-0.7928988219716533], [-1.7751751286864175], [-0.085270341881346], [1.0575515368267534]]]}, {"name": "", "score": 18, "weights": [[[0.6411373696955762, 0.09432370211840635, -0.7685071140826996, 0.22147712665214453, 0.5416062990786505, -1.6602376979796893, 1.3551639778812483, -0.2171892140477504, 0.9577328338389609, -0.6531433798538266], [0.4293021975257616, 0.8262237009017219, 1.8511214930346047, 0.20051627189184576, 1.063773200537403, -1.097486195274499, 1.7268180731597218, -0.05615129998752557, -2.4478629499195694, -0.31590561557114205], [0.06449459223244089, 1.130600034143834, -0.34562827933764406, 1.8428587372882794, -0.3834304313986673, 0.5950450109889144, 0.08143596931331785, -0.39297447062712754, -1.4114607424019996, -0.5588459958405692], [-1.9271457102789835, 2.354368078401096, 2.3382601211041214, -0.5046541811368677, 0.4796502575183952, -0.29856640562414827, 0.5369153706317895, -1.9761730804298, 0.5828269683692435, 1.9128346381480088], [-1.0814389280693086, -0.4420941777432578, 0.6027162641824446, -0.4458727564296782, 0.22904577328211256, -1.6303912857946605, -0.9522524025522251, 0.078679493119237, -0.9449603772066343, 0.9558937158009316], [0.46504483041656436, 1.2946868982555166, 0.7578604310348789, 0.1382399928507291, 0.7678235470535727, 0.5727679180260367, 0.8621002377155024, 0.04056934490953203, -0.9582828537148792, -0.9673422260065848], [0.14980403140491366, 0.5750269972071139, -0.5963092730698468, -1.14458437534293, -0.8368140981729467, 0.8153524129477564, 1.2476891809044568, 0.9124829805782841, 0.34269680454337703, 1.0661819285976402], [0.5364098904360795, -0.16244016716485266, 1.1305472330912452, -0.5435231700278943, 0.32742522309554156, 1.5478963189278225, 0.2360978336933548, 0.7265530361337518, 1.2572768171713886, 1.5569850393791171], [-0.9824558559353684, -0.5051390150176654, -0.632377231967325, -1.2559986921303283, 0.8372735203748544, 0.4481325055235797, -0.6644127513204289, 0.3913570108952712, -0.7321165371506645, 1.5904309810316475]], [[0.7520469563117, 1.6957064549253202, 0.12230510142700203, -1.8549497061716629, 1.539925750677225, -0.06401085858183599, -0.8808499057186485, 0.2802094410854448], [0.07494606153391561, 0.6037001261075231, -0.23071049521522824, -0.733895730514782, 0.22478716135862506, -0.5052030152423669, 0.03292212041775498, 0.5872411591674956], [-0.1764542105813251, 0.011270837490850474, 0.6465331524940549, -1.2379243529809374, -0.9871003651580277, 0.11554872624078402, 0.45503514740426926, 0.3229661397367848], [1.5751456591862039, 0.7963242109410849, 0.42418494965124137, -1.589577438129083, 1.0381550678392748, 0.3056040685407212, -2.074436344073064, -0.6004950436275749], [0.24480136335181402, 0.681256677149149, 0.8283177446389357, 1.124347822491067, 0.39988270117090097, 0.3297087556544474, -0.4316304731024624, 1.0421034756683691], [0.7213526410886899, -0.4785918455631443, 0.8640839742141201, -0.12705120872143325, 1.4446545777872275, 0.01314739728031169, -0.8634079277484794, -0.5573795304905039], [0.35237914469322207, 0.4573392412917795, -0.29784351733589887, 0.3949518246421687, -1.0617896277155177, -0.808011135259304, 0.19451706481459902, -1.1690703483668405], [1.857519561583076, 0.07637326775667853, 0.3492256716407673, -1.6617367464746726, -0.1124839782672805, 1.8398472037210098, -0.7828804657748201, -1.142707523576752], [0.28107947393666377, 2.474049020622958, -0.5641404382466342, 0.6688356326581794, 0.9504677360469888, 2.18816635549937, -0.616565759663782, -2.381619975844665], [-0.8470525583586874, 1.185136071896032, -0.16074510853304114, -1.0188240654043739, -1.2624835893811484, -1.9617558801189412, 0.2032892161270345, -0.06813029237752433]]], "biases": [[[-0.7106538729244959], [-0.046663694149627795], [-0.10974485375069776], [-0.4096499769631637], [1.03051848915271], [-0.9899024676642643], [-1.7876685319340142], [-0.3650012995078106], [0.3988459162131135], [-1.4617799672337042]], [[-0.08905986519796434], [0.09124529282018941], [-0.6605365174413471], [1.766676912223297], [0.3590591625186275], [-0.14956912392482968], [1.205905272043843], [0.700093361567537]]]}, {"name": "", "score": 19, "weights": [[[-1.4344410264120013, -1.8725678777507533, 0.3872397386438184, 1.2118049772826207, 0.1686079834582692, -0.3305496514567926, 0.039098263445890936, -0.48112062999602045, -0.9129544854517826, -1.117435151696162], [1.3187684417190277, 1.1959428676770933, -0.24090470325618027, 0.4272006219750936, 0.604957547416492, -0.5771105802295023, -0.13338566118159037, 0.3138832143150321, -0.8008564349016724, -0.29139314817090045], [0.9837294862106338, -1.001317109152989, -0.2576273815352648, 0.7830536652721812, 0.2864670361771108, 0.7090695138149434, -0.682204674718106, -0.5815187329390281, -0.5024650648846342, 0.9047600520590247], [-1.1861234989569407, 1.4082444896921984, -0.5327843947197759, -1.1434665951953589, 1.3394947124974748, -0.34177316476351194, -0.004430740119881168, 0.48409772522917066, 0.4015512129309161, 0.06911997789550774], [0.35313214785474006, -0.7403319992547337, -1.5207075401991494, 0.1775680169775389, 0.4707292694450202, 0.057375889683379755, 0.8306261041066528, 0.6175938543045212, -1.061283951965889, -0.7618384079715239], [1.0614528611481993, -0.3201299565664451, 0.9693912241463194, 0.6681389536621025, 0.25589739678411705, 0.548824414686682, 0.901824720985729, 0.6724665520195252, -0.05304025647620979, 0.6049114886063078], [-0.824875266565475, 1.3421151054986795, 3.2528068751616543, 0.8476943420141617, -0.23061225403284386, -0.04315651790301841, 0.14605771221393876, -0.32868991763650995, -0.5892087841885586, 0.6573618560587527], [-1.4093232175914479, -0.25821512257769386, 0.03209856036133312, -0.42987240705913543, -2.150756542086361, 0.2605455158930703, -0.7487320228596118, -0.9710521662762444, -0.24610881832163922, -1.844111164797494], [1.9073891962366682, 0.5614377440895446, 1.5469848944624733, 2.4880560082777783, -0.1984399968761042, 0.9567127179186633, -0.5717880150220314, 0.7381490639731619, 0.19124918375146446, -0.07179432550811508]], [[0.6621654381506037, -0.04429092148991559, 2.723373249331272, -0.915723446365796, 1.3638280037277222, 0.6182832169616177, 0.9144005716366302, 1.4773246031706957], [-0.8023039957232247, 0.7337477801145815, -0.3052328708944999, 0.7261941271116362, -0.043253885071117715, 0.26095841420745514, 0.7622602978978565, -0.703076626510083], [0.1638657090575184, -0.9813926337652289, -0.7141877544980818, 1.2166427752775841, -0.2724139605286848, 0.31155994933603137, 0.566634841790008, 0.7217813439537577], [-0.899392747235918, 0.7552251103271306, 0.24975624860860526, -1.2757235742933466, 0.7436694062509716, -2.252011579933491, -0.3905159818626187, 0.6917381127866602], [-0.29173218540443285, 0.15150643763124577, -0.31381557516694947, 0.8992215772210392, 0.5757091978387006, 0.7372754755329793, 1.4538322494568712, -0.11504009263378336], [0.16873911462045232, -1.938263380692395, 1.985642270548814, -1.9987173057202636, 0.6331514731786538, -1.2122029273988288, 0.6802214234336769, 1.1360147380532537], [0.5092650592088221, 1.7020275896508088, 1.7647247557293084, 1.461323608879535, -0.24502731793285848, 2.0880168637660486, -0.22550695626716477, 0.984772037784792], [0.4946067720270151, -1.934965572746756, 0.15059869032432746, 0.89987959554846, -0.35681832567032473, 0.514570852736647, -1.789061616737969, -0.9490002102898336], [0.23154617686335063, 0.08562534524355103, -0.7419454022467916, -0.5117063725650899, 1.1245093194003162, -0.46651580379140534, -1.116714559689768, 0.4540327923545136], [1.3037076263973915, 0.5904728273987271, -0.3352477474450768, 1.2128425762337645, 0.5525905363382522, -1.9049520061719845, -0.9938106563319579, 1.1480057979056524]]], "biases": [[[-1.1456565504319862], [0.4737617409437105], [0.44207035625469326], [1.0902445513072532], [-1.6643814440802354], [-0.5760319724095213], [0.7777408154420744], [0.33628196521485454], [-1.183815285462466], [-0.28029252788347525]], [[1.8012783240626347], [-0.9152338198167568], [-0.7151265899507407], [-0.6500847388697993], [1.040193773772923], [-0.7704336709656544], [-0.085270341881346], [1.5299804951593259]]]}, {"name": "", "score": 20, "weights": [[[0.5613215326196157, -0.9233713928863682, 0.3335785196017393, 1.3323745563893143, 0.20639030132821035, 0.3478877015416304, 0.9479302505197269, -0.5831047073074379, -0.7060104268381326, -1.5569429848530152], [1.7221993891872118, -0.12858106978330888, 1.5033671886813582, 0.20051627189184576, 0.017861935731987584, -0.4326224154978922, -1.7531687170100512, 0.9739980307958023, 0.3697434170295259, 1.254717083357768], [-0.2848727516120674, 0.07296532207336147, -0.28818450982119626, -0.7449144319965004, -1.839983417701039, -1.564130832923886, -0.892927679305771, -0.4325054260711093, -1.4114607424019996, -0.6234442777310506], [-0.09712348661801047, 2.354368078401096, -0.9504278000917467, -0.5046541811368677, -0.5109334524328686, -1.2282905887733753, 0.5369153706317895, 1.165318077906224, -2.475225659010474, -0.8300832498440424], [-1.3624719546955342, -0.2982966573960964, -1.1035791398454096, -1.0024877602468363, -0.6723638798308864, 0.3604958805348489, -0.9522524025522251, -0.2603410067195312, -0.9449603772066343, -0.7386761282811357], [-1.123493633717952, 1.2946868982555166, -1.1622797677219925, 0.1382399928507291, -0.7070683992711422, -0.5784498622511977, -0.8227706542710302, 0.04056934490953203, -0.505760121487371, -2.376035112033651], [-0.4498043605151769, 0.21695911046342575, -0.5963092730698468, 0.2687865754535414, -2.0619731685642013, 0.7349202560693882, 0.7111135406604764, 0.14747361424880776, -0.8315488926724197, -1.1253635943979272], [0.518493977726548, -0.8568802894825845, 1.1305472330912452, -0.5435231700278943, -0.5905064341093772, 1.5478963189278225, -0.6452204718409275, 1.1412868904537226, 0.3258063989525844, -0.6003189474316779], [-0.3209421898500525, -0.7787846476851817, -0.9345864553317744, -0.3126577305243945, -0.3728038027226291, 0.4481325055235797, 0.06390138787618628, 0.3913570108952712, 0.7531187103364422, 1.5904309810316475]], [[-0.2842973689984319, 0.400536072437435, 0.12230510142700203, -1.8549497061716629, 0.3467810739925734, 0.5112953370653399, 0.317842725053305, -0.5748561891563398], [0.015076223983226255, -1.8077567982904386, 1.45484117191405, 2.0672404861165194, -1.3927372275535788, -0.16310178709692646, 1.6162507222206646, 0.9256541997861943], [-0.1764542105813251, 0.4848092395398263, 0.3073533296166095, -1.2379243529809374, -0.34150490017870294, -0.4389365159073822, 2.571303603700081, 0.18637591954435404], [-1.724883580492417, 0.7963242109410849, 0.42418494965124137, 0.5788446177517385, 1.0381550678392748, 0.3056040685407212, 0.3052022608249645, -0.6004950436275749], [0.24480136335181402, -0.7818655376333873, 1.274681049451424, -0.046001013613324516, 0.39988270117090097, 2.0730540696981525, -0.4316304731024624, 1.0421034756683691], [-0.11591810636621434, 0.7174328880392508, -1.7327309182391992, -0.26548746148275787, 1.4446545777872275, 0.01314739728031169, -0.4803187933098161, -0.5573795304905039], [-0.5727122735332414, -1.3478966864375117, -0.29784351733589887, 0.3949518246421687, -1.0617896277155177, -0.8725406397638684, -1.6271257391044824, -1.1690703483668405], [2.80734323098424, 0.07637326775667853, 0.3492256716407673, -0.4872245374262486, -0.1275629350747871, 1.8398472037210098, 2.729667980212069, -1.9901514770984088], [0.6152572186534983, 2.474049020622958, -0.01138651914063937, 1.137652187723103, 0.9504677360469888, -0.22828182213789544, -0.709375516409298, -1.8419700472074705], [-0.08572816967919042, 0.21190472587112102, -1.1000799079377241, -0.7644399776707557, -1.2624835893811484, -0.6280707020531832, -0.03400516288674312, -0.06813029237752433]]], "biases": [[[-0.7106538729244959], [-0.16469022483424808], [0.19253146233104307], [-0.8055294897483882], [-1.9231368514352125], [0.6472036988228915], [-0.3839146838495779], [1.200659386999464], [-0.0026900666027314174], [-0.14693172606538396]], [[1.0443114112655794], [0.5013750356697255], [-0.5691227071773656], [0.7226708777077453], [0.3590591625186275], [0.897265367140291], [0.9580756044071881], [0.700093361567537]]]}, {"name": "", "score": 21, "weights": [[[0.0011823137420687918, -1.4243109486049124, 0.3912328369824012, 0.22147712665214453, 0.3793237864152065, 0.029858116117655785, 1.2711011964247652, -1.1352872109485102, 0.9577328338389609, 0.04398634390801961], [0.4293021975257616, 1.86611517180765, 1.8511214930346047, 0.5225491809948062, 0.4487237423762335, -0.9856349694100728, 1.7268180731597218, -0.18679978248858953, 2.1750113713514185, 0.7103624245826544], [0.9646357466830277, -1.9312064177608397, -0.34562827933764406, -1.168268885881971, 0.028889280906111946, 0.5950450109889144, -0.5926824904542639, 1.1779625231051838, -1.4197102440519438, -0.5588459958405692], [1.431241337187891, -0.1458087898169045, 0.24040697171690004, -1.5342868904852363, -0.8540706655555728, -0.29856640562414827, -0.33039214250553445, 0.8483788748791035, 0.6302630322244618, 1.9128346381480088], [-0.42957500133201276, -0.45725110958876847, 1.9984417366014267, -0.6692403179389369, 0.1677345464821909, -0.8525389784888805, 0.8721625610585336, -0.6235826621118932, 0.08988041571002456, 0.5087658847672335], [-1.158450302140475, 0.10395254005627622, 1.0801171957208873, -0.19377118254108022, 1.9880768034210539, -0.9424583414239659, 0.06084853899234265, -0.24400393579776156, -0.9931519515894017, 0.9320279134543842], [-0.5388668147536898, 0.2938174987966183, -1.1892115678859836, -1.14458437534293, 1.5493261252430943, 0.8153524129477564, 1.2476891809044568, -1.2099084600484873, 1.9705251559439456, 1.0661819285976402], [0.5364098904360795, -0.16244016716485266, -1.2251206040214746, -2.28857711838002, 0.32742522309554156, 0.14602409044280515, 0.2360978336933548, -1.1101188611845922, 1.5620497142806398, -0.06535049374807231], [-0.7101107685845133, -0.5051390150176654, 0.13526806603228325, -1.2559986921303283, 1.0483872772728489, -0.9650651462033573, -0.6734735910080503, 2.071937820228485, -0.7321165371506645, 0.015136654599109607]], [[-0.3260021623353044, 1.6957064549253202, -0.22887719056939673, 2.2635979523272134, -1.1672390627818343, 0.22605449492732366, -0.8808499057186485, 0.06933123298157388], [0.07494606153391561, 0.7703419782212819, -2.178838063689772, 0.9518199355674417, 0.22478716135862506, 1.031780157467932, 1.275905467354545, -1.5169239410273472], [-0.44017067950260713, -1.8434385278243248, 0.6465331524940549, 0.16240461297757303, -1.6485994401686483, 1.7718584766029881, 0.45503514740426926, 1.6249801900242737], [1.5770292823201093, 0.11949283676173329, -0.07904006076131057, 0.9511691304768166, -0.7482581717128107, 0.837801767388939, -0.6780012816200441, -1.2917809130097702], [0.6531531524050056, -1.4895389856922463, 0.8283177446389357, 1.124347822491067, 1.9373081079934238, 0.04733134985480257, -0.3543616985742512, 1.02858620977841], [0.7213526410886899, 0.168979606513463, 1.4122967738514363, -0.12705120872143325, 1.0899786637485096, 0.4430972818070945, -0.8634079277484794, -0.6979443717795438], [0.2478387536884418, 0.4573392412917795, -0.887710334361689, -1.542746670526152, 1.2187824915224352, -0.808011135259304, -0.9063389225364468, 0.18187109676518956], [-2.192731354509721, -0.5792306196804271, 0.6519194383819282, 0.46281200001616674, 0.8895024344172, -0.6982374613502959, 0.8488457386953819, -1.142707523576752], [-0.4884565966811124, -1.2747657487178305, 0.7977523975388141, -0.36769021450032857, 1.8304119073074163, 0.45908802932676246, -1.12367315512351, 0.2749828023870526], [-0.8470525583586874, -3.0083328598148835, 0.2144031811107488, -1.0188240654043739, 0.5506715232760929, -1.9617558801189412, 1.4903677142207754, 1.1772863816341548]]], "biases": [[[0.26289552114713155], [-0.046663694149627795], [0.22101533727181732], [-0.4096499769631637], [1.03051848915271], [0.8058733878533139], [-1.7876685319340142], [-0.3650012995078106], [0.6685119781008418], [-1.4617799672337042]], [[1.6192759915144368], [0.09124529282018941], [-0.03994860718118882], [-1.6323404340761247], [-1.4069054075755958], [-0.14956912392482968], [0.06222989242314712], [-0.3773861983839694]]]}, {"name": "", "score": 22, "weights": [[[0.0011823137420687918, 0.4010912438503202, 0.14996136978068128, 0.007528245246605389, 0.003467466585767029, 0.029858116117655785, 1.2711011964247652, -0.5348498303313607, -0.7997860240483059, 0.27444167525997976], [-0.635123477231092, 1.86611517180765, 0.07314087615618761, 0.12813294540265086, 0.2524285881895217, -0.9856349694100728, 1.342410922694064, -0.08724313646455588, -0.9564908974688764, 0.7103624245826544], [0.9646357466830277, -0.6655868546826337, -0.16821250605738466, -1.168268885881971, 0.39326413383719283, -1.773113342407576, -0.5926824904542639, 0.0896954468522612, 0.7736611099843932, -0.3643529859157313], [1.3945388082795327, -0.1458087898169045, -0.8957456846269384, -1.5342868904852363, -0.8540706655555728, -0.3988249401566416, -1.0796266218756496, 0.31127652605516154, 0.19630425254827372, -1.004722575613367], [-0.20799233432005002, 1.0297352384310665, 1.9984417366014267, 0.11026668570641344, -1.0883921476335423, -0.8525389784888805, 0.017389354493049868, -0.6235826621118932, 0.8761990874052912, 0.5087658847672335], [0.17101447714479365, 0.5616556811455964, 0.4449483349224423, -0.19377118254108022, -1.0252070576337855, 0.8071766382619315, -0.1534699319417413, 1.2825361355021632, 0.6796509626989721, 0.9320279134543842], [0.34182274079107955, 1.3647151018258512, 0.33066837243066405, -0.7855459884247502, 1.5493261252430943, 0.8997067724965172, -0.15689356475436173, -0.6393071613798753, 1.9705251559439456, 1.1277820918630395], [0.5707695428127056, -0.5904625695186905, 0.4106461370945392, 0.2712601666509733, -0.9521118272160481, 0.7654548377130975, -0.23983782677556587, 1.3994586262183741, -0.4405547564229893, 0.10408272087547757], [1.3805241561671464, -0.4250525664046902, 0.13526806603228325, 0.5640857023554626, -0.19552856063596555, 0.9966144075268888, 1.9079588154216938, 2.071937820228485, -0.20431889223000244, -0.6083006229577059]], [[1.6274204163504489, -1.0904561864089606, -0.22887719056939673, -0.26969415238691574, 1.0987476892926566, 1.5057253557451549, -0.23830063041273808, -0.13820016477875813], [0.1426217337079154, 0.7703419782212819, -2.178838063689772, -0.6178356631174442, -0.8193774431735966, 1.031780157467932, 1.275905467354545, -1.278772587835143], [-0.44017067950260713, -1.8434385278243248, -0.5817888890840441, 0.151756372266227, -1.6485994401686483, -0.11699614831450844, 0.180852988273602, -0.7398480999641402], [-0.40443041753708786, -0.9562507941071291, 0.06059457009015095, 0.9511691304768166, -1.2221912310919594, 0.837801767388939, -0.6780012816200441, -0.1664952840553762], [0.6531531524050056, -1.7401372099339991, 1.784695188891367, 0.10973009090481309, -0.2596319060764818, 0.07412645107933032, 0.04832972551578231, 0.6949348016656429], [0.7391583423753437, -0.2365552436745649, 1.4122967738514363, 0.8579976920904785, 1.0899786637485096, 0.8136588701420924, -0.032654041859389304, -0.02611971941273263], [0.5775417442863473, -1.2352022472365414, -0.887710334361689, -0.34350846629308707, 1.2187824915224352, 2.0552222088853926, 0.7720416171509026, 0.3918354428511154], [-2.192731354509721, -0.7905139994911465, -0.9781960576473321, 0.46281200001616674, 0.8895024344172, -0.6982374613502959, 1.9586474610168711, 0.09854901542186492], [-0.4884565966811124, -0.562225652279343, 0.7977523975388141, -0.36769021450032857, 0.6300015103643676, 0.45908802932676246, -1.7467100891922256, 0.2749828023870526], [-0.18506044481619496, 1.1668911730305889, 0.2144031811107488, -0.9839444741909155, 0.5506715232760929, -0.8117067263817064, 0.1562429447396251, -1.8632881370960344]]], "biases": [[[0.26289552114713155], [-1.1282579599197071], [0.8770487820676128], [-1.4561789712259905], [0.7519236300803829], [-0.34174326252806325], [1.606964789258413], [0.9005569633110401], [1.0178588989384294], [-0.6628730760163252]], [[0.11432428710034025], [-2.6639817453664993], [-0.03994860718118882], [-1.6323404340761247], [-0.8363900489605819], [0.9068750046389771], [0.06222989242314712], [-0.3773861983839694]]]}, {"name": "", "score": 23, "weights": [[[0.6411373696955762, -1.4243109486049124, -0.7685071140826996, 0.22147712665214453, 0.9229419494427876, 0.036127726145874006, 0.7947492248987201, -0.2171892140477504, 0.9577328338389609, 0.04398634390801961], [0.4293021975257616, 0.8262237009017219, 1.8511214930346047, 0.5225491809948062, 1.063773200537403, -1.097486195274499, 1.7268180731597218, -0.18679978248858953, 2.1750113713514185, -0.9733063369056427], [0.06449459223244089, -1.9312064177608397, -0.34562827933764406, -0.05345956947068011, 0.028889280906111946, 0.5950450109889144, -0.04246141843634689, 1.1779625231051838, -1.4197102440519438, -0.5588459958405692], [-0.8872423217440618, -1.5851622828661451, -1.1051913489086933, 0.35703334494994965, 0.4796502575183952, -0.29856640562414827, 0.33832456123104004, 1.4128070331007971, 0.6302630322244618, 1.9128346381480088], [-0.42957500133201276, -0.45725110958876847, 0.6027162641824446, -0.4458727564296782, 0.1677345464821909, 0.08336829058090278, -0.3084554794114458, 0.078679493119237, 0.08988041571002456, 0.9558937158009316], [0.46504483041656436, 0.10395254005627622, 0.5657951461521861, -0.37021623484487626, 0.7678235470535727, 0.5727679180260367, -0.13537588939212578, -0.24400393579776156, -0.9582828537148792, -0.9673422260065848], [-0.5388668147536898, 0.2938174987966183, -1.1892115678859836, -1.14458437534293, -0.8368140981729467, 0.8153524129477564, 1.2476891809044568, -0.44063805140702583, 0.34269680454337703, 1.0661819285976402], [0.5364098904360795, -0.16244016716485266, -1.2251206040214746, -0.49186724226858436, 0.32742522309554156, 0.14602409044280515, 0.2360978336933548, -0.965667727518667, 1.5620497142806398, 1.5569850393791171], [-0.9824558559353684, -0.5051390150176654, -0.4917787887715108, -1.2559986921303283, -0.8824266220679858, -0.9650651462033573, -0.6734735910080503, 2.8474918424325275, -0.7321165371506645, 0.015136654599109607]], [[-0.8590379925959907, 1.6957064549253202, -0.22388151649757082, -0.005740084696158423, 1.539925750677225, -0.06401085858183599, -0.8808499057186485, -1.1020558417669453], [0.07494606153391561, 0.6037001261075231, -0.4585169283028299, -0.733895730514782, 0.22478716135862506, -0.5052030152423669, 0.03292212041775498, -1.5169239410273472], [2.1233466882229726, -0.7941521465566158, 0.6465331524940549, 0.16240461297757303, -0.9871003651580277, -0.9296911555870999, 0.45503514740426926, 1.9819616407456024], [1.5770292823201093, 0.11949283676173329, -0.07904006076131057, 1.0938494665191152, -0.7482581717128107, -1.1725252144518044, -2.074436344073064, -1.2917809130097702], [-2.007696117875946, 0.7271546395102215, 0.8283177446389357, 1.124347822491067, 1.9373081079934238, 0.3297087556544474, -0.3543616985742512, -0.27318465345743925], [0.7213526410886899, -0.4785918455631443, 0.8507863207627478, -0.12705120872143325, 0.13181834218811633, 0.4430972818070945, -0.8634079277484794, -0.6979443717795438], [0.2478387536884418, 0.4573392412917795, 1.9083488697189204, -1.542746670526152, -0.48865411476513365, -0.808011135259304, 0.19451706481459902, 0.18187109676518956], [0.20672481618464697, -0.5792306196804271, -1.8293535576855007, -1.6617367464746726, -0.1124839782672805, 0.6325282495564818, 1.3241796560797225, -1.142707523576752], [0.28107947393666377, 2.309426257639192, -0.5641404382466342, 0.6688356326581794, 1.8304119073074163, 2.18816635549937, -1.12367315512351, 0.0174348609093139], [-0.8470525583586874, -3.0083328598148835, -1.015731645649467, -1.0188240654043739, -0.06747468031996076, -1.9617558801189412, 1.4903677142207754, 0.7753604206322057]]], "biases": [[[0.6212554421224291], [-0.046663694149627795], [0.17360126234540404], [-0.4096499769631637], [1.03051848915271], [0.8058733878533139], [-1.7876685319340142], [-0.3650012995078106], [0.3988459162131135], [-1.4617799672337042]], [[-0.08905986519796434], [0.09124529282018941], [0.5110949863486778], [1.766676912223297], [0.9139859703268671], [-0.14956912392482968], [1.205905272043843], [-0.1372573397159773]]]}, {"name": "", "score": 24, "weights": [[[-0.9681366838438433, -0.4334904392032894, -0.305162951712111, 0.04726517533789165, -1.1560185851281561, -0.3305496514567926, -2.6555258035867517, 1.0656078133703104, -0.7436160093925738, -1.117435151696162], [0.14149226874602328, 1.459014473880908, -0.6889872865850318, -1.4631069130305194, -0.4906297563621428, 0.2870196221214135, 0.14623837356959699, 0.3138832143150321, 0.663377212018103, 0.4809534175686067], [0.6580577865710718, -0.39021600866873535, -1.1994752283158188, -0.3869142096810787, -0.201082967812026, 0.7090695138149434, -0.004614269471945546, -0.5815187329390281, 0.9626161587673356, -0.31520377695179863], [0.1735937486609669, -0.15830770088476664, 0.46202628952133895, -1.1434665951953589, 0.2407580109403962, 0.5627649459727847, -0.004430740119881168, -0.054444835432470334, 0.5320435776879728, 0.6142399744635632], [-0.7029455149119309, 1.9336162506643353, 0.43002620817190645, -0.054047252970520765, -0.9549113981560251, 1.6133201819967111, 0.8306261041066528, 0.6175938543045212, -0.17963808531322295, -0.6906087667258898], [1.0614528611481993, -0.3201299565664451, 0.14557280875167553, 1.4360669743658463, -0.5076159445694679, -0.6374756008828235, -0.9082490525010024, -1.6804399930375964, 0.5472688843755084, -0.9620367469492864], [-0.02131330860721866, 1.3421151054986795, 0.5832476797302284, 0.8476943420141617, -0.23061225403284386, -0.8921235647055845, -0.48284409192007927, 0.22829746962230327, -0.9379051256849624, 0.07903327144505375], [-1.4093232175914479, 0.738254988103158, -0.9802040556714243, 2.164399960846269, -0.7488401386143776, -0.6731982837728939, 0.7604882516314153, 0.27278388883181887, 1.236630412842614, -1.844111164797494], [1.084870632785544, 0.30970517050622476, 0.7374344871464054, 1.397192277704624, 0.40815573794881405, -0.3945800067926953, -0.5339750783231774, 0.7381490639731619, 0.19124918375146446, 0.3173305615386757]], [[-0.08679444356892005, -0.04429092148991559, 1.3732912454531911, -1.2356077258262106, 0.6012440873309566, -0.531867496594825, 0.9144005716366302, 1.6066413535859756], [-0.7791026653198743, 0.3747644288888119, -0.7846127656633654, 0.7261941271116362, -1.127062437159261, -0.3586689146818221, -1.4778801715490157, 0.04650036986911072], [-0.14488135270863478, 1.3889329245164879, 0.5417665119193803, -0.6134740352035098, 1.4880538801289833, 1.5147640614845317, 1.6820121669302837, 0.7217813439537577], [-0.19545887465185333, 0.7552251103271306, 0.2821819326042717, -0.9123532491262765, -0.8242368278299184, 1.103624063925376, -1.3670647636135103, -0.13883035270540112], [0.2810398816783507, 0.15150643763124577, 0.19982759492933794, 0.34255748394194596, 0.5757091978387006, 0.05344466726607283, 1.142098738723446, 1.2401362791794404], [0.16873911462045232, -1.938263380692395, 0.6707524987372554, -0.8590785247974517, 0.6331514731786538, 1.1368445240751508, 0.32015824203179977, 1.1360147380532537], [1.7087306996272835, -0.31012866719210563, -0.633560569096105, -1.6111879243010898, 1.6832067918107494, 0.8550799460937294, -0.22550695626716477, 0.984772037784792], [-0.5934614506080681, -1.934965572746756, 0.8012012993088469, -1.1386022759873373, -0.35681832567032473, 0.514570852736647, -0.6518428272738878, 0.1683137974580554], [0.37489517794553856, 0.08562534524355103, -0.36977457917881495, 0.19350017881444662, -0.2109163439182238, -1.361797908313947, 1.7132089726969928, -0.13803565913098015], [-0.276469099605186, 0.10353235010559829, -0.3352477474450768, 1.2128425762337645, 0.5525905363382522, -1.8894033228565121, -0.9938106563319579, 1.1480057979056524]]], "biases": [[[1.083087174728419], [-1.1150793223786848], [0.44207035625469326], [0.8906955466016704], [-1.679079118318217], [-0.26994124429873556], [0.007342045118306408], [0.20455677232785477], [-0.24706875232853248], [-0.323418979752161]], [[-1.3914348813116246], [-1.1611667842382676], 