{"gen": [{"name": "", "score": 0, "weights": [[[-1.2958020038455176, -0.502077520405745, -0.4537362825695049, 0.48371445244315864, 0.08300582898850138, -0.18319721777508038, -0.9007810652964909, 0.1819443409436702, -0.3597595820529665, 1.7433545871607863], [0.5459073108858162, -0.7725578275231157, 0.8027808572694055, 2.2970389536700924, 0.45989107218586933, 0.3555041513394877, 0.27747956433722926, -0.024978912612988496, 1.0043822910479936, -0.7038357880585507], [-0.9460053331953121, -0.889174582465158, 1.494381289659893, 0.32933752356412527, 1.0143541004941508, -0.43366646822660737, 0.08093291384744312, 0.3482643181880794, 0.44239768689489267, 0.5694628401621376], [1.4436037330529488, -0.8910336320155835, -0.8663097622884679, 0.32917624815124913, 1.3595418256150185, 0.22327509416792604, -0.7106990859049438, -0.18501701692378394, 0.913001291009118, -1.5835595971361436], [0.14551386536894448, -2.4421567119389813, 0.4398545878748044, 0.35944346397728977, 1.8050632604164176, -0.4728572045837238, -1.0238910517519357, -0.22533242039193405, -0.5943031484869755, -3.3324079417803745], [-1.6054769250291825, 0.47029751503661626, 1.5837685716303285, 0.9425513922659747, -1.1275868438907406, 0.23954239435301267, -0.8338732916694835, 0.5564618368711942, -0.33931455336431576, -0.7280203655603649], [1.7022082904072675, -1.9961770977849862, 0.8746977378733262, -0.007778782747512069, -1.2139687243908215, -0.2472015520957471, -0.23719210116234574, -0.9103511178663012, 0.8714115505276981, 1.5306300397807495], [0.18699203049865779, -1.0027960634879725, -0.6120844677969007, 1.003914677567783, -1.6459960655611796, -0.2788656909185642, 2.437413544355611, 0.0838001730111181, 0.4825256534550036, 0.1863310985688021], [0.5114072187719101, 0.2853620236260903, -0.4203884106365731, -0.5354396186654785, -0.7704264259620126, -1.0694709129179971, -1.353728776070441, -0.7574674157165345, -2.1153112758936987, -0.5721355458172285]], [[-0.43224017989949154, 0.009054083654094741, -0.6715656787420597, -2.5682883633924547, 0.16034635684181484, 0.2244564927387385, 1.4345373273333415, 1.220443839076534], [-0.33023579763082106, -1.1850927004259428, -0.8135660196669202, -0.6164868069388703, -0.2810437572814179, 0.617899683602926, 1.2001061385647416, 0.036190726882950684], [0.8546340053400207, -0.4102200172241925, 0.4710442026552592, 0.4431108323941291, -2.486269354553014, 1.3127062387964812, 1.0267560980967332, 0.301656117673966], [0.025213776821911553, -1.2997873558414854, -0.27331232180259013, 2.1790466683766936, -0.5192527955339952, -2.0022641995469956, 1.250029243334532, -0.1023570871223639], [0.6122534646410968, -0.8459421498789061, -1.203175852615795, -0.40888255750590496, -0.8818917181489655, 1.0681361905647644, 0.6592457768869266, 0.8787449165074548], [0.5635208517820004, 0.9004544238425654, 1.4802245683533397, 0.11388759179697931, 0.5328142392126449, 1.512252472550437, 1.2837191912984411, 0.802912187299902], [0.3326129352542235, 0.9381954247016766, -0.408282196362178, -0.47215850577582746, -0.6827981438712806, 0.9357395489085846, 0.08894761555981802, 1.3061212789790924], [-1.3884399736062345, -1.0415586169336288, 0.8849697272945513, -0.6915247604602163, 0.7292657939254029, 0.787126704378203, -0.1740475420305699, -1.9344469876534074], [0.7930015501337576, 0.2924899828133297, 0.18592390023754415, 0.560010078347569, -0.3726151467873572, -0.27991205230246263, 0.3159006670742206, 0.5697942171158071], [-0.23547671028267594, -0.4302251277110676, -1.1933630243507332, 2.164618798890971, 0.6941369326264615, 0.03353225106086615, -0.5925793598725781, -1.4033416282907913]]], "biases": [[[2.013327277115745], [-0.2035003946097353], [0.5188182583346422], [0.48346148529191135], [0.9479907651826487], [0.6744218556724222], [-0.6838176631668871], [1.108369118323045], [-0.5511106853585571], [0.8648444796492331]], [[0.8022238509435865], [0.5069060086149778], [0.7681860728372755], [-0.5134833124349645], [0.029765822564986687], [-0.16744009790673622], [1.5242272212137042], [0.44623896251236944]]]}, {"name": "", "score": 1, "weights": [[[-0.9831895566484828, -0.502077520405745, -0.4537362825695049, 0.48371445244315864, -1.062310315304401, -0.9142559593000072, -0.9007810652964909, 1.3133633369212547, -0.3597595820529665, 1.7433545871607863], [0.5459073108858162, -0.7725578275231157, 0.8027808572694055, 2.2970389536700924, 0.45989107218586933, 0.3555041513394877, 0.27747956433722926, 0.6165113717912586, 1.0043822910479936, -0.7038357880585507], [-0.9460053331953121, -0.889174582465158, 1.494381289659893, 0.7529131823731264, -0.09019771237116618, -0.43366646822660737, 0.08093291384744312, -0.35598252304058137, 0.3000276129531948, 0.5694628401621376], [1.4436037330529488, -0.8910336320155835, -0.8663097622884679, 0.32917624815124913, -0.9407192148729583, 1.5182265766637042, -1.6495720293795302, -0.18501701692378394, 0.913001291009118, -1.2711731035226002], [0.14551386536894448, -2.4421567119389813, 0.571774728857937, 0.35944346397728977, -0.28657794288086097, -0.4728572045837238, -1.0238910517519357, -0.22533242039193405, -0.5943031484869755, -3.3324079417803745], [1.8728943476768647, 0.40165959349569225, 1.5837685716303285, 0.9425513922659747, -1.142702131933487, -0.6131833283664578, -0.8338732916694835, 0.5564618368711942, -0.33931455336431576, -0.7280203655603649], [1.7022082904072675, -1.9961770977849862, 0.45236542364794186, -0.007778782747512069, 0.6235776821816944, -0.2472015520957471, -0.23719210116234574, -0.9103511178663012, -1.1685963272026778, 1.5306300397807495], [0.18699203049865779, -1.0027960634879725, -0.6120844677969007, -1.238685778146371, -1.6459960655611796, -0.2788656909185642, 2.437413544355611, 0.9310500391563252, 0.4825256534550036, 0.1863310985688021], [0.5114072187719101, 0.2853620236260903, -0.4203884106365731, -0.5354396186654785, -0.7704264259620126, -1.0694709129179971, -1.9246263118263862, -0.7574674157165345, -2.1153112758936987, -0.5721355458172285]], [[-0.43224017989949154, 0.009054083654094741, -0.6715656787420597, -2.5682883633924547, 0.16034635684181484, 0.2244564927387385, 0.0877998473447132, 1.220443839076534], [-0.33023579763082106, 1.2732921865989604, -0.8135660196669202, 2.023980700317276, -0.2810437572814179, 0.617899683602926, 0.9286907727889224, 0.036190726882950684], [0.8546340053400207, 1.0145658383975305, 0.4710442026552592, 0.4431108323941291, -2.486269354553014, 1.3127062387964812, 0.9389936330274204, 0.301656117673966], [-0.660873015574114, 0.35742289464280275, -0.27331232180259013, 2.1790466683766936, -0.5192527955339952, -0.5772378786461867, 1.250029243334532, -0.1023570871223639], [0.6122534646410968, 2.1733201525617836, -1.203175852615795, -0.40888255750590496, -0.043852852099541345, 1.0681361905647644, 1.78894480697114, 0.8787449165074548], [0.5635208517820004, 0.9004544238425654, 0.9941121234571035, 0.11388759179697931, -1.0773405787271084, 1.512252472550437, -0.5904588979989686, 0.28760624104220006], [0.3326129352542235, 0.9381954247016766, -0.32594334406378467, 0.08037375395099323, -0.6827981438712806, 0.9357395489085846, 0.08894761555981802, 1.3061212789790924], [-1.3884399736062345, -1.0415586169336288, 2.108441964518952, -0.3367408619582257, 0.7292657939254029, 1.789525454917247, -0.1740475420305699, -0.11017684162735858], [0.7930015501337576, 0.2924899828133297, 0.18592390023754415, 1.9541349872757219, -0.10521915105074399, -0.27991205230246263, 0.3159006670742206, 0.5697942171158071], [-0.23547671028267594, -0.19870957229967706, 0.7994220767817596, 2.164618798890971, 0.6941369326264615, 0.03353225106086615, -0.8345184147387877, -1.4033416282907913]]], "biases": [[[2.013327277115745], [-0.3566945705965894], [0.5188182583346422], [0.48346148529191135], [0.9479907651826487], [0.6744218556724222], [-0.9740206398684081], [1.108369118323045], [-1.1928790098151587], [0.8648444796492331]], [[0.8022238509435865], [0.5069060086149778], [-0.0012162307148925779], [-0.38060471473112734], [0.029765822564986687], [-0.16744009790673622], [1.5242272212137042], [0.44623896251236944]]]}, {"name": "", "score": 2, "weights": [[[-1.2958020038455176, -0.502077520405745, -0.4537362825695049, 0.48371445244315864, 0.08300582898850138, -0.18319721777508038, -0.9007810652964909, 0.1819443409436702, -0.3597595820529665, 1.7433545871607863], [0.5459073108858162, -0.7725578275231157, 0.8027808572694055, 2.2970389536700924, -0.8976876929154266, 0.3555041513394877, 0.27747956433722926, 0.6165113717912586, 1.0043822910479936, -0.7038357880585507], [-0.9460053331953121, -0.889174582465158, 1.494381289659893, 0.7529131823731264, 1.0143541004941508, -0.43366646822660737, 0.08093291384744312, 0.3482643181880794, 0.44239768689489267, 0.5694628401621376], [1.4436037330529488, -0.8910336320155835, -0.8663097622884679, -0.36173711854762314, -0.9407192148729583, 0.22327509416792604, -0.7106990859049438, -0.18501701692378394, 0.913001291009118, -1.2711731035226002], [0.14551386536894448, -2.4421567119389813, 0.571774728857937, 0.35944346397728977, -0.28657794288086097, -0.4728572045837238, -1.0238910517519357, -0.22533242039193405, -0.5943031484869755, -3.3324079417803745], [-1.6054769250291825, 0.40165959349569225, 1.5837685716303285, 0.9425513922659747, -1.1275868438907406, 0.23954239435301267, -1.0615838959228834, -0.13565167435320954, -0.33931455336431576, -0.7280203655603649], [1.1237376659021425, -1.9961770977849862, 0.45236542364794186, -0.007778782747512069, 0.6235776821816944, -0.2472015520957471, -0.23719210116234574, -0.9103511178663012, 0.8714115505276981, 1.5306300397807495], [0.18699203049865779, 0.33788442922276013, -0.6120844677969007, -1.238685778146371, -1.6459960655611796, -0.2788656909185642, 2.437413544355611, 0.0838001730111181, -1.0427064395272148, 0.1863310985688021], [0.5114072187719101, 0.2853620236260903, -0.4203884106365731, 0.43480976857941783, -0.7704264259620126, -1.0694709129179971, -1.9246263118263862, -0.7574674157165345, -2.1153112758936987, -0.5721355458172285]], [[-0.43224017989949154, 0.009054083654094741, -0.6715656787420597, -2.5682883633924547, 0.16034635684181484, 0.2244564927387385, 0.0877998473447132, 1.220443839076534], [-0.33023579763082106, 1.2732921865989604, -0.27262258972226117, -0.6164868069388703, -0.2810437572814179, 0.9981282199590209, 0.9286907727889224, 0.036190726882950684], [0.8546340053400207, -0.4102200172241925, 1.8423816903801398, 0.4431108323941291, -2.486269354553014, 1.3127062387964812, 0.9389936330274204, 0.301656117673966], [-0.660873015574114, 0.35742289464280275, -0.27331232180259013, 2.1790466683766936, -0.5192527955339952, -2.0022641995469956, 1.250029243334532, 0.05523082553483247], [0.6122534646410968, 2.1733201525617836, -1.203175852615795, -0.40888255750590496, -0.043852852099541345, 0.1809084219989347, 1.78894480697114, -0.6953955945832543], [-0.17465569832215183, 0.9004544238425654, 0.9941121234571035, 0.20554371886337924, -1.0773405787271084, 1.512252472550437, 1.2837191912984411, 0.28760624104220006], [0.3326129352542235, 1.1005933287834588, 1.3723556498576381, -0.47215850577582746, -0.6827981438712806, 0.9357395489085846, -1.6760736506330876, 1.3061212789790924], [-1.3884399736062345, -1.0415586169336288, 2.108441964518952, -0.6915247604602163, 0.7292657939254029, 0.787126704378203, 1.0238805716537227, -1.9344469876534074], [0.7930015501337576, -0.9881400044052814, 0.18592390023754415, 0.560010078347569, -0.3726151467873572, -0.27991205230246263, 0.3159006670742206, 0.5697942171158071], [-0.23547671028267594, -0.19870957229967706, 0.7994220767817596, 2.164618798890971, 0.6941369326264615, 0.03353225106086615, -0.8345184147387877, -1.4033416282907913]]], "biases": [[[2.013327277115745], [-0.3566945705965894], [0.9186302205422694], [-1.0130438651330356], [0.9479907651826487], [0.6744218556724222], [-0.6838176631668871], [1.108369118323045], [-1.1928790098151587], [0.8648444796492331]], [[0.8022238509435865], [0.5069060086149778], [-0.0012162307148925779], [-0.5134833124349645], [0.029765822564986687], [-0.16744009790673622], [1.5242272212137042], [0.44623896251236944]]]}, {"name": "", "score": 3, "weights": [[[-0.9831895566484828, -0.502077520405745, -0.4537362825695049, 0.48371445244315864, -1.062310315304401, -0.18319721777508038, -0.9007810652964909, 0.1819443409436702, -0.3597595820529665, 1.7433545871607863], [0.5459073108858162, -0.7725578275231157, 0.8027808572694055, 2.2970389536700924, -0.8976876929154266, 0.3555041513394877, 0.27747956433722926, -0.024978912612988496, 1.0043822910479936, 0.4549210823009738], [-0.9460053331953121, -0.889174582465158, 1.494381289659893, 0.32933752356412527, -0.09019771237116618, -0.43366646822660737, 0.08093291384744312, 0.3482643181880794, 0.44239768689489267, -0.2749864435111218], [1.4436037330529488, -0.8910336320155835, 0.005135963454927429, -0.36173711854762314, 1.3595418256150185, -0.5964949657308404, -1.6495720293795302, -0.18501701692378394, 0.913001291009118, -1.5835595971361436], [0.14551386536894448, 1.5508866934875352, 0.571774728857937, 0.35944346397728977, -0.28657794288086097, -0.4728572045837238, -1.0238910517519357, -0.08765266142137002, -0.5943031484869755, -3.3324079417803745], [-1.6054769250291825, 0.40165959349569225, 1.5837685716303285, 0.9425513922659747, -1.1275868438907406, 0.23954239435301267, -1.0615838959228834, -0.13565167435320954, -0.33931455336431576, -0.7280203655603649], [1.1237376659021425, -1.9961770977849862, 0.45236542364794186, -0.007778782747512069, -1.2139687243908215, -0.2472015520957471, -0.23719210116234574, -0.9103511178663012, -1.1685963272026778, 1.5306300397807495], [0.18699203049865779, -1.0027960634879725, -0.6120844677969007, -1.238685778146371, -1.6459960655611796, -0.2788656909185642, 2.437413544355611, 0.0838001730111181, -1.0427064395272148, 0.1863310985688021], [0.5114072187719101, 0.2853620236260903, -0.4203884106365731, -0.5354396186654785, -0.7704264259620126, -1.0694709129179971, -1.9246263118263862, -0.7574674157165345, -2.1153112758936987, -0.5721355458172285]], [[-0.43224017989949154, 0.009054083654094741, -0.6715656787420597, -2.5682883633924547, 0.16034635684181484, -0.6388696077048123, 1.4345373273333415, 1.220443839076534], [-1.0079644063886055, -1.1850927004259428, -0.27262258972226117, 2.023980700317276, 2.9515457792766044, 0.617899683602926, 0.9286907727889224, 0.036190726882950684], [0.8546340053400207, -0.4102200172241925, 0.4710442026552592, 0.4431108323941291, -2.486269354553014, 1.3127062387964812, 1.0267560980967332, 0.301656117673966], [0.025213776821911553, -1.2997873558414854, -0.27331232180259013, 2.1790466683766936, -0.5192527955339952, -2.0022641995469956, 1.250029243334532, 0.05523082553483247], [0.6122534646410968, 2.1733201525617836, -1.203175852615795, -0.40888255750590496, -0.043852852099541345, 1.0681361905647644, 1.78894480697114, -0.6953955945832543], [0.5635208517820004, 0.8931026138722276, 1.4802245683533397, 0.20554371886337924, 0.5328142392126449, 1.512252472550437, 1.2837191912984411, 0.802912187299902], [0.3326129352542235, 1.1005933287834588, 1.3723556498576381, -0.47215850577582746, -0.6827981438712806, 0.9357395489085846, -1.6760736506330876, 1.3061212789790924], [-0.2809279848434468, -1.0415586169336288, 0.8849697272945513, -0.6915247604602163, 0.7292657939254029, 0.787126704378203, -0.1740475420305699, -1.9344469876534074], [0.7930015501337576, -0.9881400044052814, 0.18592390023754415, 1.9541349872757219, -0.3726151467873572, -0.27991205230246263, 0.3159006670742206, 0.5697942171158071], [-0.23547671028267594, -0.19870957229967706, 0.7994220767817596, 2.164618798890971, 0.6941369326264615, 0.03353225106086615, -0.8345184147387877, -1.4033416282907913]]], "biases": [[[2.013327277115745], [-0.29296533185119733], [0.5188182583346422], [0.48346148529191135], [0.9479907651826487], [0.6744218556724222], [-0.6838176631668871], [1.108369118323045], [-1.1928790098151587], [0.8648444796492331]], [[0.8022238509435865], [0.5069060086149778], [0.7681860728372755], [-0.38060471473112734], [0.029765822564986687], [-0.16744009790673622], [1.5242272212137042], [0.44623896251236944]]]}, {"name": "", "score": 4, "weights": [[[-0.9831895566484828, -0.502077520405745, -0.4537362825695049, 0.48371445244315864, -1.062310315304401, -0.18319721777508038, -0.9007810652964909, 1.3133633369212547, -0.3597595820529665, 1.7433545871607863], [0.5459073108858162, -0.7725578275231157, 0.8027808572694055, 2.2970389536700924, -0.8976876929154266, 0.3555041513394877, 0.27747956433722926, 0.6165113717912586, 1.9608566525659232, -0.7038357880585507], [-0.9460053331953121, -0.889174582465158, 1.494381289659893, 0.32933752356412527, 1.0143541004941508, -0.43366646822660737, 0.08093291384744312, 0.3482643181880794, 0.44239768689489267, 0.5694628401621376], [1.4436037330529488, -0.8910336320155835, 0.005135963454927429, -0.36173711854762314, 1.3595418256150185, 0.22327509416792604, -0.7106990859049438, -0.18501701692378394, 0.913001291009118, -1.2711731035226002], [0.14551386536894448, 1.5508866934875352, 0.4398545878748044, 0.35944346397728977, -0.28657794288086097, -0.4728572045837238, -1.0238910517519357, -0.22533242039193405, -0.5943031484869755, -3.3324079417803745], [1.8728943476768647, 0.47029751503661626, 1.5837685716303285, 0.9425513922659747, -1.1275868438907406, -0.6131833283664578, -0.8338732916694835, 0.7429307223841929, -0.33931455336431576, -0.7280203655603649], [1.7022082904072675, -1.9961770977849862, 0.8746977378733262, -0.007778782747512069, 0.6235776821816944, -0.2472015520957471, -0.23719210116234574, -0.9103511178663012, -1.1685963272026778, 1.5306300397807495], [0.18699203049865779, -1.0027960634879725, -0.6120844677969007, -1.238685778146371, -1.6459960655611796, -0.2788656909185642, 2.437413544355611, 0.0838001730111181, 0.4825256534550036, 0.1863310985688021], [0.5114072187719101, 0.6556601301749668, -0.4203884106365731, -0.5354396186654785, -0.7704264259620126, -1.0694709129179971, -1.353728776070441, -0.557172737674449, -2.1153112758936987, -0.5721355458172285]], [[-0.43224017989949154, 0.009054083654094741, -0.6715656787420597, -2.5682883633924547, 0.16034635684181484, 0.2244564927387385, 0.0877998473447132, 1.220443839076534], [-1.0079644063886055, -1.1850927004259428, -0.8135660196669202, 2.023980700317276, 2.9515457792766044, 0.617899683602926, 0.9286907727889224, 0.036190726882950684], [0.8546340053400207, 1.0145658383975305, 1.8423816903801398, 0.4431108323941291, -2.486269354553014, 1.3127062387964812, 1.0267560980967332, 0.301656117673966], [0.025213776821911553, 0.35742289464280275, -0.27331232180259013, 2.1790466683766936, -0.5192527955339952, -0.5772378786461867, 1.250029243334532, 0.004696944525747822], [0.6122534646410968, 2.1733201525617836, -1.203175852615795, 1.170931622889169, -0.8818917181489655, 1.0681361905647644, 1.78894480697114, -0.6953955945832543], [-0.17465569832215183, 0.9004544238425654, 0.9941121234571035, 0.11388759179697931, -1.0773405787271084, 1.512252472550437, -0.5904588979989686, 0.28760624104220006], [0.3326129352542235, 0.9381954247016766, 1.3723556498576381, -0.47215850577582746, -0.6827981438712806, 0.9357395489085846, -1.6760736506330876, 1.3061212789790924], [-0.2809279848434468, -1.0415586169336288, 0.8849697272945513, -0.3367408619582257, 0.7292657939254029, 1.789525454917247, -0.1740475420305699, -0.11017684162735858], [0.7930015501337576, -0.9881400044052814, -0.6584591634952055, 0.560010078347569, -0.10521915105074399, -0.27991205230246263, 0.3159006670742206, 0.5697942171158071], [-0.23547671028267594, -0.36267307229999723, -1.1933630243507332, 2.164618798890971, 0.6941369326264615, 0.03353225106086615, 1.2059160660923158, -1.4033416282907913]]], "biases": [[[2.013327277115745], [-0.3566945705965894], [0.5188182583346422], [0.48346148529191135], [0.9479907651826487], [0.6744218556724222], [-0.6838176631668871], [1.108369118323045], [-1.1928790098151587], [0.8648444796492331]], [[0.8022238509435865], [0.5069060086149778], [-0.0012162307148925779], [-0.38060471473112734], [0.029765822564986687], [-0.16744009790673622], [0.5739228623034714], [0.44623896251236944]]]}]}